{"learner":{"attributes":{"best_iteration":"117","best_score":"0.25531018363325936"},"feature_names":["area","bedrooms","bathrooms","stories","mainroad","guestroom","basement","hotwaterheating","airconditioning","parking","prefarea","furnish_furnished","furnish_semi-furnished","furnish_unfurnished"],"feature_types":["int","int","int","int","int","int","int","int","int","int","int","i","i","i"],"gradient_booster":{"model":{"cats":{"enc":[],"feature_segments":[],"sorted_idx":[]},"gbtree_model_param":{"num_parallel_tree":"1","num_trees":"168"},"iteration_indptr":[0,1,2,3,4,5,6,7,8,9,10,11,12,13,14,15,16,17,18,19,20,21,22,23,24,25,26,27,28,29,30,31,32,33,34,35,36,37,38,39,40,41,42,43,44,45,46,47,48,49,50,51,52,53,54,55,56,57,58,59,60,61,62,63,64,65,66,67,68,69,70,71,72,73,74,75,76,77,78,79,80,81,82,83,84,85,86,87,88,89,90,91,92,93,94,95,96,97,98,99,100,101,102,103,104,105,106,107,108,109,110,111,112,113,114,115,116,117,118,119,120,121,122,123,124,125,126,127,128,129,130,131,132,133,134,135,136,137,138,139,140,141,142,143,144,145,146,147,148,149,150,151,152,153,154,155,156,157,158,159,160,161,162,163,164,165,166,167,168],"tree_info":[0,0,0,0,0,0,0,0,0,0,0,0,0,0,0,0,0,0,0,0,0,0,0,0,0,0,0,0,0,0,0,0,0,0,0,0,0,0,0,0,0,0,0,0,0,0,0,0,0,0,0,0,0,0,0,0,0,0,0,0,0,0,0,0,0,0,0,0,0,0,0,0,0,0,0,0,0,0,0,0,0,0,0,0,0,0,0,0,0,0,0,0,0,0,0,0,0,0,0,0,0,0,0,0,0,0,0,0,0,0,0,0,0,0,0,0,0,0,0,0,0,0,0,0,0,0,0,0,0,0,0,0,0,0,0,0,0,0,0,0,0,0,0,0,0,0,0,0,0,0,0,0,0,0,0,0,0,0,0,0,0,0,0,0,0,0,0,0],"trees":[{"base_weights":[2.7497245E-7,-1.354639E-1,2.7945435E-1,-4.6587396E-2,-2.845145E-1,1.5600717E-1,4.6845248E-1,-1.5842766E-1,3.9314944E-2,-3.8128743E-1,-1.24861605E-1,5.503726E-2,2.704108E-1,3.4132186E-1,5.467156E-1,-2.0224927E-1,6.184101E-3,-1.0447056E-1,9.744699E-2,-4.3130827E-1,-1.7579326E-1,-1.7950808E-1,1.3665521E-1,-1.757607E-2,3.3272552E-1,4.7723293E-2,3.148546E-1,2.175902E-2,1.908363E-1,4.2876243E-3,2.7922047E-2,-1.6162386E-2,-7.7591063E-3,-1.0162364E-2,4.026965E-3,-7.385332E-3,5.4793356E-5,1.8694291E-3,9.67469E-3,-2.212024E-2,-4.7599794E-3,-1.014156E-2,-2.5365592E-3,-1.2453309E-2,6.104382E-5,1.0797707E-2,-3.3747198E-3,2.3189082E-3,-1.3559801E-2,1.9300783E-2,3.9855004E-3,-2.8111648E-3,8.286285E-3,1.1390684E-2,2.1146318E-2,1.1099152E-2,-3.0157806E-3],"categories":[],"categories_nodes":[],"categories_segments":[],"categories_sizes":[],"default_left":[0,0,0,0,0,0,0,0,0,0,0,0,0,0,0,0,0,0,0,0,0,0,0,0,0,0,0,0,0,0,0,0,0,0,0,0,0,0,0,0,0,0,0,0,0,0,0,0,0,0,0,0,0,0,0,0,0],"id":0,"left_children":[1,3,5,7,9,11,13,15,17,19,21,23,25,27,29,31,33,35,37,39,41,43,45,47,49,51,53,-1,55,-1,-1,-1,-1,-1,-1,-1,-1,-1,-1,-1,-1,-1,-1,-1,-1,-1,-1,-1,-1,-1,-1,-1,-1,-1,-1,-1,-1],"loss_changes":[1.6580935E1,3.8946385E0,3.2632914E0,1.7931937E0,1.6519003E0,1.0016336E0,3.70574E-1,5.8554864E-1,8.961863E-1,6.231499E-1,6.390425E-1,9.7371364E-1,3.9075446E-1,2.5593615E-1,1.3047504E-1,3.1432104E-1,2.9667094E-1,1.4165449E-1,4.311651E-1,1.5928364E-1,4.043138E-2,4.5286584E-1,1.4408647E-1,6.4516026E-1,1.04063034E-1,1.0744523E-1,2.2347808E-1,0E0,9.94373E-2,0E0,0E0,0E0,0E0,0E0,0E0,0E0,0E0,0E0,0E0,0E0,0E0,0E0,0E0,0E0,0E0,0E0,0E0,0E0,0E0,0E0,0E0,0E0,0E0,0E0,0E0,0E0,0E0],"parents":[2147483647,0,0,1,1,2,2,3,3,4,4,5,5,6,6,7,7,8,8,9,9,10,10,11,11,12,12,13,13,14,14,15,15,16,16,17,17,18,18,19,19,20,20,21,21,22,22,23,23,24,24,25,25,26,26,28,28],"right_children":[2,4,6,8,10,12,14,16,18,20,22,24,26,28,30,32,34,36,38,40,42,44,46,48,50,52,54,-1,56,-1,-1,-1,-1,-1,-1,-1,-1,-1,-1,-1,-1,-1,-1,-1,-1,-1,-1,-1,-1,-1,-1,-1,-1,-1,-1,-1,-1],"split_conditions":[6E3,1E0,2E0,3.7E3,4.046E3,1E0,1E0,2E0,3E0,1E0,3E0,3E0,6.4E3,1E0,1E0,1E0,3E0,1E0,1E0,1E0,1E0,1E0,4E0,1E0,4E0,1E0,1E0,2.175902E-2,3E0,4.2876243E-3,2.7922047E-2,-1.6162386E-2,-7.7591063E-3,-1.0162364E-2,4.026965E-3,-7.385332E-3,5.4793356E-5,1.8694291E-3,9.67469E-3,-2.212024E-2,-4.7599794E-3,-1.014156E-2,-2.5365592E-3,-1.2453309E-2,6.104382E-5,1.0797707E-2,-3.3747198E-3,2.3189082E-3,-1.3559801E-2,1.9300783E-2,3.9855004E-3,-2.8111648E-3,8.286285E-3,1.1390684E-2,2.1146318E-2,1.1099152E-2,-3.0157806E-3],"split_indices":[0,13,2,0,0,6,8,2,1,6,3,3,0,6,4,4,1,6,8,10,5,6,1,13,1,10,11,0,9,0,0,0,0,0,0,0,0,0,0,0,0,0,0,0,0,0,0,0,0,0,0,0,0,0,0,0,0],"split_type":[0,0,0,0,0,0,0,0,0,0,0,0,0,0,0,0,0,0,0,0,0,0,0,0,0,0,0,0,0,0,0,0,0,0,0,0,0,0,0,0,0,0,0,0,0,0,0,0,0,0,0,0,0,0,0,0,0],"sum_hessian":[4.36E2,2.94E2,1.42E2,1.85E2,1.09E2,8.7E1,5.5E1,8E1,1.05E2,6.7E1,4.2E1,4.7E1,4E1,2.3E1,3.2E1,6.3E1,1.7E1,3E1,7.5E1,5.3E1,1.4E1,3.5E1,7E0,3.8E1,9E0,7E0,3.3E1,1.3E1,1E1,1E0,3.1E1,1.6E1,4.7E1,4E0,1.3E1,2.1E1,9E0,4.7E1,2.8E1,5.1E1,2E0,1.1E1,3E0,2.5E1,1E1,5E0,2E0,3.1E1,7E0,7E0,2E0,4E0,3E0,2E1,1.3E1,9E0,1E0],"tree_param":{"num_deleted":"0","num_feature":"14","num_nodes":"57","size_leaf_vector":"1"}},{"base_weights":[9.575152E-5,-1.2892926E-1,2.6626557E-1,-4.4397023E-2,-2.706935E-1,1.4877543E-1,4.4613817E-1,-1.508775E-1,3.738898E-2,-3.6280465E-1,-1.1873418E-1,5.253605E-2,2.5781724E-1,3.254993E-1,5.203562E-1,-1.9251071E-1,5.5337483E-3,-1.00075975E-2,2.0886393E-1,-4.102404E-1,-1.678489E-1,-1.7087705E-1,1.3075054E-1,-1.6985917E-2,3.1841812E-1,4.602158E-2,3.0006865E-1,4.00472E-1,1.5604793E-1,4.1804314E-3,5.313918E-1,-1.5401827E-2,-7.379234E-3,-9.755869E-3,3.8399796E-3,-5.4492014E-3,2.2080753E-3,3.154869E-3,1.4903202E-2,-2.1035483E-2,-4.60132E-3,-9.398706E-3,-1.2344996E-3,-1.1854603E-2,5.8269503E-5,1.03478115E-2,-3.2622179E-3,2.2065656E-3,-1.296658E-2,1.8456388E-2,3.8526535E-3,-2.6987076E-3,7.975543E-3,1.0848271E-2,2.0164503E-2,1.3359404E-2,2.3722485E-2,1.1348502E-2,5.3263904E-4,1.8798118E-2,2.879329E-2],"categories":[],"categories_nodes":[],"categories_segments":[],"categories_sizes":[],"default_left":[0,0,0,0,0,0,0,0,0,0,0,0,0,0,0,0,0,0,0,0,0,0,0,0,0,0,0,0,0,0,0,0,0,0,0,0,0,0,0,0,0,0,0,0,0,0,0,0,0,0,0,0,0,0,0,0,0,0,0,0,0],"id":1,"left_children":[1,3,5,7,9,11,13,15,17,19,21,23,25,27,29,31,33,35,37,39,41,43,45,47,49,51,53,55,57,-1,59,-1,-1,-1,-1,-1,-1,-1,-1,-1,-1,-1,-1,-1,-1,-1,-1,-1,-1,-1,-1,-1,-1,-1,-1,-1,-1,-1,-1,-1,-1],"loss_changes":[1.504203E1,3.5231586E0,2.9556818E0,1.6254432E0,1.4966087E0,9.0993774E-1,3.3202553E-1,5.285293E-1,8.6358666E-1,5.5999756E-1,5.817229E-1,8.926715E-1,3.5308552E-1,2.4240875E-1,1.1462307E-1,2.8670597E-1,2.7237725E-1,4.5517588E-1,2.8024805E-1,1.411829E-1,3.857547E-2,4.103806E-1,1.3299012E-1,5.890929E-1,9.3952894E-2,9.9397E-2,2.041533E-1,3.0993223E-2,9.03877E-2,0E0,4.6987534E-3,0E0,0E0,0E0,0E0,0E0,0E0,0E0,0E0,0E0,0E0,0E0,0E0,0E0,0E0,0E0,0E0,0E0,0E0,0E0,0E0,0E0,0E0,0E0,0E0,0E0,0E0,0E0,0E0,0E0,0E0],"parents":[2147483647,0,0,1,1,2,2,3,3,4,4,5,5,6,6,7,7,8,8,9,9,10,10,11,11,12,12,13,13,14,14,15,15,16,16,17,17,18,18,19,19,20,20,21,21,22,22,23,23,24,24,25,25,26,26,27,27,28,28,30,30],"right_children":[2,4,6,8,10,12,14,16,18,20,22,24,26,28,30,32,34,36,38,40,42,44,46,48,50,52,54,56,58,-1,60,-1,-1,-1,-1,-1,-1,-1,-1,-1,-1,-1,-1,-1,-1,-1,-1,-1,-1,-1,-1,-1,-1,-1,-1,-1,-1,-1,-1,-1,-1],"split_conditions":[6E3,1E0,2E0,3.7E3,4.046E3,1E0,1E0,2E0,2E0,1E0,3E0,3E0,6.4E3,1E0,1E0,1E0,3E0,3E0,4.52E3,1E0,1E0,1E0,4E0,1E0,4E0,1E0,1E0,7.35E3,6.75E3,4.1804314E-3,1E0,-1.5401827E-2,-7.379234E-3,-9.755869E-3,3.8399796E-3,-5.4492014E-3,2.2080753E-3,3.154869E-3,1.4903202E-2,-2.1035483E-2,-4.60132E-3,-9.398706E-3,-1.2344996E-3,-1.1854603E-2,5.8269503E-5,1.03478115E-2,-3.2622179E-3,2.2065656E-3,-1.296658E-2,1.8456388E-2,3.8526535E-3,-2.6987076E-3,7.975543E-3,1.0848271E-2,2.0164503E-2,1.3359404E-2,2.3722485E-2,1.1348502E-2,5.3263904E-4,1.8798118E-2,2.879329E-2],"split_indices":[0,13,2,0,0,6,8,2,2,6,3,3,0,5,4,4,1,1,0,10,8,6,1,13,1,10,11,0,0,0,9,0,0,0,0,0,0,0,0,0,0,0,0,0,0,0,0,0,0,0,0,0,0,0,0,0,0,0,0,0,0],"split_type":[0,0,0,0,0,0,0,0,0,0,0,0,0,0,0,0,0,0,0,0,0,0,0,0,0,0,0,0,0,0,0,0,0,0,0,0,0,0,0,0,0,0,0,0,0,0,0,0,0,0,0,0,0,0,0,0,0,0,0,0,0],"sum_hessian":[4.36E2,2.94E2,1.42E2,1.85E2,1.09E2,8.7E1,5.5E1,8E1,1.05E2,6.7E1,4.2E1,4.7E1,4E1,2.3E1,3.2E1,6.3E1,1.7E1,8.3E1,2.2E1,5.3E1,1.4E1,3.5E1,7E0,3.8E1,9E0,7E0,3.3E1,1.5E1,8E0,1E0,3.1E1,1.6E1,4.7E1,4E0,1.3E1,2.9E1,5.4E1,9E0,1.3E1,5.1E1,2E0,1.2E1,2E0,2.5E1,1E1,5E0,2E0,3.1E1,7E0,7E0,2E0,4E0,3E0,2E1,1.3E1,7E0,8E0,5E0,3E0,9E0,2.2E1],"tree_param":{"num_deleted":"0","num_feature":"14","num_nodes":"61","size_leaf_vector":"1"}},{"base_weights":[3.0541146E-4,-1.2266874E-1,2.5399122E-1,-4.2251624E-2,-2.575316E-1,1.4188021E-1,4.2563012E-1,-1.436878E-1,3.565953E-2,-3.4519807E-1,-1.12907186E-1,5.014962E-2,2.4581163E-1,3.112644E-1,4.959073E-1,-1.832409E-1,4.928112E-3,-9.545565E-3,1.9920598E-1,-3.9020342E-1,-1.601656E-1,-1.6266115E-1,1.2509906E-1,-1.6412783E-2,3.0472803E-1,4.4380188E-2,2.859775E-1,3.8276607E-1,1.4956538E-1,4.075933E-3,5.063095E-1,-1.2727076E-2,-5.8445316E-3,-9.365626E-3,3.6616735E-3,-5.1858188E-3,2.0996945E-3,3.0129051E-3,1.4211274E-2,-2.000395E-2,-4.447937E-3,-9.280003E-3,-2.191043E-3,-1.128469E-2,5.562522E-5,9.916672E-3,-3.1534673E-3,2.0996735E-3,-1.239931E-2,1.7648919E-2,3.7242253E-3,-2.5907517E-3,7.6764585E-3,1.0331697E-2,1.9228294E-2,1.2774944E-2,2.2668144E-2,1.0875639E-2,5.126476E-4,1.7952213E-2,2.741622E-2],"categories":[],"categories_nodes":[],"categories_segments":[],"categories_sizes":[],"default_left":[0,0,0,0,0,0,0,0,0,0,0,0,0,0,0,0,0,0,0,0,0,0,0,0,0,0,0,0,0,0,0,0,0,0,0,0,0,0,0,0,0,0,0,0,0,0,0,0,0,0,0,0,0,0,0,0,0,0,0,0,0],"id":2,"left_children":[1,3,5,7,9,11,13,15,17,19,21,23,25,27,29,31,33,35,37,39,41,43,45,47,49,51,53,55,57,-1,59,-1,-1,-1,-1,-1,-1,-1,-1,-1,-1,-1,-1,-1,-1,-1,-1,-1,-1,-1,-1,-1,-1,-1,-1,-1,-1,-1,-1,-1,-1],"loss_changes":[1.3664157E1,3.188478E0,2.6913042E0,1.4750836E0,1.3556824E0,8.266374E-1,2.9573154E-1,4.770391E-1,7.855736E-1,5.037699E-1,5.2954423E-1,8.1837827E-1,3.1902552E-1,2.2023344E-1,1.0097408E-1,2.730186E-1,2.500767E-1,4.1205043E-1,2.5457853E-1,1.2505722E-1,3.6254287E-2,3.7188226E-1,1.2275189E-1,5.379019E-1,8.480179E-2,9.1951996E-2,1.8649578E-1,2.7920961E-2,8.296308E-2,0E0,1.121521E-3,0E0,0E0,0E0,0E0,0E0,0E0,0E0,0E0,0E0,0E0,0E0,0E0,0E0,0E0,0E0,0E0,0E0,0E0,0E0,0E0,0E0,0E0,0E0,0E0,0E0,0E0,0E0,0E0,0E0,0E0],"parents":[2147483647,0,0,1,1,2,2,3,3,4,4,5,5,6,6,7,7,8,8,9,9,10,10,11,11,12,12,13,13,14,14,15,15,16,16,17,17,18,18,19,19,20,20,21,21,22,22,23,23,24,24,25,25,26,26,27,27,28,28,30,30],"right_children":[2,4,6,8,10,12,14,16,18,20,22,24,26,28,30,32,34,36,38,40,42,44,46,48,50,52,54,56,58,-1,60,-1,-1,-1,-1,-1,-1,-1,-1,-1,-1,-1,-1,-1,-1,-1,-1,-1,-1,-1,-1,-1,-1,-1,-1,-1,-1,-1,-1,-1,-1],"split_conditions":[6E3,1E0,2E0,3.7E3,4.046E3,1E0,1E0,2E0,2E0,1E0,3E0,3E0,6.4E3,1E0,1E0,3.162E3,3E0,3E0,4.52E3,1E0,1E0,1E0,4E0,1E0,4E0,1E0,1E0,7.35E3,6.75E3,4.075933E-3,1E0,-1.2727076E-2,-5.8445316E-3,-9.365626E-3,3.6616735E-3,-5.1858188E-3,2.0996945E-3,3.0129051E-3,1.4211274E-2,-2.000395E-2,-4.447937E-3,-9.280003E-3,-2.191043E-3,-1.128469E-2,5.562522E-5,9.916672E-3,-3.1534673E-3,2.0996735E-3,-1.239931E-2,1.7648919E-2,3.7242253E-3,-2.5907517E-3,7.6764585E-3,1.0331697E-2,1.9228294E-2,1.2774944E-2,2.2668144E-2,1.0875639E-2,5.126476E-4,1.7952213E-2,2.741622E-2],"split_indices":[0,13,2,0,0,6,8,2,2,6,3,3,0,5,4,0,1,1,0,10,5,6,1,13,1,10,11,0,0,0,9,0,0,0,0,0,0,0,0,0,0,0,0,0,0,0,0,0,0,0,0,0,0,0,0,0,0,0,0,0,0],"split_type":[0,0,0,0,0,0,0,0,0,0,0,0,0,0,0,0,0,0,0,0,0,0,0,0,0,0,0,0,0,0,0,0,0,0,0,0,0,0,0,0,0,0,0,0,0,0,0,0,0,0,0,0,0,0,0,0,0,0,0,0,0],"sum_hessian":[4.36E2,2.94E2,1.42E2,1.85E2,1.09E2,8.7E1,5.5E1,8E1,1.05E2,6.7E1,4.2E1,4.7E1,4E1,2.3E1,3.2E1,6.3E1,1.7E1,8.3E1,2.2E1,5.3E1,1.4E1,3.5E1,7E0,3.8E1,9E0,7E0,3.3E1,1.5E1,8E0,1E0,3.1E1,2.9E1,3.4E1,4E0,1.3E1,2.9E1,5.4E1,9E0,1.3E1,5.1E1,2E0,1.1E1,3E0,2.5E1,1E1,5E0,2E0,3.1E1,7E0,7E0,2E0,4E0,3E0,2E1,1.3E1,7E0,8E0,5E0,3E0,9E0,2.2E1],"tree_param":{"num_deleted":"0","num_feature":"14","num_nodes":"61","size_leaf_vector":"1"}},{"base_weights":[4.99422E-4,-1.16706625E-1,2.4228463E-1,-4.0193748E-2,-2.4502197E-1,1.3530566E-1,4.060679E-1,-8.996623E-2,1.08919896E-1,-3.336598E-1,-1.14446305E-1,4.7872722E-2,2.3436601E-1,2.9765263E-1,4.726103E-1,-2.3735271E-1,-4.9321536E-2,3.522694E-2,2.4949831E-1,-3.802756E-1,-1.5292199E-1,-1.7120937E-1,8.172789E-2,-1.5856424E-2,2.9162914E-1,1.8815495E-1,4.319405E-1,1.9056933E-2,1.6433837E-1,3.9740326E-3,2.4120592E-2,-1.299942E-2,-1.2611867E-3,-7.2632036E-3,4.4742925E-4,-3.5146568E-5,8.182417E-3,7.037826E-3,1.8460056E-2,-1.9526608E-2,-4.2996723E-3,-8.8810325E-3,-2.0297766E-3,-1.0618277E-2,6.3216016E-3,7.9526304E-4,9.647059E-3,1.9979551E-3,-1.1856824E-2,1.6876787E-2,3.6000889E-3,1.2900488E-4,1.1323039E-2,2.4794197E-2,1.206994E-3,9.63192E-3,-2.9665472E-3],"categories":[],"categories_nodes":[],"categories_segments":[],"categories_sizes":[],"default_left":[0,0,0,0,0,0,0,0,0,0,0,0,0,0,0,0,0,0,0,0,0,0,0,0,0,0,0,0,0,0,0,0,0,0,0,0,0,0,0,0,0,0,0,0,0,0,0,0,0,0,0,0,0,0,0,0,0],"id":3,"left_children":[1,3,5,7,9,11,13,15,17,19,21,23,25,27,29,31,33,35,37,39,41,43,45,47,49,51,53,-1,55,-1,-1,-1,-1,-1,-1,-1,-1,-1,-1,-1,-1,-1,-1,-1,-1,-1,-1,-1,-1,-1,-1,-1,-1,-1,-1,-1,-1],"loss_changes":[1.2412283E1,2.8863955E0,2.450611E0,1.3902458E0,1.2349477E0,7.5096035E-1,2.6332283E-1,8.2696044E-1,4.78114E-1,4.894886E-1,5.262232E-1,7.5027484E-1,2.9306364E-1,2.044816E-1,8.881569E-2,1.3749266E-1,6.218547E-1,1.4776829E-1,1.5629971E-1,1.2035084E-1,3.440407E-2,4.6784186E-1,7.745508E-2,4.9115944E-1,7.6520264E-2,2.4821663E-1,1.7056274E-1,0E0,8.105773E-2,0E0,0E0,0E0,0E0,0E0,0E0,0E0,0E0,0E0,0E0,0E0,0E0,0E0,0E0,0E0,0E0,0E0,0E0,0E0,0E0,0E0,0E0,0E0,0E0,0E0,0E0,0E0,0E0],"parents":[2147483647,0,0,1,1,2,2,3,3,4,4,5,5,6,6,7,7,8,8,9,9,10,10,11,11,12,12,13,13,14,14,15,15,16,16,17,17,18,18,19,19,20,20,21,21,22,22,23,23,24,24,25,25,26,26,28,28],"right_children":[2,4,6,8,10,12,14,16,18,20,22,24,26,28,30,32,34,36,38,40,42,44,46,48,50,52,54,-1,56,-1,-1,-1,-1,-1,-1,-1,-1,-1,-1,-1,-1,-1,-1,-1,-1,-1,-1,-1,-1,-1,-1,-1,-1,-1,-1,-1,-1],"split_conditions":[6E3,1E0,2E0,1E0,4.032E3,1E0,1E0,3.162E3,4.8E3,1E0,1E0,3E0,4E0,1E0,1E0,4E0,3E0,1E0,2E0,1E0,3.46E3,2E0,3E0,1E0,4E0,6.4E3,4E0,1.9056933E-2,3E0,3.9740326E-3,2.4120592E-2,-1.299942E-2,-1.2611867E-3,-7.2632036E-3,4.4742925E-4,-3.5146568E-5,8.182417E-3,7.037826E-3,1.8460056E-2,-1.9526608E-2,-4.2996723E-3,-8.8810325E-3,-2.0297766E-3,-1.0618277E-2,6.3216016E-3,7.9526304E-4,9.647059E-3,1.9979551E-3,-1.1856824E-2,1.6876787E-2,3.6000889E-3,1.2900488E-4,1.1323039E-2,2.4794197E-2,1.206994E-3,9.63192E-3,-2.9665472E-3],"split_indices":[0,13,2,8,0,6,8,0,0,6,8,3,1,6,4,1,1,5,2,10,0,2,3,13,1,0,3,0,9,0,0,0,0,0,0,0,0,0,0,0,0,0,0,0,0,0,0,0,0,0,0,0,0,0,0,0,0],"split_type":[0,0,0,0,0,0,0,0,0,0,0,0,0,0,0,0,0,0,0,0,0,0,0,0,0,0,0,0,0,0,0,0,0,0,0,0,0,0,0,0,0,0,0,0,0,0,0,0,0,0,0,0,0,0,0,0,0],"sum_hessian":[4.36E2,2.94E2,1.42E2,1.85E2,1.09E2,8.7E1,5.5E1,1.39E2,4.6E1,6.4E1,4.5E1,4.7E1,4E1,2.3E1,3.2E1,2.9E1,1.1E2,3.1E1,1.5E1,5E1,1.4E1,3.5E1,1E1,3.8E1,9E0,3.4E1,6E0,1.3E1,1E1,1E0,3.1E1,2.6E1,3E0,4.1E1,6.9E1,2.5E1,6E0,9E0,6E0,4.8E1,2E0,1.1E1,3E0,3.1E1,4E0,7E0,3E0,3.1E1,7E0,7E0,2E0,6E0,2.8E1,5E0,1E0,9E0,1E0],"tree_param":{"num_deleted":"0","num_feature":"14","num_nodes":"57","size_leaf_vector":"1"}},{"base_weights":[6.709328E-4,-1.2527072E-1,2.050393E-1,-4.8802115E-2,-2.55544E-1,1.0516271E-1,3.7248895E-1,-2.1215487E-1,-1.1383036E-2,-3.107784E-1,-6.7686E-2,3.1605538E-2,2.3071976E-1,2.6540086E-1,4.4245812E-1,-3.575896E-1,-1.5712956E-1,-1.23436294E-1,4.0717784E-2,-3.3428842E-1,2.3138046E-2,-1.3970773E-1,9.382093E-2,-6.070037E-2,1.8304971E-1,2.0920682E-1,1.8332815E-2,1.8172132E-2,1.4840187E-1,2.989006E-1,2.4683371E-2,-2.124874E-2,-5.181138E-3,-8.879102E-3,-2.6792288E-4,-7.184462E-3,1.6078076E-3,1.0184724E-3,1.7296966E-2,-1.7896963E-2,-3.1769753E-3,5.569458E-3,-1.0452938E-2,-8.474004E-3,-2.8439204E-3,7.758093E-3,-8.38914E-3,-5.0132982E-3,4.9955156E-3,5.9788376E-3,1.5545839E-2,1.1389417E-2,5.784899E-3,8.435851E-3,-2.892375E-3,3.8746835E-3,1.5599181E-2],"categories":[],"categories_nodes":[],"categories_segments":[],"categories_sizes":[],"default_left":[0,0,0,0,0,0,0,0,0,0,0,0,0,0,0,0,0,0,0,0,0,0,0,0,0,0,0,0,0,0,0,0,0,0,0,0,0,0,0,0,0,0,0,0,0,0,0,0,0,0,0,0,0,0,0,0,0],"id":4,"left_children":[1,3,5,7,9,11,13,15,17,19,21,23,25,27,29,31,33,35,37,39,41,43,45,47,49,51,-1,-1,53,55,-1,-1,-1,-1,-1,-1,-1,-1,-1,-1,-1,-1,-1,-1,-1,-1,-1,-1,-1,-1,-1,-1,-1,-1,-1,-1,-1],"loss_changes":[1.1273405E1,2.687181E0,2.7537866E0,1.0489367E0,1.0165873E0,9.716841E-1,3.4712887E-1,1.9989502E-1,8.281935E-1,6.122141E-1,2.9227573E-1,9.616963E-1,3.7344217E-2,2.557758E-1,1.1709595E-1,9.2871666E-2,7.665086E-2,1.4642483E-1,5.9539616E-1,4.38303E-1,1.4623664E-1,3.228262E-2,1.5440962E-1,2.832679E-1,1.7384022E-1,3.619671E-2,0E0,0E0,6.8419665E-2,1.05832815E-2,0E0,0E0,0E0,0E0,0E0,0E0,0E0,0E0,0E0,0E0,0E0,0E0,0E0,0E0,0E0,0E0,0E0,0E0,0E0,0E0,0E0,0E0,0E0,0E0,0E0,0E0,0E0],"parents":[2147483647,0,0,1,1,2,2,3,3,4,4,5,5,6,6,7,7,8,8,9,9,10,10,11,11,12,12,13,13,14,14,15,15,16,16,17,17,18,18,19,19,20,20,21,21,22,22,23,23,24,24,25,25,28,28,29,29],"right_children":[2,4,6,8,10,12,14,16,18,20,22,24,26,28,30,32,34,36,38,40,42,44,46,48,50,52,-1,-1,54,56,-1,-1,-1,-1,-1,-1,-1,-1,-1,-1,-1,-1,-1,-1,-1,-1,-1,-1,-1,-1,-1,-1,-1,-1,-1,-1,-1],"split_conditions":[5.5E3,1E0,2E0,3.15E3,1E0,1E0,1E0,2E0,3E0,3E0,4.12E3,1E0,4E0,1E0,1E0,1E0,2E0,4.632E3,1E0,2E0,4.815E3,3.46E3,5.15E3,8.5E3,1E0,9.166E3,1.8332815E-2,1.8172132E-2,3E0,1E0,2.4683371E-2,-2.124874E-2,-5.181138E-3,-8.879102E-3,-2.6792288E-4,-7.184462E-3,1.6078076E-3,1.0184724E-3,1.7296966E-2,-1.7896963E-2,-3.1769753E-3,5.569458E-3,-1.0452938E-2,-8.474004E-3,-2.8439204E-3,7.758093E-3,-8.38914E-3,-5.0132982E-3,4.9955156E-3,5.9788376E-3,1.5545839E-2,1.1389417E-2,5.784899E-3,8.435851E-3,-2.892375E-3,3.8746835E-3,1.5599181E-2],"split_indices":[0,13,2,0,6,10,8,3,1,3,0,8,1,6,9,10,2,0,7,9,0,0,0,0,5,0,0,0,9,4,0,0,0,0,0,0,0,0,0,0,0,0,0,0,0,0,0,0,0,0,0,0,0,0,0,0,0],"split_type":[0,0,0,0,0,0,0,0,0,0,0,0,0,0,0,0,0,0,0,0,0,0,0,0,0,0,0,0,0,0,0,0,0,0,0,0,0,0,0,0,0,0,0,0,0,0,0,0,0,0,0,0,0,0,0,0,0],"sum_hessian":[4.36E2,2.7E2,1.66E2,1.71E2,9.9E1,1.05E2,6.1E1,3.1E1,1.4E2,7.6E1,2.3E1,6.7E1,3.8E1,2.6E1,3.5E1,7E0,2.4E1,4.4E1,9.6E1,7.1E1,5E0,1.6E1,7E0,4.2E1,2.5E1,3.5E1,3E0,1.3E1,1.3E1,1.1E1,2.4E1,5E0,2E0,2.1E1,3E0,3.9E1,5E0,9.1E1,5E0,6.5E1,6E0,4E0,1E0,1.1E1,5E0,6E0,1E0,3.4E1,8E0,1.8E1,7E0,2.8E1,7E0,1.2E1,1E0,1E0,1E1],"tree_param":{"num_deleted":"0","num_feature":"14","num_nodes":"57","size_leaf_vector":"1"}},{"base_weights":[7.840709E-4,-1.0577265E-1,2.205984E-1,-3.6401108E-2,-2.2211204E-1,1.2369892E-1,3.6892974E-1,-8.2806855E-2,1.02603264E-1,-3.0321977E-1,-1.0267482E-1,5.2039094E-2,2.3072553E-1,2.7095518E-1,4.2900428E-1,-2.3808205E-1,-4.862852E-2,3.4726977E-2,2.3194313E-1,-3.4550938E-1,-1.3922037E-1,-1.4451663E-1,1.14138365E-1,-4.3924958E-2,1.8329172E-1,1.7321523E-1,3.26519E-1,3.357309E-1,1.2569216E-1,2.9295558E-1,2.3770936E-2,-1.27803935E-2,4.563451E-3,-6.712798E-3,-8.974577E-5,4.0252395E-5,7.788086E-3,6.4544203E-3,1.7287185E-2,-1.77387E-2,-3.9508822E-3,-7.934171E-3,-4.236857E-4,-9.754755E-3,9.8224125E-5,9.075133E-3,-2.9318174E-3,-4.718393E-3,4.7735004E-3,1.001062E-2,-4.7240737E-3,6.3915583E-3,1.4403112E-2,6.9746687E-3,2.0129759E-2,1.0946542E-2,2.0112488E-2,9.350284E-3,1.149416E-4,3.7778139E-3,1.5356994E-2],"categories":[],"categories_nodes":[],"categories_segments":[],"categories_sizes":[],"default_left":[0,0,0,0,0,0,0,0,0,0,0,0,0,0,0,0,0,0,0,0,0,0,0,0,0,0,0,0,0,0,0,0,0,0,0,0,0,0,0,0,0,0,0,0,0,0,0,0,0,0,0,0,0,0,0,0,0,0,0,0,0],"id":5,"left_children":[1,3,5,7,9,11,13,15,17,19,21,23,25,27,29,31,33,35,37,39,41,43,45,47,49,51,53,55,57,59,-1,-1,-1,-1,-1,-1,-1,-1,-1,-1,-1,-1,-1,-1,-1,-1,-1,-1,-1,-1,-1,-1,-1,-1,-1,-1,-1,-1,-1,-1,-1],"loss_changes":[1.0259049E1,2.3727548E0,2.0097356E0,1.2083081E0,1.0344677E0,6.629101E-1,2.1336317E-1,7.3140913E-1,4.0456346E-1,4.0270376E-1,4.3380022E-1,6.882099E-1,1.3626075E-1,1.8362963E-1,6.9105625E-2,1.6763294E-1,4.6494707E-1,1.3125803E-1,1.4264739E-1,9.7883224E-2,3.6826283E-2,2.8932607E-1,1.03753425E-1,2.3401688E-1,1.2701887E-1,8.827013E-2,1.1457896E-1,3.6245704E-2,6.7661226E-2,1.0713875E-2,0E0,0E0,0E0,0E0,0E0,0E0,0E0,0E0,0E0,0E0,0E0,0E0,0E0,0E0,0E0,0E0,0E0,0E0,0E0,0E0,0E0,0E0,0E0,0E0,0E0,0E0,0E0,0E0,0E0,0E0,0E0],"parents":[2147483647,0,0,1,1,2,2,3,3,4,4,5,5,6,6,7,7,8,8,9,9,10,10,11,11,12,12,13,13,14,14,15,15,16,16,17,17,18,18,19,19,20,20,21,21,22,22,23,23,24,24,25,25,26,26,27,27,28,28,29,29],"right_children":[2,4,6,8,10,12,14,16,18,20,22,24,26,28,30,32,34,36,38,40,42,44,46,48,50,52,54,56,58,60,-1,-1,-1,-1,-1,-1,-1,-1,-1,-1,-1,-1,-1,-1,-1,-1,-1,-1,-1,-1,-1,-1,-1,-1,-1,-1,-1,-1,-1,-1,-1],"split_conditions":[6E3,1E0,2E0,1E0,4.032E3,1E0,1E0,1E0,4.8E3,1E0,3E0,1E0,1E0,1E0,1E0,1E0,3E0,1E0,2E0,1E0,1E0,1E0,4E0,8.5E3,3E0,3E0,1E0,7.35E3,6.75E3,1E0,2.3770936E-2,-1.27803935E-2,4.563451E-3,-6.712798E-3,-8.974577E-5,4.0252395E-5,7.788086E-3,6.4544203E-3,1.7287185E-2,-1.77387E-2,-3.9508822E-3,-7.934171E-3,-4.236857E-4,-9.754755E-3,9.8224125E-5,9.075133E-3,-2.9318174E-3,-4.718393E-3,4.7735004E-3,1.001062E-2,-4.7240737E-3,6.3915583E-3,1.4403112E-2,6.9746687E-3,2.0129759E-2,1.0946542E-2,2.0112488E-2,9.350284E-3,1.149416E-4,3.7778139E-3,1.5356994E-2],"split_indices":[0,13,2,8,0,8,8,4,0,6,3,10,5,5,9,5,1,5,2,10,8,6,1,0,9,3,9,0,0,4,0,0,0,0,0,0,0,0,0,0,0,0,0,0,0,0,0,0,0,0,0,0,0,0,0,0,0,0,0,0,0],"split_type":[0,0,0,0,0,0,0,0,0,0,0,0,0,0,0,0,0,0,0,0,0,0,0,0,0,0,0,0,0,0,0,0,0,0,0,0,0,0,0,0,0,0,0,0,0,0,0,0,0,0,0,0,0,0,0,0,0,0,0,0,0],"sum_hessian":[4.36E2,2.94E2,1.42E2,1.85E2,1.09E2,8.7E1,5.5E1,1.39E2,4.6E1,6.4E1,4.5E1,5.3E1,3.4E1,2.3E1,3.2E1,2.4E1,1.15E2,3.1E1,1.5E1,5E1,1.4E1,3.8E1,7E0,3.1E1,2.2E1,2.3E1,1.1E1,1.5E1,8E0,1E1,2.2E1,2.3E1,1E0,4E1,7.5E1,2.5E1,6E0,9E0,6E0,4.8E1,2E0,1.2E1,2E0,2.8E1,1E1,5E0,2E0,2.3E1,8E0,2.1E1,1E0,1.8E1,5E0,4E0,7E0,7E0,8E0,5E0,3E0,1E0,9E0],"tree_param":{"num_deleted":"0","num_feature":"14","num_nodes":"61","size_leaf_vector":"1"}},{"base_weights":[1.0186988E-3,-1.2500727E-1,1.701711E-1,-5.954633E-2,-2.374936E-1,8.171317E-2,3.349427E-1,-1.9739822E-1,-2.488891E-2,-2.597183E-1,1.2434673E-1,1.0075457E-2,1.973385E-1,2.3626535E-1,3.98838E-1,-3.3576214E-1,-1.4522582E-1,-1.15260966E-1,2.0063818E-2,-3.097698E-1,-7.6557204E-2,5.96269E-3,9.102404E-3,-6.946356E-2,1.5994266E-1,1.3704586E-1,2.5429407E-1,1.6602458E-2,1.311161E-1,2.7166712E-1,2.2354176E-2,-1.9881424E-2,-5.0054393E-3,-9.586919E-3,-3.4298636E-3,-6.699204E-3,2.6915742E-3,-1.4880984E-4,1.6580002E-2,-1.6375845E-2,-3.5898525E-3,-6.3874386E-3,8.007312E-3,-8.786917E-4,1.3258934E-3,9.204592E-5,-1.0609041E-2,8.65902E-3,-4.605961E-3,4.35508E-3,1.0807886E-2,8.8022435E-3,1.6920676E-2,7.427355E-3,-2.8229475E-3,3.6833764E-3,1.4101406E-2],"categories":[],"categories_nodes":[],"categories_segments":[],"categories_sizes":[],"default_left":[0,0,0,0,0,0,0,0,0,0,0,0,0,0,0,0,0,0,0,0,0,0,0,0,0,0,0,0,0,0,0,0,0,0,0,0,0,0,0,0,0,0,0,0,0,0,0,0,0,0,0,0,0,0,0,0,0],"id":6,"left_children":[1,3,5,7,9,11,13,15,17,19,21,23,25,27,29,31,33,35,37,39,41,43,-1,45,47,49,51,-1,53,55,-1,-1,-1,-1,-1,-1,-1,-1,-1,-1,-1,-1,-1,-1,-1,-1,-1,-1,-1,-1,-1,-1,-1,-1,-1,-1,-1],"loss_changes":[9.337061E0,1.8340864E0,2.6982226E0,7.5950146E-1,7.7214E-1,1.0168374E0,3.1559467E-1,1.8223941E-1,5.2637124E-1,7.7385616E-1,3.990002E-2,9.289726E-1,1.2654805E-1,2.3846781E-1,1.1168814E-1,7.682592E-2,7.595205E-2,1.433478E-1,6.254554E-1,2.636714E-1,2.628029E-1,1.9174129E-3,0E0,5.1938593E-1,1.0604483E-1,7.995185E-2,9.1816425E-2,0E0,5.743113E-2,5.892873E-3,0E0,0E0,0E0,0E0,0E0,0E0,0E0,0E0,0E0,0E0,0E0,0E0,0E0,0E0,0E0,0E0,0E0,0E0,0E0,0E0,0E0,0E0,0E0,0E0,0E0,0E0,0E0],"parents":[2147483647,0,0,1,1,2,2,3,3,4,4,5,5,6,6,7,7,8,8,9,9,10,10,11,11,12,12,13,13,14,14,15,15,16,16,17,17,18,18,19,19,20,20,21,21,23,23,24,24,25,25,26,26,28,28,29,29],"right_children":[2,4,6,8,10,12,14,16,18,20,22,24,26,28,30,32,34,36,38,40,42,44,-1,46,48,50,52,-1,54,56,-1,-1,-1,-1,-1,-1,-1,-1,-1,-1,-1,-1,-1,-1,-1,-1,-1,-1,-1,-1,-1,-1,-1,-1,-1,-1,-1],"split_conditions":[4.995E3,1E0,2E0,3.15E3,3E0,1E0,1E0,2E0,3E0,1E0,4.2E3,1E0,6.5E3,1E0,1E0,1E0,1E0,1E0,1E0,2E0,4.12E3,2.16E3,9.102404E-3,1E0,3E0,3E0,1E0,1.6602458E-2,3E0,1E0,2.2354176E-2,-1.9881424E-2,-5.0054393E-3,-9.586919E-3,-3.4298636E-3,-6.699204E-3,2.6915742E-3,-1.4880984E-4,1.6580002E-2,-1.6375845E-2,-3.5898525E-3,-6.3874386E-3,8.007312E-3,-8.786917E-4,1.3258934E-3,9.204592E-5,-1.0609041E-2,8.65902E-3,-4.605961E-3,4.35508E-3,1.0807886E-2,8.8022435E-3,1.6920676E-2,7.427355E-3,-2.8229475E-3,3.6833764E-3,1.4101406E-2],"split_indices":[0,13,2,0,3,8,8,3,1,6,0,10,0,6,9,10,6,5,7,9,0,0,0,13,9,3,11,0,9,4,0,0,0,0,0,0,0,0,0,0,0,0,0,0,0,0,0,0,0,0,0,0,0,0,0,0,0],"split_type":[0,0,0,0,0,0,0,0,0,0,0,0,0,0,0,0,0,0,0,0,0,0,0,0,0,0,0,0,0,0,0,0,0,0,0,0,0,0,0,0,0,0,0,0,0,0,0,0,0,0,0,0,0,0,0,0,0],"sum_hessian":[4.36E2,2.5E2,1.86E2,1.59E2,9.1E1,1.22E2,6.4E1,3.1E1,1.28E2,8.6E1,5E0,7.6E1,4.6E1,2.7E1,3.7E1,7E0,2.4E1,4.2E1,8.6E1,6.7E1,1.9E1,2E0,3E0,5E1,2.6E1,2.4E1,2.2E1,1.3E1,1.4E1,1.2E1,2.5E1,5E0,2E0,1.4E1,1E1,3.8E1,4E0,8.1E1,5E0,6.2E1,5E0,1.6E1,3E0,1E0,1E0,3.4E1,1.6E1,2.5E1,1E0,1.6E1,8E0,1.3E1,9E0,1.3E1,1E0,1E0,1.1E1],"tree_param":{"num_deleted":"0","num_feature":"14","num_nodes":"57","size_leaf_vector":"1"}},{"base_weights":[1.1083921E-3,-1.3765499E-1,1.4113975E-1,-7.455879E-2,-2.3892315E-1,5.702707E-2,3.0404785E-1,-1.0658724E-1,4.8394993E-2,-2.8640896E-1,-7.264809E-2,-8.326375E-3,1.6731393E-1,2.0372647E-1,3.7163472E-1,-2.5741687E-1,-8.348096E-2,-5.4305647E-3,1.5392189E-2,-3.048536E-1,7.108474E-2,-1.1348263E-1,1.9657516E-1,-7.5859934E-2,1.4874533E-1,1.0790342E-1,2.426975E-1,2.9287383E-1,1.1811887E-1,2.6198763E-1,4.1041556E-1,-9.322834E-3,-2.2772599E-2,-4.9137427E-3,4.5768083E-3,-6.165048E-3,1.9140596E-3,-1.7953558E-2,-1.2316344E-2,2.9067995E-4,6.672454E-3,-6.8590897E-3,1.8799305E-4,1.2495041E-2,2.2480965E-3,-3.8313336E-4,-1.0919228E-2,3.632531E-3,1.0063785E-2,3.0120704E-3,1.0336786E-2,8.393561E-3,1.6159229E-2,-9.937048E-4,1.5831627E-2,4.256699E-3,1.2733269E-2,3.591299E-3,1.3554518E-2,8.670307E-3,2.1516373E-2],"categories":[],"categories_nodes":[],"categories_segments":[],"categories_sizes":[],"default_left":[0,0,0,0,0,0,0,0,0,0,0,0,0,0,0,0,0,0,0,0,0,0,0,0,0,0,0,0,0,0,0,0,0,0,0,0,0,0,0,0,0,0,0,0,0,0,0,0,0,0,0,0,0,0,0,0,0,0,0,0,0],"id":7,"left_children":[1,3,5,7,9,11,13,15,17,19,21,23,25,27,29,31,33,35,-1,37,39,41,43,45,47,49,51,53,55,57,59,-1,-1,-1,-1,-1,-1,-1,-1,-1,-1,-1,-1,-1,-1,-1,-1,-1,-1,-1,-1,-1,-1,-1,-1,-1,-1,-1,-1,-1,-1],"loss_changes":[8.510875E0,1.3879061E0,2.9698358E0,5.4466677E-1,6.424322E-1,1.046499E0,4.2603827E-1,3.583877E-1,4.0665606E-1,4.502697E-1,2.4218002E-1,9.871841E-1,2.1565521E-1,2.0962012E-1,7.53212E-2,1.1181444E-1,2.575574E-1,1.3352814E-1,0E0,1.0828781E-1,1.5506549E-2,5.0529674E-2,1.3018616E-2,6.30113E-1,9.7301126E-2,1.382834E-1,8.426535E-2,1.1775017E-1,5.9390873E-2,4.76259E-3,6.695843E-2,0E0,0E0,0E0,0E0,0E0,0E0,0E0,0E0,0E0,0E0,0E0,0E0,0E0,0E0,0E0,0E0,0E0,0E0,0E0,0E0,0E0,0E0,0E0,0E0,0E0,0E0,0E0,0E0,0E0,0E0],"parents":[2147483647,0,0,1,1,2,2,3,3,4,4,5,5,6,6,7,7,8,8,9,9,10,10,11,11,12,12,13,13,14,14,15,15,16,16,17,17,19,19,20,20,21,21,22,22,23,23,24,24,25,25,26,26,27,27,28,28,29,29,30,30],"right_children":[2,4,6,8,10,12,14,16,18,20,22,24,26,28,30,32,34,36,-1,38,40,42,44,46,48,50,52,54,56,58,60,-1,-1,-1,-1,-1,-1,-1,-1,-1,-1,-1,-1,-1,-1,-1,-1,-1,-1,-1,-1,-1,-1,-1,-1,-1,-1,-1,-1,-1,-1],"split_conditions":[4.51E3,1E0,2E0,2E0,1E0,1E0,1E0,2.5E3,1E0,3E0,4.2E3,1E0,6.5E3,1E0,1E0,2.4E3,1E0,3E0,1.5392189E-2,3.63E3,4.2E3,1E0,4.32E3,1E0,1E0,3E0,1E0,4.995E3,5E0,1E0,4.632E3,-9.322834E-3,-2.2772599E-2,-4.9137427E-3,4.5768083E-3,-6.165048E-3,1.9140596E-3,-1.7953558E-2,-1.2316344E-2,2.9067995E-4,6.672454E-3,-6.8590897E-3,1.8799305E-4,1.2495041E-2,2.2480965E-3,-3.8313336E-4,-1.0919228E-2,3.632531E-3,1.0063785E-2,3.0120704E-3,1.0336786E-2,8.393561E-3,1.6159229E-2,-9.937048E-4,1.5831627E-2,4.256699E-3,1.2733269E-2,3.591299E-3,1.3554518E-2,8.670307E-3,2.1516373E-2],"split_indices":[0,13,2,9,6,8,8,0,7,3,0,10,0,6,9,0,5,1,0,0,0,8,0,13,6,3,11,0,1,4,0,0,0,0,0,0,0,0,0,0,0,0,0,0,0,0,0,0,0,0,0,0,0,0,0,0,0,0,0,0,0],"split_type":[0,0,0,0,0,0,0,0,0,0,0,0,0,0,0,0,0,0,0,0,0,0,0,0,0,0,0,0,0,0,0,0,0,0,0,0,0,0,0,0,0,0,0,0,0,0,0,0,0,0,0,0,0,0,0,0,0,0,0,0,0],"sum_hessian":[4.36E2,2.19E2,2.17E2,1.36E2,8.3E1,1.44E2,7.3E1,1.08E2,2.8E1,6.4E1,1.9E1,9.1E1,5.3E1,3.1E1,4.2E1,1.3E1,9.5E1,2.4E1,4E0,6.1E1,3E0,1.7E1,2E0,6.4E1,2.7E1,3.1E1,2.2E1,1.4E1,1.7E1,1.3E1,2.9E1,1.1E1,2E0,8.8E1,7E0,6E0,1.8E1,2.9E1,3.2E1,2E0,1E0,1.4E1,3E0,1E0,1E0,4.4E1,2E1,1.2E1,1.5E1,2.2E1,9E0,1.3E1,9E0,1E0,1.3E1,1.5E1,2E0,1E0,1.2E1,3E0,2.6E1],"tree_param":{"num_deleted":"0","num_feature":"14","num_nodes":"61","size_leaf_vector":"1"}},{"base_weights":[1.2427534E-3,-9.1404565E-2,1.9235964E-1,-1.3349293E-1,5.9577238E-2,1.0857935E-1,3.2057938E-1,-7.331233E-2,-2.2362109E-1,5.7149134E-3,1.9990025E-1,3.512903E-2,1.919217E-1,2.3673327E-1,3.7184384E-1,-2.1491341E-1,-4.2162854E-2,-2.5245944E-1,-2.8952746E-2,-4.211449E-2,1.0400587E-1,8.005643E-2,2.6888666E-1,-2.0317445E-2,2.4785738E-1,2.3130417E-2,2.2599255E-1,2.951365E-1,1.0660161E-1,3.065075E-1,2.303201E-2,-1.1549046E-2,4.267669E-3,-5.945991E-3,-9.985974E-6,-1.3817566E-2,1.8088886E-3,-5.3464686E-3,2.6579993E-3,-3.7421E-3,2.673732E-3,5.6822267E-3,-1.0143518E-3,7.2306633E-4,7.10181E-3,9.614962E-3,1.7741991E-2,1.3339639E-3,-1.0288233E-2,1.4263582E-2,3.2733441E-3,-2.6865387E-3,5.6712152E-3,7.767123E-3,1.5791265E-2,9.437717E-3,1.7845277E-2,8.128047E-3,-1.9938945E-4,3.5015107E-3,1.5721677E-2],"categories":[],"categories_nodes":[],"categories_segments":[],"categories_sizes":[],"default_left":[0,0,0,0,0,0,0,0,0,0,0,0,0,0,0,0,0,0,0,0,0,0,0,0,0,0,0,0,0,0,0,0,0,0,0,0,0,0,0,0,0,0,0,0,0,0,0,0,0,0,0,0,0,0,0,0,0,0,0,0,0],"id":8,"left_children":[1,3,5,7,9,11,13,15,17,19,21,23,25,27,29,31,33,35,37,39,41,43,45,47,49,51,53,55,57,59,-1,-1,-1,-1,-1,-1,-1,-1,-1,-1,-1,-1,-1,-1,-1,-1,-1,-1,-1,-1,-1,-1,-1,-1,-1,-1,-1,-1,-1,-1,-1],"loss_changes":[7.7553086E0,1.8825533E0,1.501339E0,1.2365417E0,4.901356E-1,5.31952E-1,1.5267897E-1,6.084506E-1,5.09171E-1,2.3003764E-1,1.2729055E-1,5.711976E-1,2.3055804E-1,1.5094054E-1,5.0263405E-2,1.403284E-1,3.7360793E-1,5.616851E-1,8.892172E-2,1.0723913E-1,2.1473795E-2,3.0470524E-2,4.1767955E-3,3.4539065E-1,4.9564242E-2,6.161514E-2,1.6672635E-1,3.777051E-2,5.6344844E-2,1.9215584E-2,0E0,0E0,0E0,0E0,0E0,0E0,0E0,0E0,0E0,0E0,0E0,0E0,0E0,0E0,0E0,0E0,0E0,0E0,0E0,0E0,0E0,0E0,0E0,0E0,0E0,0E0,0E0,0E0,0E0,0E0,0E0],"parents":[2147483647,0,0,1,1,2,2,3,3,4,4,5,5,6,6,7,7,8,8,9,9,10,10,11,11,12,12,13,13,14,14,15,15,16,16,17,17,18,18,19,19,20,20,21,21,22,22,23,23,24,24,25,25,26,26,27,27,28,28,29,29],"right_children":[2,4,6,8,10,12,14,16,18,20,22,24,26,28,30,32,34,36,38,40,42,44,46,48,50,52,54,56,58,60,-1,-1,-1,-1,-1,-1,-1,-1,-1,-1,-1,-1,-1,-1,-1,-1,-1,-1,-1,-1,-1,-1,-1,-1,-1,-1,-1,-1,-1,-1,-1],"split_conditions":[6E3,1E0,2E0,1E0,2E0,1E0,1E0,1E0,1E0,4.8E3,4.51E3,3E0,6.4E3,1E0,2E0,1E0,3E0,2E0,3.52E3,4E0,4E0,2E0,1E0,1E0,4E0,1E0,1E0,7.35E3,6.75E3,1E0,2.303201E-2,-1.1549046E-2,4.267669E-3,-5.945991E-3,-9.985974E-6,-1.3817566E-2,1.8088886E-3,-5.3464686E-3,2.6579993E-3,-3.7421E-3,2.673732E-3,5.6822267E-3,-1.0143518E-3,7.2306633E-4,7.10181E-3,9.614962E-3,1.7741991E-2,1.3339639E-3,-1.0288233E-2,1.4263582E-2,3.2733441E-3,-2.6865387E-3,5.6712152E-3,7.767123E-3,1.5791265E-2,9.437717E-3,1.7845277E-2,8.128047E-3,-1.9938945E-4,3.5015107E-3,1.5721677E-2],"split_indices":[0,8,2,13,2,6,8,4,10,0,0,3,0,5,9,5,1,2,0,1,1,9,11,13,1,10,11,0,0,4,0,0,0,0,0,0,0,0,0,0,0,0,0,0,0,0,0,0,0,0,0,0,0,0,0,0,0,0,0,0,0],"split_type":[0,0,0,0,0,0,0,0,0,0,0,0,0,0,0,0,0,0,0,0,0,0,0,0,0,0,0,0,0,0,0,0,0,0,0,0,0,0,0,0,0,0,0,0,0,0,0,0,0,0,0,0,0,0,0,0,0,0,0,0,0],"sum_hessian":[4.36E2,2.94E2,1.42E2,2.3E2,6.4E1,8.7E1,5.5E1,1.39E2,9.1E1,4.7E1,1.7E1,4.7E1,4E1,2.3E1,3.2E1,2.4E1,1.15E2,7.9E1,1.2E1,3.2E1,1.5E1,7E0,1E1,3.8E1,9E0,7E0,3.3E1,1.5E1,8E0,2.1E1,1.1E1,2.3E1,1E0,4E1,7.5E1,7.3E1,6E0,6E0,6E0,2.4E1,8E0,1.4E1,1E0,4E0,3E0,7E0,3E0,3.1E1,7E0,7E0,2E0,4E0,3E0,2E1,1.3E1,7E0,8E0,5E0,3E0,1E0,2E1],"tree_param":{"num_deleted":"0","num_feature":"14","num_nodes":"61","size_leaf_vector":"1"}},{"base_weights":[1.4630936E-3,-9.8176695E-2,1.6314524E-1,-3.812035E-2,-2.0049183E-1,8.4813215E-2,2.9443637E-1,-1.097088E-1,2.5322955E-2,-2.4487402E-1,-4.974516E-2,2.5598932E-2,1.8588394E-1,2.1201074E-1,3.480768E-1,-1.4235646E-1,1.2466695E-2,-4.0475614E-3,1.383806E-1,-2.635873E-1,2.0497799E-2,-1.10060915E-1,8.464396E-2,-4.701071E-2,1.4469954E-1,1.660487E-1,1.58965E-2,1.4457563E-2,1.1972659E-1,2.3645289E-1,1.938666E-2,-1.1830759E-2,-5.30037E-3,3.779759E-3,-8.339319E-3,-2.106484E-3,4.1113566E-3,1.5082837E-3,1.0717002E-2,-1.41697945E-2,-1.958268E-3,4.923735E-3,-9.234667E-3,-6.8279505E-3,-1.9360622E-3,6.922E-3,-7.2982074E-3,-4.065899E-3,4.581494E-3,4.42341E-3,1.3008076E-2,9.110245E-3,4.3363213E-3,6.8858624E-3,-2.853799E-3,1.4313772E-2,6.945888E-3],"categories":[],"categories_nodes":[],"categories_segments":[],"categories_sizes":[],"default_left":[0,0,0,0,0,0,0,0,0,0,0,0,0,0,0,0,0,0,0,0,0,0,0,0,0,0,0,0,0,0,0,0,0,0,0,0,0,0,0,0,0,0,0,0,0,0,0,0,0,0,0,0,0,0,0,0,0],"id":9,"left_children":[1,3,5,7,9,11,13,15,17,19,21,23,25,27,29,31,33,35,37,39,41,43,45,47,49,51,-1,-1,53,55,-1,-1,-1,-1,-1,-1,-1,-1,-1,-1,-1,-1,-1,-1,-1,-1,-1,-1,-1,-1,-1,-1,-1,-1,-1,-1,-1],"loss_changes":[7.056076E0,1.6575632E0,1.6925058E0,7.8396916E-1,6.568656E-1,6.2963355E-1,2.003274E-1,3.2486296E-1,3.0605176E-1,3.8778353E-1,2.0385474E-1,5.948564E-1,4.9355507E-2,1.575898E-1,6.7676544E-2,1.9419467E-1,2.1629578E-1,2.4659291E-1,1.4971328E-1,3.0897522E-1,1.14188634E-1,2.6848465E-2,1.194537E-1,2.1197549E-1,1.4579111E-1,3.0333757E-2,0E0,0E0,5.2391455E-2,1.8544674E-2,0E0,0E0,0E0,0E0,0E0,0E0,0E0,0E0,0E0,0E0,0E0,0E0,0E0,0E0,0E0,0E0,0E0,0E0,0E0,0E0,0E0,0E0,0E0,0E0,0E0,0E0,0E0],"parents":[2147483647,0,0,1,1,2,2,3,3,4,4,5,5,6,6,7,7,8,8,9,9,10,10,11,11,12,12,13,13,14,14,15,15,16,16,17,17,18,18,19,19,20,20,21,21,22,22,23,23,24,24,25,25,28,28,29,29],"right_children":[2,4,6,8,10,12,14,16,18,20,22,24,26,28,30,32,34,36,38,40,42,44,46,48,50,52,-1,-1,54,56,-1,-1,-1,-1,-1,-1,-1,-1,-1,-1,-1,-1,-1,-1,-1,-1,-1,-1,-1,-1,-1,-1,-1,-1,-1,-1,-1],"split_conditions":[5.5E3,1E0,2E0,3.7E3,1E0,1E0,1E0,2E0,2E0,3E0,4.12E3,1E0,4E0,1E0,1E0,1E0,3.51E3,1E0,1E0,2E0,4.815E3,3.46E3,5.15E3,8.5E3,1E0,9.166E3,1.58965E-2,1.4457563E-2,3E0,1E0,1.938666E-2,-1.1830759E-2,-5.30037E-3,3.779759E-3,-8.339319E-3,-2.106484E-3,4.1113566E-3,1.5082837E-3,1.0717002E-2,-1.41697945E-2,-1.958268E-3,4.923735E-3,-9.234667E-3,-6.8279505E-3,-1.9360622E-3,6.922E-3,-7.2982074E-3,-4.065899E-3,4.581494E-3,4.42341E-3,1.3008076E-2,9.110245E-3,4.3363213E-3,6.8858624E-3,-2.853799E-3,1.4313772E-2,6.945888E-3],"split_indices":[0,13,2,0,6,10,8,2,2,3,0,8,1,6,9,4,0,6,8,9,0,0,0,0,5,0,0,0,9,13,0,0,0,0,0,0,0,0,0,0,0,0,0,0,0,0,0,0,0,0,0,0,0,0,0,0,0],"split_type":[0,0,0,0,0,0,0,0,0,0,0,0,0,0,0,0,0,0,0,0,0,0,0,0,0,0,0,0,0,0,0,0,0,0,0,0,0,0,0,0,0,0,0,0,0,0,0,0,0,0,0,0,0,0,0,0,0],"sum_hessian":[4.36E2,2.7E2,1.66E2,1.71E2,9.9E1,1.05E2,6.1E1,8E1,9.1E1,7.6E1,2.3E1,6.7E1,3.8E1,2.6E1,3.5E1,6.3E1,1.7E1,7.3E1,1.8E1,7.1E1,5E0,1.6E1,7E0,4.2E1,2.5E1,3.5E1,3E0,1.3E1,1.3E1,1.1E1,2.4E1,1.6E1,4.7E1,1.3E1,4E0,5.1E1,2.2E1,8E0,1E1,6.5E1,6E0,4E0,1E0,1.1E1,5E0,6E0,1E0,3.4E1,8E0,1.8E1,7E0,2.8E1,7E0,1.2E1,1E0,6E0,5E0],"tree_param":{"num_deleted":"0","num_feature":"14","num_nodes":"57","size_leaf_vector":"1"}},{"base_weights":[1.5487169E-3,-1.1905055E-1,1.23247296E-1,-6.485966E-2,-2.0601603E-1,5.0333597E-2,2.6445323E-1,-1.7086613E-1,-3.2245826E-2,-2.4793418E-1,-5.9481286E-2,-7.1179243E-3,1.4728186E-1,1.7792672E-1,3.22695E-1,-3.0002785E-1,-1.2269974E-1,-1.13845825E-1,1.3160637E-2,-2.645313E-1,7.13048E-2,-9.793186E-2,1.9104926E-1,-6.589426E-2,1.2958135E-1,9.3155295E-2,2.1618482E-1,2.547708E-1,1.0400518E-1,2.673229E-1,2.0411734E-2,-1.7819446E-2,-4.3648244E-3,-7.271785E-3,-1.3343811E-4,-6.3321213E-3,1.3292909E-3,-7.3472934E-4,1.540448E-2,-1.5865749E-2,-1.0426503E-2,-8.5344317E-4,5.3226156E-3,-5.9840363E-3,4.0546656E-4,1.1964393E-2,2.3643018E-3,-3.0403986E-4,-9.5464075E-3,7.04739E-3,-4.432821E-3,2.461475E-3,9.243455E-3,7.3599885E-3,1.4557271E-2,-9.651423E-4,1.3786313E-2,3.646955E-3,1.1751127E-2,9.1930805E-3,1.6648134E-2],"categories":[],"categories_nodes":[],"categories_segments":[],"categories_sizes":[],"default_left":[0,0,0,0,0,0,0,0,0,0,0,0,0,0,0,0,0,0,0,0,0,0,0,0,0,0,0,0,0,0,0,0,0,0,0,0,0,0,0,0,0,0,0,0,0,0,0,0,0,0,0,0,0,0,0,0,0,0,0,0,0],"id":10,"left_children":[1,3,5,7,9,11,13,15,17,19,21,23,25,27,29,31,33,35,37,39,41,43,45,47,49,51,53,55,57,59,-1,-1,-1,-1,-1,-1,-1,-1,-1,-1,-1,-1,-1,-1,-1,-1,-1,-1,-1,-1,-1,-1,-1,-1,-1,-1,-1,-1,-1,-1,-1],"loss_changes":[6.4284163E0,1.0234396E0,2.231184E0,4.6813726E-1,5.012195E-1,8.086731E-1,3.1550407E-1,1.6226685E-1,3.94246E-1,3.632617E-1,2.1137066E-1,7.477295E-1,1.8125308E-1,1.5527642E-1,9.453964E-2,6.480658E-2,6.783736E-2,7.165465E-2,5.713837E-1,1.17099285E-1,1.4241474E-2,4.2483494E-2,9.489834E-3,4.849551E-1,8.195245E-2,1.1981422E-1,7.60802E-2,9.147239E-2,5.6121215E-2,9.7653866E-2,0E0,0E0,0E0,0E0,0E0,0E0,0E0,0E0,0E0,0E0,0E0,0E0,0E0,0E0,0E0,0E0,0E0,0E0,0E0,0E0,0E0,0E0,0E0,0E0,0E0,0E0,0E0,0E0,0E0,0E0,0E0],"parents":[2147483647,0,0,1,1,2,2,3,3,4,4,5,5,6,6,7,7,8,8,9,9,10,10,11,11,12,12,13,13,14,14,15,15,16,16,17,17,18,18,19,19,20,20,21,21,22,22,23,23,24,24,25,25,26,26,27,27,28,28,29,29],"right_children":[2,4,6,8,10,12,14,16,18,20,22,24,26,28,30,32,34,36,38,40,42,44,46,48,50,52,54,56,58,60,-1,-1,-1,-1,-1,-1,-1,-1,-1,-1,-1,-1,-1,-1,-1,-1,-1,-1,-1,-1,-1,-1,-1,-1,-1,-1,-1,-1,-1,-1,-1],"split_conditions":[4.51E3,1E0,2E0,3.15E3,1E0,1E0,1E0,2E0,3E0,3E0,4.2E3,1E0,6.5E3,1E0,1E0,2.747E3,4E0,1E0,1E0,3.63E3,2.16E3,1E0,4.32E3,1E0,3E0,3E0,1E0,4.995E3,5E0,1E0,2.0411734E-2,-1.7819446E-2,-4.3648244E-3,-7.271785E-3,-1.3343811E-4,-6.3321213E-3,1.3292909E-3,-7.3472934E-4,1.540448E-2,-1.5865749E-2,-1.0426503E-2,-8.5344317E-4,5.3226156E-3,-5.9840363E-3,4.0546656E-4,1.1964393E-2,2.3643018E-3,-3.0403986E-4,-9.5464075E-3,7.04739E-3,-4.432821E-3,2.461475E-3,9.243455E-3,7.3599885E-3,1.4557271E-2,-9.651423E-4,1.3786313E-2,3.646955E-3,1.1751127E-2,9.1930805E-3,1.6648134E-2],"split_indices":[0,13,2,0,6,8,8,3,1,3,0,10,0,6,10,0,1,5,7,0,0,8,0,13,9,3,11,0,1,11,0,0,0,0,0,0,0,0,0,0,0,0,0,0,0,0,0,0,0,0,0,0,0,0,0,0,0,0,0,0,0],"split_type":[0,0,0,0,0,0,0,0,0,0,0,0,0,0,0,0,0,0,0,0,0,0,0,0,0,0,0,0,0,0,0,0,0,0,0,0,0,0,0,0,0,0,0,0,0,0,0,0,0,0,0,0,0,0,0,0,0,0,0,0,0],"sum_hessian":[4.36E2,2.19E2,2.17E2,1.36E2,8.3E1,1.44E2,7.3E1,3.1E1,1.05E2,6.4E1,1.9E1,9.1E1,5.3E1,3.1E1,4.2E1,7E0,2.4E1,3.7E1,6.8E1,6.1E1,3E0,1.7E1,2E0,6.4E1,2.7E1,3.1E1,2.2E1,1.4E1,1.7E1,2.8E1,1.4E1,5E0,2E0,2E1,4E0,3.4E1,3E0,6.3E1,5E0,2.9E1,3.2E1,1E0,2E0,1.4E1,3E0,1E0,1E0,4.4E1,2E1,2.6E1,1E0,2.2E1,9E0,1.3E1,9E0,1E0,1.3E1,1.5E1,2E0,1.4E1,1.4E1],"tree_param":{"num_deleted":"0","num_feature":"14","num_nodes":"61","size_leaf_vector":"1"}},{"base_weights":[1.6265145E-3,-7.895383E-2,1.6784732E-1,-1.4180082E-1,8.07289E-4,9.531751E-2,2.7882546E-1,-8.434807E-2,-2.28892E-1,-3.7040055E-2,1.5507695E-1,2.9451927E-2,1.7010362E-1,2.564961E-1,2.5249148E-2,-1.0938389E-1,4.579269E-2,-2.6079798E-1,-1.051522E-1,-6.854914E-2,4.5067947E-2,1.4286232E-2,1.8002588E-1,-2.1460632E-2,2.2506571E-1,1.3224131E-1,3.3511475E-1,1.884841E-1,2.9868254E-1,-6.351389E-3,3.8158537E-3,-1.1831011E-4,1.0145033E-2,-1.3531806E-2,-3.8770556E-3,-6.0978415E-3,1.3593039E-4,-5.2469983E-3,2.0205856E-3,6.7421794E-4,7.345813E-3,-1.5117169E-3,4.809213E-3,4.8476136E-3,1.20587265E-2,1.0375232E-3,-9.381122E-3,1.2934011E-2,3.0202547E-3,-7.197789E-4,8.153819E-3,1.9632157E-2,-2.5138856E-4,1.0113819E-2,-2.8736354E-3,2.8262853E-3,1.5243513E-2],"categories":[],"categories_nodes":[],"categories_segments":[],"categories_sizes":[],"default_left":[0,0,0,0,0,0,0,0,0,0,0,0,0,0,0,0,0,0,0,0,0,0,0,0,0,0,0,0,0,0,0,0,0,0,0,0,0,0,0,0,0,0,0,0,0,0,0,0,0,0,0,0,0,0,0,0,0],"id":11,"left_children":[1,3,5,7,9,11,13,15,17,19,21,23,25,27,-1,29,31,33,35,37,39,41,43,45,47,49,51,53,55,-1,-1,-1,-1,-1,-1,-1,-1,-1,-1,-1,-1,-1,-1,-1,-1,-1,-1,-1,-1,-1,-1,-1,-1,-1,-1,-1,-1],"loss_changes":[5.866487E0,1.4788744E0,1.1244617E0,8.0629206E-1,7.706133E-1,4.284634E-1,1.532712E-1,3.3408517E-1,2.2919917E-1,2.7732712E-1,8.875519E-2,4.8287156E-1,2.1183991E-1,9.5769644E-2,0E0,2.8819585E-1,1.2910458E-1,7.096243E-2,2.752249E-2,3.0955932E-1,9.452097E-2,2.11388E-2,8.837408E-2,2.7743423E-1,3.972429E-2,1.606021E-1,1.389491E-1,8.964825E-2,2.9217243E-2,0E0,0E0,0E0,0E0,0E0,0E0,0E0,0E0,0E0,0E0,0E0,0E0,0E0,0E0,0E0,0E0,0E0,0E0,0E0,0E0,0E0,0E0,0E0,0E0,0E0,0E0,0E0,0E0],"parents":[2147483647,0,0,1,1,2,2,3,3,4,4,5,5,6,6,7,7,8,8,9,9,10,10,11,11,12,12,13,13,15,15,16,16,17,17,18,18,19,19,20,20,21,21,22,22,23,23,24,24,25,25,26,26,27,27,28,28],"right_children":[2,4,6,8,10,12,14,16,18,20,22,24,26,28,-1,30,32,34,36,38,40,42,44,46,48,50,52,54,56,-1,-1,-1,-1,-1,-1,-1,-1,-1,-1,-1,-1,-1,-1,-1,-1,-1,-1,-1,-1,-1,-1,-1,-1,-1,-1,-1,-1],"split_conditions":[6E3,4.032E3,2E0,1E0,2E0,1E0,3E0,2E0,1E0,1E0,1E0,3E0,4E0,1E0,2.5249148E-2,1E0,1E0,2E0,1E0,1E0,3E0,5E0,1E0,1E0,4E0,6.4E3,4E0,3E0,1E0,-6.351389E-3,3.8158537E-3,-1.1831011E-4,1.0145033E-2,-1.3531806E-2,-3.8770556E-3,-6.0978415E-3,1.3593039E-4,-5.2469983E-3,2.0205856E-3,6.7421794E-4,7.345813E-3,-1.5117169E-3,4.809213E-3,4.8476136E-3,1.20587265E-2,1.0375232E-3,-9.381122E-3,1.2934011E-2,3.0202547E-3,-7.197789E-4,8.153819E-3,1.9632157E-2,-2.5138856E-4,1.0113819E-2,-2.8736354E-3,2.8262853E-3,1.5243513E-2],"split_indices":[0,0,2,13,2,6,2,9,6,8,4,3,1,8,0,5,7,9,8,6,3,1,8,13,1,0,3,9,4,0,0,0,0,0,0,0,0,0,0,0,0,0,0,0,0,0,0,0,0,0,0,0,0,0,0,0,0],"split_type":[0,0,0,0,0,0,0,0,0,0,0,0,0,0,0,0,0,0,0,0,0,0,0,0,0,0,0,0,0,0,0,0,0,0,0,0,0,0,0,0,0,0,0,0,0,0,0,0,0,0,0,0,0,0,0,0,0],"sum_hessian":[4.36E2,2.94E2,1.42E2,1.64E2,1.3E2,8.7E1,5.5E1,1E2,6.4E1,1.05E2,2.5E1,4.7E1,4E1,5.2E1,3E0,8.4E1,1.6E1,5E1,1.4E1,7.6E1,2.9E1,4E0,2.1E1,3.8E1,9E0,3.4E1,6E0,2.2E1,3E1,7.7E1,7E0,1.3E1,3E0,4.7E1,3E0,1.2E1,2E0,5.7E1,1.9E1,2.3E1,6E0,3E0,1E0,1E1,1.1E1,3.1E1,7E0,7E0,2E0,6E0,2.8E1,5E0,1E0,2.1E1,1E0,1E0,2.9E1],"tree_param":{"num_deleted":"0","num_feature":"14","num_nodes":"57","size_leaf_vector":"1"}},{"base_weights":[1.7605308E-3,-8.476506E-2,1.4215977E-1,-3.2403875E-2,-1.7397866E-1,7.447476E-2,2.5558645E-1,-1.5792474E-1,-3.6870537E-3,-2.1258163E-1,-4.287831E-2,2.230825E-2,1.6352214E-1,2.356301E-1,2.4302293E-2,-2.8224194E-1,-1.1182625E-1,-8.801325E-2,3.5471357E-2,-2.2890496E-1,1.8728575E-2,-9.61421E-2,7.566702E-2,-4.1192032E-2,1.2646994E-1,1.4558008E-1,1.4206004E-2,1.8857343E-1,3.0619934E-1,-1.6894706E-2,-3.8428467E-3,-7.7282684E-3,-2.1689804E-3,-5.219668E-3,1.7928204E-3,9.259157E-4,1.4475306E-2,-1.2322009E-2,-1.5436172E-3,4.577303E-3,-8.633971E-3,-6.066422E-3,-1.4872869E-3,6.3031474E-3,-6.9276094E-3,-3.65548E-3,4.375437E-3,3.7464795E-3,1.1653477E-2,8.009934E-3,3.7195086E-3,7.31237E-3,1.3404627E-2,1.0762228E-2,1.8202897E-2],"categories":[],"categories_nodes":[],"categories_segments":[],"categories_sizes":[],"default_left":[0,0,0,0,0,0,0,0,0,0,0,0,0,0,0,0,0,0,0,0,0,0,0,0,0,0,0,0,0,0,0,0,0,0,0,0,0,0,0,0,0,0,0,0,0,0,0,0,0,0,0,0,0,0,0],"id":12,"left_children":[1,3,5,7,9,11,13,15,17,19,21,23,25,27,-1,29,31,33,35,37,39,41,43,45,47,49,-1,51,53,-1,-1,-1,-1,-1,-1,-1,-1,-1,-1,-1,-1,-1,-1,-1,-1,-1,-1,-1,-1,-1,-1,-1,-1,-1,-1],"loss_changes":[5.320782E0,1.2602929E0,1.263072E0,6.194021E-1,4.9697113E-1,4.887529E-1,1.7061853E-1,1.5182465E-1,4.687152E-1,2.9501963E-1,1.5881495E-1,4.5498174E-1,4.3025017E-2,1.3818312E-1,0E0,6.547141E-2,6.642878E-2,9.504813E-2,4.123851E-1,2.4241519E-1,9.943521E-2,2.4819776E-2,1.0383249E-1,1.830338E-1,1.253849E-1,2.5547802E-2,0E0,8.868992E-2,3.7414074E-2,0E0,0E0,0E0,0E0,0E0,0E0,0E0,0E0,0E0,0E0,0E0,0E0,0E0,0E0,0E0,0E0,0E0,0E0,0E0,0E0,0E0,0E0,0E0,0E0,0E0,0E0],"parents":[2147483647,0,0,1,1,2,2,3,3,4,4,5,5,6,6,7,7,8,8,9,9,10,10,11,11,12,12,13,13,15,15,16,16,17,17,18,18,19,19,20,20,21,21,22,22,23,23,24,24,25,25,27,27,28,28],"right_children":[2,4,6,8,10,12,14,16,18,20,22,24,26,28,-1,30,32,34,36,38,40,42,44,46,48,50,-1,52,54,-1,-1,-1,-1,-1,-1,-1,-1,-1,-1,-1,-1,-1,-1,-1,-1,-1,-1,-1,-1,-1,-1,-1,-1,-1,-1],"split_conditions":[5.5E3,1E0,2E0,3.15E3,1E0,1E0,3E0,2E0,3E0,3E0,4.12E3,1E0,4E0,1E0,2.4302293E-2,1E0,1E0,4.632E3,1E0,2E0,4.815E3,3.46E3,5.15E3,8.5E3,1E0,9.166E3,1.4206004E-2,2E0,1E0,-1.6894706E-2,-3.8428467E-3,-7.7282684E-3,-2.1689804E-3,-5.219668E-3,1.7928204E-3,9.259157E-4,1.4475306E-2,-1.2322009E-2,-1.5436172E-3,4.577303E-3,-8.633971E-3,-6.066422E-3,-1.4872869E-3,6.3031474E-3,-6.9276094E-3,-3.65548E-3,4.375437E-3,3.7464795E-3,1.1653477E-2,8.009934E-3,3.7195086E-3,7.31237E-3,1.3404627E-2,1.0762228E-2,1.8202897E-2],"split_indices":[0,13,2,0,6,10,2,3,1,3,0,8,1,10,0,10,6,0,7,9,0,0,0,0,5,0,0,9,8,0,0,0,0,0,0,0,0,0,0,0,0,0,0,0,0,0,0,0,0,0,0,0,0,0,0],"split_type":[0,0,0,0,0,0,0,0,0,0,0,0,0,0,0,0,0,0,0,0,0,0,0,0,0,0,0,0,0,0,0,0,0,0,0,0,0,0,0,0,0,0,0,0,0,0,0,0,0,0,0,0,0,0,0],"sum_hessian":[4.36E2,2.7E2,1.66E2,1.71E2,9.9E1,1.05E2,6.1E1,3.1E1,1.4E2,7.6E1,2.3E1,6.7E1,3.8E1,5.8E1,3E0,7E0,2.4E1,4.4E1,9.6E1,7.1E1,5E0,1.6E1,7E0,4.2E1,2.5E1,3.5E1,3E0,3.7E1,2.1E1,5E0,2E0,1.4E1,1E1,3.9E1,5E0,9.1E1,5E0,6.5E1,6E0,4E0,1E0,1.1E1,5E0,6E0,1E0,3.4E1,8E0,1.8E1,7E0,2.8E1,7E0,2.6E1,1.1E1,1E1,1.1E1],"tree_param":{"num_deleted":"0","num_feature":"14","num_nodes":"55","size_leaf_vector":"1"}},{"base_weights":[1.8356332E-3,-9.9295884E-2,1.11626826E-1,-5.3179596E-2,-1.7771928E-1,4.91759E-2,2.3582616E-1,-2.1615723E-1,-3.5491213E-2,-2.1420932E-1,-5.0240707E-2,-9.492556E-4,1.3498528E-1,1.5738094E-1,2.9072556E-1,-1.497081E-1,-2.0495065E-2,-1.0894021E-1,3.7518316E-3,-2.2897957E-1,6.828189E-2,-8.578661E-2,1.797816E-1,-5.1726174E-2,1.1333271E-1,8.645038E-2,1.9242275E-1,1.0382875E-1,2.4530958E-1,1.9178636E-1,3.3125976E-1,-8.589294E-3,2.328682E-3,-6.230558E-3,2.224188E-3,-8.16008E-4,1.3872187E-2,-1.3917421E-2,-8.858002E-3,-6.0825347E-4,4.9576284E-3,-5.2675437E-3,4.5130253E-4,1.1386514E-2,2.097106E-3,3.964457E-4,-8.570696E-3,6.1861747E-3,-4.180455E-3,2.287222E-3,8.164392E-3,6.4465115E-3,1.31035E-2,2.6167394E-3,7.7619315E-3,1.4752912E-2,7.1468356E-4,1.1466122E-2,5.1758927E-3,1.35965645E-2,2.0246252E-2],"categories":[],"categories_nodes":[],"categories_segments":[],"categories_sizes":[],"default_left":[0,0,0,0,0,0,0,0,0,0,0,0,0,0,0,0,0,0,0,0,0,0,0,0,0,0,0,0,0,0,0,0,0,0,0,0,0,0,0,0,0,0,0,0,0,0,0,0,0,0,0,0,0,0,0,0,0,0,0,0,0],"id":13,"left_children":[1,3,5,7,9,11,13,15,17,19,21,23,25,27,29,31,-1,33,35,37,39,41,43,45,47,49,51,53,55,57,59,-1,-1,-1,-1,-1,-1,-1,-1,-1,-1,-1,-1,-1,-1,-1,-1,-1,-1,-1,-1,-1,-1,-1,-1,-1,-1,-1,-1,-1,-1],"loss_changes":[4.863248E0,8.151326E-1,1.6172392E0,4.103359E-1,3.799808E-1,6.065985E-1,2.557068E-1,1.18872166E-1,3.8088053E-1,2.868452E-1,1.7894986E-1,5.28122E-1,1.2832654E-1,1.205017E-1,9.688568E-2,6.0002238E-2,0E0,1.161409E-1,4.82466E-1,1.0930061E-1,1.11400075E-2,3.4339815E-2,1.0276169E-2,4.5117804E-1,6.764299E-2,8.6362734E-2,6.7919075E-2,4.7468886E-2,1.22202575E-1,2.2646606E-2,7.890463E-3,0E0,0E0,0E0,0E0,0E0,0E0,0E0,0E0,0E0,0E0,0E0,0E0,0E0,0E0,0E0,0E0,0E0,0E0,0E0,0E0,0E0,0E0,0E0,0E0,0E0,0E0,0E0,0E0,0E0,0E0],"parents":[2147483647,0,0,1,1,2,2,3,3,4,4,5,5,6,6,7,7,8,8,9,9,10,10,11,11,12,12,13,13,14,14,15,15,17,17,18,18,19,19,20,20,21,21,22,22,23,23,24,24,25,25,26,26,27,27,28,28,29,29,30,30],"right_children":[2,4,6,8,10,12,14,16,18,20,22,24,26,28,30,32,-1,34,36,38,40,42,44,46,48,50,52,54,56,58,60,-1,-1,-1,-1,-1,-1,-1,-1,-1,-1,-1,-1,-1,-1,-1,-1,-1,-1,-1,-1,-1,-1,-1,-1,-1,-1,-1,-1,-1,-1],"split_conditions":[4.64E3,1E0,2E0,2.5E3,1E0,1E0,1E0,2.4E3,3E0,3E0,4.2E3,1E0,6.5E3,7.35E3,1E0,4E0,-2.0495065E-2,1E0,1E0,3.63E3,2.16E3,1E0,4.32E3,1E0,3E0,3E0,1E0,1E0,1E0,1E0,1E0,-8.589294E-3,2.328682E-3,-6.230558E-3,2.224188E-3,-8.16008E-4,1.3872187E-2,-1.3917421E-2,-8.858002E-3,-6.0825347E-4,4.9576284E-3,-5.2675437E-3,4.5130253E-4,1.1386514E-2,2.097106E-3,3.964457E-4,-8.570696E-3,6.1861747E-3,-4.180455E-3,2.287222E-3,8.164392E-3,6.4465115E-3,1.31035E-2,2.6167394E-3,7.7619315E-3,1.4752912E-2,7.1468356E-4,1.1466122E-2,5.1758927E-3,1.35965645E-2,2.0246252E-2],"split_indices":[0,13,2,0,6,8,8,0,1,3,0,10,0,0,9,1,0,5,7,0,0,8,0,13,9,3,11,12,5,13,10,0,0,0,0,0,0,0,0,0,0,0,0,0,0,0,0,0,0,0,0,0,0,0,0,0,0,0,0,0,0],"split_type":[0,0,0,0,0,0,0,0,0,0,0,0,0,0,0,0,0,0,0,0,0,0,0,0,0,0,0,0,0,0,0,0,0,0,0,0,0,0,0,0,0,0,0,0,0,0,0,0,0,0,0,0,0,0,0,0,0,0,0,0,0],"sum_hessian":[4.36E2,2.27E2,2.09E2,1.44E2,8.3E1,1.4E2,6.9E1,1.3E1,1.31E2,6.4E1,1.9E1,8.9E1,5.1E1,3E1,3.9E1,1.1E1,2E0,4.5E1,8.6E1,6.1E1,3E0,1.7E1,2E0,6.2E1,2.7E1,2.9E1,2.2E1,2E1,1E1,1.3E1,2.6E1,1E1,1E0,4.1E1,4E0,8.1E1,5E0,2.9E1,3.2E1,1E0,2E0,1.4E1,3E0,1E0,1E0,4.2E1,2E1,2.6E1,1E0,2E1,9E0,1.3E1,9E0,1.1E1,9E0,8E0,2E0,8E0,5E0,1.7E1,9E0],"tree_param":{"num_deleted":"0","num_feature":"14","num_nodes":"61","size_leaf_vector":"1"}},{"base_weights":[1.9101595E-3,-6.81835E-2,1.464956E-1,-1.0186394E-1,5.2560616E-2,8.351806E-2,2.4284431E-1,-2.097498E-1,-7.0131004E-2,1.039948E-2,1.6207027E-1,2.4321118E-2,1.5078478E-1,2.2220004E-1,2.2783494E-2,-2.3839153E-1,-4.6418086E-2,-1.3876991E-1,-2.7218368E-2,-2.3370108E-2,7.939929E-2,7.28699E-2,2.1220961E-1,-2.2558114E-2,2.0471802E-1,1.1605955E-1,3.028702E-1,1.18906714E-1,2.4345647E-1,-1.52182905E-2,-7.2002052E-3,-3.7275136E-3,4.4659856E-3,-8.378663E-3,-1.1953163E-3,-4.20419E-3,2.9658233E-3,-2.5485612E-3,2.7948169E-3,4.380633E-3,-1.0950327E-3,6.988907E-4,6.4133764E-3,7.0242644E-3,1.5130294E-2,7.6524465E-4,-8.559519E-3,2.3457527E-3,1.1915219E-2,-9.0350426E-4,7.221681E-3,1.956273E-2,2.730306E-3,7.6481923E-3,-1.1450131E-3,1.2864338E-2,2.2144676E-3],"categories":[],"categories_nodes":[],"categories_segments":[],"categories_sizes":[],"default_left":[0,0,0,0,0,0,0,0,0,0,0,0,0,0,0,0,0,0,0,0,0,0,0,0,0,0,0,0,0,0,0,0,0,0,0,0,0,0,0,0,0,0,0,0,0,0,0,0,0,0,0,0,0,0,0,0,0],"id":14,"left_children":[1,3,5,7,9,11,13,15,17,19,21,23,25,27,-1,29,31,33,35,37,39,41,43,45,47,49,51,53,55,-1,-1,-1,-1,-1,-1,-1,-1,-1,-1,-1,-1,-1,-1,-1,-1,-1,-1,-1,-1,-1,-1,-1,-1,-1,-1,-1,-1],"loss_changes":[4.4387746E0,1.2050351E0,8.474138E-1,7.7612686E-1,2.9842293E-1,3.4674728E-1,1.4479375E-1,2.3219562E-1,5.264088E-1,1.1370013E-1,6.504032E-2,4.1054773E-1,1.8137819E-1,8.742046E-2,0E0,2.3016429E-1,4.102622E-2,2.2427726E-1,5.5612165E-1,7.5047895E-2,1.5231006E-2,2.4306957E-2,2.8808057E-2,2.2209898E-1,4.1820228E-2,1.3581306E-1,1.322338E-1,5.6627855E-2,1.0705018E-1,0E0,0E0,0E0,0E0,0E0,0E0,0E0,0E0,0E0,0E0,0E0,0E0,0E0,0E0,0E0,0E0,0E0,0E0,0E0,0E0,0E0,0E0,0E0,0E0,0E0,0E0,0E0,0E0],"parents":[2147483647,0,0,1,1,2,2,3,3,4,4,5,5,6,6,7,7,8,8,9,9,10,10,11,11,12,12,13,13,15,15,16,16,17,17,18,18,19,19,20,20,21,21,22,22,23,23,24,24,25,25,26,26,27,27,28,28],"right_children":[2,4,6,8,10,12,14,16,18,20,22,24,26,28,-1,30,32,34,36,38,40,42,44,46,48,50,52,54,56,-1,-1,-1,-1,-1,-1,-1,-1,-1,-1,-1,-1,-1,-1,-1,-1,-1,-1,-1,-1,-1,-1,-1,-1,-1,-1,-1,-1],"split_conditions":[6E3,1E0,2E0,1E0,2E0,1E0,3E0,2E0,3E0,4.8E3,4.51E3,3E0,4E0,2E0,2.2783494E-2,3.5E3,5E0,1E0,1E0,4E0,4E0,2E0,1E0,1E0,1E0,6.4E3,3E0,3E0,9.166E3,-1.52182905E-2,-7.2002052E-3,-3.7275136E-3,4.4659856E-3,-8.378663E-3,-1.1953163E-3,-4.20419E-3,2.9658233E-3,-2.5485612E-3,2.7948169E-3,4.380633E-3,-1.0950327E-3,6.988907E-4,6.4133764E-3,7.0242644E-3,1.5130294E-2,7.6524465E-4,-8.559519E-3,2.3457527E-3,1.1915219E-2,-9.0350426E-4,7.221681E-3,1.956273E-2,2.730306E-3,7.6481923E-3,-1.1450131E-3,1.2864338E-2,2.2144676E-3],"split_indices":[0,8,2,4,2,6,2,2,1,0,0,3,1,3,0,0,1,6,9,1,1,9,11,13,9,0,3,9,0,0,0,0,0,0,0,0,0,0,0,0,0,0,0,0,0,0,0,0,0,0,0,0,0,0,0,0,0],"split_type":[0,0,0,0,0,0,0,0,0,0,0,0,0,0,0,0,0,0,0,0,0,0,0,0,0,0,0,0,0,0,0,0,0,0,0,0,0,0,0,0,0,0,0,0,0,0,0,0,0,0,0,0,0,0,0,0,0],"sum_hessian":[4.36E2,2.94E2,1.42E2,2.3E2,6.4E1,8.7E1,5.5E1,5.1E1,1.79E2,4.7E1,1.7E1,4.7E1,4E1,5.2E1,3E0,4.3E1,8E0,6.8E1,1.11E2,3.2E1,1.5E1,7E0,1E1,3.8E1,9E0,3.4E1,6E0,1E1,4.2E1,2.4E1,1.9E1,7E0,1E0,5.4E1,1.4E1,6.7E1,4.4E1,2.4E1,8E0,1.4E1,1E0,4E0,3E0,7E0,3E0,3.1E1,7E0,2E0,7E0,6E0,2.8E1,4E0,2E0,8E0,2E0,3.9E1,3E0],"tree_param":{"num_deleted":"0","num_feature":"14","num_nodes":"57","size_leaf_vector":"1"}},{"base_weights":[1.9971926E-3,-8.0866754E-2,1.1321031E-1,-1.0558427E-1,4.8310373E-2,5.5664893E-2,2.2036226E-1,-1.7221642E-1,-6.2742576E-2,-1.1011533E-1,7.861522E-2,6.39913E-3,1.3519253E-1,2.0272931E-1,2.192912E-2,-2.5178835E-1,-1.1348862E-1,-9.9758E-2,6.396742E-2,-1.1830696E-2,-1.2193108E-2,3.8883284E-2,1.6176821E-1,-4.6509743E-2,1.061011E-1,1.13956474E-1,2.402619E-1,1.4036119E-1,2.4387404E-1,-1.3366043E-2,-3.423214E-3,-6.7839385E-3,-6.6895963E-4,-2.815834E-3,-7.5237215E-3,1.8317478E-3,1.4887397E-2,-2.3179532E-3,3.1117678E-3,1.0834342E-3,7.89504E-3,-7.570148E-4,1.1500073E-2,1.9412722E-4,-7.3761353E-3,-3.9553405E-3,5.8133528E-3,4.4412906E-3,1.2287387E-2,2.4859112E-4,1.6669178E-2,9.870977E-3,4.0776604E-3,9.930885E-3,1.5433234E-2],"categories":[],"categories_nodes":[],"categories_segments":[],"categories_sizes":[],"default_left":[0,0,0,0,0,0,0,0,0,0,0,0,0,0,0,0,0,0,0,0,0,0,0,0,0,0,0,0,0,0,0,0,0,0,0,0,0,0,0,0,0,0,0,0,0,0,0,0,0,0,0,0,0,0,0],"id":15,"left_children":[1,3,5,7,9,11,13,15,17,19,21,23,25,27,-1,29,31,33,35,-1,37,39,41,43,45,47,49,51,53,-1,-1,-1,-1,-1,-1,-1,-1,-1,-1,-1,-1,-1,-1,-1,-1,-1,-1,-1,-1,-1,-1,-1,-1,-1,-1],"loss_changes":[4.036354E0,8.06528E-1,1.140795E0,5.9152246E-1,2.0550045E-1,4.8104763E-1,1.611979E-1,3.5461783E-1,6.1611027E-1,8.382409E-2,1.0934393E-1,4.1111892E-1,7.748973E-2,1.2486887E-1,0E0,7.851243E-2,1.070354E-1,2.1404791E-1,1.8078592E-1,0E0,1.55997705E-2,4.779948E-2,1.3626376E-1,2.6017672E-1,6.00335E-2,1.13963306E-1,1.5171671E-1,7.449794E-2,4.4252634E-2,0E0,0E0,0E0,0E0,0E0,0E0,0E0,0E0,0E0,0E0,0E0,0E0,0E0,0E0,0E0,0E0,0E0,0E0,0E0,0E0,0E0,0E0,0E0,0E0,0E0,0E0],"parents":[2147483647,0,0,1,1,2,2,3,3,4,4,5,5,6,6,7,7,8,8,9,9,10,10,11,11,12,12,13,13,15,15,16,16,17,17,18,18,20,20,21,21,22,22,23,23,24,24,25,25,26,26,27,27,28,28],"right_children":[2,4,6,8,10,12,14,16,18,20,22,24,26,28,-1,30,32,34,36,-1,38,40,42,44,46,48,50,52,54,-1,-1,-1,-1,-1,-1,-1,-1,-1,-1,-1,-1,-1,-1,-1,-1,-1,-1,-1,-1,-1,-1,-1,-1,-1,-1],"split_conditions":[4.995E3,2E0,2E0,3.51E3,3E0,1E0,3E0,2E0,1E0,1E0,1E0,1E0,4E0,1E0,2.192912E-2,1E0,1E0,1E0,1E0,-1.1830696E-2,3.54E3,3E0,3.48E3,1E0,5.36E3,4E0,1E0,1E0,1E0,-1.3366043E-2,-3.423214E-3,-6.7839385E-3,-6.6895963E-4,-2.815834E-3,-7.5237215E-3,1.8317478E-3,1.4887397E-2,-2.3179532E-3,3.1117678E-3,1.0834342E-3,7.89504E-3,-7.570148E-4,1.1500073E-2,1.9412722E-4,-7.3761353E-3,-3.9553405E-3,5.8133528E-3,4.4412906E-3,1.2287387E-2,2.4859112E-4,1.6669178E-2,9.870977E-3,4.0776604E-3,9.930885E-3,1.5433234E-2],"split_indices":[0,2,2,0,1,8,2,3,6,12,11,10,1,8,0,10,8,13,7,0,0,3,0,13,0,3,5,6,10,0,0,0,0,0,0,0,0,0,0,0,0,0,0,0,0,0,0,0,0,0,0,0,0,0,0],"split_type":[0,0,0,0,0,0,0,0,0,0,0,0,0,0,0,0,0,0,0,0,0,0,0,0,0,0,0,0,0,0,0,0,0,0,0,0,0,0,0,0,0,0,0,0,0,0,0,0,0,0,0,0,0,0,0],"sum_hessian":[4.36E2,2.5E2,1.86E2,2.1E2,4E1,1.22E2,6.4E1,8.1E1,1.29E2,6E0,3.4E1,7.6E1,4.6E1,6.1E1,3E0,3.3E1,4.8E1,1E2,2.9E1,2E0,4E0,2.4E1,1E1,5E1,2.6E1,4E1,6E0,2.6E1,3.5E1,3E1,3E0,3.9E1,9E0,5.5E1,4.5E1,2.7E1,2E0,3E0,1E0,2.2E1,2E0,3E0,7E0,3.4E1,1.6E1,1E0,2.5E1,3.5E1,5E0,2E0,4E0,1.2E1,1.4E1,2.3E1,1.2E1],"tree_param":{"num_deleted":"0","num_feature":"14","num_nodes":"55","size_leaf_vector":"1"}},{"base_weights":[2.0811793E-3,-6.1685372E-2,1.33613E-1,-9.262761E-2,4.9227584E-2,7.6374166E-2,2.2117381E-1,-1.9308251E-1,-6.30927E-2,1.0608137E-2,1.494779E-1,2.1097243E-2,1.3922583E-1,2.0183378E-1,2.1106793E-2,-2.1913634E-1,-4.425462E-2,-1.2655959E-1,-2.3429241E-2,-1.9787412E-2,7.263595E-2,6.877601E-2,1.9458129E-1,-2.2391686E-2,1.8859434E-1,1.0667893E-1,2.8207085E-1,1.0722221E-1,2.2134294E-1,-1.400421E-2,-6.5997364E-3,-3.5285593E-3,4.156947E-3,-7.647738E-3,-1.0669994E-3,-3.8284014E-3,2.8695012E-3,-2.28096E-3,2.708308E-3,5.8164834E-3,2.1099872E-3,6.644058E-4,6.047094E-3,6.3116373E-3,1.4131653E-2,-3.6282502E-3,3.6193372E-3,1.9157091E-3,1.1068756E-2,-1.0042735E-3,6.679933E-3,1.8222008E-2,2.538252E-3,6.999239E-3,-1.3403099E-3,1.1713813E-2,1.8336893E-3],"categories":[],"categories_nodes":[],"categories_segments":[],"categories_sizes":[],"default_left":[0,0,0,0,0,0,0,0,0,0,0,0,0,0,0,0,0,0,0,0,0,0,0,0,0,0,0,0,0,0,0,0,0,0,0,0,0,0,0,0,0,0,0,0,0,0,0,0,0,0,0,0,0,0,0,0,0],"id":16,"left_children":[1,3,5,7,9,11,13,15,17,19,21,23,25,27,-1,29,31,33,35,37,39,41,43,45,47,49,51,53,55,-1,-1,-1,-1,-1,-1,-1,-1,-1,-1,-1,-1,-1,-1,-1,-1,-1,-1,-1,-1,-1,-1,-1,-1,-1,-1,-1,-1],"loss_changes":[3.6735055E0,1.0169688E0,6.9980717E-1,6.7317784E-1,2.5006908E-1,3.0279636E-1,1.3244891E-1,1.9193411E-1,4.5015174E-1,9.193501E-2,5.2136183E-2,3.538679E-1,1.6052455E-1,7.409406E-2,0E0,1.967187E-1,3.604026E-2,1.8836892E-1,4.8539367E-1,6.5512665E-2,1.6368859E-2,2.1549504E-2,3.0522794E-2,1.9071132E-1,4.078117E-2,1.22119606E-1,1.14866674E-1,5.2054718E-2,9.41093E-2,0E0,0E0,0E0,0E0,0E0,0E0,0E0,0E0,0E0,0E0,0E0,0E0,0E0,0E0,0E0,0E0,0E0,0E0,0E0,0E0,0E0,0E0,0E0,0E0,0E0,0E0,0E0,0E0],"parents":[2147483647,0,0,1,1,2,2,3,3,4,4,5,5,6,6,7,7,8,8,9,9,10,10,11,11,12,12,13,13,15,15,16,16,17,17,18,18,19,19,20,20,21,21,22,22,23,23,24,24,25,25,26,26,27,27,28,28],"right_children":[2,4,6,8,10,12,14,16,18,20,22,24,26,28,-1,30,32,34,36,38,40,42,44,46,48,50,52,54,56,-1,-1,-1,-1,-1,-1,-1,-1,-1,-1,-1,-1,-1,-1,-1,-1,-1,-1,-1,-1,-1,-1,-1,-1,-1,-1,-1,-1],"split_conditions":[6E3,1E0,2E0,1E0,2E0,1E0,3E0,2E0,3E0,4.8E3,4.51E3,3E0,4E0,2E0,2.1106793E-2,3.5E3,5E0,1E0,1E0,4E0,5.01E3,2E0,1E0,8.5E3,1E0,6.4E3,3E0,3E0,9.166E3,-1.400421E-2,-6.5997364E-3,-3.5285593E-3,4.156947E-3,-7.647738E-3,-1.0669994E-3,-3.8284014E-3,2.8695012E-3,-2.28096E-3,2.708308E-3,5.8164834E-3,2.1099872E-3,6.644058E-4,6.047094E-3,6.3116373E-3,1.4131653E-2,-3.6282502E-3,3.6193372E-3,1.9157091E-3,1.1068756E-2,-1.0042735E-3,6.679933E-3,1.8222008E-2,2.538252E-3,6.999239E-3,-1.3403099E-3,1.1713813E-2,1.8336893E-3],"split_indices":[0,8,2,4,2,6,2,2,1,0,0,3,1,3,0,0,1,6,9,1,0,9,11,0,9,0,3,9,0,0,0,0,0,0,0,0,0,0,0,0,0,0,0,0,0,0,0,0,0,0,0,0,0,0,0,0,0],"split_type":[0,0,0,0,0,0,0,0,0,0,0,0,0,0,0,0,0,0,0,0,0,0,0,0,0,0,0,0,0,0,0,0,0,0,0,0,0,0,0,0,0,0,0,0,0,0,0,0,0,0,0,0,0,0,0,0,0],"sum_hessian":[4.36E2,2.94E2,1.42E2,2.3E2,6.4E1,8.7E1,5.5E1,5.1E1,1.79E2,4.7E1,1.7E1,4.7E1,4E1,5.2E1,3E0,4.3E1,8E0,6.8E1,1.11E2,3.2E1,1.5E1,7E0,1E1,3.8E1,9E0,3.4E1,6E0,1E1,4.2E1,2.4E1,1.9E1,7E0,1E0,5.4E1,1.4E1,6.7E1,4.4E1,2.4E1,8E0,5E0,1E1,4E0,3E0,7E0,3E0,2.5E1,1.3E1,2E0,7E0,6E0,2.8E1,4E0,2E0,8E0,2E0,3.9E1,3E0],"tree_param":{"num_deleted":"0","num_feature":"14","num_nodes":"57","size_leaf_vector":"1"}},{"base_weights":[2.1728543E-3,-7.333543E-2,1.0351193E-1,-3.3430427E-2,-1.4193831E-1,5.114091E-2,2.0102152E-1,-1.8684278E-1,-1.859231E-2,-1.571101E-1,1.0170889E-1,5.57139E-3,1.2470925E-1,1.8453509E-1,2.031529E-2,-1.2370745E-1,-1.885516E-2,-7.729057E-2,1.0648169E-2,-1.8926378E-1,-3.993206E-2,1.4494896E-2,7.084608E-3,-4.2856928E-2,9.6840754E-2,1.04930945E-1,2.22738E-1,1.4523825E-1,2.4485414E-1,-7.324154E-3,3.1706095E-3,-4.739691E-3,3.1974155E-3,-2.5128303E-4,1.2721508E-2,-1.002992E-2,-1.9353152E-3,-3.661148E-3,8.6562E-3,-5.6934357E-4,1.6564608E-3,2.472319E-4,-6.9375457E-3,5.3434833E-3,-4.097772E-3,4.077085E-3,1.1388898E-2,2.5844574E-4,1.54365925E-2,5.1063183E-3,1.1346124E-2,6.794425E-3,1.3765958E-2],"categories":[],"categories_nodes":[],"categories_segments":[],"categories_sizes":[],"default_left":[0,0,0,0,0,0,0,0,0,0,0,0,0,0,0,0,0,0,0,0,0,0,0,0,0,0,0,0,0,0,0,0,0,0,0,0,0,0,0,0,0,0,0,0,0,0,0,0,0,0,0,0,0],"id":17,"left_children":[1,3,5,7,9,11,13,15,17,19,21,23,25,27,-1,29,-1,31,33,35,37,39,-1,41,43,45,47,49,51,-1,-1,-1,-1,-1,-1,-1,-1,-1,-1,-1,-1,-1,-1,-1,-1,-1,-1,-1,-1,-1,-1,-1,-1],"loss_changes":[3.3514888E0,6.823921E-1,9.446678E-1,3.6074227E-1,3.5606325E-1,4.1165948E-1,1.450088E-1,1.21519655E-1,2.531287E-1,3.2023263E-1,1.8868785E-2,3.4449193E-1,6.7753494E-2,1.1139941E-1,0E0,6.043002E-2,0E0,1.271967E-1,3.7955737E-1,1.08278275E-1,1.5453319E-1,1.8241054E-3,0E0,2.344641E-1,5.7173103E-2,9.923184E-2,1.2937137E-1,1.176877E-1,3.8939E-2,0E0,0E0,0E0,0E0,0E0,0E0,0E0,0E0,0E0,0E0,0E0,0E0,0E0,0E0,0E0,0E0,0E0,0E0,0E0,0E0,0E0,0E0,0E0,0E0],"parents":[2147483647,0,0,1,1,2,2,3,3,4,4,5,5,6,6,7,7,8,8,9,9,10,10,11,11,12,12,13,13,15,15,17,17,18,18,19,19,20,20,21,21,23,23,24,24,25,25,26,26,27,27,28,28],"right_children":[2,4,6,8,10,12,14,16,18,20,22,24,26,28,-1,30,-1,32,34,36,38,40,-1,42,44,46,48,50,52,-1,-1,-1,-1,-1,-1,-1,-1,-1,-1,-1,-1,-1,-1,-1,-1,-1,-1,-1,-1,-1,-1,-1,-1],"split_conditions":[4.995E3,1E0,2E0,2.5E3,3E0,1E0,3E0,2.4E3,3E0,1E0,4.2E3,1E0,4E0,1E0,2.031529E-2,4E0,-1.885516E-2,1E0,1E0,2E0,4.2E3,2.16E3,7.084608E-3,1E0,3E0,4E0,1E0,2E0,2E0,-7.324154E-3,3.1706095E-3,-4.739691E-3,3.1974155E-3,-2.5128303E-4,1.2721508E-2,-1.002992E-2,-1.9353152E-3,-3.661148E-3,8.6562E-3,-5.6934357E-4,1.6564608E-3,2.472319E-4,-6.9375457E-3,5.3434833E-3,-4.097772E-3,4.077085E-3,1.1388898E-2,2.5844574E-4,1.54365925E-2,5.1063183E-3,1.1346124E-2,6.794425E-3,1.3765958E-2],"split_indices":[0,13,2,0,3,8,2,0,1,6,0,10,1,10,0,1,0,5,7,9,0,0,0,13,9,3,5,9,3,0,0,0,0,0,0,0,0,0,0,0,0,0,0,0,0,0,0,0,0,0,0,0,0],"split_type":[0,0,0,0,0,0,0,0,0,0,0,0,0,0,0,0,0,0,0,0,0,0,0,0,0,0,0,0,0,0,0,0,0,0,0,0,0,0,0,0,0,0,0,0,0,0,0,0,0,0,0,0,0],"sum_hessian":[4.36E2,2.5E2,1.86E2,1.59E2,9.1E1,1.22E2,6.4E1,1.3E1,1.46E2,8.6E1,5E0,7.6E1,4.6E1,6.1E1,3E0,1.1E1,2E0,4.8E1,9.8E1,6.7E1,1.9E1,2E0,3E0,5E1,2.6E1,4E1,6E0,3.9E1,2.2E1,1E1,1E0,4.3E1,5E0,9.3E1,5E0,6.2E1,5E0,1.7E1,2E0,1E0,1E0,3.4E1,1.6E1,2.5E1,1E0,3.5E1,5E0,2E0,4E0,2.7E1,1.2E1,6E0,1.6E1],"tree_param":{"num_deleted":"0","num_feature":"14","num_nodes":"53","size_leaf_vector":"1"}},{"base_weights":[2.2293108E-3,-7.7962935E-2,8.928457E-2,-3.9886914E-2,-1.4276128E-1,3.984744E-2,1.8758957E-1,-1.7914411E-1,-2.481504E-2,-1.728959E-1,-3.768573E-2,3.5452105E-3,1.1721342E-1,1.21800266E-1,2.3388653E-1,-1.17868185E-1,-1.8226655E-2,-8.382814E-2,6.6725193E-3,-1.8585062E-1,7.112646E-2,-6.9765195E-2,1.6735299E-1,-4.098067E-2,8.359051E-2,8.117357E-2,1.5820456E-1,7.558459E-2,1.9895744E-1,1.447901E-1,2.714222E-1,-6.9912346E-3,3.0913353E-3,-4.855595E-3,2.2260572E-3,-5.3808925E-4,1.2191462E-2,-1.1432137E-2,-7.0658424E-3,-5.5511E-4,5.1118373E-3,-4.9268366E-3,-5.238056E-4,1.0712457E-2,1.8390178E-3,4.4680198E-4,-7.0619807E-3,2.254973E-3,7.6803365E-3,-1.5711103E-4,5.331271E-3,9.54051E-3,2.5161505E-3,1.5207132E-3,6.1115264E-3,1.2134128E-2,7.3146824E-5,9.071255E-3,3.2852967E-3,1.0981149E-2,1.687593E-2],"categories":[],"categories_nodes":[],"categories_segments":[],"categories_sizes":[],"default_left":[0,0,0,0,0,0,0,0,0,0,0,0,0,0,0,0,0,0,0,0,0,0,0,0,0,0,0,0,0,0,0,0,0,0,0,0,0,0,0,0,0,0,0,0,0,0,0,0,0,0,0,0,0,0,0,0,0,0,0,0,0],"id":18,"left_children":[1,3,5,7,9,11,13,15,17,19,21,23,25,27,29,31,-1,33,35,37,39,41,43,45,47,49,51,53,55,57,59,-1,-1,-1,-1,-1,-1,-1,-1,-1,-1,-1,-1,-1,-1,-1,-1,-1,-1,-1,-1,-1,-1,-1,-1,-1,-1,-1,-1,-1,-1],"loss_changes":[3.0577266E0,5.568416E-1,1.0131073E0,2.9989028E-1,2.5946283E-1,3.9559108E-1,1.8472171E-1,1.1607149E-1,2.4583891E-1,2.186997E-1,1.4322607E-1,3.4914207E-1,5.3637087E-2,9.55039E-2,9.447265E-2,5.599056E-2,0E0,8.275178E-2,3.6233968E-1,8.5841894E-2,1.13676805E-2,2.9672801E-2,1.0489903E-2,3.1655174E-1,8.739734E-2,5.6130856E-2,6.0748816E-2,4.0529713E-2,9.463516E-2,2.8640747E-2,1.8314123E-2,0E0,0E0,0E0,0E0,0E0,0E0,0E0,0E0,0E0,0E0,0E0,0E0,0E0,0E0,0E0,0E0,0E0,0E0,0E0,0E0,0E0,0E0,0E0,0E0,0E0,0E0,0E0,0E0,0E0,0E0],"parents":[2147483647,0,0,1,1,2,2,3,3,4,4,5,5,6,6,7,7,8,8,9,9,10,10,11,11,12,12,13,13,14,14,15,15,17,17,18,18,19,19,20,20,21,21,22,22,23,23,24,24,25,25,26,26,27,27,28,28,29,29,30,30],"right_children":[2,4,6,8,10,12,14,16,18,20,22,24,26,28,30,32,-1,34,36,38,40,42,44,46,48,50,52,54,56,58,60,-1,-1,-1,-1,-1,-1,-1,-1,-1,-1,-1,-1,-1,-1,-1,-1,-1,-1,-1,-1,-1,-1,-1,-1,-1,-1,-1,-1,-1,-1],"split_conditions":[4.64E3,1E0,2E0,2.5E3,1E0,1E0,1E0,2.4E3,3E0,3E0,4.2E3,1E0,2E0,7.35E3,1E0,4E0,-1.8226655E-2,1E0,1E0,3.63E3,2.16E3,3.46E3,4.32E3,1E0,3E0,1E0,8.15E3,1E0,1E0,1E0,1E0,-6.9912346E-3,3.0913353E-3,-4.855595E-3,2.2260572E-3,-5.3808925E-4,1.2191462E-2,-1.1432137E-2,-7.0658424E-3,-5.5511E-4,5.1118373E-3,-4.9268366E-3,-5.238056E-4,1.0712457E-2,1.8390178E-3,4.4680198E-4,-7.0619807E-3,2.254973E-3,7.6803365E-3,-1.5711103E-4,5.331271E-3,9.54051E-3,2.5161505E-3,1.5207132E-3,6.1115264E-3,1.2134128E-2,7.3146824E-5,9.071255E-3,3.2852967E-3,1.0981149E-2,1.687593E-2],"split_indices":[0,13,2,0,6,10,8,0,1,3,0,8,3,0,9,1,0,5,7,0,0,0,0,13,3,6,0,12,5,13,10,0,0,0,0,0,0,0,0,0,0,0,0,0,0,0,0,0,0,0,0,0,0,0,0,0,0,0,0,0,0],"split_type":[0,0,0,0,0,0,0,0,0,0,0,0,0,0,0,0,0,0,0,0,0,0,0,0,0,0,0,0,0,0,0,0,0,0,0,0,0,0,0,0,0,0,0,0,0,0,0,0,0,0,0,0,0,0,0,0,0,0,0,0,0],"sum_hessian":[4.36E2,2.27E2,2.09E2,1.44E2,8.3E1,1.4E2,6.9E1,1.3E1,1.31E2,6.4E1,1.9E1,9.6E1,4.4E1,3E1,3.9E1,1.1E1,2E0,4.5E1,8.6E1,6.1E1,3E0,1.7E1,2E0,6.2E1,3.4E1,2.5E1,1.9E1,2E1,1E1,1.3E1,2.6E1,1E1,1E0,4.1E1,4E0,8.1E1,5E0,2.9E1,3.2E1,1E0,2E0,1.1E1,6E0,1E0,1E0,4.2E1,2E1,2.3E1,1.1E1,6E0,1.9E1,1.4E1,5E0,1.1E1,9E0,8E0,2E0,8E0,5E0,1.7E1,9E0],"tree_param":{"num_deleted":"0","num_feature":"14","num_nodes":"61","size_leaf_vector":"1"}},{"base_weights":[2.2564568E-3,-5.3284768E-2,1.16818726E-1,-8.120671E-2,4.6765268E-2,6.7382164E-2,1.9241871E-1,-1.7355081E-1,-5.4078374E-2,1.1637132E-2,1.3784224E-1,1.7433783E-2,1.2421485E-1,1.7455024E-1,1.9053567E-2,-2.215508E-1,-1.03396416E-1,-2.0670151E-2,-1.1286722E-1,-1.2787096E-2,6.128478E-2,6.686604E-2,1.7693017E-1,-1.4585677E-2,2.0706E-1,9.3923405E-2,2.579271E-1,1.831658E-1,2.3218155E-2,-1.25720175E-2,-1.0907556E-3,4.566598E-3,-5.819958E-3,-3.5762496E-3,3.5183367E-4,-6.8057748E-3,5.7780744E-5,-1.8077927E-3,2.6773454E-3,5.3244513E-3,1.5528289E-3,6.6936493E-4,5.849898E-3,5.517197E-3,1.3293505E-2,-2.9499547E-3,3.4645875E-3,1.3274928E-2,2.0321212E-3,-1.2050628E-3,5.958669E-3,1.6810942E-2,2.073256E-3,4.469694E-3,1.0218697E-2,-9.39862E-4,3.7316084E-3],"categories":[],"categories_nodes":[],"categories_segments":[],"categories_sizes":[],"default_left":[0,0,0,0,0,0,0,0,0,0,0,0,0,0,0,0,0,0,0,0,0,0,0,0,0,0,0,0,0,0,0,0,0,0,0,0,0,0,0,0,0,0,0,0,0,0,0,0,0,0,0,0,0,0,0,0,0],"id":19,"left_children":[1,3,5,7,9,11,13,15,17,19,21,23,25,27,-1,29,31,33,35,37,39,41,43,45,47,49,51,53,55,-1,-1,-1,-1,-1,-1,-1,-1,-1,-1,-1,-1,-1,-1,-1,-1,-1,-1,-1,-1,-1,-1,-1,-1,-1,-1,-1,-1],"loss_changes":[2.7868247E0,8.2790685E-1,5.214833E-1,5.693023E-1,2.0635459E-1,2.476401E-1,1.2225604E-1,1.5219796E-1,3.511926E-1,5.898872E-2,3.8107008E-2,2.9446307E-1,1.4183843E-1,6.484926E-2,0E0,1.7361498E-1,6.886703E-2,1.6395034E-1,1.7246145E-1,5.309076E-2,1.8555898E-2,1.988165E-2,3.5806775E-2,1.6055004E-1,5.7285935E-2,1.0717639E-1,1.0468894E-1,8.1166506E-2,1.0043598E-2,0E0,0E0,0E0,0E0,0E0,0E0,0E0,0E0,0E0,0E0,0E0,0E0,0E0,0E0,0E0,0E0,0E0,0E0,0E0,0E0,0E0,0E0,0E0,0E0,0E0,0E0,0E0,0E0],"parents":[2147483647,0,0,1,1,2,2,3,3,4,4,5,5,6,6,7,7,8,8,9,9,10,10,11,11,12,12,13,13,15,15,16,16,17,17,18,18,19,19,20,20,21,21,22,22,23,23,24,24,25,25,26,26,27,27,28,28],"right_children":[2,4,6,8,10,12,14,16,18,20,22,24,26,28,-1,30,32,34,36,38,40,42,44,46,48,50,52,54,56,-1,-1,-1,-1,-1,-1,-1,-1,-1,-1,-1,-1,-1,-1,-1,-1,-1,-1,-1,-1,-1,-1,-1,-1,-1,-1,-1,-1],"split_conditions":[6E3,1E0,2E0,1E0,2E0,1E0,3E0,3.51E3,1E0,4.8E3,4.51E3,4E0,4E0,9.166E3,1.9053567E-2,2E0,3.57E3,3E0,1E0,4E0,5.01E3,2E0,1E0,8.5E3,4E0,6.4E3,3E0,2E0,1.07E4,-1.25720175E-2,-1.0907556E-3,4.566598E-3,-5.819958E-3,-3.5762496E-3,3.5183367E-4,-6.8057748E-3,5.7780744E-5,-1.8077927E-3,2.6773454E-3,5.3244513E-3,1.5528289E-3,6.6936493E-4,5.849898E-3,5.517197E-3,1.3293505E-2,-2.9499547E-3,3.4645875E-3,1.3274928E-2,2.0321212E-3,-1.2050628E-3,5.958669E-3,1.6810942E-2,2.073256E-3,4.469694E-3,1.0218697E-2,-9.39862E-4,3.7316084E-3],"split_indices":[0,8,2,4,2,6,2,0,13,0,0,3,1,0,0,2,0,1,10,1,0,9,11,0,1,0,3,3,0,0,0,0,0,0,0,0,0,0,0,0,0,0,0,0,0,0,0,0,0,0,0,0,0,0,0,0,0],"split_type":[0,0,0,0,0,0,0,0,0,0,0,0,0,0,0,0,0,0,0,0,0,0,0,0,0,0,0,0,0,0,0,0,0,0,0,0,0,0,0,0,0,0,0,0,0,0,0,0,0,0,0,0,0,0,0,0,0],"sum_hessian":[4.36E2,2.94E2,1.42E2,2.3E2,6.4E1,8.7E1,5.5E1,5.1E1,1.79E2,4.7E1,1.7E1,4.7E1,4E1,5.2E1,3E0,2.9E1,2.2E1,1.15E2,6.4E1,3.2E1,1.5E1,7E0,1E1,4.1E1,6E0,3.4E1,6E0,4.9E1,3E0,2.5E1,4E0,1E0,2.1E1,4E1,7.5E1,5.3E1,1.1E1,2.4E1,8E0,5E0,1E1,4E0,3E0,7E0,3E0,2.7E1,1.4E1,4E0,2E0,6E0,2.8E1,4E0,2E0,1E1,3.9E1,2E0,1E0],"tree_param":{"num_deleted":"0","num_feature":"14","num_nodes":"57","size_leaf_vector":"1"}},{"base_weights":[2.3362706E-3,-8.846044E-2,6.687793E-2,-5.0826114E-2,-1.4935684E-1,2.161395E-2,1.6440363E-1,-1.679665E-1,-3.4085605E-2,-1.6503122E-1,-2.652412E-2,-9.509278E-3,1.0480734E-1,1.3492809E-1,2.4219431E-1,-9.864946E-2,-1.5829837E-2,-4.5073234E-2,9.927976E-2,-2.161392E-1,-1.3482882E-1,-6.7283474E-2,4.1245937E-2,-5.82459E-2,4.930105E-2,8.9706965E-2,1.0836459E-2,7.8077756E-2,1.7223866E-1,2.8820395E-1,7.9136215E-2,-6.0913945E-3,3.328371E-3,-2.8550436E-3,3.7432832E-3,-6.875992E-4,1.0787475E-2,-1.2373029E-2,-1.057911E-3,-8.690035E-3,-4.471827E-3,-4.0149405E-3,-5.517006E-5,-1.0212581E-3,5.656481E-3,-3.7161813E-3,6.415836E-3,-4.7315597E-3,3.3690382E-3,1.0781169E-3,5.1008216E-3,1.217103E-2,2.7078332E-3,2.2587777E-4,9.367458E-3,1.5957166E-2,7.815437E-3,1.1873245E-5,5.926311E-3],"categories":[],"categories_nodes":[],"categories_segments":[],"categories_sizes":[],"default_left":[0,0,0,0,0,0,0,0,0,0,0,0,0,0,0,0,0,0,0,0,0,0,0,0,0,0,0,0,0,0,0,0,0,0,0,0,0,0,0,0,0,0,0,0,0,0,0,0,0,0,0,0,0,0,0,0,0,0,0],"id":20,"left_children":[1,3,5,7,9,11,13,15,17,19,21,23,25,27,29,31,-1,33,35,37,39,41,43,45,47,49,-1,51,53,55,57,-1,-1,-1,-1,-1,-1,-1,-1,-1,-1,-1,-1,-1,-1,-1,-1,-1,-1,-1,-1,-1,-1,-1,-1,-1,-1,-1,-1],"loss_changes":[2.5668101E0,4.095155E-1,1.1265333E0,2.1782765E-1,1.284703E-1,4.5670408E-1,1.5304804E-1,1.1300439E-1,1.5247717E-1,6.5016866E-2,2.763554E-2,3.7261352E-1,6.1680853E-2,1.15940094E-1,1.3473976E-1,5.023393E-2,0E0,1.3987754E-1,1.0828521E-1,1.230126E-1,5.6985795E-2,5.079532E-3,2.0043273E-2,2.2250165E-1,1.5990928E-1,3.47085E-2,0E0,8.965188E-2,9.0390086E-2,1.5407205E-2,1.8618785E-2,0E0,0E0,0E0,0E0,0E0,0E0,0E0,0E0,0E0,0E0,0E0,0E0,0E0,0E0,0E0,0E0,0E0,0E0,0E0,0E0,0E0,0E0,0E0,0E0,0E0,0E0,0E0,0E0],"parents":[2147483647,0,0,1,1,2,2,3,3,4,4,5,5,6,6,7,7,8,8,9,9,10,10,11,11,12,12,13,13,14,14,15,15,17,17,18,18,19,19,20,20,21,21,22,22,23,23,24,24,25,25,27,27,28,28,29,29,30,30],"right_children":[2,4,6,8,10,12,14,16,18,20,22,24,26,28,30,32,-1,34,36,38,40,42,44,46,48,50,-1,52,54,56,58,-1,-1,-1,-1,-1,-1,-1,-1,-1,-1,-1,-1,-1,-1,-1,-1,-1,-1,-1,-1,-1,-1,-1,-1,-1,-1,-1,-1],"split_conditions":[4.1E3,1E0,2E0,2.5E3,1E0,1E0,7.35E3,2.398E3,1E0,1E0,1E0,1E0,4E0,1E0,1E0,4E0,-1.5829837E-2,1E0,1E0,1E0,3.63E3,4E0,3.52E3,4E0,1E0,5.4E3,1.0836459E-2,4.32E3,1E0,9E3,1E0,-6.0913945E-3,3.328371E-3,-2.8550436E-3,3.7432832E-3,-6.875992E-4,1.0787475E-2,-1.2373029E-2,-1.057911E-3,-8.690035E-3,-4.471827E-3,-4.0149405E-3,-5.517006E-5,-1.0212581E-3,5.656481E-3,-3.7161813E-3,6.415836E-3,-4.7315597E-3,3.3690382E-3,1.0781169E-3,5.1008216E-3,1.217103E-2,2.7078332E-3,2.2587777E-4,9.367458E-3,1.5957166E-2,7.815437E-3,1.1873245E-5,5.926311E-3],"split_indices":[0,13,2,0,10,10,0,0,7,4,9,9,1,8,5,1,0,5,11,8,0,1,0,3,4,0,0,0,4,0,8,0,0,0,0,0,0,0,0,0,0,0,0,0,0,0,0,0,0,0,0,0,0,0,0,0,0,0,0],"split_type":[0,0,0,0,0,0,0,0,0,0,0,0,0,0,0,0,0,0,0,0,0,0,0,0,0,0,0,0,0,0,0,0,0,0,0,0,0,0,0,0,0,0,0,0,0,0,0,0,0,0,0,0,0,0,0,0,0,0,0],"sum_hessian":[4.36E2,1.81E2,2.55E2,1.13E2,6.8E1,1.75E2,8E1,1.3E1,1E2,6E1,8E0,1.28E2,4.7E1,6E1,2E1,1E1,3E0,9.3E1,7E0,2E1,4E1,5E0,3E0,7E1,5.8E1,4.3E1,4E0,2.5E1,3.5E1,1.5E1,5E0,9E0,1E0,8.5E1,8E0,4E0,3E0,1.7E1,3E0,2E1,2E1,4E0,1E0,2E0,1E0,6.5E1,5E0,6E0,5.2E1,7E0,3.6E1,2E0,2.3E1,3E0,3.2E1,1.1E1,4E0,2E0,3E0],"tree_param":{"num_deleted":"0","num_feature":"14","num_nodes":"59","size_leaf_vector":"1"}},{"base_weights":[2.3085661E-3,-8.4222116E-2,6.381746E-2,-4.835132E-2,-1.4226629E-1,2.0637484E-2,1.5685272E-1,-1.6089638E-1,-3.227229E-2,-1.5721571E-1,-2.513504E-2,-1.6591992E-2,8.604832E-2,1.2858325E-1,2.3149963E-1,-1.0327363E-1,-1.688776E-2,-4.280988E-2,9.557843E-2,-1.6984943E-1,-6.534873E-2,-6.459761E-2,4.034257E-2,-4.937143E-2,1.2123983E-1,2.5243482E-2,1.3895719E-1,7.474646E-2,1.6389363E-1,2.7527976E-1,7.6169334E-2,-6.2231366E-3,3.245163E-3,-2.9283834E-3,2.2042815E-3,-6.6009525E-4,1.0382962E-2,-1.0609706E-2,-5.026837E-3,4.1918756E-4,-5.1806136E-3,-3.8543416E-3,-5.3787233E-5,-9.872119E-4,5.515075E-3,-4.7941967E-3,4.1417737E-4,8.199434E-3,-1.0044257E-3,5.3140284E-3,-1.2320471E-3,4.108234E-3,1.0711023E-2,1.1765338E-2,2.5780997E-3,2.1740199E-4,8.9133E-3,1.5225808E-2,7.5028227E-3,1.1491776E-5,5.704081E-3],"categories":[],"categories_nodes":[],"categories_segments":[],"categories_sizes":[],"default_left":[0,0,0,0,0,0,0,0,0,0,0,0,0,0,0,0,0,0,0,0,0,0,0,0,0,0,0,0,0,0,0,0,0,0,0,0,0,0,0,0,0,0,0,0,0,0,0,0,0,0,0,0,0,0,0,0,0,0,0,0,0],"id":21,"left_children":[1,3,5,7,9,11,13,15,17,19,21,23,25,27,29,31,-1,33,35,37,39,41,43,45,47,49,51,53,55,57,59,-1,-1,-1,-1,-1,-1,-1,-1,-1,-1,-1,-1,-1,-1,-1,-1,-1,-1,-1,-1,-1,-1,-1,-1,-1,-1,-1,-1,-1,-1],"loss_changes":[2.3312662E0,3.7206173E-1,1.0251818E0,2.0110366E-1,1.168704E-1,4.300249E-1,1.4116144E-1,1.0779405E-1,1.401628E-1,5.969858E-2,2.5861263E-2,5.165254E-1,2.0238763E-1,1.0371041E-1,1.2184012E-1,5.0840244E-2,0E0,1.312944E-1,1.00279E-1,1.3422298E-1,2.626004E-2,4.6771076E-3,1.8992253E-2,2.4750857E-1,1.3621E-1,1.2793599E-1,1.2772793E-1,8.4652245E-2,8.177465E-2,1.28827095E-2,1.7248023E-2,0E0,0E0,0E0,0E0,0E0,0E0,0E0,0E0,0E0,0E0,0E0,0E0,0E0,0E0,0E0,0E0,0E0,0E0,0E0,0E0,0E0,0E0,0E0,0E0,0E0,0E0,0E0,0E0,0E0,0E0],"parents":[2147483647,0,0,1,1,2,2,3,3,4,4,5,5,6,6,7,7,8,8,9,9,10,10,11,11,12,12,13,13,14,14,15,15,17,17,18,18,19,19,20,20,21,21,22,22,23,23,24,24,25,25,26,26,27,27,28,28,29,29,30,30],"right_children":[2,4,6,8,10,12,14,16,18,20,22,24,26,28,30,32,-1,34,36,38,40,42,44,46,48,50,52,54,56,58,60,-1,-1,-1,-1,-1,-1,-1,-1,-1,-1,-1,-1,-1,-1,-1,-1,-1,-1,-1,-1,-1,-1,-1,-1,-1,-1,-1,-1,-1,-1],"split_conditions":[4.1E3,1E0,2E0,2.5E3,1E0,1E0,7.35E3,2.4E3,1E0,1E0,1E0,3E0,6.4E3,1E0,1E0,4E0,-1.688776E-2,1E0,1E0,3.64E3,2.99E3,4E0,3.52E3,1E0,4E0,4.785E3,1E0,4.32E3,1E0,9E3,1E0,-6.2231366E-3,3.245163E-3,-2.9283834E-3,2.2042815E-3,-6.6009525E-4,1.0382962E-2,-1.0609706E-2,-5.026837E-3,4.1918756E-4,-5.1806136E-3,-3.8543416E-3,-5.3787233E-5,-9.872119E-4,5.515075E-3,-4.7941967E-3,4.1417737E-4,8.199434E-3,-1.0044257E-3,5.3140284E-3,-1.2320471E-3,4.108234E-3,1.0711023E-2,1.1765338E-2,2.5780997E-3,2.1740199E-4,8.9133E-3,1.5225808E-2,7.5028227E-3,1.1491776E-5,5.704081E-3],"split_indices":[0,13,2,0,10,6,0,0,7,8,9,3,0,8,5,1,0,8,11,0,0,1,0,12,1,0,11,0,4,0,8,0,0,0,0,0,0,0,0,0,0,0,0,0,0,0,0,0,0,0,0,0,0,0,0,0,0,0,0,0,0],"split_type":[0,0,0,0,0,0,0,0,0,0,0,0,0,0,0,0,0,0,0,0,0,0,0,0,0,0,0,0,0,0,0,0,0,0,0,0,0,0,0,0,0,0,0,0,0,0,0,0,0,0,0,0,0,0,0,0,0,0,0,0,0],"sum_hessian":[4.36E2,1.81E2,2.55E2,1.13E2,6.8E1,1.75E2,8E1,1.3E1,1E2,6E1,8E0,1.12E2,6.3E1,6E1,2E1,1.1E1,2E0,9.3E1,7E0,5.2E1,8E0,5E0,3E0,9.1E1,2.1E1,3E1,3.3E1,2.5E1,3.5E1,1.5E1,5E0,1E1,1E0,7.9E1,1.4E1,4E0,3E0,3.1E1,2.1E1,3E0,5E0,4E0,1E0,2E0,1E0,5E1,4.1E1,1.6E1,5E0,1.1E1,1.9E1,2E1,1.3E1,2E0,2.3E1,3E0,3.2E1,1.1E1,4E0,2E0,3E0],"tree_param":{"num_deleted":"0","num_feature":"14","num_nodes":"61","size_leaf_vector":"1"}},{"base_weights":[2.291629E-3,-6.455025E-2,7.48519E-2,-9.275786E-2,-2.1454757E-3,3.3905875E-2,1.562596E-1,-1.06961474E-1,5.9962068E-2,-4.9831513E-2,7.9176866E-2,-1.5553475E-3,9.4629034E-2,1.4251834E-1,1.7368032E-2,-1.8427707E-1,-8.138868E-2,1.1157816E-2,1.7918324E-1,-6.748786E-2,5.818067E-2,-4.5324463E-2,1.16906986E-1,-3.5377532E-2,7.4600115E-2,5.7211716E-2,1.3931991E-1,9.03889E-2,1.7992269E-1,-1.0265025E-2,1.4989853E-3,-4.632398E-3,2.0234443E-3,1.7723751E-3,-5.793476E-3,-2.9806853E-3,1.3932674E-2,-7.661623E-3,-2.2328102E-3,4.291145E-3,-2.6918172E-3,-3.5727024E-3,2.7863265E-3,7.2227116E-3,-6.7520145E-6,4.590212E-4,-6.2465305E-3,4.175748E-3,-4.1525126E-3,1.3844694E-3,5.674372E-3,4.359474E-3,9.918528E-3,4.9378886E-3,-3.8077116E-3,6.8182275E-3,1.2242671E-2],"categories":[],"categories_nodes":[],"categories_segments":[],"categories_sizes":[],"default_left":[0,0,0,0,0,0,0,0,0,0,0,0,0,0,0,0,0,0,0,0,0,0,0,0,0,0,0,0,0,0,0,0,0,0,0,0,0,0,0,0,0,0,0,0,0,0,0,0,0,0,0,0,0,0,0,0,0],"id":22,"left_children":[1,3,5,7,9,11,13,15,17,19,21,23,25,27,-1,29,31,33,35,37,39,41,43,45,47,49,51,53,55,-1,-1,-1,-1,-1,-1,-1,-1,-1,-1,-1,-1,-1,-1,-1,-1,-1,-1,-1,-1,-1,-1,-1,-1,-1,-1,-1,-1],"loss_changes":[2.12431E0,4.0114695E-1,6.946995E-1,3.4697413E-1,2.831572E-1,3.037649E-1,1.3431239E-1,2.697153E-1,7.9459704E-2,9.165311E-2,1.3212991E-1,2.3445615E-1,7.898438E-2,1.14378095E-1,0E0,1.638093E-1,1.5467244E-1,3.804728E-2,1.116243E-1,7.146488E-2,2.629519E-2,2.2464829E-2,6.772742E-2,2.5253594E-1,4.6287894E-2,4.6699315E-2,5.3505898E-2,4.933417E-2,7.408464E-2,0E0,0E0,0E0,0E0,0E0,0E0,0E0,0E0,0E0,0E0,0E0,0E0,0E0,0E0,0E0,0E0,0E0,0E0,0E0,0E0,0E0,0E0,0E0,0E0,0E0,0E0,0E0,0E0],"parents":[2147483647,0,0,1,1,2,2,3,3,4,4,5,5,6,6,7,7,8,8,9,9,10,10,11,11,12,12,13,13,15,15,16,16,17,17,18,18,19,19,20,20,21,21,22,22,23,23,24,24,25,25,26,26,27,27,28,28],"right_children":[2,4,6,8,10,12,14,16,18,20,22,24,26,28,-1,30,32,34,36,38,40,42,44,46,48,50,52,54,56,-1,-1,-1,-1,-1,-1,-1,-1,-1,-1,-1,-1,-1,-1,-1,-1,-1,-1,-1,-1,-1,-1,-1,-1,-1,-1,-1,-1],"split_conditions":[4.64E3,1E0,2E0,2E0,3.792E3,1E0,3E0,1E0,1E0,1E0,1E0,1E0,6.5E3,1E0,1.7368032E-2,1E0,3E0,1E0,3.185E3,3E0,3.76E3,2E0,4E0,1E0,3E0,3E0,1E0,3E0,1E0,-1.0265025E-2,1.4989853E-3,-4.632398E-3,2.0234443E-3,1.7723751E-3,-5.793476E-3,-2.9806853E-3,1.3932674E-2,-7.661623E-3,-2.2328102E-3,4.291145E-3,-2.6918172E-3,-3.5727024E-3,2.7863265E-3,7.2227116E-3,-6.7520145E-6,4.590212E-4,-6.2465305E-3,4.175748E-3,-4.1525126E-3,1.3844694E-3,5.674372E-3,4.359474E-3,9.918528E-3,4.9378886E-3,-3.8077116E-3,6.8182275E-3,1.2242671E-2],"split_indices":[0,6,2,2,0,8,2,4,11,5,4,10,0,8,0,8,3,7,0,1,0,9,1,13,9,3,11,9,10,0,0,0,0,0,0,0,0,0,0,0,0,0,0,0,0,0,0,0,0,0,0,0,0,0,0,0,0],"split_type":[0,0,0,0,0,0,0,0,0,0,0,0,0,0,0,0,0,0,0,0,0,0,0,0,0,0,0,0,0,0,0,0,0,0,0,0,0,0,0,0,0,0,0,0,0,0,0,0,0,0,0,0,0,0,0,0,0],"sum_hessian":[4.36E2,2.27E2,2.09E2,1.56E2,7.1E1,1.4E2,6.9E1,1.43E2,1.3E1,4.5E1,2.6E1,8.9E1,5.1E1,6.6E1,3E0,3.4E1,1.09E2,1E1,3E0,3.9E1,6E0,6E0,2E1,6.2E1,2.7E1,2.9E1,2.2E1,2.9E1,3.7E1,3.1E1,3E0,1E2,9E0,9E0,1E0,1E0,2E0,7E0,3.2E1,5E0,1E0,5E0,1E0,1.6E1,4E0,4.2E1,2E1,2.6E1,1E0,2E1,9E0,1.3E1,9E0,2.8E1,1E0,2.4E1,1.3E1],"tree_param":{"num_deleted":"0","num_feature":"14","num_nodes":"57","size_leaf_vector":"1"}},{"base_weights":[2.2841133E-3,-7.663081E-2,5.8378767E-2,-4.317491E-2,-1.3079518E-1,1.9121809E-2,1.429571E-1,-1.5163408E-1,-2.7713493E-2,-1.4438812E-1,-2.413241E-2,-1.5111535E-2,7.926628E-2,1.1639381E-1,2.1330969E-1,-9.652368E-2,-1.6076548E-2,-3.7642002E-2,9.241068E-2,-1.9097814E-1,-1.1700328E-1,-6.173436E-2,3.8303614E-2,-3.5665948E-2,1.7872629E-1,2.2807028E-2,1.2841247E-1,6.7286015E-2,1.4862739E-1,2.5505006E-1,6.645044E-2,-5.850354E-3,3.219843E-3,-2.6210367E-3,2.184369E-3,-4.3680193E-4,9.787071E-3,-1.0905923E-2,-1.0551095E-3,-7.631118E-3,-3.7906307E-3,-3.7054063E-3,3.361702E-6,-9.108384E-4,5.1966193E-3,-3.8616068E-3,3.293065E-4,9.5085045E-3,1.6072035E-3,3.204314E-4,1.2868977E-2,3.759407E-3,9.953833E-3,1.1020565E-2,2.2670885E-3,1.338482E-4,8.090724E-3,1.414413E-2,6.8620965E-3,-1.5349388E-4,5.098903E-3],"categories":[],"categories_nodes":[],"categories_segments":[],"categories_sizes":[],"default_left":[0,0,0,0,0,0,0,0,0,0,0,0,0,0,0,0,0,0,0,0,0,0,0,0,0,0,0,0,0,0,0,0,0,0,0,0,0,0,0,0,0,0,0,0,0,0,0,0,0,0,0,0,0,0,0,0,0,0,0,0,0],"id":23,"left_children":[1,3,5,7,9,11,13,15,17,19,21,23,25,27,29,31,-1,33,35,37,39,41,43,45,47,49,51,53,55,57,59,-1,-1,-1,-1,-1,-1,-1,-1,-1,-1,-1,-1,-1,-1,-1,-1,-1,-1,-1,-1,-1,-1,-1,-1,-1,-1,-1,-1,-1,-1],"loss_changes":[1.9389439E0,3.241582E-1,8.472601E-1,1.86968E-1,9.655595E-2,3.6357242E-1,1.2654471E-1,1.0004786E-1,1.23936586E-1,5.5482507E-2,2.3494095E-2,4.5659158E-1,1.7465577E-1,8.655757E-2,1.1178094E-1,4.7089286E-2,0E0,1.1527297E-1,8.5322514E-2,9.2217505E-2,4.858339E-2,4.593296E-3,1.6730763E-2,1.8140322E-1,1.2339205E-2,1.1759558E-1,1.1290759E-1,7.7371836E-2,6.885475E-2,1.3639092E-2,1.5132407E-2,0E0,0E0,0E0,0E0,0E0,0E0,0E0,0E0,0E0,0E0,0E0,0E0,0E0,0E0,0E0,0E0,0E0,0E0,0E0,0E0,0E0,0E0,0E0,0E0,0E0,0E0,0E0,0E0,0E0,0E0],"parents":[2147483647,0,0,1,1,2,2,3,3,4,4,5,5,6,6,7,7,8,8,9,9,10,10,11,11,12,12,13,13,14,14,15,15,17,17,18,18,19,19,20,20,21,21,22,22,23,23,24,24,25,25,26,26,27,27,28,28,29,29,30,30],"right_children":[2,4,6,8,10,12,14,16,18,20,22,24,26,28,30,32,-1,34,36,38,40,42,44,46,48,50,52,54,56,58,60,-1,-1,-1,-1,-1,-1,-1,-1,-1,-1,-1,-1,-1,-1,-1,-1,-1,-1,-1,-1,-1,-1,-1,-1,-1,-1,-1,-1,-1,-1],"split_conditions":[4.1E3,1E0,2E0,2.5E3,1E0,1E0,7.35E3,2.4E3,1E0,1E0,1E0,4E0,6.4E3,1E0,1E0,4E0,-1.6076548E-2,1E0,1E0,1E0,3.63E3,4E0,3.52E3,1E0,7.02E3,1E0,1E0,4.32E3,1E0,9E3,1E0,-5.850354E-3,3.219843E-3,-2.6210367E-3,2.184369E-3,-4.3680193E-4,9.787071E-3,-1.0905923E-2,-1.0551095E-3,-7.631118E-3,-3.7906307E-3,-3.7054063E-3,3.361702E-6,-9.108384E-4,5.1966193E-3,-3.8616068E-3,3.293065E-4,9.5085045E-3,1.6072035E-3,3.204314E-4,1.2868977E-2,3.759407E-3,9.953833E-3,1.1020565E-2,2.2670885E-3,1.338482E-4,8.090724E-3,1.414413E-2,6.8620965E-3,-1.5349388E-4,5.098903E-3],"split_indices":[0,13,2,0,10,6,0,0,7,4,9,3,0,8,5,1,0,8,11,8,0,1,0,9,0,7,11,0,4,0,8,0,0,0,0,0,0,0,0,0,0,0,0,0,0,0,0,0,0,0,0,0,0,0,0,0,0,0,0,0,0],"split_type":[0,0,0,0,0,0,0,0,0,0,0,0,0,0,0,0,0,0,0,0,0,0,0,0,0,0,0,0,0,0,0,0,0,0,0,0,0,0,0,0,0,0,0,0,0,0,0,0,0,0,0,0,0,0,0,0,0,0,0,0,0],"sum_hessian":[4.36E2,1.81E2,2.55E2,1.13E2,6.8E1,1.75E2,8E1,1.3E1,1E2,6E1,8E0,1.12E2,6.3E1,6E1,2E1,1.1E1,2E0,9.3E1,7E0,2E1,4E1,5E0,3E0,1.02E2,1E1,3E1,3.3E1,2.5E1,3.5E1,1.5E1,5E0,1E1,1E0,7.9E1,1.4E1,4E0,3E0,1.7E1,3E0,2E1,2E1,4E0,1E0,2E0,1E0,5.1E1,5.1E1,9E0,1E0,2.9E1,1E0,2E1,1.3E1,2E0,2.3E1,3E0,3.2E1,1.1E1,4E0,2E0,3E0],"tree_param":{"num_deleted":"0","num_feature":"14","num_nodes":"61","size_leaf_vector":"1"}},{"base_weights":[2.2828737E-3,-4.197256E-2,9.356308E-2,-6.487035E-2,4.0048394E-2,4.700756E-2,1.4567073E-1,-1.4208366E-1,-4.220389E-2,1.2458761E-2,1.11395836E-1,1.8278034E-2,1.09690346E-1,-4.1264534E-2,1.5205741E-1,-1.8444213E-1,-8.0655925E-2,-9.281721E-2,-1.0645645E-2,-9.0600215E-3,5.606258E-2,4.513232E-2,1.3341008E-1,-2.444604E-2,7.692552E-2,1.4906913E-1,2.7495809E-2,-3.7235022E-3,6.286621E-4,1.2409389E-1,2.1322732E-1,-1.0522485E-2,-6.1572075E-4,4.3903114E-3,-4.6152244E-3,-6.383297E-3,-2.0173863E-3,-2.6932864E-3,2.7450637E-3,-1.5569401E-3,2.6638296E-3,5.1021976E-3,1.2942618E-3,-3.084302E-3,3.9416603E-3,1.0143518E-3,8.265915E-3,-3.724657E-3,1.8620109E-3,-1.1160756E-3,4.949723E-3,5.861572E-3,1.2397766E-2,3.9054013E-3,-1.4307785E-3,4.6897954E-3,9.805984E-3,4.4409516E-3,1.2565732E-2],"categories":[],"categories_nodes":[],"categories_segments":[],"categories_sizes":[],"default_left":[0,0,0,0,0,0,0,0,0,0,0,0,0,0,0,0,0,0,0,0,0,0,0,0,0,0,0,0,0,0,0,0,0,0,0,0,0,0,0,0,0,0,0,0,0,0,0,0,0,0,0,0,0,0,0,0,0,0,0],"id":24,"left_children":[1,3,5,7,9,11,13,15,17,19,21,23,25,27,29,31,33,35,37,39,41,43,45,47,49,51,53,-1,-1,55,57,-1,-1,-1,-1,-1,-1,-1,-1,-1,-1,-1,-1,-1,-1,-1,-1,-1,-1,-1,-1,-1,-1,-1,-1,-1,-1,-1,-1],"loss_changes":[1.769252E0,5.5663705E-1,3.4005582E-1,3.982888E-1,1.2656137E-1,1.3666026E-1,8.62658E-2,1.2042689E-1,2.8652003E-1,4.554638E-2,2.0236254E-2,1.3718615E-1,7.358253E-2,6.2994626E-3,8.472395E-2,1.3170707E-1,5.3238764E-2,1.2101507E-1,3.2024693E-1,4.707741E-2,1.9560095E-2,2.6462145E-2,4.357037E-2,1.0156513E-1,5.258605E-2,2.1304756E-2,2.7794395E-2,0E0,0E0,8.4169924E-2,6.770766E-2,0E0,0E0,0E0,0E0,0E0,0E0,0E0,0E0,0E0,0E0,0E0,0E0,0E0,0E0,0E0,0E0,0E0,0E0,0E0,0E0,0E0,0E0,0E0,0E0,0E0,0E0,0E0,0E0],"parents":[2147483647,0,0,1,1,2,2,3,3,4,4,5,5,6,6,7,7,8,8,9,9,10,10,11,11,12,12,13,13,14,14,15,15,16,16,17,17,18,18,19,19,20,20,21,21,22,22,23,23,24,24,25,25,26,26,29,29,30,30],"right_children":[2,4,6,8,10,12,14,16,18,20,22,24,26,28,30,32,34,36,38,40,42,44,46,48,50,52,54,-1,-1,56,58,-1,-1,-1,-1,-1,-1,-1,-1,-1,-1,-1,-1,-1,-1,-1,-1,-1,-1,-1,-1,-1,-1,-1,-1,-1,-1,-1,-1],"split_conditions":[6E3,1E0,1E0,1E0,2E0,2E0,1E0,3.51E3,3E0,4.8E3,1E0,1E0,1E0,6.5E3,4E0,2E0,3.57E3,1E0,1E0,4E0,5.01E3,1E0,3.48E3,1E0,6.1E3,5E0,6.67E3,-3.7235022E-3,6.286621E-4,4E0,6.254E3,-1.0522485E-2,-6.1572075E-4,4.3903114E-3,-4.6152244E-3,-6.383297E-3,-2.0173863E-3,-2.6932864E-3,2.7450637E-3,-1.5569401E-3,2.6638296E-3,5.1021976E-3,1.2942618E-3,-3.084302E-3,3.9416603E-3,1.0143518E-3,8.265915E-3,-3.724657E-3,1.8620109E-3,-1.1160756E-3,4.949723E-3,5.861572E-3,1.2397766E-2,3.9054013E-3,-1.4307785E-3,4.6897954E-3,9.805984E-3,4.4409516E-3,1.2565732E-2],"split_indices":[0,8,8,4,2,2,4,0,1,0,9,6,5,0,1,2,0,12,9,1,0,4,0,12,0,1,0,0,0,3,0,0,0,0,0,0,0,0,0,0,0,0,0,0,0,0,0,0,0,0,0,0,0,0,0,0,0,0,0],"split_type":[0,0,0,0,0,0,0,0,0,0,0,0,0,0,0,0,0,0,0,0,0,0,0,0,0,0,0,0,0,0,0,0,0,0,0,0,0,0,0,0,0,0,0,0,0,0,0,0,0,0,0,0,0,0,0,0,0,0,0],"sum_hessian":[4.36E2,2.94E2,1.42E2,2.3E2,6.4E1,7.6E1,6.6E1,5.1E1,1.79E2,4.7E1,1.7E1,5.3E1,2.3E1,2E0,6.4E1,2.9E1,2.2E1,6.8E1,1.11E2,3.2E1,1.5E1,5E0,1.2E1,3.1E1,2.2E1,1.5E1,8E0,1E0,1E0,4.6E1,1.8E1,2.5E1,4E0,1E0,2.1E1,4E1,2.8E1,6.7E1,4.4E1,2.4E1,8E0,5E0,1E1,1E0,4E0,3E0,9E0,1.7E1,1.4E1,4E0,1.8E1,1.3E1,2E0,4E0,4E0,3.4E1,1.2E1,5E0,1.3E1],"tree_param":{"num_deleted":"0","num_feature":"14","num_nodes":"59","size_leaf_vector":"1"}},{"base_weights":[2.2809794E-3,-7.610554E-2,4.9649097E-2,-4.3037593E-2,-1.263172E-1,1.5234167E-2,1.3103715E-1,-1.407799E-1,-2.6998617E-2,-1.7835042E-1,-8.70553E-2,-1.5472289E-2,6.941083E-2,1.0624628E-1,1.9680886E-1,-8.764116E-2,-1.5320413E-2,-7.552242E-2,-1.8678923E-3,-1.9371442E-1,-4.157877E-2,-9.784884E-2,7.508341E-2,-3.3009503E-2,1.676836E-1,2.4007127E-2,1.16779245E-1,1.12594716E-1,-5.4021835E-2,2.3601466E-1,5.9458572E-2,-5.3990497E-3,3.4024238E-3,-4.777386E-3,2.1856786E-3,-5.929777E-4,6.9241165E-3,-1.0127428E-2,2.367735E-4,-4.0349644E-3,1.8945694E-3,-7.416185E-3,-3.539467E-3,6.331682E-4,4.998088E-3,-2.3466416E-3,3.1006655E-3,8.890567E-3,1.6601563E-3,2.192974E-4,1.2245926E-2,3.3315022E-3,9.183084E-3,1.4533201E-4,6.1348598E-3,-3.182173E-4,-3.7334205E-3,1.3142324E-2,6.22077E-3,-1.00692116E-4,4.5349123E-3],"categories":[],"categories_nodes":[],"categories_segments":[],"categories_sizes":[],"default_left":[0,0,0,0,0,0,0,0,0,0,0,0,0,0,0,0,0,0,0,0,0,0,0,0,0,0,0,0,0,0,0,0,0,0,0,0,0,0,0,0,0,0,0,0,0,0,0,0,0,0,0,0,0,0,0,0,0,0,0,0,0],"id":25,"left_children":[1,3,5,7,9,11,13,15,17,19,21,23,25,27,29,31,-1,33,35,37,39,41,43,45,47,49,51,53,55,57,59,-1,-1,-1,-1,-1,-1,-1,-1,-1,-1,-1,-1,-1,-1,-1,-1,-1,-1,-1,-1,-1,-1,-1,-1,-1,-1,-1,-1,-1,-1],"loss_changes":[1.6263691E0,2.6852894E-1,7.62667E-1,1.5453547E-1,1.17263556E-1,3.2214358E-1,1.1116338E-1,9.636396E-2,1.07169524E-1,4.8682332E-2,7.559878E-2,4.0382862E-1,1.4774558E-1,6.814718E-2,9.90504E-2,4.5348354E-2,0E0,7.580879E-2,8.437992E-2,4.3034434E-2,1.5493462E-2,4.0035784E-2,3.3928696E-3,1.5373632E-1,9.077936E-3,1.5930384E-1,1.0180199E-1,6.502253E-2,2.4766764E-3,1.5208423E-2,1.170492E-2,0E0,0E0,0E0,0E0,0E0,0E0,0E0,0E0,0E0,0E0,0E0,0E0,0E0,0E0,0E0,0E0,0E0,0E0,0E0,0E0,0E0,0E0,0E0,0E0,0E0,0E0,0E0,0E0,0E0,0E0],"parents":[2147483647,0,0,1,1,2,2,3,3,4,4,5,5,6,6,7,7,8,8,9,9,10,10,11,11,12,12,13,13,14,14,15,15,17,17,18,18,19,19,20,20,21,21,22,22,23,23,24,24,25,25,26,26,27,27,28,28,29,29,30,30],"right_children":[2,4,6,8,10,12,14,16,18,20,22,24,26,28,30,32,-1,34,36,38,40,42,44,46,48,50,52,54,56,58,60,-1,-1,-1,-1,-1,-1,-1,-1,-1,-1,-1,-1,-1,-1,-1,-1,-1,-1,-1,-1,-1,-1,-1,-1,-1,-1,-1,-1,-1,-1],"split_conditions":[4.032E3,1E0,2E0,2.5E3,3E0,1E0,7.35E3,2.4E3,3E0,1E0,1E0,4E0,6.4E3,3E0,1E0,4E0,-1.5320413E-2,1E0,1E0,2E0,3.21E3,1E0,2.176E3,8.5E3,7.02E3,1E0,1E0,1E0,7.231E3,9E3,1E0,-5.3990497E-3,3.4024238E-3,-4.777386E-3,2.1856786E-3,-5.929777E-4,6.9241165E-3,-1.0127428E-2,2.367735E-4,-4.0349644E-3,1.8945694E-3,-7.416185E-3,-3.539467E-3,6.331682E-4,4.998088E-3,-2.3466416E-3,3.1006655E-3,8.890567E-3,1.6601563E-3,2.192974E-4,1.2245926E-2,3.3315022E-3,9.183084E-3,1.4533201E-4,6.1348598E-3,-3.182173E-4,-3.7334205E-3,1.3142324E-2,6.22077E-3,-1.00692116E-4,4.5349123E-3],"split_indices":[0,13,2,0,1,6,0,0,1,8,5,3,0,9,5,1,0,5,7,9,0,4,0,0,0,7,11,4,0,0,8,0,0,0,0,0,0,0,0,0,0,0,0,0,0,0,0,0,0,0,0,0,0,0,0,0,0,0,0,0,0],"split_type":[0,0,0,0,0,0,0,0,0,0,0,0,0,0,0,0,0,0,0,0,0,0,0,0,0,0,0,0,0,0,0,0,0,0,0,0,0,0,0,0,0,0,0,0,0,0,0,0,0,0,0,0,0,0,0,0,0,0,0,0,0],"sum_hessian":[4.36E2,1.64E2,2.72E2,1E2,6.4E1,1.92E2,8E1,1.3E1,8.7E1,2.6E1,3.8E1,1.23E2,6.9E1,6E1,2E1,1.1E1,2E0,2.9E1,5.8E1,2.3E1,3E0,3.6E1,2E0,1.13E2,1E1,3.6E1,3.3E1,5.8E1,2E0,1.5E1,5E0,1E1,1E0,2.5E1,4E0,5.5E1,3E0,2.2E1,1E0,2E0,1E0,1.1E1,2.5E1,1E0,1E0,9.9E1,1.4E1,9E0,1E0,3.4E1,2E0,2E1,1.3E1,5E0,5.3E1,1E0,1E0,1.1E1,4E0,2E0,3E0],"tree_param":{"num_deleted":"0","num_feature":"14","num_nodes":"61","size_leaf_vector":"1"}},{"base_weights":[2.2387756E-3,-7.248788E-2,4.739504E-2,-4.102016E-2,-1.2026869E-1,1.4660711E-2,1.2480652E-1,-1.3497803E-1,-2.5606178E-2,-1.6987878E-1,-8.283943E-2,-8.079364E-3,8.165357E-2,1.00970425E-1,1.8810154E-1,-7.4570484E-2,-1.33677125E-2,-7.183307E-2,-1.6669742E-3,-1.8444113E-1,-4.003501E-2,-9.3252875E-2,7.320627E-2,-1.97372E-2,1.3572858E-1,6.738171E-2,9.688483E-3,5.765053E-2,1.2945229E-1,2.2542393E-1,5.722491E-2,-4.764848E-3,3.317356E-3,-4.5477245E-3,2.0982455E-3,-5.63848E-4,6.6644787E-3,-9.643091E-3,2.308607E-4,-3.9004644E-3,1.8471957E-3,-7.0762956E-3,-3.3693188E-3,6.1733724E-4,4.873133E-3,3.8855555E-4,-4.149729E-3,8.307155E-3,-3.789266E-5,7.283476E-4,3.9203707E-3,1.0447851E-2,1.8167555E-3,4.7594435E-3,9.933507E-3,9.216606E-3,1.7102225E-2,-9.732247E-5,4.3648602E-3],"categories":[],"categories_nodes":[],"categories_segments":[],"categories_sizes":[],"default_left":[0,0,0,0,0,0,0,0,0,0,0,0,0,0,0,0,0,0,0,0,0,0,0,0,0,0,0,0,0,0,0,0,0,0,0,0,0,0,0,0,0,0,0,0,0,0,0,0,0,0,0,0,0,0,0,0,0,0,0],"id":26,"left_children":[1,3,5,7,9,11,13,15,17,19,21,23,25,27,29,31,-1,33,35,37,39,41,43,45,47,49,-1,51,53,55,57,-1,-1,-1,-1,-1,-1,-1,-1,-1,-1,-1,-1,-1,-1,-1,-1,-1,-1,-1,-1,-1,-1,-1,-1,-1,-1,-1,-1],"loss_changes":[1.4780381E0,2.4315292E-1,6.8995565E-1,1.4281844E-1,1.0662383E-1,2.9468033E-1,1.03212595E-1,9.201455E-2,9.7264126E-2,4.366827E-2,7.020068E-2,2.4576989E-1,6.5348625E-2,6.780064E-2,8.9677274E-2,3.8450655E-2,0E0,6.909625E-2,7.8022E-2,3.909844E-2,1.45748425E-2,3.6663294E-2,3.225349E-3,2.3555894E-1,4.5788765E-2,2.5062248E-2,0E0,7.6261714E-2,6.646788E-2,1.3624728E-2,1.0846429E-2,0E0,0E0,0E0,0E0,0E0,0E0,0E0,0E0,0E0,0E0,0E0,0E0,0E0,0E0,0E0,0E0,0E0,0E0,0E0,0E0,0E0,0E0,0E0,0E0,0E0,0E0,0E0,0E0],"parents":[2147483647,0,0,1,1,2,2,3,3,4,4,5,5,6,6,7,7,8,8,9,9,10,10,11,11,12,12,13,13,14,14,15,15,17,17,18,18,19,19,20,20,21,21,22,22,23,23,24,24,25,25,27,27,28,28,29,29,30,30],"right_children":[2,4,6,8,10,12,14,16,18,20,22,24,26,28,30,32,-1,34,36,38,40,42,44,46,48,50,-1,52,54,56,58,-1,-1,-1,-1,-1,-1,-1,-1,-1,-1,-1,-1,-1,-1,-1,-1,-1,-1,-1,-1,-1,-1,-1,-1,-1,-1,-1,-1],"split_conditions":[4.032E3,1E0,2E0,2.5E3,3E0,1E0,7.35E3,2.398E3,3E0,1E0,1E0,4E0,4E0,1E0,1E0,4E0,-1.33677125E-2,1E0,1E0,2E0,3.21E3,1E0,2.176E3,1E0,7.02E3,3E0,9.688483E-3,4.32E3,1E0,3E0,1E0,-4.764848E-3,3.317356E-3,-4.5477245E-3,2.0982455E-3,-5.63848E-4,6.6644787E-3,-9.643091E-3,2.308607E-4,-3.9004644E-3,1.8471957E-3,-7.0762956E-3,-3.3693188E-3,6.1733724E-4,4.873133E-3,3.8855555E-4,-4.149729E-3,8.307155E-3,-3.789266E-5,7.283476E-4,3.9203707E-3,1.0447851E-2,1.8167555E-3,4.7594435E-3,9.933507E-3,9.216606E-3,1.7102225E-2,-9.732247E-5,4.3648602E-3],"split_indices":[0,13,2,0,1,10,0,0,1,8,5,3,1,8,5,1,0,5,7,9,0,4,0,13,0,1,0,0,10,9,8,0,0,0,0,0,0,0,0,0,0,0,0,0,0,0,0,0,0,0,0,0,0,0,0,0,0,0,0],"split_type":[0,0,0,0,0,0,0,0,0,0,0,0,0,0,0,0,0,0,0,0,0,0,0,0,0,0,0,0,0,0,0,0,0,0,0,0,0,0,0,0,0,0,0,0,0,0,0,0,0,0,0,0,0,0,0,0,0,0,0],"sum_hessian":[4.36E2,1.64E2,2.72E2,1E2,6.4E1,1.92E2,8E1,1.3E1,8.7E1,2.6E1,3.8E1,1.44E2,4.8E1,6E1,2E1,1E1,3E0,2.9E1,5.8E1,2.3E1,3E0,3.6E1,2E0,1.34E2,1E1,4.4E1,4E0,2.5E1,3.5E1,1.5E1,5E0,9E0,1E0,2.5E1,4E0,5.5E1,3E0,2.2E1,1E0,2E0,1E0,1.1E1,2.5E1,1E0,1E0,9.4E1,4E1,8E0,2E0,8E0,3.6E1,2E0,2.3E1,2.5E1,1E1,1.3E1,2E0,2E0,3E0],"tree_param":{"num_deleted":"0","num_feature":"14","num_nodes":"59","size_leaf_vector":"1"}},{"base_weights":[2.2385572E-3,-5.095491E-2,5.9980806E-2,-7.5240225E-2,2.708276E-3,1.8374212E-2,1.14187516E-1,-8.6847864E-2,4.9526896E-2,-4.2957623E-2,6.449084E-2,-8.173919E-3,7.372223E-2,8.9457825E-2,1.7589557E-1,-1.65197E-1,-6.8999745E-2,4.1896645E-3,1.6182256E-1,-5.9623692E-2,9.229603E-2,4.4473417E-2,1.1824783E-2,-1.9000428E-2,1.0384656E-2,-3.6121607E-2,8.387926E-2,-7.6265815E-3,9.543542E-2,2.558867E-2,2.1219286E-1,-1.0654442E-2,-1.5402138E-3,-3.9044232E-3,5.759287E-3,1.4396382E-3,-6.046033E-3,-2.7444125E-3,1.2617779E-2,-3.3870272E-3,6.0174945E-3,6.0191157E-4,5.467546E-3,1.5126194E-3,1.1066556E-2,8.030831E-4,-4.7688503E-3,1.1533737E-3,-3.177023E-3,4.550324E-3,-4.139328E-3,-3.5814524E-3,4.955381E-3,-1.2599946E-3,2.0393182E-3,1.2574523E-2,6.09051E-3],"categories":[],"categories_nodes":[],"categories_segments":[],"categories_sizes":[],"default_left":[0,0,0,0,0,0,0,0,0,0,0,0,0,0,0,0,0,0,0,0,0,0,0,0,0,0,0,0,0,0,0,0,0,0,0,0,0,0,0,0,0,0,0,0,0,0,0,0,0,0,0,0,0,0,0,0,0],"id":27,"left_children":[1,3,5,7,9,11,13,15,17,19,21,23,25,27,29,31,33,35,37,39,41,43,-1,45,-1,47,49,-1,51,53,55,-1,-1,-1,-1,-1,-1,-1,-1,-1,-1,-1,-1,-1,-1,-1,-1,-1,-1,-1,-1,-1,-1,-1,-1,-1,-1],"loss_changes":[1.3453064E0,2.9733968E-1,4.7152674E-1,2.316767E-1,2.0590806E-1,1.7692897E-1,1.2313259E-1,1.899687E-1,7.059847E-2,1.00177206E-1,9.6218124E-2,1.9558732E-1,4.6541646E-2,1.1147344E-1,1.3096362E-1,1.6078013E-1,2.0820177E-1,3.7340757E-2,9.232928E-2,6.366366E-2,5.5275485E-3,6.6242054E-2,0E0,2.1308778E-1,0E0,7.957304E-3,5.029714E-2,0E0,4.75896E-2,5.6590247E-3,4.0402234E-2,0E0,0E0,0E0,0E0,0E0,0E0,0E0,0E0,0E0,0E0,0E0,0E0,0E0,0E0,0E0,0E0,0E0,0E0,0E0,0E0,0E0,0E0,0E0,0E0,0E0,0E0],"parents":[2147483647,0,0,1,1,2,2,3,3,4,4,5,5,6,6,7,7,8,8,9,9,10,10,11,11,12,12,13,13,14,14,15,15,16,16,17,17,18,18,19,19,20,20,21,21,23,23,25,25,26,26,28,28,29,29,30,30],"right_children":[2,4,6,8,10,12,14,16,18,20,22,24,26,28,30,32,34,36,38,40,42,44,-1,46,-1,48,50,-1,52,54,56,-1,-1,-1,-1,-1,-1,-1,-1,-1,-1,-1,-1,-1,-1,-1,-1,-1,-1,-1,-1,-1,-1,-1,-1,-1,-1],"split_conditions":[4.64E3,1E0,1E0,2E0,3.62E3,1E0,4E0,3.036E3,1E0,1E0,1E0,5E0,5.36E3,4.8E3,1E0,1E0,3E0,1E0,3.185E3,3E0,2.176E3,4.56E3,1.1824783E-2,1E0,1.0384656E-2,4.9E3,3E0,-7.6265815E-3,1E0,4.96E3,3E0,-1.0654442E-2,-1.5402138E-3,-3.9044232E-3,5.759287E-3,1.4396382E-3,-6.046033E-3,-2.7444125E-3,1.2617779E-2,-3.3870272E-3,6.0174945E-3,6.0191157E-4,5.467546E-3,1.5126194E-3,1.1066556E-2,8.030831E-4,-4.7688503E-3,1.1533737E-3,-3.177023E-3,4.550324E-3,-4.139328E-3,-3.5814524E-3,4.955381E-3,-1.2599946E-3,2.0393182E-3,1.2574523E-2,6.09051E-3],"split_indices":[0,6,8,2,0,10,1,0,11,5,7,1,0,0,9,10,3,7,0,2,0,0,0,13,0,0,9,0,4,0,3,0,0,0,0,0,0,0,0,0,0,0,0,0,0,0,0,0,0,0,0,0,0,0,0,0,0],"split_type":[0,0,0,0,0,0,0,0,0,0,0,0,0,0,0,0,0,0,0,0,0,0,0,0,0,0,0,0,0,0,0,0,0,0,0,0,0,0,0,0,0,0,0,0,0,0,0,0,0,0,0,0,0,0,0,0,0],"sum_hessian":[4.36E2,2.27E2,2.09E2,1.56E2,7.1E1,1.19E2,9E1,1.43E2,1.3E1,4.1E1,3E1,8.1E1,3.8E1,6.6E1,2.4E1,2.5E1,1.18E2,1E1,3E0,3.7E1,4E0,2.8E1,2E0,7.8E1,3E0,3E0,3.5E1,1E0,6.5E1,5E0,1.9E1,1.8E1,7E0,1.13E2,5E0,9E0,1E0,1E0,2E0,3.6E1,1E0,1E0,3E0,2.7E1,1E0,5.4E1,2.4E1,1E0,2E0,3.4E1,1E0,1E0,6.4E1,1E0,4E0,1.2E1,7E0],"tree_param":{"num_deleted":"0","num_feature":"14","num_nodes":"57","size_leaf_vector":"1"}},{"base_weights":[2.232065E-3,-3.4523513E-2,7.80409E-2,-5.4446287E-2,3.6810096E-2,3.0040476E-2,1.16547056E-1,-1.2283102E-1,-3.4388218E-2,1.4144123E-2,9.520769E-2,3.3692752E-3,1.1871986E-1,-6.393933E-2,1.2451282E-1,-1.6056004E-1,-6.827877E-2,-7.750427E-2,-7.518615E-3,-3.8782177E-3,5.0431192E-2,3.292942E-2,1.1662784E-1,-6.991601E-2,4.906729E-2,1.5981596E-2,6.322325E-2,-4.5555276E-3,4.3935777E-4,1.4217974E-1,2.795931E-2,-9.207152E-3,-2.90823E-4,4.0367604E-3,-3.9360956E-3,-5.3994204E-3,-1.5866723E-3,-2.316076E-3,2.564198E-3,2.6477428E-4,-7.435918E-3,3.0657514E-3,-2.8206587E-3,-3.1676292E-3,3.2428168E-3,8.5948705E-4,7.237015E-3,-6.3466853E-3,-1.024723E-5,-3.268063E-3,3.1579284E-3,3.4754616E-5,5.835976E-3,5.340875E-3,1.073179E-2,-2.7209818E-3,6.656901E-3],"categories":[],"categories_nodes":[],"categories_segments":[],"categories_sizes":[],"default_left":[0,0,0,0,0,0,0,0,0,0,0,0,0,0,0,0,0,0,0,0,0,0,0,0,0,0,0,0,0,0,0,0,0,0,0,0,0,0,0,0,0,0,0,0,0,0,0,0,0,0,0,0,0,0,0,0,0],"id":28,"left_children":[1,3,5,7,9,11,13,15,17,19,21,23,25,27,29,31,33,35,37,39,41,43,45,47,49,-1,51,-1,-1,53,55,-1,-1,-1,-1,-1,-1,-1,-1,-1,-1,-1,-1,-1,-1,-1,-1,-1,-1,-1,-1,-1,-1,-1,-1,-1,-1],"loss_changes":[1.2203498E0,4.2124736E-1,2.608075E-1,3.1263077E-1,8.468986E-2,1.5333706E-1,1.21540666E-1,9.606373E-2,2.0794931E-1,3.158652E-2,2.0171702E-2,1.7422917E-1,1.4704089E-1,8.704871E-3,1.2566566E-1,1.0840845E-1,4.214763E-2,9.2847735E-2,2.5792715E-1,4.4635307E-2,2.2064999E-2,2.2552745E-2,3.385277E-2,7.946926E-2,5.5726334E-2,0E0,4.3404166E-2,0E0,0E0,1.4105439E-1,1.1988397E-1,0E0,0E0,0E0,0E0,0E0,0E0,0E0,0E0,0E0,0E0,0E0,0E0,0E0,0E0,0E0,0E0,0E0,0E0,0E0,0E0,0E0,0E0,0E0,0E0,0E0,0E0],"parents":[2147483647,0,0,1,1,2,2,3,3,4,4,5,5,6,6,7,7,8,8,9,9,10,10,11,11,12,12,13,13,14,14,15,15,16,16,17,17,18,18,19,19,20,20,21,21,22,22,23,23,24,24,26,26,29,29,30,30],"right_children":[2,4,6,8,10,12,14,16,18,20,22,24,26,28,30,32,34,36,38,40,42,44,46,48,50,-1,52,-1,-1,54,56,-1,-1,-1,-1,-1,-1,-1,-1,-1,-1,-1,-1,-1,-1,-1,-1,-1,-1,-1,-1,-1,-1,-1,-1,-1,-1],"split_conditions":[6E3,1E0,2E0,1E0,2E0,8.8E3,1E0,3.51E3,3E0,4.8E3,1E0,1E0,8.96E3,2E0,9E3,2E0,3.57E3,1E0,1E0,4.75E3,4E0,1E0,2E0,2E0,6.1E3,1.5981596E-2,1.05E4,-4.5555276E-3,4.3935777E-4,2E0,1.1175E4,-9.207152E-3,-2.90823E-4,4.0367604E-3,-3.9360956E-3,-5.3994204E-3,-1.5866723E-3,-2.316076E-3,2.564198E-3,2.6477428E-4,-7.435918E-3,3.0657514E-3,-2.8206587E-3,-3.1676292E-3,3.2428168E-3,8.5948705E-4,7.237015E-3,-6.3466853E-3,-1.024723E-5,-3.268063E-3,3.1579284E-3,3.4754616E-5,5.835976E-3,5.340875E-3,1.073179E-2,-2.7209818E-3,6.656901E-3],"split_indices":[0,8,3,4,2,0,4,0,1,0,9,6,0,2,0,2,0,12,9,0,3,4,3,9,0,0,0,0,0,9,0,0,0,0,0,0,0,0,0,0,0,0,0,0,0,0,0,0,0,0,0,0,0,0,0,0,0],"split_type":[0,0,0,0,0,0,0,0,0,0,0,0,0,0,0,0,0,0,0,0,0,0,0,0,0,0,0,0,0,0,0,0,0,0,0,0,0,0,0,0,0,0,0,0,0,0,0,0,0,0,0,0,0,0,0,0,0],"sum_hessian":[4.36E2,2.94E2,1.42E2,2.3E2,6.4E1,6.4E1,7.8E1,5.1E1,1.79E2,4.7E1,1.7E1,5E1,1.4E1,3E0,7.5E1,2.9E1,2.2E1,6.8E1,1.11E2,3.2E1,1.5E1,5E0,1.2E1,1.9E1,3.1E1,2E0,1.2E1,2E0,1E0,6.3E1,1.2E1,2.5E1,4E0,1E0,2.1E1,4E1,2.8E1,6.7E1,4.4E1,3.1E1,1E0,1.4E1,1E0,1E0,4E0,3E0,9E0,1E1,9E0,3E0,2.8E1,6E0,6E0,4.4E1,1.9E1,7E0,5E0],"tree_param":{"num_deleted":"0","num_feature":"14","num_nodes":"57","size_leaf_vector":"1"}},{"base_weights":[2.1580406E-3,-6.3038684E-2,4.1554753E-2,-3.4295924E-2,-1.067307E-1,1.2236659E-2,1.1089842E-1,-1.2188053E-1,-1.9972282E-2,-1.5233256E-1,-7.2423495E-2,-1.4572644E-2,5.9552614E-2,8.836279E-2,1.7107818E-1,-1.2428487E-2,-6.473169E-2,-2.8573245E-2,8.3635055E-2,-1.6568585E-1,-3.412962E-2,-8.199192E-2,6.972822E-2,-3.0032309E-2,1.469705E-1,2.1142496E-2,9.9600315E-2,9.435243E-2,-5.88878E-2,2.0544678E-1,5.0915558E-2,4.564365E-4,-6.3901744E-3,-3.9308695E-3,-2.6224038E-4,6.6687684E-3,-1.3571898E-3,-8.6842785E-3,4.5769216E-4,-3.5366376E-3,1.8919945E-3,-6.1633866E-3,-2.9894004E-3,5.802393E-4,4.649377E-3,-2.1034302E-3,2.6105912E-3,7.7892686E-3,1.4705419E-3,1.4509066E-4,1.1345148E-2,2.64418E-3,8.1280535E-3,-1.7809869E-5,5.1564174E-3,-6.320715E-4,-3.7845136E-3,8.340525E-3,1.5863355E-2,-1.2812615E-4,3.914762E-3],"categories":[],"categories_nodes":[],"categories_segments":[],"categories_sizes":[],"default_left":[0,0,0,0,0,0,0,0,0,0,0,0,0,0,0,0,0,0,0,0,0,0,0,0,0,0,0,0,0,0,0,0,0,0,0,0,0,0,0,0,0,0,0,0,0,0,0,0,0,0,0,0,0,0,0,0,0,0,0,0,0],"id":29,"left_children":[1,3,5,7,9,11,13,15,17,19,21,23,25,27,29,-1,31,33,35,37,39,41,43,45,47,49,51,53,55,57,59,-1,-1,-1,-1,-1,-1,-1,-1,-1,-1,-1,-1,-1,-1,-1,-1,-1,-1,-1,-1,-1,-1,-1,-1,-1,-1,-1,-1,-1,-1],"loss_changes":[1.1250701E0,2.0355141E-1,5.5365855E-1,1.2427337E-1,9.065825E-2,2.4568984E-1,9.473425E-2,8.527164E-2,8.080855E-2,3.6961913E-2,5.8763698E-2,3.140918E-1,1.0557079E-1,5.9356898E-2,7.626587E-2,0E0,5.2410286E-2,9.531871E-2,4.2191524E-2,3.515798E-2,1.3213758E-2,2.6539966E-2,2.9766336E-3,1.1504678E-1,6.8172514E-3,1.382104E-1,9.1408074E-2,4.907489E-2,1.3743257E-3,1.6201615E-2,8.985907E-3,0E0,0E0,0E0,0E0,0E0,0E0,0E0,0E0,0E0,0E0,0E0,0E0,0E0,0E0,0E0,0E0,0E0,0E0,0E0,0E0,0E0,0E0,0E0,0E0,0E0,0E0,0E0,0E0,0E0,0E0],"parents":[2147483647,0,0,1,1,2,2,3,3,4,4,5,5,6,6,7,7,8,8,9,9,10,10,11,11,12,12,13,13,14,14,16,16,17,17,18,18,19,19,20,20,21,21,22,22,23,23,24,24,25,25,26,26,27,27,28,28,29,29,30,30],"right_children":[2,4,6,8,10,12,14,16,18,20,22,24,26,28,30,-1,32,34,36,38,40,42,44,46,48,50,52,54,56,58,60,-1,-1,-1,-1,-1,-1,-1,-1,-1,-1,-1,-1,-1,-1,-1,-1,-1,-1,-1,-1,-1,-1,-1,-1,-1,-1,-1,-1,-1,-1],"split_conditions":[4.032E3,1E0,2E0,2.5E3,3E0,1E0,7.35E3,2E0,1E0,1E0,1E0,4E0,6.4E3,3E0,1E0,-1.2428487E-2,1E0,3E0,3.745E3,2E0,3.21E3,1E0,2.176E3,8.5E3,7.02E3,1E0,1E0,1E0,7.231E3,3E0,1E0,4.564365E-4,-6.3901744E-3,-3.9308695E-3,-2.6224038E-4,6.6687684E-3,-1.3571898E-3,-8.6842785E-3,4.5769216E-4,-3.5366376E-3,1.8919945E-3,-6.1633866E-3,-2.9894004E-3,5.802393E-4,4.649377E-3,-2.1034302E-3,2.6105912E-3,7.7892686E-3,1.4705419E-3,1.4509066E-4,1.1345148E-2,2.64418E-3,8.1280535E-3,-1.7809869E-5,5.1564174E-3,-6.320715E-4,-3.7845136E-3,8.340525E-3,1.5863355E-2,-1.2812615E-4,3.914762E-3],"split_indices":[0,13,2,0,1,6,0,3,5,8,5,3,0,9,5,0,11,1,0,9,0,4,0,0,0,7,11,4,0,9,8,0,0,0,0,0,0,0,0,0,0,0,0,0,0,0,0,0,0,0,0,0,0,0,0,0,0,0,0,0,0],"split_type":[0,0,0,0,0,0,0,0,0,0,0,0,0,0,0,0,0,0,0,0,0,0,0,0,0,0,0,0,0,0,0,0,0,0,0,0,0,0,0,0,0,0,0,0,0,0,0,0,0,0,0,0,0,0,0,0,0,0,0,0,0],"sum_hessian":[4.36E2,1.64E2,2.72E2,1E2,6.4E1,1.92E2,8E1,1.3E1,8.7E1,2.6E1,3.8E1,1.23E2,6.9E1,6E1,2E1,3E0,1E1,8.1E1,6E0,2.3E1,3E0,