{"learner":{"attributes":{"best_iteration":"121","best_score":"0.2320204211305867"},"feature_names":["area","bedrooms","bathrooms","stories","mainroad","guestroom","basement","hotwaterheating","airconditioning","parking","prefarea","furnish_furnished","furnish_semi-furnished","furnish_unfurnished"],"feature_types":["int","int","int","int","int","int","int","int","int","int","int","i","i","i"],"gradient_booster":{"model":{"cats":{"enc":[],"feature_segments":[],"sorted_idx":[]},"gbtree_model_param":{"num_parallel_tree":"1","num_trees":"172"},"iteration_indptr":[0,1,2,3,4,5,6,7,8,9,10,11,12,13,14,15,16,17,18,19,20,21,22,23,24,25,26,27,28,29,30,31,32,33,34,35,36,37,38,39,40,41,42,43,44,45,46,47,48,49,50,51,52,53,54,55,56,57,58,59,60,61,62,63,64,65,66,67,68,69,70,71,72,73,74,75,76,77,78,79,80,81,82,83,84,85,86,87,88,89,90,91,92,93,94,95,96,97,98,99,100,101,102,103,104,105,106,107,108,109,110,111,112,113,114,115,116,117,118,119,120,121,122,123,124,125,126,127,128,129,130,131,132,133,134,135,136,137,138,139,140,141,142,143,144,145,146,147,148,149,150,151,152,153,154,155,156,157,158,159,160,161,162,163,164,165,166,167,168,169,170,171,172],"tree_info":[0,0,0,0,0,0,0,0,0,0,0,0,0,0,0,0,0,0,0,0,0,0,0,0,0,0,0,0,0,0,0,0,0,0,0,0,0,0,0,0,0,0,0,0,0,0,0,0,0,0,0,0,0,0,0,0,0,0,0,0,0,0,0,0,0,0,0,0,0,0,0,0,0,0,0,0,0,0,0,0,0,0,0,0,0,0,0,0,0,0,0,0,0,0,0,0,0,0,0,0,0,0,0,0,0,0,0,0,0,0,0,0,0,0,0,0,0,0,0,0,0,0,0,0,0,0,0,0,0,0,0,0,0,0,0,0,0,0,0,0,0,0,0,0,0,0,0,0,0,0,0,0,0,0,0,0,0,0,0,0,0,0,0,0,0,0,0,0,0,0,0,0],"trees":[{"base_weights":[-4.3209957E-7,-2.0462763E-1,2.0092312E-1,-1.0230194E-1,-3.563522E-1,8.4755234E-2,4.0865836E-1,-1.4160241E-1,4.7324896E-2,-4.106062E-1,-1.4056918E-1,4.0054102E-3,2.0651804E-1,2.023175E-1,4.6197248E-1,-2.2655396E-1,-7.552872E-2,-1.6448037E-1,1.0052084E-1,-4.291388E-1,1.401577E-1,-2.0834279E-1,1.6566753E-1,-8.9945406E-2,1.3960089E-1,1.304245E-3,2.4496846E-1,1.1819414E-1,3.5086522E-1,2.257328E-1,5.030622E-1,-1.807618E-2,-7.6968945E-3,-5.5230204E-3,1.8315188E-3,-1.014245E-2,6.840706E-4,6.6160583E-3,-4.1805506E-3,-2.2067202E-2,-9.4762705E-3,2.2155286E-3,8.296299E-3,-1.0941147E-2,-1.2785196E-3,2.333514E-3,1.3066483E-2,-8.593152E-4,-1.07705975E-2,-1.7761061E-3,1.2006395E-2,2.0796563E-3,-9.032393E-3,5.0709564E-3,1.3557143E-2,8.236671E-3,1.8221379E-3,2.0778283E-2,6.840706E-4,1.3217953E-2,1.7304898E-3,2.150642E-2,3.1395916E-2],"categories":[],"categories_nodes":[],"categories_segments":[],"categories_sizes":[],"default_left":[0,0,0,0,0,0,0,0,0,0,0,0,0,0,0,0,0,0,0,0,0,0,0,0,0,0,0,0,0,0,0,0,0,0,0,0,0,0,0,0,0,0,0,0,0,0,0,0,0,0,0,0,0,0,0,0,0,0,0,0,0,0,0],"id":0,"left_children":[1,3,5,7,9,11,13,15,17,19,21,23,25,27,29,31,33,35,37,39,41,43,45,47,49,51,53,55,57,59,61,-1,-1,-1,-1,-1,-1,-1,-1,-1,-1,-1,-1,-1,-1,-1,-1,-1,-1,-1,-1,-1,-1,-1,-1,-1,-1,-1,-1,-1,-1,-1,-1],"loss_changes":[1.8008118E1,3.3325405E0,5.2985706E0,7.770344E-1,9.607973E-1,1.4051952E0,7.756052E-1,5.666473E-1,3.3201477E-1,7.644367E-1,4.288562E-1,1.120876E0,4.4944215E-1,1.8346375E-1,4.8827744E-1,3.85391E-1,2.3912057E-1,4.3790206E-2,1.4573891E-1,1.1229801E-1,5.717203E-5,2.505225E-2,3.333778E-2,4.7099715E-1,6.422951E-1,8.082018E-2,1.5285182E-1,4.3457106E-2,1.2521023E-1,7.205653E-2,2.0343876E-1,0E0,0E0,0E0,0E0,0E0,0E0,0E0,0E0,0E0,0E0,0E0,0E0,0E0,0E0,0E0,0E0,0E0,0E0,0E0,0E0,0E0,0E0,0E0,0E0,0E0,0E0,0E0,0E0,0E0,0E0,0E0,0E0],"parents":[2147483647,0,0,1,1,2,2,3,3,4,4,5,5,6,6,7,7,8,8,9,9,10,10,11,11,12,12,13,13,14,14,15,15,16,16,17,17,18,18,19,19,20,20,21,21,22,22,23,23,24,24,25,25,26,26,27,27,28,28,29,29,30,30],"right_children":[2,4,6,8,10,12,14,16,18,20,22,24,26,28,30,32,34,36,38,40,42,44,46,48,50,52,54,56,58,60,62,-1,-1,-1,-1,-1,-1,-1,-1,-1,-1,-1,-1,-1,-1,-1,-1,-1,-1,-1,-1,-1,-1,-1,-1,-1,-1,-1,-1,-1,-1,-1,-1],"split_conditions":[4.51E3,1E0,2E0,2E0,1E0,1E0,5.948E3,3.51E3,3E0,3E0,4.12E3,1E0,4.99E3,1E0,2E0,1E0,1E0,3.62E3,4.5E3,2E0,4.2E3,1E0,2E0,1E0,6E3,4.96E3,3E0,1E0,4E0,1E0,2E0,-1.807618E-2,-7.6968945E-3,-5.5230204E-3,1.8315188E-3,-1.014245E-2,6.840706E-4,6.6160583E-3,-4.1805506E-3,-2.2067202E-2,-9.4762705E-3,2.2155286E-3,8.296299E-3,-1.0941147E-2,-1.2785196E-3,2.333514E-3,1.3066483E-2,-8.593152E-4,-1.07705975E-2,-1.7761061E-3,1.2006395E-2,2.0796563E-3,-9.032393E-3,5.0709564E-3,1.3557143E-2,8.236671E-3,1.8221379E-3,2.0778283E-2,6.840706E-4,1.3217953E-2,1.7304898E-3,2.150642E-2,3.1395916E-2],"split_indices":[0,13,2,2,6,8,0,0,1,3,0,6,0,5,3,4,6,0,0,9,0,8,2,13,0,0,1,9,1,11,9,0,0,0,0,0,0,0,0,0,0,0,0,0,0,0,0,0,0,0,0,0,0,0,0,0,0,0,0,0,0,0,0],"split_type":[0,0,0,0,0,0,0,0,0,0,0,0,0,0,0,0,0,0,0,0,0,0,0,0,0,0,0,0,0,0,0,0,0,0,0,0,0,0,0,0,0,0,0,0,0,0,0,0,0,0,0,0,0,0,0,0,0,0,0,0,0,0,0],"sum_hessian":[4.36E2,2.16E2,2.2E2,1.3E2,8.6E1,1.42E2,7.8E1,1.03E2,2.7E1,6.8E1,1.8E1,8.6E1,5.6E1,1.7E1,6.1E1,4.4E1,5.9E1,5E0,2.2E1,6.6E1,2E0,1.5E1,3E0,5.1E1,3.5E1,9E0,4.7E1,1.2E1,5E0,1E1,5.1E1,1.4E1,3E1,4.5E1,1.4E1,4E0,1E0,1.9E1,3E0,6.2E1,4E0,1E0,1E0,1.4E1,1E0,2E0,1E0,3.3E1,1.8E1,1.3E1,2.2E1,8E0,1E0,8E0,3.9E1,7E0,5E0,4E0,1E0,8E0,2E0,3.5E1,1.6E1],"tree_param":{"num_deleted":"0","num_feature":"14","num_nodes":"63","size_leaf_vector":"1"}},{"base_weights":[1.261098E-4,-1.9464664E-1,1.9137299E-1,-9.746534E-2,-3.387398E-1,8.0589175E-2,3.8948327E-1,-1.3480565E-1,4.470815E-2,-3.903808E-1,-1.3337307E-1,3.7889262E-3,1.9639677E-1,1.9395256E-1,4.399683E-1,-2.1579893E-1,-7.181392E-2,-1.5783279E-1,9.560108E-2,-4.081528E-1,1.366539E-1,-1.9868904E-1,1.6123414E-1,-6.518249E-2,1.7744534E-1,5.43499E-4,2.3310792E-1,1.1305794E-1,3.368988E-1,2.1580505E-1,4.7892648E-1,-1.7232634E-2,-7.3244544E-3,-6.596257E-3,-5.662595E-4,-9.736757E-3,6.66976E-4,6.301816E-3,-4.0237666E-3,-2.0981362E-2,-9.097205E-3,2.1601438E-3,8.088899E-3,-1.0430543E-2,-1.2465477E-3,2.255726E-3,1.2739825E-2,3.249461E-4,-1.0981123E-2,-1.3516427E-3,1.0884042E-2,1.9872137E-3,-8.806586E-3,9.437207E-3,1.6368343E-2,7.876307E-3,1.7462015E-3,1.994714E-2,6.66976E-4,1.263049E-2,1.6727925E-3,2.0460974E-2,2.991846E-2],"categories":[],"categories_nodes":[],"categories_segments":[],"categories_sizes":[],"default_left":[0,0,0,0,0,0,0,0,0,0,0,0,0,0,0,0,0,0,0,0,0,0,0,0,0,0,0,0,0,0,0,0,0,0,0,0,0,0,0,0,0,0,0,0,0,0,0,0,0,0,0,0,0,0,0,0,0,0,0,0,0,0,0],"id":1,"left_children":[1,3,5,7,9,11,13,15,17,19,21,23,25,27,29,31,33,35,37,39,41,43,45,47,49,51,53,55,57,59,61,-1,-1,-1,-1,-1,-1,-1,-1,-1,-1,-1,-1,-1,-1,-1,-1,-1,-1,-1,-1,-1,-1,-1,-1,-1,-1,-1,-1,-1,-1,-1,-1],"loss_changes":[1.6315361E1,3.0056705E0,4.8189898E0,7.0148015E-1,8.705988E-1,1.2711053E0,6.945057E-1,5.1510096E-1,3.0371025E-1,7.0206165E-1,3.976441E-1,1.0535939E0,4.0970325E-1,1.7005539E-1,4.3809128E-1,3.5139966E-1,2.16669E-1,4.0497646E-2,1.333981E-1,9.755707E-2,5.433336E-5,2.2383034E-2,3.1962685E-2,6.988672E-1,2.1156663E-1,7.625829E-2,1.3893223E-1,3.9666712E-2,1.1512768E-1,6.537312E-2,1.8808746E-1,0E0,0E0,0E0,0E0,0E0,0E0,0E0,0E0,0E0,0E0,0E0,0E0,0E0,0E0,0E0,0E0,0E0,0E0,0E0,0E0,0E0,0E0,0E0,0E0,0E0,0E0,0E0,0E0,0E0,0E0,0E0,0E0],"parents":[2147483647,0,0,1,1,2,2,3,3,4,4,5,5,6,6,7,7,8,8,9,9,10,10,11,11,12,12,13,13,14,14,15,15,16,16,17,17,18,18,19,19,20,20,21,21,22,22,23,23,24,24,25,25,26,26,27,27,28,28,29,29,30,30],"right_children":[2,4,6,8,10,12,14,16,18,20,22,24,26,28,30,32,34,36,38,40,42,44,46,48,50,52,54,56,58,60,62,-1,-1,-1,-1,-1,-1,-1,-1,-1,-1,-1,-1,-1,-1,-1,-1,-1,-1,-1,-1,-1,-1,-1,-1,-1,-1,-1,-1,-1,-1,-1,-1],"split_conditions":[4.51E3,1E0,2E0,2E0,1E0,1E0,5.948E3,3.51E3,3E0,3E0,4.12E3,1E0,4.99E3,1E0,2E0,1E0,2E0,3.62E3,4.5E3,2E0,4.2E3,1E0,2E0,1E0,5.45E3,4.96E3,1E0,1E0,4E0,1E0,2E0,-1.7232634E-2,-7.3244544E-3,-6.596257E-3,-5.662595E-4,-9.736757E-3,6.66976E-4,6.301816E-3,-4.0237666E-3,-2.0981362E-2,-9.097205E-3,2.1601438E-3,8.088899E-3,-1.0430543E-2,-1.2465477E-3,2.255726E-3,1.2739825E-2,3.249461E-4,-1.0981123E-2,-1.3516427E-3,1.0884042E-2,1.9872137E-3,-8.806586E-3,9.437207E-3,1.6368343E-2,7.876307E-3,1.7462015E-3,1.994714E-2,6.66976E-4,1.263049E-2,1.6727925E-3,2.0460974E-2,2.991846E-2],"split_indices":[0,13,2,2,6,8,0,0,1,3,0,10,0,5,3,4,3,0,0,9,0,8,2,13,0,0,5,9,1,11,9,0,0,0,0,0,0,0,0,0,0,0,0,0,0,0,0,0,0,0,0,0,0,0,0,0,0,0,0,0,0,0,0],"split_type":[0,0,0,0,0,0,0,0,0,0,0,0,0,0,0,0,0,0,0,0,0,0,0,0,0,0,0,0,0,0,0,0,0,0,0,0,0,0,0,0,0,0,0,0,0,0,0,0,0,0,0,0,0,0,0,0,0,0,0,0,0,0,0],"sum_hessian":[4.36E2,2.16E2,2.2E2,1.3E2,8.6E1,1.42E2,7.8E1,1.03E2,2.7E1,6.8E1,1.8E1,8.6E1,5.6E1,1.7E1,6.1E1,4.4E1,5.9E1,5E0,2.2E1,6.6E1,2E0,1.5E1,3E0,6.2E1,2.4E1,9E0,4.7E1,1.2E1,5E0,1E1,5.1E1,1.4E1,3E1,2.9E1,3E1,4E0,1E0,1.9E1,3E0,6.2E1,4E0,1E0,1E0,1.4E1,1E0,2E0,1E0,4.3E1,1.9E1,4E0,2E1,8E0,1E0,3.4E1,1.3E1,7E0,5E0,4E0,1E0,8E0,2E0,3.5E1,1.6E1],"tree_param":{"num_deleted":"0","num_feature":"14","num_nodes":"63","size_leaf_vector":"1"}},{"base_weights":[2.5200134E-4,-1.8516771E-1,1.8231456E-1,-9.2885956E-2,-3.2199234E-1,7.6684505E-2,3.7121055E-1,-1.2837024E-1,4.2230163E-2,-3.7114877E-1,-1.2652989E-1,3.5864622E-3,1.8690985E-1,1.8593475E-1,4.1901302E-1,-2.0555477E-1,-6.8342336E-2,-1.5145254E-1,9.0919994E-2,-3.881937E-1,1.3323753E-1,-1.894846E-1,1.5692139E-1,-8.406821E-2,1.3009913E-1,-1.6584396E-4,2.2199E-1,7.043425E-2,2.7129173E-1,2.0631513E-1,4.5594886E-1,-1.7186148E-2,-7.244798E-3,-5.0744265E-3,1.8931071E-3,-9.347277E-3,6.5031054E-4,6.002476E-3,-3.8728833E-3,-1.9771451E-2,-5.101506E-3,2.106142E-3,7.886672E-3,-1.0248675E-2,-2.7020774E-3,2.1805444E-3,1.2421322E-2,-8.9304446E-4,-9.905991E-3,-1.5412467E-3,1.1119822E-2,1.8988822E-3,-8.586431E-3,4.4261455E-3,1.2323518E-2,6.726861E-3,7.979949E-4,7.819884E-3,2.022667E-2,1.2069135E-2,1.6170343E-3,1.9466339E-2,2.8510524E-2],"categories":[],"categories_nodes":[],"categories_segments":[],"categories_sizes":[],"default_left":[0,0,0,0,0,0,0,0,0,0,0,0,0,0,0,0,0,0,0,0,0,0,0,0,0,0,0,0,0,0,0,0,0,0,0,0,0,0,0,0,0,0,0,0,0,0,0,0,0,0,0,0,0,0,0,0,0,0,0,0,0,0,0],"id":2,"left_children":[1,3,5,7,9,11,13,15,17,19,21,23,25,27,29,31,33,35,37,39,41,43,45,47,49,51,53,55,57,59,61,-1,-1,-1,-1,-1,-1,-1,-1,-1,-1,-1,-1,-1,-1,-1,-1,-1,-1,-1,-1,-1,-1,-1,-1,-1,-1,-1,-1,-1,-1,-1,-1],"loss_changes":[1.4785998E1,2.7100239E0,4.381168E0,6.3350046E-1,7.889557E-1,1.1515175E0,6.217661E-1,4.678074E-1,2.7782062E-1,6.4493084E-1,3.687814E-1,9.7571725E-1,3.7410748E-1,1.5834975E-1,3.9301395E-1,3.273461E-1,2.1505901E-1,3.7454247E-2,1.2210828E-1,9.8376274E-2,5.1632524E-5,2.2488713E-2,3.0639842E-2,3.8911608E-1,5.4155815E-1,7.196187E-2,1.350131E-1,2.9280506E-2,8.98186E-2,5.9302956E-2,1.7384338E-1,0E0,0E0,0E0,0E0,0E0,0E0,0E0,0E0,0E0,0E0,0E0,0E0,0E0,0E0,0E0,0E0,0E0,0E0,0E0,0E0,0E0,0E0,0E0,0E0,0E0,0E0,0E0,0E0,0E0,0E0,0E0,0E0],"parents":[2147483647,0,0,1,1,2,2,3,3,4,4,5,5,6,6,7,7,8,8,9,9,10,10,11,11,12,12,13,13,14,14,15,15,16,16,17,17,18,18,19,19,20,20,21,21,22,22,23,23,24,24,25,25,26,26,27,27,28,28,29,29,30,30],"right_children":[2,4,6,8,10,12,14,16,18,20,22,24,26,28,30,32,34,36,38,40,42,44,46,48,50,52,54,56,58,60,62,-1,-1,-1,-1,-1,-1,-1,-1,-1,-1,-1,-1,-1,-1,-1,-1,-1,-1,-1,-1,-1,-1,-1,-1,-1,-1,-1,-1,-1,-1,-1,-1],"split_conditions":[4.51E3,1E0,2E0,2E0,1E0,1E0,5.948E3,3.51E3,3E0,3E0,4.12E3,1E0,4.99E3,1E0,2E0,2E0,1E0,3.62E3,4.5E3,4.41E3,4.2E3,3.99E3,2E0,1E0,6E3,4.96E3,3E0,2E0,1E0,1E0,2E0,-1.7186148E-2,-7.244798E-3,-5.0744265E-3,1.8931071E-3,-9.347277E-3,6.5031054E-4,6.002476E-3,-3.8728833E-3,-1.9771451E-2,-5.101506E-3,2.106142E-3,7.886672E-3,-1.0248675E-2,-2.7020774E-3,2.1805444E-3,1.2421322E-2,-8.9304446E-4,-9.905991E-3,-1.5412467E-3,1.1119822E-2,1.8988822E-3,-8.586431E-3,4.4261455E-3,1.2323518E-2,6.726861E-3,7.979949E-4,7.819884E-3,2.022667E-2,1.2069135E-2,1.6170343E-3,1.9466339E-2,2.8510524E-2],"split_indices":[0,13,2,2,6,8,0,0,1,3,0,6,0,8,3,3,6,0,0,0,0,0,2,13,0,0,1,3,5,11,9,0,0,0,0,0,0,0,0,0,0,0,0,0,0,0,0,0,0,0,0,0,0,0,0,0,0,0,0,0,0,0,0],"split_type":[0,0,0,0,0,0,0,0,0,0,0,0,0,0,0,0,0,0,0,0,0,0,0,0,0,0,0,0,0,0,0,0,0,0,0,0,0,0,0,0,0,0,0,0,0,0,0,0,0,0,0,0,0,0,0,0,0,0,0,0,0,0,0],"sum_hessian":[4.36E2,2.16E2,2.2E2,1.3E2,8.6E1,1.42E2,7.8E1,1.03E2,2.7E1,6.8E1,1.8E1,8.6E1,5.6E1,1.7E1,6.1E1,4.4E1,5.9E1,5E0,2.2E1,6.6E1,2E0,1.5E1,3E0,5.1E1,3.5E1,9E0,4.7E1,8E0,9E0,1E1,5.1E1,1.2E1,3.2E1,4.5E1,1.4E1,4E0,1E0,1.9E1,3E0,6.4E1,2E0,1E0,1E0,1.3E1,2E0,2E0,1E0,3.3E1,1.8E1,1.3E1,2.2E1,8E0,1E0,8E0,3.9E1,3E0,5E0,6E0,3E0,8E0,2E0,3.5E1,1.6E1],"tree_param":{"num_deleted":"0","num_feature":"14","num_nodes":"63","size_leaf_vector":"1"}},{"base_weights":[3.736963E-4,-1.7612767E-1,1.7367879E-1,-8.8502474E-2,-3.060446E-1,7.291204E-2,3.5388088E-1,-1.22217104E-1,3.988409E-2,-3.5280687E-1,-1.2011618E-1,3.3928992E-3,1.7774104E-1,1.7861404E-1,3.9905706E-1,-2.3237406E-1,-8.251897E-2,-1.4532964E-1,8.6466625E-2,-3.6915514E-1,1.2990665E-1,-1.8081945E-1,1.5272593E-1,-6.0613025E-2,1.6455212E-1,7.17525E-2,2.3757455E-1,1.0325535E-1,3.121222E-1,1.9724378E-1,4.3407413E-1,-1.8978411E-2,-8.093884E-3,-6.981024E-3,-1.761094E-3,-8.973398E-3,6.340504E-4,5.717361E-3,-3.7276507E-3,-1.8999323E-2,-7.942458E-3,2.0534992E-3,7.6894998E-3,-9.515817E-3,-9.5915794E-4,2.1078745E-3,1.2110782E-2,2.6301472E-4,-1.0125184E-2,-1.0751343E-3,1.0050754E-2,-4.13084E-5,6.1031417E-3,-3.4438134E-3,1.2414909E-2,7.291019E-3,1.4646371E-3,1.847519E-2,6.303549E-4,1.1532746E-2,1.5631199E-3,1.8520055E-2,2.716887E-2],"categories":[],"categories_nodes":[],"categories_segments":[],"categories_sizes":[],"default_left":[0,0,0,0,0,0,0,0,0,0,0,0,0,0,0,0,0,0,0,0,0,0,0,0,0,0,0,0,0,0,0,0,0,0,0,0,0,0,0,0,0,0,0,0,0,0,0,0,0,0,0,0,0,0,0,0,0,0,0,0,0,0,0],"id":3,"left_children":[1,3,5,7,9,11,13,15,17,19,21,23,25,27,29,31,33,35,37,39,41,43,45,47,49,51,53,55,57,59,61,-1,-1,-1,-1,-1,-1,-1,-1,-1,-1,-1,-1,-1,-1,-1,-1,-1,-1,-1,-1,-1,-1,-1,-1,-1,-1,-1,-1,-1,-1,-1,-1],"loss_changes":[1.3397801E1,2.4432416E0,3.9872003E0,5.7190883E-1,7.140379E-1,1.0415268E0,5.5423546E-1,4.3561924E-1,2.5414243E-1,5.924711E-1,3.4230155E-1,9.073916E-1,3.444283E-1,1.4886975E-1,3.5253048E-1,2.1872604E-1,2.0573968E-1,3.4641147E-2,1.1177935E-1,9.225845E-2,4.8998743E-5,2.0909786E-2,2.9367745E-2,5.899142E-1,1.7392504E-1,8.0432884E-2,1.3540745E-1,3.6655396E-2,9.846151E-2,5.3791046E-2,1.60635E-1,0E0,0E0,0E0,0E0,0E0,0E0,0E0,0E0,0E0,0E0,0E0,0E0,0E0,0E0,0E0,0E0,0E0,0E0,0E0,0E0,0E0,0E0,0E0,0E0,0E0,0E0,0E0,0E0,0E0,0E0,0E0,0E0],"parents":[2147483647,0,0,1,1,2,2,3,3,4,4,5,5,6,6,7,7,8,8,9,9,10,10,11,11,12,12,13,13,14,14,15,15,16,16,17,17,18,18,19,19,20,20,21,21,22,22,23,23,24,24,25,25,26,26,27,27,28,28,29,29,30,30],"right_children":[2,4,6,8,10,12,14,16,18,20,22,24,26,28,30,32,34,36,38,40,42,44,46,48,50,52,54,56,58,60,62,-1,-1,-1,-1,-1,-1,-1,-1,-1,-1,-1,-1,-1,-1,-1,-1,-1,-1,-1,-1,-1,-1,-1,-1,-1,-1,-1,-1,-1,-1,-1,-1],"split_conditions":[4.51E3,1E0,2E0,2E0,1E0,1E0,5.948E3,3.162E3,3E0,3E0,4.12E3,1E0,5.96E3,1E0,2E0,2E0,2E0,3.62E3,4.5E3,2E0,4.2E3,1E0,2E0,1E0,5.45E3,4.99E3,1E0,1E0,4E0,1E0,2E0,-1.8978411E-2,-8.093884E-3,-6.981024E-3,-1.761094E-3,-8.973398E-3,6.340504E-4,5.717361E-3,-3.7276507E-3,-1.8999323E-2,-7.942458E-3,2.0534992E-3,7.6894998E-3,-9.515817E-3,-9.5915794E-4,2.1078745E-3,1.2110782E-2,2.6301472E-4,-1.0125184E-2,-1.0751343E-3,1.0050754E-2,-4.13084E-5,6.1031417E-3,-3.4438134E-3,1.2414909E-2,7.291019E-3,1.4646371E-3,1.847519E-2,6.303549E-4,1.1532746E-2,1.5631199E-3,1.8520055E-2,2.716887E-2],"split_indices":[0,13,2,2,6,8,0,0,1,3,0,10,0,5,3,3,3,0,0,9,0,8,2,13,0,0,4,9,1,11,9,0,0,0,0,0,0,0,0,0,0,0,0,0,0,0,0,0,0,0,0,0,0,0,0,0,0,0,0,0,0,0,0],"split_type":[0,0,0,0,0,0,0,0,0,0,0,0,0,0,0,0,0,0,0,0,0,0,0,0,0,0,0,0,0,0,0,0,0,0,0,0,0,0,0,0,0,0,0,0,0,0,0,0,0,0,0,0,0,0,0,0,0,0,0,0,0,0,0],"sum_hessian":[4.36E2,2.16E2,2.2E2,1.3E2,8.6E1,1.42E2,7.8E1,1.03E2,2.7E1,6.8E1,1.8E1,8.6E1,5.6E1,1.7E1,6.1E1,2.6E1,7.7E1,5E0,2.2E1,6.6E1,2E0,1.5E1,3E0,6.2E1,2.4E1,2.1E1,3.5E1,1.2E1,5E0,1E1,5.1E1,7E0,1.9E1,3.4E1,4.3E1,4E0,1E0,1.9E1,3E0,6.2E1,4E0,1E0,1E0,1.4E1,1E0,2E0,1E0,4.3E1,1.9E1,4E0,2E1,9E0,1.2E1,1E0,3.4E1,7E0,5E0,4E0,1E0,8E0,2E0,3.5E1,1.6E1],"tree_param":{"num_deleted":"0","num_feature":"14","num_nodes":"63","size_leaf_vector":"1"}},{"base_weights":[4.5828524E-4,-1.6757762E-1,1.6545075E-1,-8.439915E-2,-2.908972E-1,6.9365226E-2,3.372834E-1,-1.1645055E-1,3.7663154E-2,-3.365839E-1,-1.09671995E-1,3.2129397E-3,1.6911757E-1,1.712311E-1,3.8005206E-1,-1.8816568E-1,-6.0723353E-2,-1.3945325E-1,8.2229905E-2,-3.6791155E-1,-1.8723154E-1,-1.8147543E-1,7.614803E-2,-7.858621E-2,1.2127802E-1,6.844009E-2,2.25945E-1,6.2059615E-2,2.5236234E-1,1.8857211E-1,4.1324875E-1,-1.5420533E-2,-6.1956393E-3,-4.609573E-3,1.9913546E-3,-8.614473E-3,6.1819557E-4,5.4457905E-3,-3.5878539E-3,-1.907747E-2,-7.624769E-3,-9.937826E-3,-9.3517307E-4,-1.2169305E-2,6.332954E-3,-1.5432357E-4,1.18080145E-2,-8.911121E-3,-7.9096155E-4,-1.3287306E-3,1.0300117E-2,-3.9463044E-5,5.821441E-3,8.956184E-3,1.7325317E-2,6.061375E-3,6.135543E-4,7.2971145E-3,1.8775344E-2,1.1020179E-2,1.5110176E-3,1.7619759E-2,2.589032E-2],"categories":[],"categories_nodes":[],"categories_segments":[],"categories_sizes":[],"default_left":[0,0,0,0,0,0,0,0,0,0,0,0,0,0,0,0,0,0,0,0,0,0,0,0,0,0,0,0,0,0,0,0,0,0,0,0,0,0,0,0,0,0,0,0,0,0,0,0,0,0,0,0,0,0,0,0,0,0,0,0,0,0,0],"id":4,"left_children":[1,3,5,7,9,11,13,15,17,19,21,23,25,27,29,31,33,35,37,39,41,43,45,47,49,51,53,55,57,59,61,-1,-1,-1,-1,-1,-1,-1,-1,-1,-1,-1,-1,-1,-1,-1,-1,-1,-1,-1,-1,-1,-1,-1,-1,-1,-1,-1,-1,-1,-1,-1,-1],"loss_changes":[1.2143402E1,2.2013335E0,3.625453E0,5.1689285E-1,6.8341017E-1,9.430916E-1,4.9596882E-1,4.042083E-1,2.3248532E-1,2.539568E-1,2.6732683E-1,8.4974396E-1,3.1064713E-1,1.4376837E-1,3.161745E-1,3.0945802E-1,1.9351971E-1,3.2040782E-2,1.0232894E-1,1.0633278E-1,2.3474514E-2,2.9790252E-1,7.6799855E-2,3.2238153E-1,4.5643604E-1,7.3180914E-2,1.411469E-1,2.5025345E-2,7.624817E-2,4.8785597E-2,1.4838791E-1,0E0,0E0,0E0,0E0,0E0,0E0,0E0,0E0,0E0,0E0,0E0,0E0,0E0,0E0,0E0,0E0,0E0,0E0,0E0,0E0,0E0,0E0,0E0,0E0,0E0,0E0,0E0,0E0,0E0,0E0,0E0,0E0],"parents":[2147483647,0,0,1,1,2,2,3,3,4,4,5,5,6,6,7,7,8,8,9,9,10,10,11,11,12,12,13,13,14,14,15,15,16,16,17,17,18,18,19,19,20,20,21,21,22,22,23,23,24,24,25,25,26,26,27,27,28,28,29,29,30,30],"right_children":[2,4,6,8,10,12,14,16,18,20,22,24,26,28,30,32,34,36,38,40,42,44,46,48,50,52,54,56,58,60,62,-1,-1,-1,-1,-1,-1,-1,-1,-1,-1,-1,-1,-1,-1,-1,-1,-1,-1,-1,-1,-1,-1,-1,-1,-1,-1,-1,-1,-1,-1,-1,-1],"split_conditions":[4.51E3,1E0,2E0,2E0,4.032E3,1E0,5.948E3,3.51E3,3E0,1E0,1E0,1E0,5.96E3,1E0,2E0,1E0,1E0,3.62E3,4.5E3,2E0,1E0,3E0,2E0,3E0,6E3,4.99E3,1E0,2E0,1E0,1E0,2E0,-1.5420533E-2,-6.1956393E-3,-4.609573E-3,1.9913546E-3,-8.614473E-3,6.1819557E-4,5.4457905E-3,-3.5878539E-3,-1.907747E-2,-7.624769E-3,-9.937826E-3,-9.3517307E-4,-1.2169305E-2,6.332954E-3,-1.5432357E-4,1.18080145E-2,-8.911121E-3,-7.9096155E-4,-1.3287306E-3,1.0300117E-2,-3.9463044E-5,5.821441E-3,8.956184E-3,1.7325317E-2,6.061375E-3,6.135543E-4,7.2971145E-3,1.8775344E-2,1.1020179E-2,1.5110176E-3,1.7619759E-2,2.589032E-2],"split_indices":[0,13,2,2,0,8,0,0,1,6,6,6,0,8,3,4,6,0,0,9,8,3,2,1,0,0,5,3,5,11,9,0,0,0,0,0,0,0,0,0,0,0,0,0,0,0,0,0,0,0,0,0,0,0,0,0,0,0,0,0,0,0,0],"split_type":[0,0,0,0,0,0,0,0,0,0,0,0,0,0,0,0,0,0,0,0,0,0,0,0,0,0,0,0,0,0,0,0,0,0,0,0,0,0,0,0,0,0,0,0,0,0,0,0,0,0,0,0,0,0,0,0,0,0,0,0,0,0,0],"sum_hessian":[4.36E2,2.16E2,2.2E2,1.3E2,8.6E1,1.42E2,7.8E1,1.03E2,2.7E1,6.8E1,1.8E1,8.6E1,5.6E1,1.7E1,6.1E1,4.4E1,5.9E1,5E0,2.2E1,5.5E1,1.3E1,1.3E1,5E0,5.1E1,3.5E1,2.1E1,3.5E1,8E0,9E0,1E1,5.1E1,1.4E1,3E1,4.5E1,1.4E1,4E0,1E0,1.9E1,3E0,5.1E1,4E0,1.2E1,1E0,1.1E1,2E0,4E0,1E0,1.9E1,3.2E1,1.3E1,2.2E1,9E0,1.2E1,2.7E1,8E0,3E0,5E0,6E0,3E0,8E0,2E0,3.5E1,1.6E1],"tree_param":{"num_deleted":"0","num_feature":"14","num_nodes":"63","size_leaf_vector":"1"}},{"base_weights":[5.680407E-4,-1.5948509E-1,1.5772171E-1,-8.0411024E-2,-2.7671748E-1,6.611607E-2,3.2154304E-1,-1.1086107E-1,3.5560984E-2,-3.2029933E-1,-1.0388249E-1,3.0438325E-3,1.612243E-1,2.2680682E-1,3.955825E-1,-2.1271664E-1,-7.4182086E-2,-1.3381322E-1,7.819943E-2,-3.4999296E-1,-1.7864622E-1,-1.7281893E-1,7.428297E-2,-5.633339E-2,1.5255268E-1,6.528087E-2,2.1537794E-1,5.969842E-2,2.708471E-1,2.7175283E-1,4.522144E-1,-1.7588764E-2,-7.3228674E-3,-6.4501422E-3,-1.4444351E-3,-3.151264E-3,-1.2193823E-2,5.18713E-3,-3.4533143E-3,-1.8141951E-2,-7.3197843E-3,-9.479138E-3,-9.117842E-4,-1.1611565E-2,6.121842E-3,-1.4814378E-4,1.1512804E-2,2.700513E-4,-9.466622E-3,-8.3272933E-4,9.278785E-3,-3.7703514E-5,5.5527687E-3,8.524379E-3,1.65553E-2,5.834067E-3,5.880038E-4,1.425499E-2,-3.2057047E-3,1.8607139E-3,1.424539E-2,3.9623976E-3,2.3154642E-2],"categories":[],"categories_nodes":[],"categories_segments":[],"categories_sizes":[],"default_left":[0,0,0,0,0,0,0,0,0,0,0,0,0,0,0,0,0,0,0,0,0,0,0,0,0,0,0,0,0,0,0,0,0,0,0,0,0,0,0,0,0,0,0,0,0,0,0,0,0,0,0,0,0,0,0,0,0,0,0,0,0,0,0],"id":5,"left_children":[1,3,5,7,9,11,13,15,17,19,21,23,25,27,29,31,33,35,37,39,41,43,45,47,49,51,53,55,57,59,61,-1,-1,-1,-1,-1,-1,-1,-1,-1,-1,-1,-1,-1,-1,-1,-1,-1,-1,-1,-1,-1,-1,-1,-1,-1,-1,-1,-1,-1,-1,-1,-1],"loss_changes":[1.1016988E1,1.9893479E0,3.2952785E0,4.665497E-1,6.2205124E-1,8.5732174E-1,4.6440315E-1,3.7275982E-1,2.12676E-1,2.2770262E-1,2.4619728E-1,7.809294E-1,2.8209412E-1,2.561326E-1,1.786561E-1,1.9725609E-1,1.8994868E-1,3.137652E-2,9.368269E-2,9.334564E-2,2.1103531E-2,2.7401948E-1,7.2971866E-2,5.182916E-1,1.4278412E-1,6.658351E-2,1.3057303E-1,2.321282E-2,1.5672779E-1,3.8762808E-2,7.690477E-2,0E0,0E0,0E0,0E0,0E0,0E0,0E0,0E0,0E0,0E0,0E0,0E0,0E0,0E0,0E0,0E0,0E0,0E0,0E0,0E0,0E0,0E0,0E0,0E0,0E0,0E0,0E0,0E0,0E0,0E0,0E0,0E0],"parents":[2147483647,0,0,1,1,2,2,3,3,4,4,5,5,6,6,7,7,8,8,9,9,10,10,11,11,12,12,13,13,14,14,15,15,16,16,17,17,18,18,19,19,20,20,21,21,22,22,23,23,24,24,25,25,26,26,27,27,28,28,29,29,30,30],"right_children":[2,4,6,8,10,12,14,16,18,20,22,24,26,28,30,32,34,36,38,40,42,44,46,48,50,52,54,56,58,60,62,-1,-1,-1,-1,-1,-1,-1,-1,-1,-1,-1,-1,-1,-1,-1,-1,-1,-1,-1,-1,-1,-1,-1,-1,-1,-1,-1,-1,-1,-1,-1,-1],"split_conditions":[4.51E3,1E0,2E0,2E0,4.032E3,1E0,1E0,3.162E3,3E0,1E0,1E0,1E0,5.96E3,5.948E3,1E0,2E0,2E0,2E0,4.5E3,2E0,1E0,3E0,2E0,1E0,5.45E3,4.99E3,1E0,2E0,3E0,1E0,3E0,-1.7588764E-2,-7.3228674E-3,-6.4501422E-3,-1.4444351E-3,-3.151264E-3,-1.2193823E-2,5.18713E-3,-3.4533143E-3,-1.8141951E-2,-7.3197843E-3,-9.479138E-3,-9.117842E-4,-1.1611565E-2,6.121842E-3,-1.4814378E-4,1.1512804E-2,2.700513E-4,-9.466622E-3,-8.3272933E-4,9.278785E-3,-3.7703514E-5,5.5527687E-3,8.524379E-3,1.65553E-2,5.834067E-3,5.880038E-4,1.425499E-2,-3.2057047E-3,1.8607139E-3,1.424539E-2,3.9623976E-3,2.3154642E-2],"split_indices":[0,13,2,2,0,8,8,0,1,6,6,10,0,0,9,3,3,3,0,9,8,3,2,13,0,0,5,3,9,4,1,0,0,0,0,0,0,0,0,0,0,0,0,0,0,0,0,0,0,0,0,0,0,0,0,0,0,0,0,0,0,0,0],"split_type":[0,0,0,0,0,0,0,0,0,0,0,0,0,0,0,0,0,0,0,0,0,0,0,0,0,0,0,0,0,0,0,0,0,0,0,0,0,0,0,0,0,0,0,0,0,0,0,0,0,0,0,0,0,0,0,0,0,0,0,0,0,0,0],"sum_hessian":[4.36E2,2.16E2,2.2E2,1.3E2,8.6E1,1.42E2,7.8E1,1.03E2,2.7E1,6.8E1,1.8E1,8.6E1,5.6E1,3.6E1,4.2E1,2.6E1,7.7E1,5E0,2.2E1,5.5E1,1.3E1,1.3E1,5E0,6.2E1,2.4E1,2.1E1,3.5E1,8E0,2.8E1,1.5E1,2.7E1,7E0,1.9E1,3.4E1,4.3E1,4E0,1E0,1.9E1,3E0,5.1E1,4E0,1.2E1,1E0,1.1E1,2E0,4E0,1E0,4.3E1,1.9E1,4E0,2E1,9E0,1.2E1,2.7E1,8E0,3E0,5E0,2.7E1,1E0,1E0,1.4E1,1E0,2.6E1],"tree_param":{"num_deleted":"0","num_feature":"14","num_nodes":"63","size_leaf_vector":"1"}},{"base_weights":[5.720867E-4,-1.5186287E-1,1.5024546E-1,-7.674474E-2,-2.632262E-1,6.301902E-2,3.0623448E-1,-1.05633385E-1,3.3296824E-2,-3.0480406E-1,-9.8378986E-2,2.8828806E-3,1.5370016E-1,2.1593896E-1,3.768089E-1,-1.722753E-1,-5.3891387E-2,-1.2968032E-1,7.436491E-2,-3.329482E-1,-1.704558E-1,-1.6456978E-1,7.2462715E-2,-7.346309E-2,1.13080315E-1,6.226765E-2,2.0530613E-1,5.742698E-2,2.5768617E-1,2.5917214E-1,4.3057248E-1,-1.4269339E-2,-5.5993344E-3,-4.1883355E-3,2.065951E-3,-3.0252268E-3,-1.1888981E-2,4.940746E-3,-3.3238174E-3,-1.7252307E-2,-7.0270062E-3,-9.041621E-3,-8.8899134E-4,-1.1079351E-2,5.9177876E-3,-1.4223099E-4,1.1224985E-2,-8.2479086E-4,-8.576903E-3,1.194583E-4,1.0599702E-2,1.730018E-3,8.906019E-3,8.113403E-3,1.581953E-2,5.615306E-3,5.634864E-4,5.417323E-3,1.5013925E-2,1.8141986E-3,1.3580622E-2,7.0872307E-3,2.2366915E-2],"categories":[],"categories_nodes":[],"categories_segments":[],"categories_sizes":[],"default_left":[0,0,0,0,0,0,0,0,0,0,0,0,0,0,0,0,0,0,0,0,0,0,0,0,0,0,0,0,0,0,0,0,0,0,0,0,0,0,0,0,0,0,0,0,0,0,0,0,0,0,0,0,0,0,0,0,0,0,0,0,0,0,0],"id":6,"left_children":[1,3,5,7,9,11,13,15,17,19,21,23,25,27,29,31,33,35,37,39,41,43,45,47,49,51,53,55,57,59,61,-1,-1,-1,-1,-1,-1,-1,-1,-1,-1,-1,-1,-1,-1,-1,-1,-1,-1,-1,-1,-1,-1,-1,-1,-1,-1,-1,-1,-1,-1,-1,-1],"loss_changes":[9.99317E0,1.7950921E0,2.9877086E0,4.1995996E-1,5.663109E-1,7.793664E-1,4.2206383E-1,3.493272E-1,1.9705214E-1,2.04144E-1,2.2678001E-1,7.402496E-1,2.561686E-1,2.3004687E-1,1.6036463E-1,2.7491057E-1,1.7412765E-1,3.0480385E-2,8.5770935E-2,8.186102E-2,1.896447E-2,2.52069E-1,6.933561E-2,2.8769767E-1,3.9365292E-1,6.435425E-2,1.2077081E-1,2.1531973E-2,1.51927E-1,3.450954E-2,7.218075E-2,0E0,0E0,0E0,0E0,0E0,0E0,0E0,0E0,0E0,0E0,0E0,0E0,0E0,0E0,0E0,0E0,0E0,0E0,0E0,0E0,0E0,0E0,0E0,0E0,0E0,0E0,0E0,0E0,0E0,0E0,0E0,0E0],"parents":[2147483647,0,0,1,1,2,2,3,3,4,4,5,5,6,6,7,7,8,8,9,9,10,10,11,11,12,12,13,13,14,14,15,15,16,16,17,17,18,18,19,19,20,20,21,21,22,22,23,23,24,24,25,25,26,26,27,27,28,28,29,29,30,30],"right_children":[2,4,6,8,10,12,14,16,18,20,22,24,26,28,30,32,34,36,38,40,42,44,46,48,50,52,54,56,58,60,62,-1,-1,-1,-1,-1,-1,-1,-1,-1,-1,-1,-1,-1,-1,-1,-1,-1,-1,-1,-1,-1,-1,-1,-1,-1,-1,-1,-1,-1,-1,-1,-1],"split_conditions":[4.51E3,1E0,2E0,2E0,4.032E3,1E0,1E0,3.51E3,3E0,1E0,1E0,1E0,5.96E3,5.948E3,1E0,1E0,1E0,2E0,4.5E3,2E0,1E0,3E0,2E0,1E0,6.1E3,3E0,1E0,2E0,2E0,1E0,2E0,-1.4269339E-2,-5.5993344E-3,-4.1883355E-3,2.065951E-3,-3.0252268E-3,-1.1888981E-2,4.940746E-3,-3.3238174E-3,-1.7252307E-2,-7.0270062E-3,-9.041621E-3,-8.8899134E-4,-1.1079351E-2,5.9177876E-3,-1.4223099E-4,1.1224985E-2,-8.2479086E-4,-8.576903E-3,1.194583E-4,1.0599702E-2,1.730018E-3,8.906019E-3,8.113403E-3,1.581953E-2,5.615306E-3,5.634864E-4,5.417323E-3,1.5013925E-2,1.8141986E-3,1.3580622E-2,7.0872307E-3,2.2366915E-2],"split_indices":[0,13,2,2,0,8,8,0,1,6,6,6,0,0,9,4,6,3,0,9,8,3,2,13,0,3,5,3,3,4,3,0,0,0,0,0,0,0,0,0,0,0,0,0,0,0,0,0,0,0,0,0,0,0,0,0,0,0,0,0,0,0,0],"split_type":[0,0,0,0,0,0,0,0,0,0,0,0,0,0,0,0,0,0,0,0,0,0,0,0,0,0,0,0,0,0,0,0,0,0,0,0,0,0,0,0,0,0,0,0,0,0,0,0,0,0,0,0,0,0,0,0,0,0,0,0,0,0,0],"sum_hessian":[4.36E2,2.16E2,2.2E2,1.3E2,8.6E1,1.42E2,7.8E1,1.03E2,2.7E1,6.8E1,1.8E1,8.6E1,5.6E1,3.6E1,4.2E1,4.4E1,5.9E1,5E0,2.2E1,5.5E1,1.3E1,1.3E1,5E0,5.1E1,3.5E1,2.1E1,3.5E1,8E0,2.8E1,1.5E1,2.7E1,1.4E1,3E1,4.5E1,1.4E1,4E0,1E0,1.9E1,3E0,5.1E1,4E0,1.2E1,1E0,1.1E1,2E0,4E0,1E0,3.3E1,1.8E1,1.7E1,1.8E1,1.8E1,3E0,2.7E1,8E0,3E0,5E0,7E0,2.1E1,1E0,1.4E1,2E0,2.5E1],"tree_param":{"num_deleted":"0","num_feature":"14","num_nodes":"63","size_leaf_vector":"1"}},{"base_weights":[6.4363633E-4,-1.445628E-1,1.43219E-1,-7.317694E-2,-2.503902E-1,6.0119003E-2,2.918276E-1,-1.4660548E-1,-3.0346632E-2,-2.900599E-1,-9.3148135E-2,2.753992E-3,1.466214E-1,1.4534765E-1,3.2964712E-1,-3.2606745E-1,-1.0801276E-1,-6.0851227E-2,7.721389E-2,-3.167347E-1,-1.6264221E-1,-1.567096E-1,7.068666E-2,-6.9970496E-2,1.0772398E-1,-2.9943467E-3,1.7473674E-1,7.788651E-2,2.6728883E-1,1.6154385E-1,3.5886806E-1,-1.8901907E-2,9.431839E-4,-6.474392E-3,3.6252688E-3,-5.2771685E-3,5.9826375E-4,7.032752E-4,1.5525199E-2,-1.6214874E-2,-3.7513257E-3,-8.624308E-3,-8.6677074E-4,-1.0571527E-2,5.720536E-3,-1.365471E-4,1.0944366E-2,-8.131862E-3,-5.8442604E-4,1.1382898E-4,1.0097592E-2,1.7029921E-3,-8.412051E-3,6.252286E-3,1.1902595E-2,6.072545E-3,3.4097832E-4,1.5809147E-2,5.704641E-4,2.941246E-3,1.0591841E-2,1.5143742E-2,2.2816604E-2],"categories":[],"categories_nodes":[],"categories_segments":[],"categories_sizes":[],"default_left":[0,0,0,0,0,0,0,0,0,0,0,0,0,0,0,0,0,0,0,0,0,0,0,0,0,0,0,0,0,0,0,0,0,0,0,0,0,0,0,0,0,0,0,0,0,0,0,0,0,0,0,0,0,0,0,0,0,0,0,0,0,0,0],"id":7,"left_children":[1,3,5,7,9,11,13,15,17,19,21,23,25,27,29,31,33,35,37,39,41,43,45,47,49,51,53,55,57,59,61,-1,-1,-1,-1,-1,-1,-1,-1,-1,-1,-1,-1,-1,-1,-1,-1,-1,-1,-1,-1,-1,-1,-1,-1,-1,-1,-1,-1,-1,-1,-1,-1],"loss_changes":[9.067854E0,1.6210208E0,2.711667E0,4.075417E-1,5.15666E-1,7.0919234E-1,3.8973093E-1,2.9722488E-1,2.8031012E-1,1.8300533E-1,2.0893529E-1,6.716858E-1,2.402935E-1,1.2725502E-1,2.4657965E-1,1.5054166E-1,1.6833085E-1,2.1604836E-1,2.7553856E-1,7.803583E-2,1.7035365E-2,2.3189339E-1,6.588099E-2,2.7894062E-1,3.5723922E-1,6.696108E-2,1.21249914E-1,3.9419606E-2,7.145855E-2,4.4365168E-2,1.455698E-1,0E0,0E0,0E0,0E0,0E0,0E0,0E0,0E0,0E0,0E0,0E0,0E0,0E0,0E0,0E0,0E0,0E0,0E0,0E0,0E0,0E0,0E0,0E0,0E0,0E0,0E0,0E0,0E0,0E0,0E0,0E0,0E0],"parents":[2147483647,0,0,1,1,2,2,3,3,4,4,5,5,6,6,7,7,8,8,9,9,10,10,11,11,12,12,13,13,14,14,15,15,16,16,17,17,18,18,19,19,20,20,21,21,22,22,23,23,24,24,25,25,26,26,27,27,28,28,29,29,30,30],"right_children":[2,4,6,8,10,12,14,16,18,20,22,24,26,28,30,32,34,36,38,40,42,44,46,48,50,52,54,56,58,60,62,-1,-1,-1,-1,-1,-1,-1,-1,-1,-1,-1,-1,-1,-1,-1,-1,-1,-1,-1,-1,-1,-1,-1,-1,-1,-1,-1,-1,-1,-1,-1,-1],"split_conditions":[4.51E3,1E0,2E0,2E0,4.032E3,1E0,5.948E3,2.953E3,2E0,1E0,1E0,1E0,4.99E3,1E0,2E0,1E0,1E0,3.62E3,1E0,1E0,1E0,3E0,2E0,3E0,6.1E3,4.96E3,1E0,1E0,4E0,1E0,2E0,-1.8901907E-2,9.431839E-4,-6.474392E-3,3.6252688E-3,-5.2771685E-3,5.9826375E-4,7.032752E-4,1.5525199E-2,-1.6214874E-2,-3.7513257E-3,-8.624308E-3,-8.6677074E-4,-1.0571527E-2,5.720536E-3,-1.365471E-4,1.0944366E-2,-8.131862E-3,-5.8442604E-4,1.1382898E-4,1.0097592E-2,1.7029921E-3,-8.412051E-3,6.252286E-3,1.1902595E-2,6.072545E-3,3.4097832E-4,1.5809147E-2,5.704641E-4,2.941246E-3,1.0591841E-2,1.5143742E-2,2.2816604E-2],"split_indices":[0,13,2,3,0,8,0,0,9,6,6,6,0,5,3,6,5,0,7,10,8,3,2,1,0,0,11,9,1,10,9,0,0,0,0,0,0,0,0,0,0,0,0,0,0,0,0,0,0,0,0,0,0,0,0,0,0,0,0,0,0,0,0],"split_type":[0,0,0,0,0,0,0,0,0,0,0,0,0,0,0,0,0,0,0,0,0,0,0,0,0,0,0,0,0,0,0,0,0,0,0,0,0,0,0,0,0,0,0,0,0,0,0,0,0,0,0,0,0,0,0,0,0,0,0,0,0,0,0],"sum_hessian":[4.36E2,2.16E2,2.2E2,1.3E2,8.6E1,1.42E2,7.8E1,4.7E1,8.3E1,6.8E1,1.8E1,8.6E1,5.6E1,1.7E1,6.1E1,7E0,4E1,6.5E1,1.8E1,5.5E1,1.3E1,1.3E1,5E0,5.1E1,3.5E1,9E0,4.7E1,1.2E1,5E0,1E1,5.1E1,6E0,1E0,3.6E1,4E0,4E1,2.5E1,1.5E1,3E0,5.3E1,2E0,1.2E1,1E0,1.1E1,2E0,4E0,1E0,1.9E1,3.2E1,1.7E1,1.8E1,8E0,1E0,2.8E1,1.9E1,7E0,5E0,4E0,1E0,4E0,6E0,3.5E1,1.6E1],"tree_param":{"num_deleted":"0","num_feature":"14","num_nodes":"63","size_leaf_vector":"1"}},{"base_weights":[7.3627586E-4,-1.3748534E-1,1.3645282E-1,-6.958848E-2,-2.3814057E-1,5.7203613E-2,2.7817667E-1,-1.397086E-1,-2.8691405E-2,-2.759835E-1,-8.817723E-2,1.3043158E-2,1.5959902E-1,1.9352101E-1,3.4455067E-1,-3.1200898E-1,-1.0268149E-1,-5.7879157E-2,7.420771E-2,-2.919842E-1,-9.25511E-2,-1.492206E-1,6.8953514E-2,-6.746798E-2,9.651388E-2,7.408898E-2,1.9832493E-1,1.5836383E-1,3.8685417E-1,2.3520714E-1,3.947273E-1,-1.809183E-2,9.196043E-4,-6.159417E-3,3.4802724E-3,-5.019723E-3,5.69516E-4,6.7032874E-4,1.4943016E-2,-1.5590324E-2,-7.787271E-3,-5.049539E-3,-1.0478258E-3,-1.0087001E-2,5.5298647E-3,-1.3109208E-4,1.0670758E-2,-4.6853097E-3,5.7296413E-3,-1.0164547E-3,7.1258754E-3,4.8073134E-4,1.2449491E-2,3.4234524E-3,1.02704E-2,2.5323604E-3,9.540363E-3,2.1911705E-2,4.5333626E-3,1.3902665E-3,1.2359012E-2,1.5824301E-2,2.5195653E-2],"categories":[],"categories_nodes":[],"categories_segments":[],"categories_sizes":[],"default_left":[0,0,0,0,0,0,0,0,0,0,0,0,0,0,0,0,0,0,0,0,0,0,0,0,0,0,0,0,0,0,0,0,0,0,0,0,0,0,0,0,0,0,0,0,0,0,0,0,0,0,0,0,0,0,0,0,0,0,0,0,0,0,0],"id":8,"left_children":[1,3,5,7,9,11,13,15,17,19,21,23,25,27,29,31,33,35,37,39,41,43,45,47,49,51,53,55,57,59,61,-1,-1,-1,-1,-1,-1,-1,-1,-1,-1,-1,-1,-1,-1,-1,-1,-1,-1,-1,-1,-1,-1,-1,-1,-1,-1,-1,-1,-1,-1,-1,-1],"loss_changes":[8.216427E0,1.466444E0,2.466249E0,3.7166125E-1,4.693942E-1,6.445396E-1,3.7721825E-1,2.7419215E-1,2.5658017E-1,1.7549515E-1,1.9253334E-1,6.852642E-1,1.2769878E-1,1.9022715E-1,1.4307642E-1,1.3835967E-1,1.534301E-1,1.9551437E-1,2.5551683E-1,1.21572495E-1,2.1132343E-3,2.1334866E-1,6.25989E-2,2.5913945E-1,2.7165735E-1,1.6675535E-1,1.2609482E-2,1.05661154E-1,3.6356807E-2,3.2858968E-2,7.9717636E-2,0E0,0E0,0E0,0E0,0E0,0E0,0E0,0E0,0E0,0E0,0E0,0E0,0E0,0E0,0E0,0E0,0E0,0E0,0E0,0E0,0E0,0E0,0E0,0E0,0E0,0E0,0E0,0E0,0E0,0E0,0E0,0E0],"parents":[2147483647,0,0,1,1,2,2,3,3,4,4,5,5,6,6,7,7,8,8,9,9,10,10,11,11,12,12,13,13,14,14,15,15,16,16,17,17,18,18,19,19,20,20,21,21,22,22,23,23,24,24,25,25,26,26,27,27,28,28,29,29,30,30],"right_children":[2,4,6,8,10,12,14,16,18,20,22,24,26,28,30,32,34,36,38,40,42,44,46,48,50,52,54,56,58,60,62,-1,-1,-1,-1,-1,-1,-1,-1,-1,-1,-1,-1,-1,-1,-1,-1,-1,-1,-1,-1,-1,-1,-1,-1,-1,-1,-1,-1,-1,-1,-1,-1],"split_conditions":[4.51E3,1E0,2E0,2E0,4.032E3,1E0,1E0,2.953E3,2E0,2E0,1E0,1E0,1E0,3E0,1E0,1E0,1E0,3.62E3,1E0,1E0,4E0,3E0,2E0,3E0,5.9E3,3E0,5.4E3,5.948E3,1E0,1E0,1E0,-1.809183E-2,9.196043E-4,-6.159417E-3,3.4802724E-3,-5.019723E-3,5.69516E-4,6.7032874E-4,1.4943016E-2,-1.5590324E-2,-7.787271E-3,-5.049539E-3,-1.0478258E-3,-1.0087001E-2,5.5298647E-3,-1.3109208E-4,1.0670758E-2,-4.6853097E-3,5.7296413E-3,-1.0164547E-3,7.1258754E-3,4.8073134E-4,1.2449491E-2,3.4234524E-3,1.02704E-2,2.5323604E-3,9.540363E-3,2.1911705E-2,4.5333626E-3,1.3902665E-3,1.2359012E-2,1.5824301E-2,2.5195653E-2],"split_indices":[0,13,2,3,0,10,8,0,9,2,6,9,6,2,9,6,5,0,7,8,1,3,2,3,0,3,0,0,11,4,10,0,0,0,0,0,0,0,0,0,0,0,0,0,0,0,0,0,0,0,0,0,0,0,0,0,0,0,0,0,0,0,0],"split_type":[0,0,0,0,0,0,0,0,0,0,0,0,0,0,0,0,0,0,0,0,0,0,0,0,0,0,0,0,0,0,0,0,0,0,0,0,0,0,0,0,0,0,0,0,0,0,0,0,0,0,0,0,0,0,0,0,0,0,0,0,0,0,0],"sum_hessian":[4.36E2,2.16E2,2.2E2,1.3E2,8.6E1,1.42E2,7.8E1,4.7E1,8.3E1,6.8E1,1.8E1,1E2,4.2E1,3.6E1,4.2E1,7E0,4E1,6.5E1,1.8E1,6.2E1,6E0,1.3E1,5E0,5.1E1,4.9E1,1.4E1,2.8E1,3.2E1,4E0,1.5E1,2.7E1,6E0,1E0,3.6E1,4E0,4E1,2.5E1,1.5E1,3E0,5.3E1,9E0,5E0,1E0,1.1E1,2E0,4E0,1E0,4.5E1,6E0,1.4E1,3.5E1,1.1E1,3E0,2E0,2.6E1,8E0,2.4E1,3E0,1E0,1E0,1.4E1,1.8E1,9E0],"tree_param":{"num_deleted":"0","num_feature":"14","num_nodes":"63","size_leaf_vector":"1"}},{"base_weights":[9.167538E-4,-1.307591E-1,1.302052E-1,-6.61751E-2,-2.2650331E-1,5.457975E-2,2.6544866E-1,-1.3313639E-1,-2.7123712E-2,-2.6261118E-1,-8.345353E-2,1.2228736E-3,1.3506165E-1,1.8488593E-1,3.2859686E-1,-2.9855478E-1,-9.76124E-2,-5.9111286E-2,6.0282957E-2,-2.8724474E-1,-1.4531898E-1,-1.42085E-1,6.726217E-2,-6.6850774E-2,9.95175E-2,8.287683E-2,2.0860109E-1,1.5081143E-1,3.7280044E-1,2.243064E-1,3.7645578E-1,-1.7316451E-2,8.9662074E-4,-5.8597513E-3,3.3410739E-3,-4.5195883E-3,1.4503563E-3,4.603642E-3,-3.6287594E-3,-1.492122E-2,-5.676365E-3,-7.724806E-3,-6.504059E-4,-9.6246805E-3,5.3455513E-3,-1.253283E-3,8.397262E-3,-7.7019813E-3,-5.9916324E-4,-9.980951E-4,8.395863E-3,-1.6246856E-3,5.643998E-3,7.4463575E-3,1.7642802E-2,9.8669985E-3,3.678492E-3,2.109002E-2,4.4200183E-3,1.355505E-3,1.1782275E-2,1.5074727E-2,2.4061827E-2],"categories":[],"categories_nodes":[],"categories_segments":[],"categories_sizes":[],"default_left":[0,0,0,0,0,0,0,0,0,0,0,0,0,0,0,0,0,0,0,0,0,0,0,0,0,0,0,0,0,0,0,0,0,0,0,0,0,0,0,0,0,0,0,0,0,0,0,0,0,0,0,0,0,0,0,0,0,0,0,0,0,0,0],"id":9,"left_children":[1,3,5,7,9,11,13,15,17,19,21,23,25,27,29,31,33,35,37,39,41,43,45,47,49,51,53,55,57,59,61,-1,-1,-1,-1,-1,-1,-1,-1,-1,-1,-1,-1,-1,-1,-1,-1,-1,-1,-1,-1,-1,-1,-1,-1,-1,-1,-1,-1,-1,-1,-1,-1],"loss_changes":[7.4565864E0,1.3268402E0,2.245866E0,3.3894485E-1,4.274583E-1,6.139143E-1,3.4115076E-1,2.5292075E-1,2.3842132E-1,1.5762138E-1,1.7745395E-1,5.8879364E-1,2.014575E-1,1.8069196E-1,1.3018179E-1,1.2716997E-1,1.3985309E-1,1.7351794E-1,1.0382374E-1,7.4878216E-2,1.49896145E-2,1.9630122E-1,5.998475E-2,2.4691348E-1,2.9755697E-1,1.2481955E-1,1.4543998E-1,1.0408169E-1,3.2390594E-2,2.938795E-2,7.483554E-2,0E0,0E0,0E0,0E0,0E0,0E0,0E0,0E0,0E0,0E0,0E0,0E0,0E0,0E0,0E0,0E0,0E0,0E0,0E0,0E0,0E0,0E0,0E0,0E0,0E0,0E0,0E0,0E0,0E0,0E0,0E0,0E0],"parents":[2147483647,0,0,1,1,2,2,3,3,4,4,5,5,6,6,7,7,8,8,9,9,10,10,11,11,12,12,13,13,14,14,15,15,16,16,17,17,18,18,19,19,20,20,21,21,22,22,23,23,24,24,25,25,26,26,27,27,28,28,29,29,30,30],"right_children":[2,4,6,8,10,12,14,16,18,20,22,24,26,28,30,32,34,36,38,40,42,44,46,48,50,52,54,56,58,60,62,-1,-1,-1,-1,-1,-1,-1,-1,-1,-1,-1,-1,-1,-1,-1,-1,-1,-1,-1,-1,-1,-1,-1,-1,-1,-1,-1,-1,-1,-1,-1,-1],"split_conditions":[4.51E3,1E0,2E0,2E0,4.032E3,1E0,1E0,2.953E3,4E3,1E0,1E0,1E0,6.5E3,3E0,1E0,1E0,1E0,4E0,4.5E3,2E0,1E0,3E0,4.2E3,3E0,6E3,3E0,1E0,1E0,1E0,1E0,1E0,-1.7316451E-2,8.9662074E-4,-5.8597513E-3,3.3410739E-3,-4.5195883E-3,1.4503563E-3,4.603642E-3,-3.6287594E-3,-1.492122E-2,-5.676365E-3,-7.724806E-3,-6.504059E-4,-9.6246805E-3,5.3455513E-3,-1.253283E-3,8.397262E-3,-7.7019813E-3,-5.9916324E-4,-9.980951E-4,8.395863E-3,-1.6246856E-3,5.643998E-3,7.4463575E-3,1.7642802E-2,9.8669985E-3,3.678492E-3,2.109002E-2,4.4200183E-3,1.355505E-3,1.1782275E-2,1.5074727E-2,2.4061827E-2],"split_indices":[0,13,2,3,0,8,8,0,0,6,6,6,0,2,9,6,5,1,0,9,8,3,0,1,0,1,5,5,11,4,10,0,0,0,0,0,0,0,0,0,0,0,0,0,0,0,0,0,0,0,0,0,0,0,0,0,0,0,0,0,0,0,0],"split_type":[0,0,0,0,0,0,0,0,0,0,0,0,0,0,0,0,0,0,0,0,0,0,0,0,0,0,0,0,0,0,0,0,0,0,0,0,0,0,0,0,0,0,0,0,0,0,0,0,0,0,0,0,0,0,0,0,0,0,0,0,0,0,0],"sum_hessian":[4.36E2,2.16E2,2.2E2,1.3E2,8.6E1,1.42E2,7.8E1,4.7E1,8.3E1,6.8E1,1.8E1,8.6E1,5.6E1,3.6E1,4.2E1,7E0,4E1,6.1E1,2.2E1,5.5E1,1.3E1,1.3E1,5E0,5.1E1,3.5E1,3.4E1,2.2E1,3.2E1,4E0,1.5E1,2.7E1,6E0,1E0,3.6E1,4E0,4.5E1,1.6E1,1.8E1,4E0,5.1E1,4E0,1.2E1,1E0,1.1E1,2E0,3E0,2E0,1.9E1,3.2E1,1.3E1,2.2E1,7E0,2.7E1,1.7E1,5E0,1.9E1,1.3E1,3E0,1E0,1E0,1.4E1,1.8E1,9E0],"tree_param":{"num_deleted":"0","num_feature":"14","num_nodes":"63","size_leaf_vector":"1"}},{"base_weights":[1.0365283E-3,-8.894643E-2,1.7379689E-1,-1.5378223E-1,-1.9556708E-3,9.2434175E-2,2.877886E-1,-8.382403E-2,-2.4990053E-1,-3.335494E-2,1.2371963E-1,2.302883E-2,1.6955376E-1,1.3739906E-1,3.1406736E-1,-1.1224079E-1,2.4362382E-2,-2.6468447E-1,-8.114515E-2,-5.700495E-2,1.293032E-1,6.98349E-2,1.8595158E-1,-1.901379E-2,2.7199474E-1,1.292766E-1,3.8967052E-1,4.236088E-2,9.282752E-3,2.6286405E-1,4.0402335E-1,-6.341863E-3,2.5921685E-3,-7.140799E-3,3.6049702E-3,-1.4165307E-2,-6.8829493E-3,-5.1507475E-3,-1.9494534E-3,-1.0341158E-4,-6.815027E-3,8.023458E-3,-1.4036497E-3,4.6418188E-4,4.550479E-3,1.51403425E-2,5.2139997E-3,1.0074997E-2,-2.0571526E-3,2.089596E-3,1.5169828E-2,-2.3825837E-3,9.392413E-3,2.3508264E-2,-3.2007694E-4,4.4800523E-3,-3.6649944E-3,1.3216258E-3,1.3443202E-2,1.4970164E-2,2.5535434E-2],"categories":[],"categories_nodes":[],"categories_segments":[],"categories_sizes":[],"default_left":[0,0,0,0,0,0,0,0,0,0,0,0,0,0,0,0,0,0,0,0,0,0,0,0,0,0,0,0,0,0,0,0,0,0,0,0,0,0,0,0,0,0,0,0,0,0,0,0,0,0,0,0,0,0,0,0,0,0,0,0,0],"id":10,"left_children":[1,3,5,7,9,11,13,15,17,19,21,23,25,27,29,31,33,35,37,39,41,43,45,47,49,51,53,55,-1,57,59,-1,-1,-1,-1,-1,-1,-1,-1,-1,-1,-1,-1,-1,-1,-1,-1,-1,-1,-1,-1,-1,-1,-1,-1,-1,-1,-1,-1,-1,-1],"loss_changes":[6.808837E0,1.6240525E0,1.3645992E0,1.0885556E0,4.9344465E-1,4.724688E-1,2.0187473E-1,3.009423E-1,1.5066767E-1,3.9205757E-1,7.084787E-2,5.0759625E-1,3.219831E-1,4.2583257E-2,1.333108E-1,1.909942E-1,1.778895E-1,1.10022545E-1,2.4371594E-3,3.8306716E-1,6.826694E-2,1.8387385E-2,7.340464E-2,2.1324216E-1,3.7921965E-2,3.923816E-1,1.9430012E-1,3.388691E-2,0E0,4.396224E-2,3.6836624E-2,0E0,0E0,0E0,0E0,0E0,0E0,0E0,0E0,0E0,0E0,0E0,0E0,0E0,0E0,0E0,0E0,0E0,0E0,0E0,0E0,0E0,0E0,0E0,0E0,0E0,0E0,0E0,0E0,0E0,0E0],"parents":[2147483647,0,0,1,1,2,2,3,3,4,4,5,5,6,6,7,7,8,8,9,9,10,10,11,11,12,12,13,13,14,14,15,15,16,16,17,17,18,18,19,19,20,20,21,21,22,22,23,23,24,24,25,25,26,26,27,27,29,29,30,30],"right_children":[2,4,6,8,10,12,14,16,18,20,22,24,26,28,30,32,34,36,38,40,42,44,46,48,50,52,54,56,-1,58,60,-1,-1,-1,-1,-1,-1,-1,-1,-1,-1,-1,-1,-1,-1,-1,-1,-1,-1,-1,-1,-1,-1,-1,-1,-1,-1,-1,-1,-1,-1],"split_conditions":[5.948E3,4.032E3,2E0,1E0,1E0,1E0,2E0,2E0,2E0,3E0,1E0,3E0,4E0,1E0,2E0,1E0,3E0,1E0,1E0,1E0,4E0,3E0,4.75E3,6.02E3,6.254E3,6.4E3,3E0,1E0,9.282752E-3,1E0,1E0,-6.341863E-3,2.5921685E-3,-7.140799E-3,3.6049702E-3,-1.4165307E-2,-6.8829493E-3,-5.1507475E-3,-1.9494534E-3,-1.0341158E-4,-6.815027E-3,8.023458E-3,-1.4036497E-3,4.6418188E-4,4.550479E-3,1.51403425E-2,5.2139997E-3,1.0074997E-2,-2.0571526E-3,2.089596E-3,1.5169828E-2,-2.3825837E-3,9.392413E-3,2.3508264E-2,-3.2007694E-4,4.4800523E-3,-3.6649944E-3,1.3216258E-3,1.3443202E-2,1.4970164E-2,2.5535434E-2],"split_indices":[0,0,2,13,5,6,3,2,2,3,11,3,1,10,9,5,1,8,4,13,1,1,0,0,0,0,3,11,0,4,10,0,0,0,0,0,0,0,0,0,0,0,0,0,0,0,0,0,0,0,0,0,0,0,0,0,0,0,0,0,0],"split_type":[0,0,0,0,0,0,0,0,0,0,0,0,0,0,0,0,0,0,0,0,0,0,0,0,0,0,0,0,0,0,0,0,0,0,0,0,0,0,0,0,0,0,0,0,0,0,0,0,0,0,0,0,0,0,0,0,0,0,0,0,0],"sum_hessian":[4.36E2,2.87E2,1.49E2,1.64E2,1.23E2,8.8E1,6.1E1,9.6E1,6.8E1,9.9E1,2.4E1,4.7E1,4.1E1,1E1,5.1E1,7.6E1,2E1,6.2E1,6E0,8.7E1,1.2E1,1.4E1,1E1,4.1E1,6E0,3.6E1,5E0,4E0,6E0,3.5E1,1.6E1,7E1,6E0,4E0,1.6E1,5.3E1,9E0,3E0,3E0,5.2E1,3.5E1,1E1,2E0,4E0,1E1,3E0,7E0,3E0,3.8E1,1E0,5E0,9E0,2.7E1,4E0,1E0,3E0,1E0,1E0,3.4E1,1E1,6E0],"tree_param":{"num_deleted":"0","num_feature":"14","num_nodes":"61","size_leaf_vector":"1"}},{"base_weights":[1.2374066E-3,-8.411014E-2,1.6676898E-1,-1.4630796E-1,-1.3361435E-3,8.900518E-2,2.7445358E-1,-7.970785E-2,-2.378138E-1,-3.0997267E-2,1.18548244E-1,2.2065386E-2,1.6179483E-1,2.0083915E-1,3.2917023E-1,-9.698405E-2,8.029346E-2,-2.6053965E-1,-1.2992369E-1,-5.3193714E-2,1.2334743E-1,6.667709E-2,1.7850451E-1,-1.9242682E-2,2.6086044E-1,1.23001926E-1,3.740519E-1,2.657013E-1,1.1236531E-1,2.1790655E-1,1.8645456E-2,-6.203491E-3,1.1718526E-3,2.6856264E-4,7.7070715E-3,-1.3382179E-2,-2.2911231E-3,-4.165591E-3,-8.909377E-3,-6.105989E-5,-6.4837444E-3,7.6587633E-3,-1.3568561E-3,-1.6836167E-3,3.8125038E-3,1.4572573E-2,4.9858987E-3,1.2291002E-2,-1.956936E-3,4.4125556E-3,1.5612698E-2,-2.275381E-3,8.939548E-3,2.256794E-2,-3.1206608E-4,8.002101E-3,1.7567767E-2,1.5751231E-2,1.4227998E-3,1.1651525E-2,1.2885809E-3],"categories":[],"categories_nodes":[],"categories_segments":[],"categories_sizes":[],"default_left":[0,0,0,0,0,0,0,0,0,0,0,0,0,0,0,0,0,0,0,0,0,0,0,0,0,0,0,0,0,0,0,0,0,0,0,0,0,0,0,0,0,0,0,0,0,0,0,0,0,0,0,0,0,0,0,0,0,0,0,0,0],"id":11,"left_children":[1,3,5,7,9,11,13,15,17,19,21,23,25,27,29,31,33,35,37,39,41,43,45,47,49,51,53,55,57,59,-1,-1,-1,-1,-1,-1,-1,-1,-1,-1,-1,-1,-1,-1,-1,-1,-1,-1,-1,-1,-1,-1,-1,-1,-1,-1,-1,-1,-1,-1,-1],"loss_changes":[6.187838E0,1.4876812E0,1.2232933E0,9.86604E-1,4.4816285E-1,4.2521203E-1,1.8362188E-1,2.7591598E-1,1.3532996E-1,3.5257763E-1,6.584787E-2,4.686353E-1,2.9982162E-1,1.3656402E-1,8.420324E-2,2.8993708E-1,5.4500595E-2,7.315469E-2,1.665023E-2,3.5360944E-1,6.2508896E-2,1.6977176E-2,6.882274E-2,2.258427E-1,3.4540236E-2,3.5597295E-1,1.7921287E-1,8.8570595E-2,2.2910568E-1,2.8864443E-2,0E0,0E0,0E0,0E0,0E0,0E0,0E0,0E0,0E0,0E0,0E0,0E0,0E0,0E0,0E0,0E0,0E0,0E0,0E0,0E0,0E0,0E0,0E0,0E0,0E0,0E0,0E0,0E0,0E0,0E0,0E0],"parents":[2147483647,0,0,1,1,2,2,3,3,4,4,5,5,6,6,7,7,8,8,9,9,10,10,11,11,12,12,13,13,14,14,15,15,16,16,17,17,18,18,19,19,20,20,21,21,22,22,23,23,24,24,25,25,26,26,27,27,28,28,29,29],"right_children":[2,4,6,8,10,12,14,16,18,20,22,24,26,28,30,32,34,36,38,40,42,44,46,48,50,52,54,56,58,60,-1,-1,-1,-1,-1,-1,-1,-1,-1,-1,-1,-1,-1,-1,-1,-1,-1,-1,-1,-1,-1,-1,-1,-1,-1,-1,-1,-1,-1,-1,-1],"split_conditions":[5.96E3,4.032E3,2E0,1E0,1E0,1E0,1E0,1E0,1E0,3E0,1E0,3E0,4E0,1E0,1E0,2E0,3E0,1E0,3.036E3,1E0,4E0,4.079E3,4.75E3,6.02E3,1E0,6.4E3,3E0,7.35E3,6.02E3,4E0,1.8645456E-2,-6.203491E-3,1.1718526E-3,2.6856264E-4,7.7070715E-3,-1.3382179E-2,-2.2911231E-3,-4.165591E-3,-8.909377E-3,-6.105989E-5,-6.4837444E-3,7.6587633E-3,-1.3568561E-3,-1.6836167E-3,3.8125038E-3,1.4572573E-2,4.9858987E-3,1.2291002E-2,-1.956936E-3,4.4125556E-3,1.5612698E-2,-2.275381E-3,8.939548E-3,2.256794E-2,-3.1206608E-4,8.002101E-3,1.7567767E-2,1.5751231E-2,1.4227998E-3,1.1651525E-2,1.2885809E-3],"split_indices":[0,0,2,13,5,6,8,5,6,3,11,3,1,5,9,9,1,10,0,13,1,0,0,0,9,0,3,0,0,1,0,0,0,0,0,0,0,0,0,0,0,0,0,0,0,0,0,0,0,0,0,0,0,0,0,0,0,0,0,0,0],"split_type":[0,0,0,0,0,0,0,0,0,0,0,0,0,0,0,0,0,0,0,0,0,0,0,0,0,0,0,0,0,0,0,0,0,0,0,0,0,0,0,0,0,0,0,0,0,0,0,0,0,0,0,0,0,0,0,0,0,0,0,0,0],"sum_hessian":[4.36E2,2.88E2,1.48E2,1.64E2,1.24E2,8.7E1,6.1E1,9.6E1,6.8E1,1E2,2.4E1,4.6E1,4.1E1,2.8E1,3.3E1,8.7E1,9E0,5.5E1,1.3E1,8.8E1,1.2E1,1.4E1,1E1,4E1,6E0,3.6E1,5E0,1.5E1,1.3E1,1.1E1,2.2E1,7.1E1,1.6E1,5E0,4E0,5.3E1,2E0,8E0,5E0,5.3E1,3.5E1,1E1,2E0,1E0,1.3E1,3E0,7E0,2E0,3.8E1,2E0,4E0,9E0,2.7E1,4E0,1E0,8E0,7E0,3E0,1E1,1E1,1E0],"tree_param":{"num_deleted":"0","num_feature":"14","num_nodes":"61","size_leaf_vector":"1"}},{"base_weights":[1.4712904E-3,-9.686714E-2,1.3223265E-1,-4.289844E-2,-1.8155077E-1,6.468759E-2,2.4517022E-1,-6.605209E-2,1.06886685E-1,-1.9692267E-1,1.4067669E-1,9.796818E-3,1.4567608E-1,1.2887543E-1,2.745438E-1,-1.893533E-1,-3.87973E-2,5.1300857E-2,1.7530102E-1,-2.329155E-1,-6.2427476E-2,7.359266E-4,8.42433E-3,-4.421925E-2,1.1967143E-1,1.0193667E-1,2.0181441E-1,4.582841E-2,1.7412081E-1,-1.3941765E-2,2.856931E-1,2.5764308E-3,-1.0679694E-2,-3.9270385E-3,5.630274E-4,7.571524E-4,8.338961E-3,3.046093E-3,1.2731E-2,-1.231418E-2,-3.5845076E-3,-5.813447E-3,4.5777163E-3,4.375417E-4,-8.243408E-3,6.741368E-3,-5.7228804E-3,3.5054286E-3,1.061298E-2,-1.1389256E-3,1.1401733E-2,3.8763047E-3,-3.608942E-3,2.2185089E-3,9.180376E-3,-2.3020029E-3,1.2563706E-3,1.179304E-2,1.7806169E-2],"categories":[],"categories_nodes":[],"categories_segments":[],"categories_sizes":[],"default_left":[0,0,0,0,0,0,0,0,0,0,0,0,0,0,0,0,0,0,0,0,0,0,0,0,0,0,0,0,0,0,0,0,0,0,0,0,0,0,0,0,0,0,0,0,0,0,0,0,0,0,0,0,0,0,0,0,0,0,0],"id":12,"left_children":[1,3,5,7,9,11,13,15,17,19,21,23,25,27,29,31,33,35,37,39,41,-1,-1,43,45,47,49,51,53,55,57,-1,-1,-1,-1,-1,-1,-1,-1,-1,-1,-1,-1,-1,-1,-1,-1,-1,-1,-1,-1,-1,-1,-1,-1,-1,-1,-1,-1],"loss_changes":[5.6321335E0,1.134778E0,1.4182749E0,5.4114324E-1,5.081675E-1,5.275898E-1,2.0373774E-1,4.4296706E-1,7.086712E-2,4.3565965E-1,1.5034549E-2,4.3261135E-1,9.728968E-2,5.2140206E-2,1.8088531E-1,1.5114492E-1,2.2171588E-1,5.1755227E-2,6.6140026E-2,1.396792E-1,1.8474762E-1,0E0,0E0,3.145911E-1,1.0059476E-1,8.6948484E-2,1.2297195E-1,3.177964E-2,4.162401E-3,4.9190293E-3,1.0201931E-1,0E0,0E0,0E0,0E0,0E0,0E0,0E0,0E0,0E0,0E0,0E0,0E0,0E0,0E0,0E0,0E0,0E0,0E0,0E0,0E0,0E0,0E0,0E0,0E0,0E0,0E0,0E0,0E0],"parents":[2147483647,0,0,1,1,2,2,3,3,4,4,5,5,6,6,7,7,8,8,9,9,10,10,11,11,12,12,13,13,14,14,15,15,16,16,17,17,18,18,19,19,20,20,23,23,24,24,25,25,26,26,27,27,28,28,29,29,30,30],"right_children":[2,4,6,8,10,12,14,16,18,20,22,24,26,28,30,32,34,36,38,40,42,-1,-1,44,46,48,50,52,54,56,58,-1,-1,-1,-1,-1,-1,-1,-1,-1,-1,-1,-1,-1,-1,-1,-1,-1,-1,-1,-1,-1,-1,-1,-1,-1,-1,-1,-1],"split_conditions":[4.995E3,1E0,2E0,1E0,3E0,1E0,2E0,1E0,2E0,1E0,4.2E3,1E0,1E0,1E0,1E0,2.398E3,1E0,4E0,1E0,2E0,4.12E3,7.359266E-4,8.42433E-3,1E0,3E0,3E0,3E0,1E0,5.32E3,5.948E3,1E0,2.5764308E-3,-1.0679694E-2,-3.9270385E-3,5.630274E-4,7.571524E-4,8.338961E-3,3.046093E-3,1.2731E-2,-1.231418E-2,-3.5845076E-3,-5.813447E-3,4.5777163E-3,4.375417E-4,-8.243408E-3,6.741368E-3,-5.7228804E-3,3.5054286E-3,1.061298E-2,-1.1389256E-3,1.1401733E-2,3.8763047E-3,-3.608942E-3,2.2185089E-3,9.180376E-3,-2.3020029E-3,1.2563706E-3,1.179304E-2,1.7806169E-2],"split_indices":[0,13,2,5,3,8,3,4,2,6,0,10,11,10,4,0,9,1,8,9,0,0,0,13,9,3,1,11,0,0,10,0,0,0,0,0,0,0,0,0,0,0,0,0,0,0,0,0,0,0,0,0,0,0,0,0,0,0,0],"split_type":[0,0,0,0,0,0,0,0,0,0,0,0,0,0,0,0,0,0,0,0,0,0,0,0,0,0,0,0,0,0,0,0,0,0,0,0,0,0,0,0,0,0,0,0,0,0,0,0,0,0,0,0,0,0,0,0,0,0,0],"sum_hessian":[4.36E2,2.49E2,1.87E2,1.53E2,9.6E1,1.18E2,6.9E1,1.33E2,2E1,9.2E1,4E0,7.1E1,4.7E1,1.5E1,5.4E1,2.3E1,1.1E2,1.2E1,8E0,7.2E1,2E1,1E0,3E0,4.8E1,2.3E1,2.8E1,1.9E1,6E0,9E0,2E0,5.2E1,2E0,2.1E1,6.1E1,4.9E1,1E1,2E0,4E0,4E0,6.6E1,6E0,1.5E1,5E0,3.4E1,1.4E1,2.2E1,1E0,2.3E1,5E0,2E0,1.7E1,5E0,1E0,1E0,8E0,1E0,1E0,3.3E1,1.9E1],"tree_param":{"num_deleted":"0","num_feature":"14","num_nodes":"59","size_leaf_vector":"1"}},{"base_weights":[1.5424013E-3,-7.607077E-2,1.5207036E-1,-1.2788737E-1,8.174647E-3,8.1671566E-2,2.4953847E-1,-7.1640246E-2,-2.1048184E-1,-2.2507502E-2,1.0934734E-1,1.9077769E-2,1.4977244E-1,1.8087071E-1,3.0076864E-1,-1.3856474E-1,-3.4812484E-2,-2.244585E-1,-7.061124E-2,2.5821537E-2,-9.034843E-2,7.6469466E-2,1.8766308E-1,-1.943186E-2,2.4190876E-1,1.1288344E-1,3.5229254E-1,2.4194497E-1,9.815223E-2,2.3160362E-1,1.8646874E-2,-9.515667E-3,-1.8129519E-3,-2.864342E-3,2.3011775E-3,-1.20374765E-2,-5.5391453E-3,-3.8834163E-3,-5.302906E-4,-7.396785E-3,2.3962094E-3,-6.332453E-3,8.002262E-3,1.2321985E-2,1.5989136E-3,2.4656772E-3,1.3954842E-2,1.163284E-2,-1.9162521E-3,1.6419888E-3,1.3564015E-2,-2.2351933E-3,8.256654E-3,2.1365395E-2,-5.6960585E-4,7.1324506E-3,1.617049E-2,1.471833E-2,8.93931E-4,6.1235907E-3,1.3481321E-2],"categories":[],"categories_nodes":[],"categories_segments":[],"categories_sizes":[],"default_left":[0,0,0,0,0,0,0,0,0,0,0,0,0,0,0,0,0,0,0,0,0,0,0,0,0,0,0,0,0,0,0,0,0,0,0,0,0,0,0,0,0,0,0,0,0,0,0,0,0,0,0,0,0,0,0,0,0,0,0,0,0],"id":13,"left_children":[1,3,5,7,9,11,13,15,17,19,21,23,25,27,29,31,33,35,37,39,41,43,45,47,49,51,53,55,57,59,-1,-1,-1,-1,-1,-1,-1,-1,-1,-1,-1,-1,-1,-1,-1,-1,-1,-1,-1,-1,-1,-1,-1,-1,-1,-1,-1,-1,-1,-1,-1],"loss_changes":[5.1170187E0,1.2626203E0,1.0020034E0,8.165014E-1,3.4702682E-1,3.7225968E-1,1.637075E-1,2.613616E-1,1.2490535E-1,2.843E-1,5.2595764E-2,4.080142E-1,2.7400398E-1,1.227597E-1,8.3339214E-2,1.9427812E-1,1.3162494E-1,9.370208E-2,2.563972E-3,2.0295498E-1,3.4748963E-1,1.4336286E-1,7.4785456E-2,2.0418961E-1,3.4075975E-2,3.1203565E-1,1.6855955E-1,8.329195E-2,2.1524887E-1,4.996836E-2,0E0,0E0,0E0,0E0,0E0,0E0,0E0,0E0,0E0,0E0,0E0,0E0,0E0,0E0,0E0,0E0,0E0,0E0,0E0,0E0,0E0,0E0,0E0,0E0,0E0,0E0,0E0,0E0,0E0,0E0,0E0],"parents":[2147483647,0,0,1,1,2,2,3,3,4,4,5,5,6,6,7,7,8,8,9,9,10,10,11,11,12,12,13,13,14,14,15,15,16,16,17,17,18,18,19,19,20,20,21,21,22,22,23,23,24,24,25,25,26,26,27,27,28,28,29,29],"right_children":[2,4,6,8,10,12,14,16,18,20,22,24,26,28,30,32,34,36,38,40,42,44,46,48,50,52,54,56,58,60,-1,-1,-1,-1,-1,-1,-1,-1,-1,-1,-1,-1,-1,-1,-1,-1,-1,-1,-1,-1,-1,-1,-1,-1,-1,-1,-1,-1,-1,-1,-1],"split_conditions":[5.96E3,4.1E3,2E0,1E0,2E0,1E0,1E0,2E0,1E0,1E0,1E0,3E0,4E0,1E0,1E0,1E0,2E0,1E0,4E0,1E0,3E0,4.32E3,1E0,6.02E3,6.254E3,6.4E3,3E0,7.35E3,6.02E3,1E0,1.8646874E-2,-9.515667E-3,-1.8129519E-3,-2.864342E-3,2.3011775E-3,-1.20374765E-2,-5.5391453E-3,-3.8834163E-3,-5.302906E-4,-7.396785E-3,2.3962094E-3,-6.332453E-3,8.002262E-3,1.2321985E-2,1.5989136E-3,2.4656772E-3,1.3954842E-2,1.163284E-2,-1.9162521E-3,1.6419888E-3,1.3564015E-2,-2.2351933E-3,8.256654E-3,2.1365395E-2,-5.6960585E-4,7.1324506E-3,1.617049E-2,1.471833E-2,8.93931E-4,6.1235907E-3,1.3481321E-2],"split_indices":[0,0,2,13,2,6,8,3,10,13,5,3,1,5,10,6,2,8,1,4,3,0,9,0,0,0,3,0,0,9,0,0,0,0,0,0,0,0,0,0,0,0,0,0,0,0,0,0,0,0,0,0,0,0,0,0,0,0,0,0,0],"split_type":[0,0,0,0,0,0,0,0,0,0,0,0,0,0,0,0,0,0,0,0,0,0,0,0,0,0,0,0,0,0,0,0,0,0,0,0,0,0,0,0,0,0,0,0,0,0,0,0,0,0,0,0,0,0,0,0,0,0,0,0,0],"sum_hessian":[4.36E2,2.88E2,1.48E2,1.78E2,1.1E2,8.7E1,6.1E1,1.07E2,7.1E1,8.5E1,2.5E1,4.6E1,4.1E1,2.8E1,3.3E1,3.7E1,7E1,6.4E1,7E0,5E1,3.5E1,1.9E1,6E0,4E1,6E0,3.6E1,5E0,1.5E1,1.3E1,1.9E1,1.4E1,2.4E1,1.3E1,5.5E1,1.5E1,5.5E1,9E0,6E0,1E0,5E0,4.5E1,3.1E1,4E0,3E0,1.6E1,3E0,3E0,2E0,3.8E1,1E0,5E0,9E0,2.7E1,4E0,1E0,8E0,7E0,3E0,1E1,6E0,1.3E1],"tree_param":{"num_deleted":"0","num_feature":"14","num_nodes":"61","size_leaf_vector":"1"}},{"base_weights":[1.7443576E-3,-8.767086E-2,1.20638296E-1,-1.1545768E-1,4.5045983E-2,5.930681E-2,2.2317842E-1,-6.580568E-2,-1.8185292E-1,-1.1121347E-2,1.195357E-1,7.6292753E-3,1.3558756E-1,1.5939355E-1,2.7269742E-1,-1.7042165E-1,-4.1892987E-2,-1.9376452E-1,1.1673188E-1,-1.4456241E-1,2.7534258E-2,2.2438543E-1,6.606184E-2,-4.182938E-2,1.0828948E-1,-4.412508E-3,1.4222772E-1,1.2745124E-1,3.127802E-1,1.7868595E-1,3.200922E-1,-1.15609085E-2,-3.5561153E-4,-8.518801E-3,-1.3575809E-3,-1.0813752E-2,-3.714854E-3,5.174637E-4,7.4371495E-3,-2.6635767E-3,-1.0904805E-2,-8.7354024E-4,6.002011E-3,2.5129318E-4,1.3362608E-2,-6.536913E-4,1.055604E-2,3.778635E-4,-7.7138143E-3,6.1309217E-3,-5.531907E-3,2.2734217E-3,8.045496E-3,8.9442795E-3,2.519351E-3,1.815027E-2,2.7969838E-3,1.0718823E-3,9.419336E-3,1.2545811E-2,1.9592348E-2],"categories":[],"categories_nodes":[],"categories_segments":[],"categories_sizes":[],"default_left":[0,0,0,0,0,0,0,0,0,0,0,0,0,0,0,0,0,0,0,0,0,0,0,0,0,0,0,0,0,0,0,0,0,0,0,0,0,0,0,0,0,0,0,0,0,0,0,0,0,0,0,0,0,0,0,0,0,0,0,0,0],"id":14,"left_children":[1,3,5,7,9,11,13,15,17,19,21,23,25,27,29,31,33,35,37,39,41,43,45,47,49,-1,51,53,55,57,59,-1,-1,-1,-1,-1,-1,-1,-1,-1,-1,-1,-1,-1,-1,-1,-1,-1,-1,-1,-1,-1,-1,-1,-1,-1,-1,-1,-1,-1,-1],"loss_changes":[4.6562915E0,9.271456E-1,1.1690841E0,6.7044044E-1,1.8542048E-1,4.6806365E-1,1.7763329E-1,2.930585E-1,3.3560157E-1,1.380948E-1,9.170437E-2,3.6298302E-1,8.389497E-2,1.2182003E-1,1.1211896E-1,2.1678573E-1,1.8288156E-1,2.1251988E-1,1.2082312E-2,2.8659403E-2,8.952516E-2,5.5076182E-2,1.6347086E-1,2.732813E-1,8.885431E-2,0E0,7.764453E-2,1.0593516E-1,4.419291E-2,1.8842876E-2,2.0807981E-2,0E0,0E0,0E0,0E0,0E0,0E0,0E0,0E0,0E0,0E0,0E0,0E0,0E0,0E0,0E0,0E0,0E0,0E0,0E0,0E0,0E0,0E0,0E0,0E0,0E0,0E0,0E0,0E0,0E0,0E0],"parents":[2147483647,0,0,1,1,2,2,3,3,4,4,5,5,6,6,7,7,8,8,9,9,10,10,11,11,12,12,13,13,14,14,15,15,16,16,17,17,18,18,19,19,20,20,21,21,22,22,23,23,24,24,26,26,27,27,28,28,29,29,30,30],"right_children":[2,4,6,8,10,12,14,16,18,20,22,24,26,28,30,32,34,36,38,40,42,44,46,48,50,-1,52,54,56,58,60,-1,-1,-1,-1,-1,-1,-1,-1,-1,-1,-1,-1,-1,-1,-1,-1,-1,-1,-1,-1,-1,-1,-1,-1,-1,-1,-1,-1,-1,-1],"split_conditions":[4.995E3,2E0,2E0,1E0,3.99E3,1E0,1E0,1E0,3E0,3E0,4.32E3,1E0,1E0,3E0,1E0,1E0,2.5E3,1E0,4.2E3,3.54E3,2E0,3E0,1E0,1E0,3E0,-4.412508E-3,3E0,1E0,1E0,1E0,1E0,-1.15609085E-2,-3.5561153E-4,-8.518801E-3,-1.3575809E-3,-1.0813752E-2,-3.714854E-3,5.174637E-4,7.4371495E-3,-2.6635767E-3,-1.0904805E-2,-8.7354024E-4,6.002011E-3,2.5129318E-4,1.3362608E-2,-6.536913E-4,1.055604E-2,3.778635E-4,-7.7138143E-3,6.1309217E-3,-5.531907E-3,2.2734217E-3,8.045496E-3,8.9442795E-3,2.519351E-3,1.815027E-2,2.7969838E-3,1.0718823E-3,9.419336E-3,1.2545811E-2,1.9592348E-2],"split_indices":[0,2,2,13,0,8,8,4,3,1,0,10,4,2,9,6,0,6,0,0,9,1,5,13,9,0,1,5,11,4,10,0,0,0,0,0,0,0,0,0,0,0,0,0,0,0,0,0,0,0,0,0,0,0,0,0,0,0,0,0,0],"split_type":[0,0,0,0,0,0,0,0,0,0,0,0,0,0,0,0,0,0,0,0,0,0,0,0,0,0,0,0,0,0,0,0,0,0,0,0,0,0,0,0,0,0,0,0,0,0,0,0,0,0,0,0,0,0,0,0,0,0,0,0,0],"sum_hessian":[4.36E2,2.49E2,1.87E2,2.06E2,4.3E1,1.18E2,6.9E1,1.19E2,8.7E1,2.5E1,1.8E1,7.1E1,4.7E1,3.2E1,3.7E1,2.1E1,9.8E1,8.4E1,3E0,5E0,2E1,5E0,1.3E1,4.8E1,2.3E1,1E0,4.6E1,2.8E1,4E0,1.4E1,2.3E1,1.5E1,6E0,9E0,8.9E1,7E1,1.4E1,1E0,2E0,3E0,2E0,1.4E1,6E0,1E0,4E0,9E0,4E0,3.4E1,1.4E1,2.2E1,1E0,8E0,3.8E1,1.6E1,1.2E1,3E0,1E0,1E0,1.3E1,1.4E1,9E0],"tree_param":{"num_deleted":"0","num_feature":"14","num_nodes":"61","size_leaf_vector":"1"}},{"base_weights":[1.7966308E-3,-6.9018476E-2,1.3913736E-1,-1.1647764E-1,8.136552E-3,7.491381E-2,2.2804923E-1,-6.560007E-2,-1.9117624E-1,-1.8560646E-2,1.11089334E-1,1.66503E-2,1.3832977E-1,1.0610199E-1,2.494602E-1,-8.103237E-2,7.7851385E-2,-2.039278E-1,-6.367278E-2,-3.9724816E-2,1.2055317E-1,1.5482418E-1,3.8751602E-2,-1.9389687E-2,2.2536305E-1,1.0301706E-1,3.3303657E-1,1.3195875E-1,-6.8356195E-3,2.0384534E-1,3.3138224E-1,-7.402574E-3,-2.1557584E-3,4.3552718E-4,6.7008496E-3,-1.0971029E-2,-4.8387717E-3,-1.3425112E-3,-4.0198136E-3,7.2171213E-4,-5.511877E-3,7.5253486E-3,-9.7386044E-4,5.64974E-3,1.1557448E-2,7.098516E-4,6.4935684E-3,1.0976902E-2,-1.8635787E-3,3.4733613E-3,1.3691397E-2,-2.2355367E-3,7.6048905E-3,2.0284796E-2,-7.5650215E-4,7.330692E-3,3.679514E-4,3.091383E-3,-3.6040545E-3,1.25441775E-2,8.125408E-3,1.2025881E-2,2.134146E-2],"categories":[],"categories_nodes":[],"categories_segments":[],"categories_sizes":[],"default_left":[0,0,0,0,0,0,0,0,0,0,0,0,0,0,0,0,0,0,0,0,0,0,0,0,0,0,0,0,0,0,0,0,0,0,0,0,0,0,0,0,0,0,0,0,0,0,0,0,0,0,0,0,0,0,0,0,0,0,0,0,0,0,0],"id":15,"left_children":[1,3,5,7,9,11,13,15,17,19,21,23,25,27,29,31,33,35,37,39,41,43,45,47,49,51,53,55,57,59,61,-1,-1,-1,-1,-1,-1,-1,-1,-1,-1,-1,-1,-1,-1,-1,-1,-1,-1,-1,-1,-1,-1,-1,-1,-1,-1,-1,-1,-1,-1,-1,-1],"loss_changes":[4.259777E0,1.0591825E0,8.337412E-1,6.677456E-1,3.07151E-1,3.228424E-1,1.3541436E-1,2.4539742E-1,1.04077816E-1,2.668253E-1,6.676495E-2,3.5790396E-1,2.544679E-1,3.3024214E-2,1.267662E-1,2.4265218E-1,4.154934E-2,8.6671114E-2,2.7677566E-3,2.994656E-1,5.3264767E-2,1.8578023E-2,2.0530278E-2,1.8335415E-1,3.3866227E-2,2.7507225E-1,1.5792352E-1,1.5355244E-2,1.7896509E-2,2.9228806E-2,4.4776797E-2,0E0,0E0,0E0,0E0,0E0,0E0,0E0,0E0,0E0,0E0,0E0,0E0,0E0,0E0,0E0,0E0,0E0,0E0,0E0,0E0,0E0,0E0,0E0,0E0,0E0,0E0,0E0,0E0,0E0,0E0,0E0,0E0],"parents":[2147483647,0,0,1,1,2,2,3,3,4,4,5,5,6,6,7,7,8,8,9,9,10,10,11,11,12,12,13,13,14,14,15,15,16,16,17,17,18,18,19,19,20,20,21,21,22,22,23,23,24,24,25,25,26,26,27,27,28,28,29,29,30,30],"right_children":[2,4,6,8,10,12,14,16,18,20,22,24,26,28,30,32,34,36,38,40,42,44,46,48,50,52,54,56,58,60,62,-1,-1,-1,-1,-1,-1,-1,-1,-1,-1,-1,-1,-1,-1,-1,-1,-1,-1,-1,-1,-1,-1,-1,-1,-1,-1,-1,-1,-1,-1,-1,-1],"split_conditions":[5.96E3,4.1E3,2E0,1E0,1E0,1E0,2E0,1E0,1E0,3E0,1E0,3E0,4E0,1E0,2E0,2E0,3E0,1E0,2E0,1E0,4E0,2E0,3E0,6.02E3,1E0,6.4E3,3E0,7.475E3,6.21E3,6.44E3,1E0,-7.402574E-3,-2.1557584E-3,4.3552718E-4,6.7008496E-3,-1.0971029E-2,-4.8387717E-3,-1.3425112E-3,-4.0198136E-3,7.2171213E-4,-5.511877E-3,7.5253486E-3,-9.7386044E-4,5.64974E-3,1.1557448E-2,7.098516E-4,6.4935684E-3,1.0976902E-2,-1.8635787E-3,3.4733613E-3,1.3691397E-2,-2.2355367E-3,7.6048905E-3,2.0284796E-2,-7.5650215E-4,7.330692E-3,3.679514E-4,3.091383E-3,-3.6040545E-3,1.25441775E-2,8.125408E-3,1.2025881E-2,2.134146E-2],"split_indices":[0,0,2,13,5,6,3,5,10,3,12,3,1,11,9,3,1,8,3,13,1,9,3,0,9,0,3,0,0,0,10,0,0,0,0,0,0,0,0,0,0,0,0,0,0,0,0,0,0,0,0,0,0,0,0,0,0,0,0,0,0,0,0],"split_type":[0,0,0,0,0,0,0,0,0,0,0,0,0,0,0,0,0,0,0,0,0,0,0,0,0,0,0,0,0,0,0,0,0,0,0,0,0,0,0,0,0,0,0,0,0,0,0,0,0,0,0,0,0,0,0,0,0,0,0,0,0,0,0],"sum_hessian":[4.36E2,2.88E2,1.48E2,1.78E2,1.1E2,8.7E1,6.1E1,1.07E2,7.1E1,8.8E1,2.2E1,4.6E1,4.1E1,1E1,5.1E1,9.7E1,1E1,6.4E1,7E0,7.7E1,1.1E1,1.3E1,9E0,4E1,6E0,3.6E1,5E0,8E0,2E0,3.5E1,1.6E1,3.4E1,6.3E1,5E0,5E0,5.5E1,9E0,3E0,4E0,4.4E1,3.3E1,9E0,2E0,1E1,3E0,8E0,1E0,2E0,3.8E1,2E0,4E0,9E0,2.7E1,4E0,1E0,7E0,1E0,1E0,1E0,1.4E1,2.1E1,1E1,6E0],"tree_param":{"num_deleted":"0","num_feature":"14","num_nodes":"63","size_leaf_vector":"1"}},{"base_weights":[1.969848E-3,-6.555872E-2,1.3293485E-1,-1.1570778E-1,1.1625137E-3,7.174972E-2,2.1763416E-1,-6.360885E-2,-1.8727139E-1,-2.3970231E-2,9.778221E-2,-6.908208E-3,1.1464979E-1,1.5775438E-1,2.6230708E-1,-7.8524E-2,7.400541E-2,-1.9939788E-1,-5.1379886E-2,-4.004364E-2,1.0971858E-1,5.4141045E-2,1.4418514E-1,-8.23273E-2,1.2565088E-1,5.825209E-2,1.7515641E-1,2.1369034E-1,8.2559384E-2,2.0001855E-1,3.2787132E-1,-7.4026757E-3,-2.091955E-3,5.3948225E-3,-2.0519577E-3,-1.0775799E-2,-4.621019E-3,-1.3801575E-3,-4.8510074E-3,9.7861455E-5,-5.305046E-3,-6.0737613E-3,7.2492743E-3,8.204723E-3,6.489078E-4,4.0526125E-3,1.25093935E-2,-4.965934E-3,-4.045582E-4,2.2954463E-3,8.802551E-3,9.1007195E-4,1.3143758E-2,6.3895136E-3,1.5981978E-2,6.04736E-3,1.4565754E-2,1.3217211E-2,4.4752035E-4,5.0741606E-3,1.174996E-2,1.6884783E-2,4.7582625E-3],"categories":[],"categories_nodes":[],"categories_segments":[],"categories_sizes":[],"default_left":[0,0,0,0,0,0,0,0,0,0,0,0,0,0,0,0,0,0,0,0,0,0,0,0,0,0,0,0,0,0,0,0,0,0,0,0,0,0,0,0,0,0,0,0,0,0,0,0,0,0,0,0,0,0,0,0,0,0,0,0,0,0,0],"id":16,"left_children":[1,3,5,7,9,11,13,15,17,19,21,23,25,27,29,31,33,35,37,39,41,43,45,47,49,51,53,55,57,59,61,-1,-1,-1,-1,-1,-1,-1,-1,-1,-1,-1,-1,-1,-1,-1,-1,-1,-1,-1,-1,-1,-1,-1,-1,-1,-1,-1,-1,-1,-1,-1,-1],"loss_changes":[3.87349E0,9.6713066E-1,7.565532E-1,6.032717E-1,3.0588365E-1,2.9774195E-1,1.24470234E-1,2.0490742E-1,1.034596E-1,2.1927702E-1,4.4845685E-2,3.3026403E-1,1.8430555E-1,1.0433489E-1,7.327223E-2,2.1826577E-1,4.3417763E-2,8.871102E-2,4.918175E-3,2.4990937E-1,1.07300535E-1,6.576036E-2,6.0028836E-2,2.568525E-2,4.014574E-2,2.4926922E-1,1.4393055E-1,7.9952836E-2,1.8496794E-1,4.5088112E-2,2.1559E-3,0E0,0E0,0E0,0E0,0E0,0E0,0E0,0E0,0E0,0E0,0E0,0E0,0E0,0E0,0E0,0E0,0E0,0E0,0E0,0E0,0E0,0E0,0E0,0E0,0E0,0E0,0E0,0E0,0E0,0E0,0E0,0E0],"parents":[2147483647,0,0,1,1,2,2,3,3,4,4,5,5,6,6,7,7,8,8,9,9,10,10,11,11,12,12,13,13,14,14,15,15,16,16,17,17,18,18,19,19,20,20,21,21,22,22,23,23,24,24,25,25,26,26,27,27,28,28,29,29,30,30],"right_children":[2,4,6,8,10,12,14,16,18,20,22,24,26,28,30,32,34,36,38,40,42,44,46,48,50,52,54,56,58,60,62,-1,-1,-1,-1,-1,-1,-1,-1,-1,-1,-1,-1,-1,-1,-1,-1,-1,-1,-1,-1,-1,-1,-1,-1,-1,-1,-1,-1,-1,-1,-1,-1],"split_conditions":[5.96E3,4.032E3,2E0,1E0,2E0,1E0,1E0,1E0,2E0,3E0,1E0,1E0,1E0,1E0,1E0,2E0,3.745E3,1E0,3.65E3,1E0,1E0,4.32E3,1E0,8.08E3,2E0,3E0,4E0,7.35E3,6.02E3,1E0,8.8E3,-7.4026757E-3,-2.091955E-3,5.3948225E-3,-2.0519577E-3,-1.0775799E-2,-4.621019E-3,-1.3801575E-3,-4.8510074E-3,9.7861455E-5,-5.305046E-3,-6.0737613E-3,7.2492743E-3,8.204723E-3,6.489078E-4,4.0526125E-3,1.25093935E-2,-4.965934E-3,-4.045582E-4,2.2954463E-3,8.802551E-3,9.1007195E-4,1.3143758E-2,6.3895136E-3,1.5981978E-2,6.04736E-3,1.4565754E-2,1.3217211E-2,4.4752035E-4,5.0741606E-3,1.174996E-2,1.6884783E-2,4.7582625E-3],"split_indices":[0,0,2,13,2,9,8,5,2,3,8,10,6,5,10,3,0,8,0,13,4,0,5,0,3,3,1,0,0,9,0,0,0,0,0,0,0,0,0,0,0,0,0,0,0,0,0,0,0,0,0,0,0,0,0,0,0,0,0,0,0,0,0],"split_type":[0,0,0,0,0,0,0,0,0,0,0,0,0,0,0,0,0,0,0,0,0,0,0,0,0,0,0,0,0,0,0,0,0,0,0,0,0,0,0,0,0,0,0,0,0,0,0,0,0,0,0,0,0,0,0,0,0,0,0,0,0,0,0],"sum_hessian":[4.36E2,2.88E2,1.48E2,1.64E2,1.24E2,8.7E1,6.1E1,9.6E1,6.8E1,9.9E1,2.5E1,3.1E1,5.6E1,2.8E1,3.3E1,8.7E1,9E0,6.2E1,6E0,8.9E1,1E1,1.4E1,1.1E1,2E1,1.1E1,3E1,2.6E1,1.5E1,1.3E1,1.9E1,1.4E1,2.9E1,5.8E1,7E0,2E0,5.3E1,9E0,5E0,1E0,5.5E1,3.4E1,1E0,9E0,3E0,1.1E1,8E0,3E0,1.6E1,4E0,5E0,6E0,2.6E1,4E0,2.1E1,5E0,8E0,7E0,3E0,1E1,6E0,1.3E1,1.3E1,1E0],"tree_param":{"num_deleted":"0","num_feature":"14","num_nodes":"63","size_leaf_vector":"1"}},{"base_weights":[2.1196557E-3,-6.2302914E-2,1.2705927E-1,-1.055651E-1,8.02352E-3,6.86413E-2,2.0792577E-1,-5.9619322E-2,-1.7301758E-1,-1.7015886E-2,1.0456628E-1,-6.383896E-3,1.0955647E-1,9.54999E-2,2.2770959E-1,-7.373278E-2,7.1538664E-2,-1.914383E-1,-9.025631E-2,-3.6518585E-2,1.1116966E-1,1.4612995E-1,3.5920523E-2,-7.8466825E-2,1.2029322E-1,1.6749144E-2,1.4230315E-1,1.19665354E-1,-8.829753E-3,1.850636E-1,3.0462405E-1,-6.737058E-3,-1.960837E-3,3.1669936E-4,6.241012E-3,-1.4144192E-2,-8.071664E-3,-3.230119E-3,-7.232702E-3,6.5197836E-4,-5.0518094E-3,6.9254735E-3,-8.5097953E-4,5.3143287E-3,1.0958338E-2,6.2891643E-4,6.1500072E-3,-4.492787E-3,9.909313E-4,2.199801E-3,8.425304E-3,-1.7309232E-3,5.4065785E-3,-5.4475623E-3,7.879483E-3,6.644285E-3,3.4756662E-4,2.8629065E-3,-3.525138E-3,1.1435061E-2,7.344935E-3,1.099019E-2,1.9719765E-2],"categories":[],"categories_nodes":[],"categories_segments":[],"categories_sizes":[],"default_left":[0,0,0,0,0,0,0,0,0,0,0,0,0,0,0,0,0,0,0,0,0,0,0,0,0,0,0,0,0,0,0,0,0,0,0,0,0,0,0,0,0,0,0,0,0,0,0,0,0,0,0,0,0,0,0,0,0,0,0,0,0,0,0],"id":17,"left_children":[1,3,5,7,9,11,13,15,17,19,21,23,25,27,29,31,33,35,37,39,41,43,45,47,49,51,53,55,57,59,61,-1,-1,-1,-1,-1,-1,-1,-1,-1,-1,-1,-1,-1,-1,-1,-1,-1,-1,-1,-1,-1,-1,-1,-1,-1,-1,-1,-1,-1,-1,-1,-1],"loss_changes":[3.5252988E0,8.801223E-1,6.8961215E-1,5.444337E-1,2.7010775E-1,2.7083018E-1,1.1615515E-1,2.0519266E-1,9.2487335E-2,2.2655657E-1,6.0373813E-2,3.016393E-1,1.7084712E-1,2.8789513E-2,1.141901E-1,2.010811E-1,3.742568E-2,1.13475084E-1,1.1587746E-2,2.5071257E-1,4.4413418E-2,1.7445982E-2,1.8779159E-2,2.5287494E-2,3.672847E-2,7.884889E-2,1.7848313E-1,1.2487337E-2,1.626437E-2,2.635932E-2,4.2755485E-2,0E0,0E0,0E0,0E0,0E0,0E0,0E0,0E0,0E0,0E0,0E0,0E0,0E0,0E0,0E0,0E0,0E0,0E0,0E0,0E0,0E0,0E0,0E0,0E0,0E0,0E0,0E0,0E0,0E0,0E0,0E0,0E0],"parents":[2147483647,0,0,1,1,2,2,3,3,4,4,5,5,6,6,7,7,8,8,9,9,10,10,11,11,12,12,13,13,14,14,15,15,16,16,17,17,18,18,19,19,20,20,21,21,22,22,23,23,24,24,25,25,26,26,27,27,28,28,29,29,30,30],"right_children":[2,4,6,8,10,12,14,16,18,20,22,24,26,28,30,32,34,36,38,40,42,44,46,48,50,52,54,56,58,60,62,-1,-1,-1,-1,-1,-1,-1,-1,-1,-1,-1,-1,-1,-1,-1,-1,-1,-1,-1,-1,-1,-1,-1,-1,-1,-1,-1,-1,-1,-1,-1,-1],"split_conditions":[5.96E3,4.1E3,2E0,1E0,1E0,1E0,2E0,1E0,1E0,3E0,1E0,1E0,3E0,1E0,2E0,2E0,3E0,3.036E3,1E0,1E0,4E0,2E0,3E0,4E0,2E0,8.52E3,1E0,7.475E3,6.21E3,6.44E3,1E0,-6.737058E-3,-1.960837E-3,3.1669936E-4,6.241012E-3,-1.4144192E-2,-8.071664E-3,-3.230119E-3,-7.232702E-3,6.5197836E-4,-5.0518094E-3,6.9254735E-3,-8.5097953E-4,5.3143287E-3,1.0958338E-2,6.2891643E-4,6.1500072E-3,-4.492787E-3,9.909313E-4,2.199801E-3,8.425304E-3,-1.7309232E-3,5.4065785E-3,-5.4475623E-3,7.879483E-3,6.644285E-3,3.4756662E-4,2.8629065E-3,-3.525138E-3,1.1435061E-2,7.344935E-3,1.099019E-2,1.9719765E-2],"split_indices":[0,0,2,13,5,9,3,5,6,3,12,10,1,11,9,3,1,0,9,13,1,9,3,1,3,0,4,0,0,0,10,0,0,0,0,0,0,0,0,0,0,0,0,0,0,0,0,0,0,0,0,0,0,0,0,0,0,0,0,0,0,0,0],"split_type":[0,0,0,0,0,0,0,0,0,0,0,0,0,0,0,0,0,0,0,0,0,0,0,0,0,0,0,0,0,0,0,0,0,0,0,0,0,0,0,0,0,0,0,0,0,0,0,0,0,0,0,0,0,0,0,0,0,0,0,0,0,0,0],"sum_hessian":[4.36E2,2.88E2,1.48E2,1.78E2,1.1E2,8.7E1,6.1E1,1.07E2,7.1E1,8.8E1,2.2E1,3.1E1,5.6E1,1E1,5.1E1,9.7E1,1E1,5.7E1,1.4E1,7.7E1,1.1E1,1.3E1,9E0,2E1,1.1E1,1.5E1,4.1E1,8E0,2E0,3.5E1,1.6E1,3.4E1,6.3E1,5E0,5E0,1.2E1,4.5E1,1.1E1,3E0,4.4E1,3.3E1,9E0,2E0,1E1,3E0,8E0,1E0,1.8E1,2E0,5E0,6E0,1E1,5E0,2E0,3.9E1,7E0,1E0,1E0,1E0,1.4E1,2.1E1,1E1,6E0],"tree_param":{"num_deleted":"0","num_feature":"14","num_nodes":"63","size_leaf_vector":"1"}},{"base_weights":[2.148517E-3,-5.922277E-2,1.2116968E-1,-1.04918875E-1,1.56987E-3,6.535964E-2,1.9842958E-1,-5.7578843E-2,-1.6994879E-1,-2.204733E-2,9.234487E-2,1.3032771E-2,1.2235971E-1,1.4334603E-1,2.3957646E-1,-8.03888E-2,2.8799511E-2,-2.1393324E-1,-1.3062912E-1,-3.6691837E-2,9.9775665E-2,5.1242255E-2,1.3602774E-1,-1.9657228E-2,2.0264094E-1,9.0285815E-2,2.9975542E-1,1.9606346E-1,7.2858535E-2,1.813683E-1,3.0121556E-1,-8.273217E-3,-2.7680686E-3,-5.6172847E-3,3.4309358E-3,-1.1672954E-2,-3.2853507E-3,-1.2759248E-2,-5.4551587E-3,-3.6085972E-3,1.6581474E-3,-5.900645E-3,6.6677905E-3,7.944191E-3,5.545775E-4,3.8371987E-3,1.1770464E-2,1.0318041E-2,-1.82696E-3,3.1366986E-3,1.2302848E-2,-2.1792462E-3,6.743615E-3,1.8518973E-2,-1.3341189E-3,5.4418566E-3,1.3484257E-2,1.229831E-2,1.6433977E-4,4.454238E-3,1.0727759E-2,1.6282849E-2,7.629371E-3],"categories":[],"categories_nodes":[],"categories_segments":[],"categories_sizes":[],"default_left":[0,0,0,0,0,0,0,0,0,0,0,0,0,0,0,0,0,0,0,0,0,0,0,0,0,0,0,0,0,0,0,0,0,0,0,0,0,0,0,0,0,0,0,0,0,0,0,0,0,0,0,0,0,0,0,0,0,0,0,0,0,0,0],"id":18,"left_children":[1,3,5,7,9,11,13,15,17,19,21,23,25,27,29,31,33,35,37,39,41,43,45,47,49,51,53,55,57,59,61,-1,-1,-1,-1,-1,-1,-1,-1,-1,-1,-1,-1,-1,-1,-1,-1,-1,-1,-1,-1,-1,-1,-1,-1,-1,-1,-1,-1,-1,-1,-1,-1],"loss_changes":[3.1992347E0,8.0300283E-1,6.295006E-1,4.9817002E-1,2.7001736E-1,2.6087716E-1,1.0618162E-1,1.9343296E-1,9.138656E-2,1.820647E-1,3.9712116E-2,2.9530305E-1,2.1190667E-1,9.347677E-2,6.735742E-2,1.5478978E-1,1.257351E-1,7.438159E-2,7.672453E-2,2.2545439E-1,9.6184805E-2,6.3066006E-2,5.2634254E-2,1.639811E-1,2.7083278E-2,2.2672495E-1,1.4820874E-1,7.3396266E-2,1.6779917E-1,4.2138457E-2,4.7991276E-3,0E0,0E0,0E0,0E0,0E0,0E0,0E0,0E0,0E0,0E0,0E0,0E0,0E0,0E0,0E0,0E0,0E0,0E0,0E0,0E0,0E0,0E0,0E0,0E0,0E0,0E0,0E0,0E0,0E0,0E0,0E0,0E0],"parents":[2147483647,0,0,1,1,2,2,3,3,4,4,5,5,6,6,7,7,8,8,9,9,10,10,11,11,12,12,13,13,14,14,15,15,16,16,17,17,18,18,19,19,20,20,21,21,22,22,23,23,24,24,25,25,26,26,27,27,28,28,29,29,30,30],"right_children":[2,4,6,8,10,12,14,16,18,20,22,24,26,28,30,32,34,36,38,40,42,44,46,48,50,52,54,56,58,60,62,-1,-1,-1,-1,-1,-1,-1,-1,-1,-1,-1,-1,-1,-1,-1,-1,-1,-1,-1,-1,-1,-1,-1,-1,-1,-1,-1,-1,-1,-1,-1,-1],"split_conditions":[5.96E3,4.032E3,2E0,1E0,2E0,1E0,1E0,2E0,3E0,3E0,1E0,3E0,4E0,1E0,1E0,1E0,3E0,1E0,2.015E3,1E0,1E0,4.32E3,1E0,6.02E3,1E0,6.4E3,3E0,7.35E3,6.02E3,1E0,1E0,-8.273217E-3,-2.7680686E-3,-5.6172847E-3,3.4309358E-3,-1.1672954E-2,-3.2853507E-3,-1.2759248E-2,-5.4551587E-3,-3.6085972E-3,1.6581474E-3,-5.900645E-3,6.6677905E-3,7.944191E-3,5.545775E-4,3.8371987E-3,1.1770464E-2,1.0318041E-2,-1.82696E-3,3.1366986E-3,1.2302848E-2,-2.1792462E-3,6.743615E-3,1.8518973E-2,-1.3341189E-3,5.4418566E-3,1.3484257E-2,1.229831E-2,1.6433977E-4,4.454238E-3,1.0727759E-2,1.6282849E-2,7.629371E-3],"split_indices":[0,0,2,13,2,6,8,2,1,3,8,3,1,5,10,4,1,8,0,6,4,0,5,0,9,0,3,0,0,9,13,0,0,0,0,0,0,0,0,0,0,0,0,0,0,0,0,0,0,0,0,0,0,0,0,0,0,0,0,0,0,0,0],"split_type":[0,0,0,0,0,0,0,0,0,0,0,0,0,0,0,0,0,0,0,0,0,0,0,0,0,0,0,0,0,0,0,0,0,0,0,0,0,0,0,0,0,0,0,0,0,0,0,0,0,0,0,0,0,0,0,0,0,0,0,0,0,0,0],"sum_hessian":[4.36E2,2.88E2,1.48E2,1.64E2,1.24E2,8.7E1,6.1E1,9.6E1,6.8E1,9.9E1,2.5E1,4.6E1,4.1E1,2.8E1,3.3E1,7.6E1,2E1,3E1,3.8E1,8.9E1,1E1,1.4E1,1.1E1,4E1,6E0,3.6E1,5E0,1.5E1,1.3E1,1.9E1,1.4E1,1.6E1,6E1,4E0,1.6E1,2.6E1,4E0,4E0,3.4E1,5.9E1,3E1,1E0,9E0,3E0,1.1E1,8E0,3E0,2E0,3.8E1,2E0,4E0,9E0,2.7E1,4E0,1E0,8E0,7E0,3E0,1E1,6E0,1.3E1,1.1E1,3E0],"tree_param":{"num_deleted":"0","num_feature":"14","num_nodes":"63","size_leaf_vector":"1"}},{"base_weights":[2.2532246E-3,-6.859353E-2,9.645235E-2,-9.1917016E-2,4.2691816E-2,4.7424205E-2,1.784223E-1,-5.2955396E-2,-1.4400198E-1,-7.645404E-2,6.729925E-2,2.245148E-3,1.1420479E-1,1.2635726E-1,2.1894136E-1,-1.4827932E-1,-3.12374E-2,-1.5339537E-1,9.160805E-2,-9.765402E-3,-4.2847E-3,-2.1603903E-4,1.08404905E-1,-3.7861492E-2,8.403599E-2,7.796251E-2,1.6104583E-1,1.0102244E-1,1.4238954E-2,1.4082628E-1,2.5864074E-1,-1.01799015E-2,-3.2690594E-5,-7.7165887E-3,-8.606582E-4,-8.634361E-3,-2.592713E-3,-2.0468235E-4,6.2436583E-3,-1.3130474E-3,2.6399137E-3,-1.464208E-3,4.3521165E-3,1.6358042E-2,4.1795257E-3,2.4274008E-4,-6.750438E-3,4.8645786E-3,-5.521059E-3,-4.0964843E-3,4.3299505E-3,3.2303282E-3,1.0997741E-2,5.828992E-3,-3.8927079E-3,8.430672E-3,3.5521667E-3,8.155293E-3,1.4419208E-2],"categories":[],"categories_nodes":[],"categories_segments":[],"categories_sizes":[],"default_left":[0,0,0,0,0,0,0,0,0,0,0,0,0,0,0,0,0,0,0,0,0,0,0,0,0,0,0,0,0,0,0,0,0,0,0,0,0,0,0,0,0,0,0,0,0,0,0,0,0,0,0,0,0,0,0,0,0,0,0],"id":19,"left_children":[1,3,5,7,9,11,13,15,17,19,21,23,25,27,29,31,33,35,37,-1,39,41,43,45,47,49,51,53,-1,55,57,-1,-1,-1,-1,-1,-1,-1,-1,-1,-1,-1,-1,-1,-1,-1,-1,-1,-1,-1,-1,-1,-1,-1,-1,-1,-1,-1,-1],"loss_changes":[2.9230237E0,6.528146E-1,7.4707925E-1,4.124422E-1,1.3414775E-1,3.5877657E-1,1.20009184E-1,2.4379751E-1,2.08812E-1,6.7784086E-2,1.0270803E-1,2.3936735E-1,6.893051E-2,1.0367936E-1,8.141899E-2,1.795288E-1,1.6824763E-1,1.5755343E-1,1.3245299E-2,0E0,8.91335E-3,4.0595513E-2,9.7503304E-2,2.0399423E-1,7.260649E-2,4.714136E-2,9.94122E-2,9.256184E-2,0E0,1.7107189E-2,2.1159649E-2,0E0,0E0,0E0,0E0,0E0,0E0,0E0,0E0,0E0,0E0,0E0,0E0,0E0,0E0,0E0,0E0,0E0,0E0,0E0,0E0,0E0,0E0,0E0,0E0,0E0,0E0,0E0,0E0],"parents":[2147483647,0,0,1,1,2,2,3,3,4,4,5,5,6,6,7,7,8,8,9,9,10,10,11,11,12,12,13,13,14,14,15,15,16,16,17,17,18,18,20,20,21,21,22,22,23,23,24,24,25,25,26,26,27,27,29,29,30,30],"right_children":[2,4,6,8,10,12,14,16,18,20,22,24,26,28,30,32,34,36,38,-1,40,42,44,46,48,50,52,54,-1,56,58,-1,-1,-1,-1,-1,-1,-1,-1,-1,-1,-1,-1,-1,-1,-1,-1,-1,-1,-1,-1,-1,-1,-1,-1,-1,-1,-1,-1],"split_conditions":[4.995E3,2E0,2E0,1E0,3E0,1E0,1E0,1E0,3E0,1E0,3.48E3,1E0,1E0,9.86E3,1E0,1E0,2.5E3,1E0,4.2E3,-9.765402E-3,4.12E3,1E0,3.51E3,1E0,3E0,1E0,1E0,8.8E3,1.4238954E-2,1E0,6.4E3,-1.01799015E-2,-3.2690594E-5,-7.7165887E-3,-8.606582E-4,-8.634361E-3,-2.592713E-3,-2.0468235E-4,6.2436583E-3,-1.3130474E-3,2.6399137E-3,-1.464208E-3,4.3521165E-3,1.6358042E-2,4.1795257E-3,2.4274008E-4,-6.750438E-3,4.8645786E-3,-5.521059E-3,-4.0964843E-3,4.3299505E-3,3.2303282E-3,1.0997741E-2,5.828992E-3,-3.8927079E-3,8.430672E-3,3.5521667E-3,8.155293E-3,1.4419208E-2],"split_indices":[0,2,2,13,1,8,8,4,3,12,0,10,11,0,9,6,0,6,0,0,0,5,0,13,9,4,6,0,0,13,0,0,0,0,0,0,0,0,0,0,0,0,0,0,0,0,0,0,0,0,0,0,0,0,0,0,0,0,0],"split_type":[0,0,0,0,0,0,0,0,0,0,0,0,0,0,0,0,0,0,0,0,0,0,0,0,0,0,0,0,0,0,0,0,0,0,0,0,0,0,0,0,0,0,0,0,0,0,0,0,0,0,0,0,0,0,0,0,0,0,0],"sum_hessian":[4.36E2,2.49E2,1.87E2,2.06E2,4.3E1,1.18E2,6.9E1,1.19E2,8.7E1,7E0,3.6E1,7.1E1,4.7E1,3.2E1,3.7E1,2.1E1,9.8E1,8.4E1,3E0,2E0,5E0,1.4E1,2.2E1,4.8E1,2.3E1,2.8E1,1.9E1,2.9E1,3E0,1.4E1,2.3E1,1.5E1,6E0,9E0,8.9E1,7E1,1.4E1,1E0,2E0,4E0,1E0,1.1E1,3E0,1E0,2.1E1,3.4E1,1.4E1,2.2E1,1E0,1E0,2.7E1,8E0,1.1E1,2.7E1,2E0,9E0,5E0,7E0,1.6E1],"tree_param":{"num_deleted":"0","num_feature":"14","num_nodes":"59","size_leaf_vector":"1"}},{"base_weights":[2.2526486E-3,-9.168499E-2,6.7166105E-2,-5.2051473E-2,-1.4986187E-1,2.2952538E-2,1.5431301E-1,-6.514311E-2,6.9315046E-2,-1.607121E-1,-4.2971015E-2,-1.6271124E-2,8.3757766E-2,1.0443386E-1,1.9854614E-1,-1.2213197E-1,-3.295946E-2,1.101621E-2,5.8030686E-3,-1.8917987E-1,-1.1073428E-1,-4.937887E-3,-6.480332E-2,-4.5526516E-2,1.5113586E-1,2.8925225E-2,1.4454046E-1,8.4856436E-2,1.370498E-2,-2.2992134E-2,2.0938493E-1,-1.1708415E-2,-4.2879875E-3,-4.684792E-3,-2.6165435E-4,1.9032288E-3,-3.1056404E-3,-1.0709888E-2,-3.1166791E-3,-3.1936092E-3,-7.042084E-3,5.264044E-4,-6.8012875E-4,-3.565705E-3,-9.6900464E-4,-3.2405965E-3,3.2586337E-3,-5.4986477E-3,8.793733E-3,-8.030538E-4,1.1200905E-2,3.6940414E-3,1.09848E-2,4.7632027E-3,-3.7629444E-3,-1.9337416E-3,2.0933151E-4,7.13295E-3,1.1833909E-2],"categories":[],"categories_nodes":[],"categories_segments":[],"categories_sizes":[],"default_left":[0,0,0,0,0,0,0,0,0,0,0,0,0,0,0,0,0,0,0,0,0,0,0,0,0,0,0,0,0,0,0,0,0,0,0,0,0,0,0,0,0,0,0,0,0,0,0,0,0,0,0,0,0,0,0,0,0,0,0],"id":20,"left_children":[1,3,5,7,9,11,13,15,17,19,21,23,25,27,29,31,33,35,-1,37,39,41,43,45,47,49,51,53,-1,55,57,-1,-1,-1,-1,-1,-1,-1,-1,-1,-1,-1,-1,-1,-1,-1,-1,-1,-1,-1,-1,-1,-1,-1,-1,-1,-1,-1,-1],"loss_changes":[2.670904E0,4.049294E-1,9.944048E-1,1.7611513E-1,7.659888E-2,4.139685E-1,1.7121434E-1,1.7571738E-1,2.8699256E-2,7.153058E-2,6.322814E-3,5.260218E-1,2.2245422E-1,1.19570404E-1,1.1286855E-1,1.225431E-1,1.0728565E-1,1.4232419E-2,0E0,1.1358535E-1,2.76874E-2,6.7924045E-4,9.6630305E-5,1.98498E-1,1.2269366E-1,3.2832873E-1,1.5370351E-1,7.382625E-2,0E0,1.4406261E-3,4.4546008E-2,0E0,0E0,0E0,0E0,0E0,0E0,0E0,0E0,0E0,0E0,0E0,0E0,0E0,0E0,0E0,0E0,0E0,0E0,0E0,0E0,0E0,0E0,0E0,0E0,0E0,0E0,0E0,0E0],"parents":[2147483647,0,0,1,1,2,2,3,3,4,4,5,5,6,6,7,7,8,8,9,9,10,10,11,11,12,12,13,13,14,14,15,15,16,16,17,17,19,19,20,20,21,21,22,22,23,23,24,24,25,25,26,26,27,27,29,29,30,30],"right_children":[2,4,6,8,10,12,14,16,18,20,22,24,26,28,30,32,34,36,-1,38,40,42,44,46,48,50,52,54,-1,56,58,-1,-1,-1,-1,-1,-1,-1,-1,-1,-1,-1,-1,-1,-1,-1,-1,-1,-1,-1,-1,-1,-1,-1,-1,-1,-1,-1,-1],"split_conditions":[4.1E3,1E0,2E0,1E0,1E0,1E0,1E0,2E0,3E0,3.63E3,2E0,3E0,6.4E3,9.86E3,1E0,1E0,3.162E3,3.76E3,5.8030686E-3,1E0,3.816E3,3E0,2.87E3,8.52E3,1E0,2E0,1E0,8.8E3,1.370498E-2,4.51E3,1E0,-1.1708415E-2,-4.2879875E-3,-4.684792E-3,-2.6165435E-4,1.9032288E-3,-3.1056404E-3,-1.0709888E-2,-3.1166791E-3,-3.1936092E-3,-7.042084E-3,5.264044E-4,-6.8012875E-4,-3.565705E-3,-9.6900464E-4,-3.2405965E-3,3.2586337E-3,-5.4986477E-3,8.793733E-3,-8.030538E-4,1.1200905E-2,3.6940414E-3,1.09848E-2,4.7632027E-3,-3.7629444E-3,-1.9337416E-3,2.0933151E-4,7.13295E-3,1.1833909E-2],"split_indices":[0,13,2,5,10,6,8,3,1,0,3,3,0,0,4,4,0,0,0,8,0,1,0,0,4,9,11,0,0,0,9,0,0,0,0,0,0,0,0,0,0,0,0,0,0,0,0,0,0,0,0,0,0,0,0,0,0,0,0],"split_type":[0,0,0,0,0,0,0,0,0,0,0,0,0,0,0,0,0,0,0,0,0,0,0,0,0,0,0,0,0,0,0,0,0,0,0,0,0,0,0,0,0,0,0,0,0,0,0,0,0,0,0,0,0,0,0,0,0,0,0],"sum_hessian":[4.36E2,1.78E2,2.58E2,1.07E2,7.1E1,1.72E2,8.6E1,9.7E1,1E1,6.4E1,7E0,1.05E2,6.7E1,4.2E1,4.4E1,3.4E1,6.3E1,5E0,5E0,3.9E1,2.5E1,3E0,4E0,9E1,1.5E1,3.6E1,3.1E1,3.9E1,3E0,2E0,4.2E1,7E0,2.7E1,1.9E1,4.4E1,4E0,1E0,3.2E1,7E0,1.1E1,1.4E1,1E0,2E0,3E0,1E0,7.7E1,1.3E1,1E0,1.4E1,3E1,6E0,1.7E1,1.4E1,3.7E1,2E0,1E0,1E0,1.4E1,2.8E1],"tree_param":{"num_deleted":"0","num_feature":"14","num_nodes":"59","size_leaf_vector":"1"}},{"base_weights":[2.174803E-3,-5.1369715E-2,1.0601501E-1,-8.735286E-2,7.1199434E-3,5.7273053E-2,1.7348723E-1,-4.960051E-2,-1.4276814E-1,-1.4669965E-2,9.112785E-2,-9.27344E-3,9.36277E-2,7.509396E-2,1.909649E-1,-6.2099963E-2,6.6267364E-2,-1.5230525E-1,-3.245149E-2,8.8667154E-2,-3.6814883E-2,1.2888601E-1,2.9153634E-2,-7.2010085E-2,1.01288475E-1,1.1305094E-2,1.22759454E-1,6.1893463E-3,5.679192E-3,1.5255915E-1,2.610615E-1,-5.824133E-3,-1.5694558E-3,4.8329174E-3,-5.5407285E-4,-9.610782E-3,-5.6853625E-3,-6.140391E-4,-3.8368942E-3,6.319263E-4,1.0663756E-2,-2.800268E-3,4.5802356E-3,9.435463E-3,4.30429E-3,3.7439665E-4,5.6036236E-3,-4.379803E-3,-2.3078918E-4,1.5305042E-3,7.3700086E-3,-1.774181E-3,4.760011E-3,-5.0328416E-3,6.822334E-3,2.2397996E-3,-3.7059307E-3,9.629129E-3,5.916797E-3,9.288394E-3,1.710428E-2],"categories":[],"categories_nodes":[],"categories_segments":[],"categories_sizes":[],"default_left":[0,0,0,0,0,0,0,0,0,0,0,0,0,0,0,0,0,0,0,0,0,0,0,0,0,0,0,0,0,0,0,0,0,0,0,0,0,0,0,0,0,0,0,0,0,0,0,0,0,0,0,0,0,0,0,0,0,0,0,0,0],"id":21,"left_children":[1,3,5,7,9,11,13,15,17,19,21,23,25,27,29,31,33,35,37,39,41,43,45,47,49,51,53,55,-1,57,59,-1,-1,-1,-1,-1,-1,-1,-1,-1,-1,-1,-1,-1,-1,-1,-1,-1,-1,-1,-1,-1,-1,-1,-1,-1,-1,-1,-1,-1,-1],"loss_changes":[2.4351985E0,6.088635E-1,4.8008442E-1,3.673967E-1,2.0452507E-1,2.137644E-1,9.228003E-2,1.6052997E-1,7.080877E-2,2.0693114E-1,5.0063252E-2,2.2925487E-1,1.3530967E-1,2.847042E-2,1.00162506E-1,1.6001728E-1,2.6928894E-2,7.981408E-2,5.310614E-3,1.4888489E-1,1.8749842E-1,1.9601092E-2,1.7125756E-2,2.1654189E-2,3.4597285E-2,6.6183574E-2,1.4216822E-1,1.8822322E-2,0E0,2.6520789E-2,4.016173E-2,0E0,0E0,0E0,0E0,0E0,0E0,0E0,0E0,0E0,0E0,0E0,0E0,0E0,0E0,0E0,0E0,0E0,0E0,0E0,0E0,0E0,0E0,0E0,0E0,0E0,0E0,0E0,0E0,0E0,0E0],"parents":[2147483647,0,0,1,1,2,2,3,3,4,4,5,5,6,6,7,7,8,8,9,9,10,10,11,11,12,12,13,13,14,14,15,15,16,16,17,17,18,18,19,19,20,20,21,21,22,22,23,23,24,24,25,25,26,26,27,27,29,29,30,30],"right_children":[2,4,6,8,10,12,14,16,18,20,22,24,26,28,30,32,34,36,38,40,42,44,46,48,50,52,54,56,-1,58,60,-1,-1,-1,-1,-1,-1,-1,-1,-1,-1,-1,-1,-1,-1,-1,-1,-1,-1,-1,-1,-1,-1,-1,-1,-1,-1,-1,-1,-1,-1],"split_conditions":[5.96E3,4.1E3,2E0,1E0,1E0,1E0,2E0,1E0,2E0,4.34E3,1E0,1E0,3E0,1E0,2E0,2E0,3.745E3,3.45E3,3.65E3,1E0,3E0,4.75E3,3E0,8.08E3,2E0,8.52E3,1E0,1E0,5.679192E-3,6.44E3,1E0,-5.824133E-3,-1.5694558E-3,4.8329174E-3,-5.5407285E-4,-9.610782E-3,-5.6853625E-3,-6.140391E-4,-3.8368942E-3,6.319263E-4,1.0663756E-2,-2.800268E-3,4.5802356E-3,9.435463E-3,4.30429E-3,3.7439665E-4,5.6036236E-3,-4.379803E-3,-2.3078918E-4,1.5305042E-3,7.3700086E-3,-1.774181E-3,4.760011E-3,-5.0328416E-3,6.822334E-3,2.2397996E-3,-3.7059307E-3,9.629129E-3,5.916797E-3,9.288394E-3,1.710428E-2],"split_indices":[0,0,2,13,5,9,3,5,2,0,12,10,1,10,9,3,0,0,0,6,3,0,3,0,3,0,4,11,0,0,10,0,0,0,0,0,0,0,0,0,0,0,0,0,0,0,0,0,0,0,0,0,0,0,0,0,0,0,0,0,0],"split_type":[0,0,0,0,0,0,0,0,0,0,0,0,0,0,0,0,0,0,0,0,0,0,0,0,0,0,0,0,0,0,0,0,0,0,0,0,0,0,0,0,0,0,0,0,0,0,0,0,0,0,0,0,0,0,0,0,0,0,0,0,0],"sum_hessian":[4.36E2,2.88E2,1.48E2,1.78E2,1.1E2,8.7E1,6.1E1,1.07E2,7.1E1,8.8E1,2.2E1,3.1E1,5.6E1,1E1,5.1E1,9.7E1,1E1,6.5E1,6E0,1.5E1,7.3E1,1.3E1,9E0,2E1,1.1E1,1.5E1,4.1E1,4E0,6E0,3.5E1,1.6E1,3.4E1,6.3E1,7E0,3E0,3E1,3.5E1,5E0,1E0,1E1,5E0,6.4E1,9E0,4E0,9E0,8E0,1E0,1.6E1,4E0,5E0,6E0,1E1,5E0,2E0,3.9E1,3E0,1E0,1.4E1,2.1E1,1E1,6E0],"tree_param":{"num_deleted":"0","num_feature":"14","num_nodes":"61","size_leaf_vector":"1"}},{"base_weights":[2.2151608E-3,-4.9034324E-2,1.005994E-1,-6.963924E-2,4.581954E-2,5.4217555E-2,1.6555724E-1,-1.5941717E-1,-4.7182694E-2,-6.9149375E-2,6.524025E-2,-7.5557595E-3,8.902986E-2,7.17222E-2,1.8222316E-1,-1.8815234E-1,-1.7185105E-2,-1.2915495E-2,-9.774821E-2,-9.228054E-3,8.138021E-5,1.2545268E-3,9.409656E-2,-6.422403E-2,9.696571E-2,1.0926306E-2,1.1666384E-1,5.586433E-3,1.0871601E-1,1.4536309E-1,2.4956074E-1,-1.2129976E-2,-6.214876E-3,-2.4931023E-3,3.2394726E-3,-2.344028E-3,2.0480421E-3,-5.543246E-3,5.6652646E-3,-9.343433E-4,2.3480654E-3,-1.1849364E-3,3.7900328E-3,1.599486E-2,3.7953313E-3,-1.7710176E-3,-5.0946875E-3,1.4667272E-3,7.0541515E-3,-1.6935522E-3,4.5616864E-3,-4.8650904E-3,6.4897337E-3,2.1557927E-3,-3.6132813E-3,6.161404E-3,2.4145285E-3,6.548804E-3,1.2998073E-2,8.866176E-3,1.6371243E-2],"categories":[],"categories_nodes":[],"categories_segments":[],"categories_sizes":[],"default_left":[0,0,0,0,0,0,0,0,0,0,0,0,0,0,0,0,0,0,0,0,0,0,0,0,0,0,0,0,0,0,0,0,0,0,0,0,0,0,0,0,0,0,0,0,0,0,0,0,0,0,0,0,0,0,0,0,0,0,0,0,0],"id":22,"left_children":[1,3,5,7,9,11,13,15,17,19,21,23,25,27,29,31,33,35,37,-1,39,41,43,45,47,49,51,53,55,57,59,-1,-1,-1,-1,-1,-1,-1,-1,-1,-1,-1,-1,-1,-1,-1,-1,-1,-1,-1,-1,-1,-1,-1,-1,-1,-1,-1,-1,-1,-1],"loss_changes":[2.2083488E0,5.6607425E-1,4.429536E-1,4.702947E-1,1.2061574E-1,1.9206467E-1,8.388901E-2,1.8885851E-1,3.296906E-1,6.393534E-2,8.2969576E-2,2.016882E-1,1.2174904E-1,2.6305422E-2,9.279072E-2,1.054374E-1,2.7338633E-2,2.123603E-1,2.2572267E-1,0E0,6.1566844E-3,2.9698908E-2,1.03043884E-1,2.0261467E-2,3.1665854E-2,6.0651135E-2,1.306302E-1,1.7724507E-2,1.8752366E-4,2.530539E-2,3.755951E-2,0E0,0E0,0E0,0E0,0E0,0E0,0E0,0E0,0E0,0E0,0E0,0E0,0E0,0E0,0E0,0E0,0E0,0E0,0E0,0E0,0E0,0E0,0E0,0E0,0E0,0E0,0E0,0E0,0E0,0E0],"parents":[2147483647,0,0,1,1,2,2,3,3,4,4,5,5,6,6,7,7,8,8,9,9,10,10,11,11,12,12,13,13,14,14,15,15,16,16,17,17,18,18,20,20,21,21,22,22,23,23,24,24,25,25,26,26,27,27,28,28,29,29,30,30],"right_children":[2,4,6,8,10,12,14,16,18,20,22,24,26,28,30,32,34,36,38,-1,40,42,44,46,48,50,52,54,56,58,60,-1,-1,-1,-1,-1,-1,-1,-1,-1,-1,-1,-1,-1,-1,-1,-1,-1,-1,-1,-1,-1,-1,-1,-1,-1,-1,-1,-1,-1,-1],"split_conditions":[5.948E3,2E0,2E0,1E0,3E0,1E0,2E0,1E0,1E0,1E0,3.48E3,1E0,3E0,1E0,2E0,3.45E3,1E0,4.1E3,3E0,-9.228054E-3,4.12E3,1E0,3.51E3,7.02E3,2E0,8.52E3,1E0,1E0,4E0,3E0,1E0,-1.2129976E-2,-6.214876E-3,-2.4931023E-3,3.2394726E-3,-2.344028E-3,2.0480421E-3,-5.543246E-3,5.6652646E-3,-9.343433E-4,2.3480654E-3,-1.1849364E-3,3.7900328E-3,1.599486E-2,3.7953313E-3,-1.7710176E-3,-5.0946875E-3,1.4667272E-3,7.0541515E-3,-1.6935522E-3,4.5616864E-3,-4.8650904E-3,6.4897337E-3,2.1557927E-3,-3.6132813E-3,6.161404E-3,2.4145285E-3,6.548804E-3,1.2998073E-2,8.866176E-3,1.6371243E-2],"split_indices":[0,2,2,4,1,9,3,6,13,12,0,10,1,10,9,0,5,0,3,0,0,5,0,0,3,0,4,11,1,2,10,0,0,0,0,0,0,0,0,0,0,0,0,0,0,0,0,0,0,0,0,0,0,0,0,0,0,0,0,0,0],"split_type":[0,0,0,0,0,0,0,0,0,0,0,0,0,0,0,0,0,0,0,0,0,0,0,0,0,0,0,0,0,0,0,0,0,0,0,0,0,0,0,0,0,0,0,0,0,0,0,0,0,0,0,0,0,0,0,0,0,0,0,0,0],"sum_hessian":[4.36E2,2.87E2,1.49E2,2.36E2,5.1E1,8.8E1,6.1E1,4.6E1,1.9E2,7E0,4.4E1,3.2E1,5.6E1,1E1,5.1E1,3.8E1,8E0,1.14E2,7.6E1,2E0,5E0,1.4E1,3E1,2.1E1,1.1E1,1.5E1,4.1E1,4E0,6E0,3.5E1,1.6E1,1.9E1,1.9E1,6E0,2E0,7E1,4.4E1,7.2E1,4E0,4E0,1E0,1.1E1,3E0,1E0,2.9E1,1.3E1,8E0,5E0,6E0,1E1,5E0,2E0,3.9E1,3E0,1E0,4E0,2E0,3.3E1,2E0,1E1,6E0],"tree_param":{"num_deleted":"0","num_feature":"14","num_nodes":"61","size_leaf_vector":"1"}},{"base_weights":[2.229948E-3,-5.6270435E-2,8.073993E-2,-7.632436E-2,3.7228074E-2,3.9431565E-2,1.5081175E-1,-9.888586E-2,-5.3737867E-3,-6.666863E-2,5.812138E-2,-1.3460186E-3,9.977645E-2,1.1431827E-1,1.9720557E-1,-2.032175E-1,-7.662754E-2,-1.7803822E-2,1.5403199E-2,-8.920464E-3,3.1312308E-4,1.365153E-3,9.11723E-2,-1.7387506E-2,7.504729E-3,7.484163E-2,1.5498659E-1,9.4880596E-2,2.3529339E-1,1.3177186E-1,3.2797253E-1,-1.1832376E-2,-2.3385605E-3,-6.123798E-3,-2.1951958E-3,-2.3188887E-3,2.019568E-3,-8.969593E-4,2.2893667E-3,-1.1306484E-3,3.6479116E-3,1.55949835E-2,3.40073E-3,9.680057E-4,-5.822836E-3,2.7519458E-3,9.132509E-3,4.6985745E-3,1.7369239E-2,5.6414017E-3,-4.0696384E-3,1.4339971E-2,7.317305E-4,3.166175E-3,8.891559E-3,8.981477E-3,2.053605E-2],"categories":[],"categories_nodes":[],"categories_segments":[],"categories_sizes":[],"default_left":[0,0,0,0,0,0,0,0,0,0,0,0,0,0,0,0,0,0,0,0,0,0,0,0,0,0,0,0,0,0,0,0,0,0,0,0,0,0,0,0,0,0,0,0,0,0,0,0,0,0,0,0,0,0,0,0,0],"id":23,"left_children":[1,3,5,7,9,11,13,15,17,19,21,23,25,27,29,31,33,35,-1,-1,37,39,41,43,-1,45,47,49,51,53,55,-1,-1,-1,-1,-1,-1,-1,-1,-1,-1,-1,-1,-1,-1,-1,-1,-1,-1,-1,-1,-1,-1,-1,-1,-1,-1],"loss_changes":[2.011625E0,4.7346956E-1,5.353346E-1,3.3082402E-1,1.01558425E-1,2.9295978E-1,9.427774E-2,3.4902084E-1,2.0418288E-1,5.993253E-2,7.115765E-2,1.775217E-1,5.4479957E-2,7.408565E-2,2.0492291E-1,1.3014174E-1,1.9116557E-1,8.501658E-2,0E0,0E0,5.8014435E-3,2.7399816E-2,1.01463184E-1,2.425314E-1,0E0,6.466873E-2,1.3170442E-1,1.2623861E-1,5.2629113E-2,5.494547E-2,3.669882E-2,0E0,0E0,0E0,0E0,0E0,0E0,0E0,0E0,0E0,0E0,0E0,0E0,0E0,0E0,0E0,0E0,0E0,0E0,0E0,0E0,0E0,0E0,0E0,0E0,0E0,0E0],"parents":[2147483647,0,0,1,1,2,2,3,3,4,4,5,5,6,6,7,7,8,8,9,9,10,10,11,11,12,12,13,13,14,14,15,15,16,16,17,17,20,20,21,21,22,22,23,23,25,25,26,26,27,27,28,28,29,29,30,30],"right_children":[2,4,6,8,10,12,14,16,18,20,22,24,26,28,30,32,34,36,-1,-1,38,40,42,44,-1,46,48,50,52,54,56,-1,-1,-1,-1,-1,-1,-1,-1,-1,-1,-1,-1,-1,-1,-1,-1,-1,-1,-1,-1,-1,-1,-1,-1,-1,-1],"split_conditions":[5E3,2E0,2E0,1E0,3E0,1E0,1E0,3.036E3,1E0,1E0,3.48E3,3E0,1E0,3E0,6.93E3,1E0,3E0,4.079E3,1.5403199E-2,-8.920464E-3,4.12E3,1E0,3.51E3,1E0,7.504729E-3,4E0,7.26E3,9.166E3,1E0,1E0,2E0,-1.1832376E-2,-2.3385605E-3,-6.123798E-3,-2.1951958E-3,-2.3188887E-3,2.019568E-3,-8.969593E-4,2.2893667E-3,-1.1306484E-3,3.6479116E-3,1.55949835E-2,3.40073E-3,9.680057E-4,-5.822836E-3,2.7519458E-3,9.132509E-3,4.6985745E-3,1.7369239E-2,5.6414017E-3,-4.0696384E-3,1.4339971E-2,7.317305E-4,3.166175E-3,8.891559E-3,8.981477E-3,2.053605E-2],"split_indices":[0,2,2,6,1,8,10,0,7,12,0,3,5,2,0,8,1,0,0,0,0,5,0,13,0,3,0,0,11,8,9,0,0,0,0,0,0,0,0,0,0,0,0,0,0,0,0,0,0,0,0,0,0,0,0,0,0],"split_type":[0,0,0,0,0,0,0,0,0,0,0,0,0,0,0,0,0,0,0,0,0,0,0,0,0,0,0,0,0,0,0,0,0,0,0,0,0,0,0,0,0,0,0,0,0,0,0,0,0,0,0,0,0,0,0,0,0],"sum_hessian":[4.36E2,2.5E2,1.86E2,2.06E2,4.4E1,1.18E2,6.8E1,1.56E2,5E1,7E0,3.7E1,7.1E1,4.7E1,4E1,2.8E1,2.6E1,1.3E2,4.9E1,1E0,2E0,5E0,1.4E1,2.3E1,6.5E1,6E0,3.4E1,1.3E1,3.6E1,4E0,2E1,8E0,2.1E1,5E0,5.3E1,7.7E1,3.3E1,1.6E1,4E0,1E0,1.1E1,3E0,1E0,2.2E1,4.8E1,1.7E1,3E1,4E0,1.1E1,2E0,3.3E1,3E0,3E0,1E0,9E0,1.1E1,4E0,4E0],"tree_param":{"num_deleted":"0","num_feature":"14","num_nodes":"57","size_leaf_vector":"1"}},{"base_weights":[2.350578E-3,-4.4375535E-2,9.204905E-2,-6.606667E-2,3.414148E-2,4.969316E-2,1.5136558E-1,-3.3561036E-2,-1.1304704E-1,8.339603E-3,1.09413266E-1,7.0227385E-3,9.727619E-2,1.16185114E-1,1.9560832E-1,-1.12643205E-1,-1.5447385E-2,-1.6320257E-1,-7.132736E-2,-1.2909631E-2,7.3163114E-2,-1.9953013E-3,1.22028284E-1,-2.01181E-2,1.6886452E-1,6.841889E-2,2.5901684E-1,9.594348E-2,2.2654286E-1,1.2511867E-1,3.1485334E-1,-7.848276E-3,1.1876038E-3,-7.015017E-3,-2.1939648E-4,-9.221242E-3,-1.6888278E-3,-4.788884E-3,9.077589E-4,-1.5909792E-3,2.0664597E-3,5.523239E-3,8.7253255E-4,8.7018014E-4,7.3367083E-3,7.4066757E-3,-1.8429414E-3,2.2628307E-3,1.0462819E-2,-2.2931814E-3,5.339527E-3,1.6365996E-2,-2.062464E-3,5.799163E-3,-3.9170384E-3,1.3802207E-2,7.134438E-4,2.5228448E-3,8.990121E-3,8.622208E-3,1.9714594E-2],"categories":[],"categories_nodes":[],"categories_segments":[],"categories_sizes":[],"default_left":[0,0,0,0,0,0,0,0,0,0,0,0,0,0,0,0,0,0,0,0,0,0,0,0,0,0,0,0,0,0,0,0,0,0,0,0,0,0,0,0,0,0,0,0,0,0,0,0,0,0,0,0,0,0,0,0,0,0,0,0,0],"id":24,"left_children":[1,3,5,7,9,11,13,15,17,19,21,23,25,27,29,31,33,35,37,39,41,-1,43,45,47,49,51,53,55,57,59,-1,-1,-1,-1,-1,-1,-1,-1,-1,-1,-1,-1,-1,-1,-1,-1,-1,-1,-1,-1,-1,-1,-1,-1,-1,-1,-1,-1,-1,-1],"loss_changes":[1.8356657E0,4.9275517E-1,3.6933875E-1,3.4133667E-1,1.21443205E-1,1.8002142E-1,7.3774934E-2,1.9164295E-1,1.808666E-1,6.706211E-2,3.500831E-2,2.1423827E-1,1.7830902E-1,6.0916036E-2,1.7914999E-1,1.548621E-1,1.5265378E-1,1.06385946E-1,1.1550847E-1,3.9264254E-2,2.3010328E-2,0E0,3.621897E-2,1.2375952E-1,2.5479019E-2,1.6715051E-1,1.3655633E-1,1.2434262E-1,4.8600316E-2,6.441787E-2,3.3821702E-2,0E0,0E0,0E0,0E0,0E0,0E0,0E0,0E0,0E0,0E0,0E0,0E0,0E0,0E0,0E0,0E0,0E0,0E0,0E0,0E0,0E0,0E0,0E0,0E0,0E0,0E0,0E0,0E0,0E0,0E0],"parents":[2147483647,0,0,1,1,2,2,3,3,4,4,5,5,6,6,7,7,8,8,9,9,10,10,11,11,12,12,13,13,14,14,15,15,16,16,17,17,18,18,19,19,20,20,22,22,23,23,24,24,25,25,26,26,27,27,28,28,29,29,30,30],"right_children":[2,4,6,8,10,12,14,16,18,20,22,24,26,28,30,32,34,36,38,40,42,-1,44,46,48,50,52,54,56,58,60,-1,-1,-1,-1,-1,-1,-1,-1,-1,-1,-1,-1,-1,-1,-1,-1,-1,-1,-1,-1,-1,-1,-1,-1,-1,-1,-1,-1,-1,-1],"split_conditions":[5.948E3,1E0,2E0,1E0,2E0,1E0,1E0,1E0,3.64E3,4.99E3,1E0,3E0,4E0,3E0,6.93E3,1E0,2.5E3,1E0,1E0,4E0,1E0,-1.9953013E-3,3.48E3,6.02E3,1E0,6.4E3,3E0,9.166E3,1E0,1E0,2E0,-7.848276E-3,1.1876038E-3,-7.015017E-3,-2.1939648E-4,-9.221242E-3,-1.6888278E-3,-4.788884E-3,9.077589E-4,-1.5909792E-3,2.0664597E-3,5.523239E-3,8.7253255E-4,8.7018014E-4,7.3367083E-3,7.4066757E-3,-1.8429414E-3,2.2628307E-3,1.0462819E-2,-2.2931814E-3,5.339527E-3,1.6365996E-2,-2.062464E-3,5.799163E-3,-3.9170384E-3,1.3802207E-2,7.134438E-4,2.5228448E-3,8.990121E-3,8.622208E-3,1.9714594E-2],"split_indices":[0,8,2,13,2,6,10,4,0,0,4,3,1,2,0,6,0,10,6,1,13,0,0,0,9,0,3,0,11,8,9,0,0,0,0,0,0,0,0,0,0,0,0,0,0,0,0,0,0,0,0,0,0,0,0,0,0,0,0,0,0],"split_type":[0,0,0,0,0,0,0,0,0,0,0,0,0,0,0,0,0,0,0,0,0,0,0,0,0,0,0,0,0,0,0,0,0,0,0,0,0,0,0,0,0,0,0,0,0,0,0,0,0,0,0,0,0,0,0,0,0,0,0,0,0],"sum_hessian":[4.36E2,2.87E2,1.49E2,2.25E2,6.2E1,8.8E1,6.1E1,1.34E2,9.1E1,4.7E1,1.5E1,4.7E1,4.1E1,3.6E1,2.5E1,2.4E1,1.1E2,4E1,5.1E1,3.6E1,1.1E1,1E0,1.4E1,4.1E1,6E0,3.6E1,5E0,3.2E1,4E0,1.7E1,8E0,1.8E1,6E0,8E0,1.02E2,3.4E1,6E0,4E1,1.1E1,2.7E1,9E0,6E0,5E0,3E0,1.1E1,3E0,3.8E1,2E0,4E0,9E0,2.7E1,4E0,1E0,2.9E1,3E0,3E0,1E0,8E0,9E0,4E0,4E0],"tree_param":{"num_deleted":"0","num_feature":"14","num_nodes":"61","size_leaf_vector":"1"}},{"base_weights":[2.4075934E-3,-7.208052E-2,5.38785E-2,-3.9842065E-2,-1.1943708E-1,1.8668963E-2,1.23273574E-1,-5.377092E-2,5.0101534E-2,-1.3368854E-1,-5.6369018E-2,-1.4282694E-2,6.976024E-2,8.152019E-2,1.6043185E-1,-6.647798E-2,3.0517505E-2,-6.489754E-4,1.2633546E-1,-2.1536995E-1,-1.0769838E-1,-2.3415565E-2,-9.0685025E-2,-3.9455257E-2,1.2977892E-1,2.4487263E-2,1.1992711E-1,6.43837E-2,1.16252545E-2,-3.1186104E-2,1.7006956E-1,-7.565681E-3,-2.5601622E-3,4.423085E-3,-9.605853E-3,-2.1328211E-3,1.1723995E-3,-1.001978E-3,7.980919E-3,-1.3492919E-2,-1.2653231E-3,2.1888136E-3,-5.9642214E-3,-4.366037E-3,6.6750846E-3,-8.533399E-3,-1.2279128E-3,-2.7906236E-3,2.724801E-3,-5.0692083E-3,7.5974367E-3,-8.01068E-4,1.001922E-2,2.715442E-3,9.533695E-3,2.1389166E-3,7.272893E-3,-1.9454241E-3,-3.935337E-4,5.5903085E-3,9.717067E-3],"categories":[],"categories_nodes":[],"categories_segments":[],"categories_sizes":[],"default_left":[0,0,0,0,0,0,0,0,0,0,0,0,0,0,0,0,0,0,0,0,0,0,0,0,0,0,0,0,0,0,0,0,0,0,0,0,0,0,0,0,0,0,0,0,0,0,0,0,0,0,0,0,0,0,0,0,0,0,0,0,0],"id":25,"left_children":[1,3,5,7,9,11,13,15,17,19,21,23,25,27,29,31,33,35,37,39,41,43,45,47,49,51,53,55,-1,57,59,-1,-1,-1,-1,-1,-1,-1,-1,-1,-1,-1,-1,-1,-1,-1,-1,-1,-1,-1,-1,-1,-1,-1,-1,-1,-1,-1,-1,-1,-1],"loss_changes":[1.6793288E0,2.6852107E-1,6.30531E-1,1.3799761E-1,5.7178497E-2,2.9224917E-1,1.2190056E-1,1.0270816E-1,5.8115646E-2,9.993398E-2,1.483902E-2,3.8951886E-1,1.5150514E-1,9.6286595E-2,8.840811E-2,9.851128E-2,1.8469995E-1,1.1122728E-2,3.2429412E-2,1.278022E-1,8.595151E-2,1.0190788E-1,3.283179E-2,1.4288862E-1,9.740269E-2,2.6684842E-1,1.3819772E-1,6.384303E-2,0E0,2.3391587E-4,3.9080143E-2,0E0,0E0,0E0,0E0,0E0,0E0,0E0,0E0,0E0,0E0,0E0,0E0,0E0,0E0,0E0,0E0,0E0,0E0,0E0,0E0,0E0,0E0,0E0,0E0,0E0,0E0,0E0,0E0,0E0,0E0],"parents":[2147483647,0,0,1,1,2,2,3,3,4,4,5,5,6,6,7,7,8,8,9,9,10,10,11,11,12,12,13,13,14,14,15,15,16,16,17,17,18,18,19,19,20,20,21,21,22,22,23,23,24,24,25,25,26,26,27,27,29,29,30,30],"right_children":[2,4,6,8,10,12,14,16,18,20,22,24,26,28,30,32,34,36,38,40,42,44,46,48,50,52,54,56,-1,58,60,-1,-1,-1,-1,-1,-1,-1,-1,-1,-1,-1,-1,-1,-1,-1,-1,-1,-1,-1,-1,-1,-1,-1,-1,-1,-1,-1,-1,-1,-1],"split_conditions":[4.1E3,1E0,2E0,1E0,1E0,1E0,1E0,4E0,3.62E3,3.036E3,3.036E3,3E0,6.4E3,9.86E3,1E0,2.65E3,3.51E3,3.036E3,3E0,1E0,3.15E3,2.87E3,3.24E3,8.52E3,1E0,2E0,1E0,1E0,1.16252545E-2,4.51E3,1E0,-7.565681E-3,-2.5601622E-3,4.423085E-3,-9.605853E-3,-2.1328211E-3,1.1723995E-3,-1.001978E-3,7.980919E-3,-1.3492919E-2,-1.2653231E-3,2.1888136E-3,-5.9642214E-3,-4.366037E-3,6.6750846E-3,-8.533399E-3,-1.2279128E-3,-2.7906236E-3,2.724801E-3,-5.0692083E-3,7.5974367E-3,-8.01068E-4,1.001922E-2,2.715442E-3,9.533695E-3,2.1389166E-3,7.272893E-3,-1.9454241E-3,-3.935337E-4,5.5903085E-3,9.717067E-3],"split_indices":[0,13,2,8,6,6,8,1,0,0,0,3,0,0,4,0,0,0,1,8,0,0,0,0,4,9,11,7,0,0,9,0,0,0,0,0,0,0,0,0,0,0,0,0,0,0,0,0,0,0,0,0,0,0,0,0,0,0,0,0,0],"split_type":[0,0,0,0,0,0,0,0,0,0,0,0,0,0,0,0,0,0,0,0,0,0,0,0,0,0,0,0,0,0,0,0,0,0,0,0,0,0,0,0,0,0,0,0,0,0,0,0,0,0,0,0,0,0,0,0,0,0,0,0,0],"sum_hessian":[4.36E2,1.78E2,2.58E2,1.07E2,7.1E1,1.72E2,8.6E1,9.3E1,1.4E1,5.7E1,1.4E1,1.05E2,6.7E1,4.2E1,4.4E1,8.1E1,1.2E1,9E0,5E0,1.2E1,4.5E1,8E0,6E0,9E1,1.5E1,3.6E1,3.1E1,3.9E1,3E0,2E0,4.2E1,1.1E1,7E1,1E1,2E0,3E0,6E0,1E0,4E0,9E0,3E0,3E0,4.2E1,6E0,2E0,2E0,4E0,7.7E1,1.3E1,1E0,1.4E1,3E1,6E0,1.7E1,1.4E1,3.2E1,7E0,1E0,1E0,1.4E1,2.8E1],"tree_param":{"num_deleted":"0","num_feature":"14","num_nodes":"61","size_leaf_vector":"1"}},{"base_weights":[2.339121E-3,-4.030287E-2,8.419615E-2,-6.010714E-2,3.1380758E-2,4.5405068E-2,1.3852212E-1,-1.2717019E-1,-4.033258E-2,9.064051E-3,1.0218995E-1,-9.694909E-3,7.650847E-2,1.04609415E-1,1.8145473E-1,-1.6300018E-1,-9.897892E-3,-9.129929E-2,-9.6646985E-3,-7.147948E-3,9.304404E-2,1.5988421E-1,3.172195E-2,-5.9518036E-2,8.24554E-2,7.977724E-3,1.00793794E-1,8.494337E-2,2.1348342E-1,1.1461025E-1,2.9498208E-1,-9.831133E-3,-4.804802E-3,-1.8054573E-3,4.4754664E-3,-6.2948703E-3,-1.8330681E-3,-7.707669E-3,4.7030929E-4,-1.3477538E-3,4.7869207E-3,-9.265582E-4,6.6662156E-3,1.3781231E-3,9.969886E-3,-7.671571E-3,4.00456E-3,-1.5879018E-3,-4.804357E-3,5.6392034E-3,-3.1989813E-4,-1.641746E-3,4.0735644E-3,8.580471E-3,2.9628533E-3,5.201079E-3,-3.968954E-3,1.3021648E-2,6.4213277E-4,2.3156644E-3,8.230825E-3,8.030129E-3,1.8518258E-2],"categories":[],"categories_nodes":[],"categories_segments":[],"categories_sizes":[],"default_left":[0,0,0,0,0,0,0,0,0,0,0,0,0,0,0,0,0,0,0,0,0,0,0,0,0,0,0,0,0,0,0,0,0,0,0,0,0,0,0,0,0,0,0,0,0,0,0,0,0,0,0,0,0,0,0,0,0,0,0,0,0,0,0],"id":26,"left_children":[1,3,5,7,9,11,13,15,17,19,21,23,25,27,29,31,33,35,37,39,41,43,45,47,49,51,53,55,57,59,61,-1,-1,-1,-1,-1,-1,-1,-1,-1,-1,-1,-1,-1,-1,-1,-1,-1,-1,-1,-1,-1,-1,-1,-1,-1,-1,-1,-1,-1,-1,-1,-1],"loss_changes":[1.5287622E0,4.1074312E-1,3.0981493E-1,2.9457903E-1,9.862812E-2,1.5326965E-1,7.128775E-2,2.1268177E-1,2.7421287E-1,6.737777E-2,5.5912167E-2,1.5641773E-1,9.406051E-2,6.108749E-2,1.6349757E-1,6.883526E-2,3.7104744E-2,1.2014884E-1,3.073135E-1,8.817173E-2,3.8424887E-2,3.633207E-2,8.3934344E-2,1.9281939E-2,3.305924E-2,5.0666567E-2,1.1337185E-1,1.1171143E-1,4.3755308E-2,5.3851023E-2,3.1687856E-2,0E0,0E0,0E0,0E0,0E0,0E0,0E0,0E0,0E0,0E0,0E0,0E0,0E0,0E0,0E0,0E0,0E0,0E0,0E0,0E0,0E0,0E0,0E0,0E0,0E0,0E0,0E0,0E0,0E0,0E0,0E0,0E0],"parents":[2147483647,0,0,1,1,2,2,3,3,4,4,5,5,6,6,7,7,8,8,9,9,10,10,11,11,12,12,13,13,14,14,15,15,16,16,17,17,18,18,19,19,20,20,21,21,22,22,23,23,24,24,25,25,26,26,27,27,28,28,29,29,30,30],"right_children":[2,4,6,8,10,12,14,16,18,20,22,24,26,28,30,32,34,36,38,40,42,44,46,48,50,52,54,56,58,60,62,-1,-1,-1,-1,-1,-1,-1,-1,-1,-1,-1,-1,-1,-1,-1,-1,-1,-1,-1,-1,-1,-1,-1,-1,-1,-1,-1,-1,-1,-1,-1,-1],"split_conditions":[5.948E3,1E0,2E0,1E0,1E0,1E0,1E0,1E0,3E0,1E0,4.75E3,1E0,3E0,3E0,6.93E3,3.64E3,5E0,1E0,2.684E3,3E0,3.62E3,1E0,4.8E3,7.02E3,1E0,8.52E3,2E0,9.166E3,1E0,1E0,2E0,-9.831133E-3,-4.804802E-3,-1.8054573E-3,4.4754664E-3,-6.2948703E-3,-1.8330681E-3,-7.707669E-3,4.7030929E-4,-1.3477538E-3,4.7869207E-3,-9.265582E-4,6.6662156E-3,1.3781231E-3,9.969886E-3,-7.671571E-3,4.00456E-3,-1.5879018E-3,-4.804357E-3,5.6392034E-3,-3.1989813E-4,-1.641746E-3,4.0735644E-3,8.580471E-3,2.9628533E-3,5.201079E-3,-3.968954E-3,1.3021648E-2,6.4213277E-4,2.3156644E-3,8.230825E-3,8.030129E-3,1.8518258E-2],"split_indices":[0,8,2,4,5,9,10,6,1,10,0,10,1,2,0,0,1,12,0,3,0,11,0,0,5,0,9,0,11,8,9,0,0,0,0,0,0,0,0,0,0,0,0,0,0,0,0,0,0,0,0,0,0,0,0,0,0,0,0,0,0,0,0],"split_type":[0,0,0,0,0,0,0,0,0,0,0,0,0,0,0,0,0,0,0,0,0,0,0,0,0,0,0,0,0,0,0,0,0,0,0,0,0,0,0,0,0,0,0,0,0,0,0,0,0,0,0,0,0,0,0,0,0,0,0,0,0,0,0],"sum_hessian":[4.36E2,2.87E2,1.49E2,2.25E2,6.2E1,8.8E1,6.1E1,5E1,1.75E2,4.8E1,1.4E1,3.2E1,5.6E1,3.6E1,2.5E1,3.8E1,1.2E1,6.5E1,1.1E2,4.1E1,7E0,7E0,7E0,2.1E1,1.1E1,1.5E1,4.1E1,3.2E1,4E0,1.7E1,8E0,2.4E1,1.4E1,1E1,2E0,3.9E1,2.6E1,1.2E1,9.8E1,3.5E1,6E0,2E0,5E0,2E0,5E0,1E0,6E0,1.3E1,8E0,8E0,3E0,1E1,5E0,1.4E1,2.7E1,2.9E1,3E0,3E0,1E0,8E0,9E0,4E0,4E0],"tree_param":{"num_deleted":"0","num_feature":"14","num_nodes":"63","size_leaf_vector":"1"}},{"base_weights":[2.3467285E-3,-6.5678485E-2,4.935123E-2,-3.5830013E-2,-1.09538995E-1,1.7250348E-2,1.1261677E-1,-8.090667E-2,-1.119983E-2,-1.1850806E-1,-2.2972941E-2,-1.3523084E-2,6.4967014E-2,9.02146E-2,1.7470433E-1,-1.2018475E-1,-4.9881935E-3,-2.4782134E-2,6.5138385E-2,-1.4167976E-1,-7.830128E-2,1.2420893E-2,-4.6693422E-2,-3.7051212E-2,1.21138334E-1,2.336966E-2,1.1103374E-1,5.6445614E-2,1.2033701E-1,9.248931E-2,2.8318277E-1,-1.1386331E-2,-4.0956475E-3,-1.3718909E-3,2.899766E-3,-2.1116752E-3,2.4998547E-3,-2.3555756E-4,7.4950024E-3,-9.907087E-3,-4.5666075E-3,-1.7747919E-3,-5.366278E-3,1.0377885E-3,-3.1459332E-4,-2.6980042E-3,-4.4066907E-4,-2.6018969E-3,2.4546385E-3,-4.8223734E-3,7.103694E-3,-7.5622526E-4,9.525265E-3,2.4721809E-3,8.876982E-3,2.0577512E-3,7.850683E-3,-1.5845457E-3,6.5414547E-3,8.298143E-3,-1.6567946E-3,7.708931E-3,1.777752E-2],"categories":[],"categories_nodes":[],"categories_segments":[],"categories_sizes":[],"default_left":[0,0,0,0,0,0,0,0,0,0,0,0,0,0,0,0,0,0,0,0,0,0,0,0,0,0,0,0,0,0,0,0,0,0,0,0,0,0,0,0,0,0,0,0,0,0,0,0,0,0,0,0,0,0,0,0,0,0,0,0,0,0,0],"id":27,"left_children":[1,3,5,7,9,11,13,15,17,19,21,23,25,27,29,31,33,35,37,39,41,43,45,47,49,51,53,55,57,59,61,-1,-1,-1,-1,-1,-1,-1,-1,-1,-1,-1,-1,-1,-1,-1,-1,-1,-1,-1,-1,-1,-1,-1,-1,-1,-1,-1,-1,-1,-1,-1,-1],"loss_changes":[1.4005451E0,2.304166E-1,5.240551E-1,1.1900045E-1,5.3179502E-2,2.5491273E-1,1.0524714E-1,1.1271389E-1,7.523053E-2,4.9464226E-2,7.296443E-3,3.403314E-1,1.2771043E-1,6.0342908E-2,1.7001683E-1,8.424178E-2,2.1386653E-2,8.1716545E-2,6.58324E-2,9.561229E-2,2.8492704E-2,7.544666E-4,9.00737E-4,1.2003717E-1,8.658713E-2,2.4092993E-1,1.2229723E-1,4.4283688E-2,5.8379203E-2,1.3472115E-1,2.9203236E-2,0E0,0E0,0E0,0E0,0E0,0E0,0E0,0E0,0E0,0E0,0E0,0E0,0E0,0E0,0E0,0E0,0E0,0E0,0E0,0E0,0E0,0E0,0E0,0E0,0E0,0E0,0E0,0E0,0E0,0E0,0E0,0E0],"parents":[2147483647,0,0,1,1,2,2,3,3,4,4,5,5,6,6,7,7,8,8,9,9,10,10,11,11,12,12,13,13,14,14,15,15,16,16,17,17,18,18,19,19,20,20,21,21,22,22,23,23,24,24,25,25,26,26,27,27,28,28,29,29,30,30],"right_children":[2,4,6,8,10,12,14,16,18,20,22,24,26,28,30,32,34,36,38,40,42,44,46,48,50,52,54,56,58,60,62,-1,-1,-1,-1,-1,-1,-1,-1,-1,-1,-1,-1,-1,-1,-1,-1,-1,-1,-1,-1,-1,-1,-1,-1,-1,-1,-1,-1,-1,-1,-1,-1],"split_conditions":[4.1E3,1E0,2E0,2E0,1E0,1E0,7.35E3,1E0,1E0,3.63E3,2E0,3E0,6.4E3,1E0,1E0,1E0,1E0,2E0,3.48E3,3E0,3.816E3,3.52E3,2.87E3,8.52E3,1E0,2E0,1E0,3E0,1E0,1E0,2E0,-1.1386331E-2,-4.0956475E-3,-1.3718909E-3,2.899766E-3,-2.1116752E-3,2.4998547E-3,-2.3555756E-4,7.4950024E-3,-9.907087E-3,-4.5666075E-3,-1.7747919E-3,-5.366278E-3,1.0377885E-3,-3.1459332E-4,-2.6980042E-3,-4.4066907E-4,-2.6018969E-3,2.4546385E-3,-4.8223734E-3,7.103694E-3,-7.5622526E-4,9.525265E-3,2.4721809E-3,8.876982E-3,2.0577512E-3,7.850683E-3,-1.5845457E-3,6.5414547E-3,8.298143E-3,-1.6567946E-3,7.708931E-3,1.777752E-2],"split_indices":[0,13,2,3,10,6,0,6,8,0,3,3,0,8,10,4,5,9,0,1,0,0,0,0,4,9,11,2,4,12,9,0,0,0,0,0,0,0,0,0,0,0,0,0,0,0,0,0,0,0,0,0,0,0,0,0,0,0,0,0,0,0,0],"split_type":[0,0,0,0,0,0,0,0,0,0,0,0,0,0,0,0,0,0,0,0,0,0,0,0,0,0,0,0,0,0,0,0,0,0,0,0,0,0,0,0,0,0,0,0,0,0,0,0,0,0,0,0,0,0,0,0,0,0,0,0,0,0,0],"sum_hessian":[4.36E2,1.78E2,2.58E2,1.07E2,7.1E1,1.72E2,8.6E1,3.7E1,7E1,6.4E1,7E0,1.05E2,6.7E1,6.5E1,2.1E1,2.4E1,1.3E1,6E1,1E1,3.9E1,2.5E1,3E0,4E0,9E1,1.5E1,3.6E1,3.1E1,3.2E1,3.3E1,1.3E1,8E0,5E0,1.9E1,1E1,3E0,4.9E1,1.1E1,6E0,4E0,1.7E1,2.2E1,1.1E1,1.4E1,2E0,1E0,3E0,1E0,7.7E1,1.3E1,1E0,1.4E1,3E1,6E0,1.7E1,1.4E1,2.9E1,3E0,2E0,3.1E1,8E0,5E0,4E0,4E0],"tree_param":{"num_deleted":"0","num_feature":"14","num_nodes":"63","size_leaf_vector":"1"}},{"base_weights":[2.3183604E-3,-6.256411E-2,4.7150966E-2,-3.4096904E-2,-1.04395986E-1,1.6516354E-2,1.075261E-1,-4.4514842E-2,6.181717E-2,-1.12915404E-1,-2.2126198E-2,-2.0364653E-2,5.406301E-2,8.592909E-2,1.6742958E-1,-9.022734E-2,-1.882027E-2,9.067643E-2,-1.13556385E-2,-1.24189325E-1,-3.8489915E-2,1.1980772E-2,-4.4986535E-2,-4.757437E-2,8.09535E-2,-7.4546404E-2,6.4640544E-2,5.3923346E-2,1.1446616E-1,8.833926E-2,2.7185568E-1,-5.6225928E-3,7.367611E-4,-1.7808924E-3,2.1857603E-3,-8.9473726E-4,5.4371497E-3,-1.5385788E-3,1.1723042E-3,-7.841602E-3,-3.3306384E-3,-9.159301E-4,-5.5007935E-3,1.2698412E-3,-4.7842663E-5,-2.5968314E-3,-4.2965412E-4,-5.699611E-3,-1.0297664E-3,5.306596E-3,1.1314392E-3,4.634714E-3,-5.893445E-3,2.3472598E-3,9.190674E-3,1.9582796E-3,7.5562834E-3,-1.5317122E-3,6.224613E-3,7.9293465E-3,-1.5877724E-3,7.4005886E-3,1.7066423E-2],"categories":[],"categories_nodes":[],"categories_segments":[],"categories_sizes":[],"default_left":[0,0,0,0,0,0,0,0,0,0,0,0,0,0,0,0,0,0,0,0,0,0,0,0,0,0,0,0,0,0,0,0,0,0,0,0,0,0,0,0,0,0,0,0,0,0,0,0,0,0,0,0,0,0,0,0,0,0,0,0,0,0,0],"id":28,"left_children":[1,3,5,7,9,11,13,15,17,19,21,23,25,27,29,31,33,35,37,39,41,43,45,47,49,51,53,55,57,59,61,-1,-1,-1,-1,-1,-1,-1,-1,-1,-1,-1,-1,-1,-1,-1,-1,-1,-1,-1,-1,-1,-1,-1,-1,-1,-1,-1,-1,-1,-1,-1,-1],"loss_changes":[1.2741176E0,2.0960021E-1,4.7726238E-1,1.1066827E-1,4.7965825E-2,2.4066418E-1,9.8167896E-2,1.1340907E-1,2.4258528E-2,4.975933E-2,6.7765475E-3,2.4645306E-1,1.21810585E-1,5.410868E-2,1.576845E-1,8.3302945E-2,6.878549E-2,1.763799E-2,3.4243048E-3,9.480244E-2,