{"learner":{"attributes":{"best_iteration":"581","best_score":"0.15246297876593606"},"feature_names":["area","bedrooms","bathrooms","stories","mainroad","guestroom","basement","hotwaterheating","airconditioning","parking","prefarea","furnish_furnished","furnish_semi-furnished","furnish_unfurnished"],"feature_types":["int","int","int","int","int","int","int","int","int","int","int","i","i","i"],"gradient_booster":{"model":{"cats":{"enc":[],"feature_segments":[],"sorted_idx":[]},"gbtree_model_param":{"num_parallel_tree":"1","num_trees":"632"},"iteration_indptr":[0,1,2,3,4,5,6,7,8,9,10,11,12,13,14,15,16,17,18,19,20,21,22,23,24,25,26,27,28,29,30,31,32,33,34,35,36,37,38,39,40,41,42,43,44,45,46,47,48,49,50,51,52,53,54,55,56,57,58,59,60,61,62,63,64,65,66,67,68,69,70,71,72,73,74,75,76,77,78,79,80,81,82,83,84,85,86,87,88,89,90,91,92,93,94,95,96,97,98,99,100,101,102,103,104,105,106,107,108,109,110,111,112,113,114,115,116,117,118,119,120,121,122,123,124,125,126,127,128,129,130,131,132,133,134,135,136,137,138,139,140,141,142,143,144,145,146,147,148,149,150,151,152,153,154,155,156,157,158,159,160,161,162,163,164,165,166,167,168,169,170,171,172,173,174,175,176,177,178,179,180,181,182,183,184,185,186,187,188,189,190,191,192,193,194,195,196,197,198,199,200,201,202,203,204,205,206,207,208,209,210,211,212,213,214,215,216,217,218,219,220,221,222,223,224,225,226,227,228,229,230,231,232,233,234,235,236,237,238,239,240,241,242,243,244,245,246,247,248,249,250,251,252,253,254,255,256,257,258,259,260,261,262,263,264,265,266,267,268,269,270,271,272,273,274,275,276,277,278,279,280,281,282,283,284,285,286,287,288,289,290,291,292,293,294,295,296,297,298,299,300,301,302,303,304,305,306,307,308,309,310,311,312,313,314,315,316,317,318,319,320,321,322,323,324,325,326,327,328,329,330,331,332,333,334,335,336,337,338,339,340,341,342,343,344,345,346,347,348,349,350,351,352,353,354,355,356,357,358,359,360,361,362,363,364,365,366,367,368,369,370,371,372,373,374,375,376,377,378,379,380,381,382,383,384,385,386,387,388,389,390,391,392,393,394,395,396,397,398,399,400,401,402,403,404,405,406,407,408,409,410,411,412,413,414,415,416,417,418,419,420,421,422,423,424,425,426,427,428,429,430,431,432,433,434,435,436,437,438,439,440,441,442,443,444,445,446,447,448,449,450,451,452,453,454,455,456,457,458,459,460,461,462,463,464,465,466,467,468,469,470,471,472,473,474,475,476,477,478,479,480,481,482,483,484,485,486,487,488,489,490,491,492,493,494,495,496,497,498,499,500,501,502,503,504,505,506,507,508,509,510,511,512,513,514,515,516,517,518,519,520,521,522,523,524,525,526,527,528,529,530,531,532,533,534,535,536,537,538,539,540,541,542,543,544,545,546,547,548,549,550,551,552,553,554,555,556,557,558,559,560,561,562,563,564,565,566,567,568,569,570,571,572,573,574,575,576,577,578,579,580,581,582,583,584,585,586,587,588,589,590,591,592,593,594,595,596,597,598,599,600,601,602,603,604,605,606,607,608,609,610,611,612,613,614,615,616,617,618,619,620,621,622,623,624,625,626,627,628,629,630,631,632],"tree_info":[0,0,0,0,0,0,0,0,0,0,0,0,0,0,0,0,0,0,0,0,0,0,0,0,0,0,0,0,0,0,0,0,0,0,0,0,0,0,0,0,0,0,0,0,0,0,0,0,0,0,0,0,0,0,0,0,0,0,0,0,0,0,0,0,0,0,0,0,0,0,0,0,0,0,0,0,0,0,0,0,0,0,0,0,0,0,0,0,0,0,0,0,0,0,0,0,0,0,0,0,0,0,0,0,0,0,0,0,0,0,0,0,0,0,0,0,0,0,0,0,0,0,0,0,0,0,0,0,0,0,0,0,0,0,0,0,0,0,0,0,0,0,0,0,0,0,0,0,0,0,0,0,0,0,0,0,0,0,0,0,0,0,0,0,0,0,0,0,0,0,0,0,0,0,0,0,0,0,0,0,0,0,0,0,0,0,0,0,0,0,0,0,0,0,0,0,0,0,0,0,0,0,0,0,0,0,0,0,0,0,0,0,0,0,0,0,0,0,0,0,0,0,0,0,0,0,0,0,0,0,0,0,0,0,0,0,0,0,0,0,0,0,0,0,0,0,0,0,0,0,0,0,0,0,0,0,0,0,0,0,0,0,0,0,0,0,0,0,0,0,0,0,0,0,0,0,0,0,0,0,0,0,0,0,0,0,0,0,0,0,0,0,0,0,0,0,0,0,0,0,0,0,0,0,0,0,0,0,0,0,0,0,0,0,0,0,0,0,0,0,0,0,0,0,0,0,0,0,0,0,0,0,0,0,0,0,0,0,0,0,0,0,0,0,0,0,0,0,0,0,0,0,0,0,0,0,0,0,0,0,0,0,0,0,0,0,0,0,0,0,0,0,0,0,0,0,0,0,0,0,0,0,0,0,0,0,0,0,0,0,0,0,0,0,0,0,0,0,0,0,0,0,0,0,0,0,0,0,0,0,0,0,0,0,0,0,0,0,0,0,0,0,0,0,0,0,0,0,0,0,0,0,0,0,0,0,0,0,0,0,0,0,0,0,0,0,0,0,0,0,0,0,0,0,0,0,0,0,0,0,0,0,0,0,0,0,0,0,0,0,0,0,0,0,0,0,0,0,0,0,0,0,0,0,0,0,0,0,0,0,0,0,0,0,0,0,0,0,0,0,0,0,0,0,0,0,0,0,0,0,0,0,0,0,0,0,0,0,0,0,0,0,0,0,0,0,0,0,0,0,0,0,0,0,0,0,0,0,0,0,0,0,0,0,0,0,0,0,0,0,0,0,0,0,0,0,0,0,0,0,0,0,0,0,0,0,0,0,0,0,0,0,0,0,0,0,0,0,0,0,0,0,0,0,0,0,0,0,0,0,0,0,0,0,0,0,0,0,0,0,0,0,0,0,0,0,0,0,0,0,0,0,0,0,0,0,0,0,0,0,0,0,0,0,0,0,0,0,0,0,0,0],"trees":[{"base_weights":[-1.3187953E-7,4.837128E-2,-7.013855E0,-1.1537835E-1,3.0029967E-1,5.742995E-2,-5.281927E-1,-2.0826098E-2,-2.7286026E-1,1.6501336E-1,5.0500005E-1,-4.7555687E-3,9.0628145E-3,-1.4752032E-1,4.4640902E-2,-3.0513173E-1,2.098594E-1,7.340854E-2,3.1366667E-1,3.8530317E-1,5.944278E-1,-9.614932E-3,4.855486E-4,-3.672147E-4,8.9705745E-3,-1.853588E-2,-6.677688E-3,1.3012342E-2,-9.869742E-3,-2.1886856E-3,1.2224019E-2,1.0738442E-2,1.7906519E-2,1.6925676E-2,3.090155E-2,2.1419367E-2,3.3371024E-2],"categories":[],"categories_nodes":[],"categories_segments":[],"categories_sizes":[],"default_left":[0,0,0,0,0,0,0,0,0,0,0,0,0,0,0,0,0,0,0,0,0,0,0,0,0,0,0,0,0,0,0,0,0,0,0,0,0],"id":0,"left_children":[1,3,5,7,9,11,-1,13,15,17,19,-1,-1,21,23,25,27,29,31,33,35,-1,-1,-1,-1,-1,-1,-1,-1,-1,-1,-1,-1,-1,-1,-1,-1],"loss_changes":[2.9720056E2,3.592491E1,1.5122504E2,7.8563795E0,9.415422E0,7.390544E-2,0E0,2.7519956E0,3.1484938E0,2.8093848E0,1.226738E0,0E0,0E0,7.974503E-1,1.5356481E0,2.0435638E0,3.1813782E-1,2.6167572E0,2.7047682E-1,4.550333E-1,6.3518524E-1,0E0,0E0,0E0,0E0,0E0,0E0,0E0,0E0,0E0,0E0,0E0,0E0,0E0,0E0,0E0,0E0],"parents":[2147483647,0,0,1,1,2,2,3,3,4,4,5,5,7,7,8,8,9,9,10,10,13,13,14,14,15,15,16,16,17,17,18,18,19,19,20,20],"right_children":[2,4,6,8,10,12,-1,14,16,18,20,-1,-1,22,24,26,28,30,32,34,36,-1,-1,-1,-1,-1,-1,-1,-1,-1,-1,-1,-1,-1,-1,-1,-1],"split_conditions":[6E0,5.5E3,4.32E3,1E0,2E0,3.63E3,-5.281927E-1,3.5E3,3E0,1E0,1E0,-4.7555687E-3,9.0628145E-3,2E0,1E0,1E0,5.04E3,1E0,1E0,3E0,1E0,-9.614932E-3,4.855486E-4,-3.672147E-4,8.9705745E-3,-1.853588E-2,-6.677688E-3,1.3012342E-2,-9.869742E-3,-2.1886856E-3,1.2224019E-2,1.0738442E-2,1.7906519E-2,1.6925676E-2,3.090155E-2,2.1419367E-2,3.3371024E-2],"split_indices":[1,0,0,13,2,0,0,0,3,10,8,0,0,2,8,6,0,8,6,2,9,0,0,0,0,0,0,0,0,0,0,0,0,0,0,0,0],"split_type":[0,0,0,0,0,0,0,0,0,0,0,0,0,0,0,0,0,0,0,0,0,0,0,0,0,0,0,0,0,0,0,0,0,0,0,0,0],"sum_hessian":[8.74E2,8.69E2,5E0,5.27E2,3.42E2,2E0,3E0,3.3E2,1.97E2,2.07E2,1.35E2,1E0,1E0,1.12E2,2.18E2,1.85E2,1.2E1,1.29E2,7.8E1,6E1,7.5E1,8.7E1,2.5E1,1.58E2,6E1,1.33E2,5.2E1,1.1E1,1E0,7.7E1,5.2E1,2.6E1,5.2E1,5.2E1,8E0,2.5E1,5E1],"tree_param":{"num_deleted":"0","num_feature":"14","num_nodes":"37","size_leaf_vector":"1"}},{"base_weights":[-4.632176E-4,4.608913E-2,-6.7504764E0,-1.09652266E-1,2.8569663E-1,5.599435E-2,-5.0838554E-1,-1.9786336E-2,-2.593289E-1,1.569487E-1,4.805045E-1,-4.636669E-3,8.836246E-3,-1.9786717E-1,2.2814259E-2,-3.43599E-1,-7.7519655E-2,6.981523E-2,2.983462E-1,3.668219E-1,5.654273E-1,-1.1049173E-2,3.1210424E-3,-1.3211224E-3,7.990046E-3,-1.8577049E-2,-3.7780933E-3,-7.148191E-3,1.0899266E-2,-2.0806545E-3,1.1624341E-2,1.2384001E-2,1.9337608E-2,9.819764E-3,2.0906318E-2,2.0389581E-2,3.1735193E-2],"categories":[],"categories_nodes":[],"categories_segments":[],"categories_sizes":[],"default_left":[0,0,0,0,0,0,0,0,0,0,0,0,0,0,0,0,0,0,0,0,0,0,0,0,0,0,0,0,0,0,0,0,0,0,0,0,0],"id":1,"left_children":[1,3,5,7,9,11,-1,13,15,17,19,-1,-1,21,23,25,27,29,31,33,35,-1,-1,-1,-1,-1,-1,-1,-1,-1,-1,-1,-1,-1,-1,-1,-1],"loss_changes":[2.7526147E2,3.249695E1,1.4012512E2,7.0969067E0,8.527403E0,7.025625E-2,0E0,2.515596E0,3.006939E0,2.5418243E0,1.105566E0,0E0,0E0,3.9887524E-1,1.8118215E0,9.830055E-1,1.2688645E0,2.3660831E0,2.580657E-1,4.5124435E-1,5.7112694E-1,0E0,0E0,0E0,0E0,0E0,0E0,0E0,0E0,0E0,0E0,0E0,0E0,0E0,0E0,0E0,0E0],"parents":[2147483647,0,0,1,1,2,2,3,3,4,4,5,5,7,7,8,8,9,9,10,10,13,13,14,14,15,15,16,16,17,17,18,18,19,19,20,20],"right_children":[2,4,6,8,10,12,-1,14,16,18,20,-1,-1,22,24,26,28,30,32,34,36,-1,-1,-1,-1,-1,-1,-1,-1,-1,-1,-1,-1,-1,-1,-1,-1],"split_conditions":[6E0,5.5E3,4.32E3,1E0,2E0,3.63E3,-5.0838554E-1,3.15E3,4.046E3,1E0,1E0,-4.636669E-3,8.836246E-3,1E0,1E0,1E0,3E0,1E0,1E0,2E0,1E0,-1.1049173E-2,3.1210424E-3,-1.3211224E-3,7.990046E-3,-1.8577049E-2,-3.7780933E-3,-7.148191E-3,1.0899266E-2,-2.0806545E-3,1.1624341E-2,1.2384001E-2,1.9337608E-2,9.819764E-3,2.0906318E-2,2.0389581E-2,3.1735193E-2],"split_indices":[1,0,0,13,2,0,0,0,0,10,8,0,0,5,8,10,3,8,11,3,9,0,0,0,0,0,0,0,0,0,0,0,0,0,0,0,0],"split_type":[0,0,0,0,0,0,0,0,0,0,0,0,0,0,0,0,0,0,0,0,0,0,0,0,0,0,0,0,0,0,0,0,0,0,0,0,0],"sum_hessian":[8.74E2,8.69E2,5E0,5.27E2,3.42E2,2E0,3E0,3.3E2,1.97E2,2.07E2,1.35E2,1E0,1E0,6.3E1,2.67E2,1.34E2,6.3E1,1.29E2,7.8E1,6E1,7.5E1,5.8E1,5E0,1.97E2,7E1,1.21E2,1.3E1,5.2E1,1.1E1,7.7E1,5.2E1,5.2E1,2.6E1,1.5E1,4.5E1,2.5E1,5E1],"tree_param":{"num_deleted":"0","num_feature":"14","num_nodes":"37","size_leaf_vector":"1"}},{"base_weights":[-8.9727563E-4,4.390435E-2,-6.4969835E0,-1.04207486E-1,2.7177358E-1,5.4594677E-2,-4.8932105E-1,-1.8800946E-2,-2.4645676E-1,1.4929964E-1,4.5708832E-1,-4.52075E-3,8.615351E-3,-1.0983409E-1,5.8175936E-2,-3.3045664E-1,-8.100908E-2,6.639804E-2,2.8383014E-1,3.4898436E-1,5.378417E-1,-7.2242515E-3,9.7488204E-4,2.0394636E-4,8.594793E-3,-1.7915709E-2,-3.602665E-3,-7.0215315E-3,1.0399703E-2,-1.9779427E-3,1.105409E-2,9.573617E-3,1.6276253E-2,1.5226635E-2,2.8598955E-2,2.2909211E-2,3.4100775E-2],"categories":[],"categories_nodes":[],"categories_segments":[],"categories_sizes":[],"default_left":[0,0,0,0,0,0,0,0,0,0,0,0,0,0,0,0,0,0,0,0,0,0,0,0,0,0,0,0,0,0,0,0,0,0,0,0,0],"id":2,"left_children":[1,3,5,7,9,11,-1,13,15,17,19,-1,-1,21,23,25,27,29,31,33,35,-1,-1,-1,-1,-1,-1,-1,-1,-1,-1,-1,-1,-1,-1,-1,-1],"loss_changes":[2.5494107E2,2.9390932E1,1.2984033E2,6.410048E0,7.7165623E0,6.678742E-2,0E0,2.3258548E0,2.7249527E0,2.3009357E0,9.9954796E-1,0E0,0E0,6.84E-1,1.1066422E0,9.171839E-1,1.1969738E0,2.1394215E0,2.4188805E-1,4.3047428E-1,5.6033516E-1,0E0,0E0,0E0,0E0,0E0,0E0,0E0,0E0,0E0,0E0,0E0,0E0,0E0,0E0,0E0,0E0],"parents":[2147483647,0,0,1,1,2,2,3,3,4,4,5,5,7,7,8,8,9,9,10,10,13,13,14,14,15,15,16,16,17,17,18,18,19,19,20,20],"right_children":[2,4,6,8,10,12,-1,14,16,18,20,-1,-1,22,24,26,28,30,32,34,36,-1,-1,-1,-1,-1,-1,-1,-1,-1,-1,-1,-1,-1,-1,-1,-1],"split_conditions":[6E0,5.5E3,4.32E3,1E0,2E0,3.63E3,-4.8932105E-1,3.649E3,4.04E3,1E0,1E0,-4.52075E-3,8.615351E-3,2E0,1E0,1E0,3E0,1E0,1E0,3E0,2E0,-7.2242515E-3,9.7488204E-4,2.0394636E-4,8.594793E-3,-1.7915709E-2,-3.602665E-3,-7.0215315E-3,1.0399703E-2,-1.9779427E-3,1.105409E-2,9.573617E-3,1.6276253E-2,1.5226635E-2,2.8598955E-2,2.2909211E-2,3.4100775E-2],"split_indices":[1,0,0,13,2,0,0,0,0,10,8,0,0,2,8,10,3,8,6,2,9,0,0,0,0,0,0,0,0,0,0,0,0,0,0,0,0],"split_type":[0,0,0,0,0,0,0,0,0,0,0,0,0,0,0,0,0,0,0,0,0,0,0,0,0,0,0,0,0,0,0,0,0,0,0,0,0],"sum_hessian":[8.74E2,8.69E2,5E0,5.27E2,3.42E2,2E0,3E0,3.3E2,1.97E2,2.07E2,1.35E2,1E0,1E0,1.51E2,1.79E2,1.3E2,6.7E1,1.29E2,7.8E1,6E1,7.5E1,1.19E2,3.2E1,1.22E2,5.7E1,1.17E2,1.3E1,5.6E1,1.1E1,7.7E1,5.2E1,2.6E1,5.2E1,5.2E1,8E0,5.1E1,2.4E1],"tree_param":{"num_deleted":"0","num_feature":"14","num_nodes":"37","size_leaf_vector":"1"}},{"base_weights":[-1.2695944E-3,4.1847285E-2,-6.2530055E0,-9.902662E-2,2.5858074E-1,5.322965E-2,-4.7097155E-1,-1.7853238E-2,-2.342254E-1,1.4200251E-1,4.349755E-1,-4.4077397E-3,8.399963E-3,-1.8226747E-1,2.147648E-2,-3.1409803E-1,-7.6908655E-2,5.5358887E-2,2.5952384E-1,3.3225384E-1,5.116998E-1,-1.02065755E-2,3.155343E-3,-5.152156E-3,3.47524E-3,-1.7027516E-2,-3.4353833E-3,-6.6765966E-3,9.923045E-3,-3.5679413E-4,1.609756E-2,-3.950596E-4,1.4891501E-2,1.7377302E-2,-3.962199E-3,2.178578E-2,3.246395E-2],"categories":[],"categories_nodes":[],"categories_segments":[],"categories_sizes":[],"default_left":[0,0,0,0,0,0,0,0,0,0,0,0,0,0,0,0,0,0,0,0,0,0,0,0,0,0,0,0,0,0,0,0,0,0,0,0,0],"id":3,"left_children":[1,3,5,7,9,11,-1,13,15,17,19,-1,-1,21,23,25,27,29,31,33,35,-1,-1,-1,-1,-1,-1,-1,-1,-1,-1,-1,-1,-1,-1,-1,-1],"loss_changes":[2.3612262E2,2.6588522E1,1.20310745E2,5.790377E0,6.9916134E0,6.3489854E-2,0E0,2.1442814E0,2.4637728E0,2.1035876E0,9.018345E-1,0E0,0E0,3.5623407E-1,1.6099273E0,8.2694054E-1,1.0867788E0,2.018233E0,9.0382767E-1,4.1139603E-1,5.1158905E-1,0E0,0E0,0E0,0E0,0E0,0E0,0E0,0E0,0E0,0E0,0E0,0E0,0E0,0E0,0E0,0E0],"parents":[2147483647,0,0,1,1,2,2,3,3,4,4,5,5,7,7,8,8,9,9,10,10,13,13,14,14,15,15,16,16,17,17,18,18,19,19,20,20],"right_children":[2,4,6,8,10,12,-1,14,16,18,20,-1,-1,22,24,26,28,30,32,34,36,-1,-1,-1,-1,-1,-1,-1,-1,-1,-1,-1,-1,-1,-1,-1,-1],"split_conditions":[6E0,5.5E3,4.32E3,1E0,2E0,3.63E3,-4.7097155E-1,3.15E3,4.04E3,1E0,1E0,-4.4077397E-3,8.399963E-3,1E0,3E0,1E0,3E0,3E0,6E3,3E0,2E0,-1.02065755E-2,3.155343E-3,-5.152156E-3,3.47524E-3,-1.7027516E-2,-3.4353833E-3,-6.6765966E-3,9.923045E-3,-3.5679413E-4,1.609756E-2,-3.950596E-4,1.4891501E-2,1.7377302E-2,-3.962199E-3,2.178578E-2,3.246395E-2],"split_indices":[1,0,0,13,2,0,0,0,0,6,8,0,0,5,1,10,3,3,0,9,9,0,0,0,0,0,0,0,0,0,0,0,0,0,0,0,0],"split_type":[0,0,0,0,0,0,0,0,0,0,0,0,0,0,0,0,0,0,0,0,0,0,0,0,0,0,0,0,0,0,0,0,0,0,0,0,0],"sum_hessian":[8.74E2,8.69E2,5E0,5.27E2,3.42E2,2E0,3E0,3.3E2,1.97E2,2.07E2,1.35E2,1E0,1E0,6.3E1,2.67E2,1.3E2,6.7E1,1.2E2,8.7E1,6E1,7.5E1,5.8E1,5E0,7.4E1,1.93E2,1.17E2,1.3E1,5.6E1,1.1E1,9.8E1,2.2E1,1.1E1,7.6E1,5.8E1,2E0,5.1E1,2.4E1],"tree_param":{"num_deleted":"0","num_feature":"14","num_nodes":"37","size_leaf_vector":"1"}},{"base_weights":[-1.6575808E-3,3.9837617E-2,-6.018185E0,-1.2209428E-1,2.1124578E-1,5.1898956E-2,-4.533101E-1,-4.265798E-2,-2.593946E-1,1.0479327E-1,3.9841822E-1,-4.297543E-3,8.189964E-3,-1.5353277E-1,3.6595457E-3,-3.0943608E-1,-1.1588513E-1,2.362821E-2,2.180716E-1,2.8728214E-1,4.839473E-1,-8.955705E-3,1.6258716E-3,-6.5940022E-3,2.2235867E-3,-1.6495103E-2,6.8905912E-3,-8.0198E-3,9.637491E-3,-2.6005828E-3,9.478168E-3,-1.3879947E-2,1.1940407E-2,3.6324603E-3,1.6790517E-2,1.7399412E-2,2.7231459E-2],"categories":[],"categories_nodes":[],"categories_segments":[],"categories_sizes":[],"default_left":[0,0,0,0,0,0,0,0,0,0,0,0,0,0,0,0,0,0,0,0,0,0,0,0,0,0,0,0,0,0,0,0,0,0,0,0,0],"id":4,"left_children":[1,3,5,7,9,11,-1,13,15,17,19,-1,-1,21,23,25,27,29,31,33,35,-1,-1,-1,-1,-1,-1,-1,-1,-1,-1,-1,-1,-1,-1,-1,-1],"loss_changes":[2.1868964E2,2.41739E1,1.1148085E2,4.8751044E0,8.386513E0,6.0355E-2,0E0,1.4641638E0,1.1418953E0,2.4864872E0,1.3152924E0,0E0,0E0,4.0561497E-1,1.1232618E0,1.1530209E0,6.353713E-1,2.005518E0,1.2277617E0,6.9429016E-1,5.1174736E-1,0E0,0E0,0E0,0E0,0E0,0E0,0E0,0E0,0E0,0E0,0E0,0E0,0E0,0E0,0E0,0E0],"parents":[2147483647,0,0,1,1,2,2,3,3,4,4,5,5,7,7,8,8,9,9,10,10,13,13,14,14,15,15,16,16,17,17,18,18,19,19,20,20],"right_children":[2,4,6,8,10,12,-1,14,16,18,20,-1,-1,22,24,26,28,30,32,34,36,-1,-1,-1,-1,-1,-1,-1,-1,-1,-1,-1,-1,-1,-1,-1,-1],"split_conditions":[6E0,4.8E3,4.32E3,1E0,2E0,3.63E3,-4.533101E-1,3E0,1E0,1E0,1E0,-4.297543E-3,8.189964E-3,1E0,3.15E3,3E0,4.12E3,1E0,1E0,5.96E3,1E0,-8.955705E-3,1.6258716E-3,-6.5940022E-3,2.2235867E-3,-1.6495103E-2,6.8905912E-3,-8.0198E-3,9.637491E-3,-2.6005828E-3,9.478168E-3,-1.3879947E-2,1.1940407E-2,3.6324603E-3,1.6790517E-2,1.7399412E-2,2.7231459E-2],"split_indices":[1,0,0,13,2,0,0,1,6,8,8,0,0,5,0,3,0,10,4,0,9,0,0,0,0,0,0,0,0,0,0,0,0,0,0,0,0],"split_type":[0,0,0,0,0,0,0,0,0,0,0,0,0,0,0,0,0,0,0,0,0,0,0,0,0,0,0,0,0,0,0,0,0,0,0,0,0],"sum_hessian":[8.74E2,8.69E2,5E0,4.47E2,4.22E2,2E0,3E0,2.84E2,1.63E2,2.7E2,1.52E2,1E0,1E0,8.3E1,2.01E2,1.2E2,4.3E1,1.58E2,1.12E2,6.8E1,8.4E1,7.3E1,1E1,4.6E1,1.55E2,1.15E2,5E0,3.8E1,5E0,1.09E2,4.9E1,4E0,1.08E2,1.3E1,5.5E1,2.8E1,5.6E1],"tree_param":{"num_deleted":"0","num_feature":"14","num_nodes":"37","size_leaf_vector":"1"}},{"base_weights":[-2.03091E-3,3.790348E-2,-5.792179E0,-1.2564074E-1,1.9152877E-1,5.0601322E-2,-4.3631098E-1,-5.0132234E-2,-2.4773753E-1,9.121234E-2,3.7392217E-1,-4.190111E-3,7.985211E-3,-1.666425E-1,-1.2409675E-2,-2.9697752E-1,-1.1005445E-1,3.9796926E-2,2.442091E-1,2.678187E-1,4.5436516E-1,-1.1209478E-2,-3.3950768E-3,-5.2601937E-3,1.6180469E-3,-1.5856534E-2,6.603495E-3,-7.62911E-3,9.235915E-3,-6.25191E-4,8.930115E-3,8.939543E-3,1.6864957E-2,3.5413147E-3,1.5965989E-2,1.9420307E-2,2.8556887E-2],"categories":[],"categories_nodes":[],"categories_segments":[],"categories_sizes":[],"default_left":[0,0,0,0,0,0,0,0,0,0,0,0,0,0,0,0,0,0,0,0,0,0,0,0,0,0,0,0,0,0,0,0,0,0,0,0,0],"id":5,"left_children":[1,3,5,7,9,11,-1,13,15,17,19,-1,-1,21,23,25,27,29,31,33,35,-1,-1,-1,-1,-1,-1,-1,-1,-1,-1,-1,-1,-1,-1,-1,-1],"loss_changes":[2.0254233E2,2.18824E1,1.032993E2,3.8781438E0,8.1812725E0,5.7375014E-2,0E0,1.1494392E0,1.0588179E0,2.2794013E0,1.235424E0,0E0,0E0,3.48441E-1,8.301407E-1,1.06219E0,5.7976955E-1,1.5920908E0,3.8424873E-1,6.97701E-1,4.636612E-1,0E0,0E0,0E0,0E0,0E0,0E0,0E0,0E0,0E0,0E0,0E0,0E0,0E0,0E0,0E0,0E0],"parents":[2147483647,0,0,1,1,2,2,3,3,4,4,5,5,7,7,8,8,9,9,10,10,13,13,14,14,15,15,16,16,17,17,18,18,19,19,20,20],"right_children":[2,4,6,8,10,12,-1,14,16,18,20,-1,-1,22,24,26,28,30,32,34,36,-1,-1,-1,-1,-1,-1,-1,-1,-1,-1,-1,-1,-1,-1,-1,-1],"split_conditions":[6E0,4.51E3,4.32E3,1E0,2E0,3.63E3,-4.3631098E-1,3.15E3,1E0,1E0,1E0,-4.190111E-3,7.985211E-3,1E0,3E0,3E0,4.12E3,1E0,6.66E3,5.96E3,2E0,-1.1209478E-2,-3.3950768E-3,-5.2601937E-3,1.6180469E-3,-1.5856534E-2,6.603495E-3,-7.62911E-3,9.235915E-3,-6.25191E-4,8.930115E-3,8.939543E-3,1.6864957E-2,3.5413147E-3,1.5965989E-2,1.9420307E-2,2.8556887E-2],"split_indices":[1,0,0,13,2,0,0,0,6,5,8,0,0,6,1,3,0,10,0,0,9,0,0,0,0,0,0,0,0,0,0,0,0,0,0,0,0],"split_type":[0,0,0,0,0,0,0,0,0,0,0,0,0,0,0,0,0,0,0,0,0,0,0,0,0,0,0,0,0,0,0,0,0,0,0,0,0],"sum_hessian":[8.74E2,8.69E2,5E0,4.21E2,4.48E2,2E0,3E0,2.61E2,1.6E2,2.9E2,1.58E2,1E0,1E0,6.3E1,1.98E2,1.17E2,4.3E1,2.18E2,7.2E1,7E1,8.8E1,3.9E1,2.4E1,6.4E1,1.34E2,1.12E2,5E0,3.8E1,5E0,1.59E2,5.9E1,4.4E1,2.8E1,1.5E1,5.5E1,5.9E1,2.9E1],"tree_param":{"num_deleted":"0","num_feature":"14","num_nodes":"37","size_leaf_vector":"1"}},{"base_weights":[-2.3371223E-3,3.609535E-2,-5.5746565E0,-8.590896E-2,2.237985E-1,4.9336433E-2,-4.1994935E-1,-1.5287002E-2,-2.03535E-1,1.2406837E-1,3.7468135E-1,-4.0853503E-3,7.7855824E-3,-1.1626047E-1,3.688327E-2,-2.2806051E-1,1.630249E-1,4.5395628E-2,2.2874996E-1,3.4268072E-1,3.0498723E-2,-7.733264E-3,9.0982916E-4,-3.625114E-3,3.9786636E-3,-1.4160359E-2,-4.216503E-3,1.0551E-2,-1.0322905E-2,-1.9715333E-3,9.910543E-3,8.201071E-3,1.6431687E-2,1.2181232E-2,2.0639244E-2],"categories":[],"categories_nodes":[],"categories_segments":[],"categories_sizes":[],"default_left":[0,0,0,0,0,0,0,0,0,0,0,0,0,0,0,0,0,0,0,0,0,0,0,0,0,0,0,0,0,0,0,0,0,0,0],"id":6,"left_children":[1,3,5,7,9,11,-1,13,15,17,19,-1,-1,21,23,25,27,29,31,33,-1,-1,-1,-1,-1,-1,-1,-1,-1,-1,-1,-1,-1,-1,-1],"loss_changes":[1.8758948E2,1.9942741E1,9.5718445E1,4.3829756E0,5.11483E0,5.4542053E-2,0E0,1.7479342E0,1.817213E0,1.7026179E0,8.149891E-1,0E0,0E0,5.863236E-1,1.0284268E0,1.4504004E0,2.741006E-1,1.5633457E0,5.215111E-1,7.466326E-1,0E0,0E0,0E0,0E0,0E0,0E0,0E0,0E0,0E0,0E0,0E0,0E0,0E0,0E0,0E0],"parents":[2147483647,0,0,1,1,2,2,3,3,4,4,5,5,7,7,8,8,9,9,10,10,13,13,14,14,15,15,16,16,17,17,18,18,19,19],"right_children":[2,4,6,8,10,12,-1,14,16,18,20,-1,-1,22,24,26,28,30,32,34,-1,-1,-1,-1,-1,-1,-1,-1,-1,-1,-1,-1,-1,-1,-1],"split_conditions":[6E0,5.5E3,4.32E3,1E0,2E0,3.63E3,-4.1994935E-1,3.5E3,3E0,1E0,3E0,-4.0853503E-3,7.7855824E-3,2E0,3E0,1E0,5.04E3,1E0,1E0,1E0,3.0498723E-2,-7.733264E-3,9.0982916E-4,-3.625114E-3,3.9786636E-3,-1.4160359E-2,-4.216503E-3,1.0551E-2,-1.0322905E-2,-1.9715333E-3,9.910543E-3,8.201071E-3,1.6431687E-2,1.2181232E-2,2.0639244E-2],"split_indices":[1,0,0,13,2,0,0,0,3,8,2,0,0,2,1,6,0,10,5,8,0,0,0,0,0,0,0,0,0,0,0,0,0,0,0],"split_type":[0,0,0,0,0,0,0,0,0,0,0,0,0,0,0,0,0,0,0,0,0,0,0,0,0,0,0,0,0,0,0,0,0,0,0],"sum_hessian":[8.74E2,8.69E2,5E0,5.27E2,3.42E2,2E0,3E0,3.3E2,1.97E2,2.07E2,1.35E2,1E0,1E0,1.12E2,2.18E2,1.85E2,1.2E1,1.19E2,8.8E1,1.21E2,1.4E1,8.7E1,2.5E1,6.1E1,1.57E2,1.33E2,5.2E1,1.1E1,1E0,7.7E1,4.2E1,5.5E1,3.3E1,5.2E1,6.9E1],"tree_param":{"num_deleted":"0","num_feature":"14","num_nodes":"35","size_leaf_vector":"1"}},{"base_weights":[-2.6146143E-3,3.4372415E-2,-5.3652983E0,-1.0573907E-1,1.8268347E-1,4.8103016E-2,-4.0420124E-1,-3.7525948E-2,-2.2363542E-1,9.0856746E-2,3.4413677E-1,-3.9832117E-3,7.590938E-3,-1.3509741E-1,3.2340938E-3,-2.600504E-1,-7.67532E-2,4.0989958E-2,2.4207817E-1,2.4671501E-1,4.1917166E-1,-7.973531E-3,2.0574701E-3,-2.8207307E-3,4.217324E-3,-1.41710285E-2,-2.224912E-3,-7.0334636E-3,5.8210692E-3,5.0851E-3,-3.6285599E-3,6.99458E-3,1.6057564E-2,2.986036E-3,1.4452897E-2,1.4711665E-2,2.3769146E-2],"categories":[],"categories_nodes":[],"categories_segments":[],"categories_sizes":[],"default_left":[0,0,0,0,0,0,0,0,0,0,0,0,0,0,0,0,0,0,0,0,0,0,0,0,0,0,0,0,0,0,0,0,0,0,0,0,0],"id":7,"left_children":[1,3,5,7,9,11,-1,13,15,17,19,-1,-1,21,23,25,27,29,31,33,35,-1,-1,-1,-1,-1,-1,-1,-1,-1,-1,-1,-1,-1,-1,-1,-1],"loss_changes":[1.7374045E2,1.809799E1,8.869417E1,3.5944576E0,6.240017E0,5.1848948E-2,0E0,1.1338868E0,8.5722923E-1,2.0336685E0,1.0150166E0,0E0,0E0,3.6740088E-1,9.820845E-1,6.4729977E-1,4.3617362E-1,1.4207592E0,4.9644828E-1,5.290718E-1,4.5707798E-1,0E0,0E0,0E0,0E0,0E0,0E0,0E0,0E0,0E0,0E0,0E0,0E0,0E0,0E0,0E0,0E0],"parents":[2147483647,0,0,1,1,2,2,3,3,4,4,5,5,7,7,8,8,9,9,10,10,13,13,14,14,15,15,16,16,17,17,18,18,19,19,20,20],"right_children":[2,4,6,8,10,12,-1,14,16,18,20,-1,-1,22,24,26,28,30,32,34,36,-1,-1,-1,-1,-1,-1,-1,-1,-1,-1,-1,-1,-1,-1,-1,-1],"split_conditions":[6E0,4.8E3,4.32E3,1E0,2E0,3.63E3,-4.0420124E-1,3E0,4.04E3,1E0,1E0,-3.9832117E-3,7.590938E-3,1E0,1E0,1E0,1E0,1E0,1E0,5.96E3,1E0,-7.973531E-3,2.0574701E-3,-2.8207307E-3,4.217324E-3,-1.41710285E-2,-2.224912E-3,-7.0334636E-3,5.8210692E-3,5.0851E-3,-3.6285599E-3,6.99458E-3,1.6057564E-2,2.986036E-3,1.4452897E-2,1.4711665E-2,2.3769146E-2],"split_indices":[1,0,0,13,2,0,0,1,0,5,8,0,0,5,9,10,6,13,9,0,9,0,0,0,0,0,0,0,0,0,0,0,0,0,0,0,0],"split_type":[0,0,0,0,0,0,0,0,0,0,0,0,0,0,0,0,0,0,0,0,0,0,0,0,0,0,0,0,0,0,0,0,0,0,0,0,0],"sum_hessian":[8.74E2,8.69E2,5E0,4.47E2,4.22E2,2E0,3E0,2.84E2,1.63E2,2.7E2,1.52E2,1E0,1E0,8.3E1,2.01E2,1.3E2,3.3E1,2.04E2,6.6E1,6.8E1,8.4E1,7.3E1,1E1,1.16E2,8.5E1,1.17E2,1.3E1,2.5E1,8E0,1.33E2,7.1E1,3E1,3.6E1,1.3E1,5.5E1,2.8E1,5.6E1],"tree_param":{"num_deleted":"0","num_feature":"14","num_nodes":"37","size_leaf_vector":"1"}},{"base_weights":[-2.8750468E-3,3.2720834E-2,-5.163799E0,-6.591819E-2,2.2422326E-1,4.6900433E-2,-3.8904366E-1,-1.1442256E-1,8.419044E-2,1.3506323E-1,3.4680763E-1,-3.8836242E-3,7.4011567E-3,-4.831355E-2,-2.1620305E-1,2.6107736E-2,2.6621225E-1,-4.5128193E-4,2.034136E-1,3.1399772E-1,2.8214658E-2,-6.63186E-3,-5.922708E-5,-1.2309621E-2,-9.513335E-5,-3.8015954E-3,3.603147E-3,-2.3138864E-4,1.6220735E-2,-6.818961E-3,1.0911751E-2,7.7784318E-3,1.6401986E-2,8.282675E-3,1.7256126E-2],"categories":[],"categories_nodes":[],"categories_segments":[],"categories_sizes":[],"default_left":[0,0,0,0,0,0,0,0,0,0,0,0,0,0,0,0,0,0,0,0,0,0,0,0,0,0,0,0,0,0,0,0,0,0,0],"id":8,"left_children":[1,3,5,7,9,11,-1,13,15,17,19,-1,-1,21,23,25,27,29,31,33,-1,-1,-1,-1,-1,-1,-1,-1,-1,-1,-1,-1,-1,-1,-1],"loss_changes":[1.6091315E2,1.6448742E1,8.218564E1,4.1961646E0,3.1883287E0,4.9288772E-2,0E0,2.9164991E0,1.483747E0,1.6024988E0,7.0763874E-1,0E0,0E0,1.0529768E0,1.0985026E0,5.1241463E-1,5.3746223E-1,1.7835717E0,6.346817E-1,4.5071793E-1,0E0,0E0,0E0,0E0,0E0,0E0,0E0,0E0,0E0,0E0,0E0,0E0,0E0,0E0,0E0],"parents":[2147483647,0,0,1,1,2,2,3,3,4,4,5,5,7,7,8,8,9,9,10,10,13,13,14,14,15,15,16,16,17,17,18,18,19,19],"right_children":[2,4,6,8,10,12,-1,14,16,18,20,-1,-1,22,24,26,28,30,32,34,-1,-1,-1,-1,-1,-1,-1,-1,-1,-1,-1,-1,-1,-1,-1],"split_conditions":[6E0,5.96E3,4.32E3,1E0,2E0,3.63E3,-3.8904366E-1,1E0,2E0,1E0,3E0,-3.8836242E-3,7.4011567E-3,3.5E3,1E0,2E0,1E0,1E0,1E0,2E0,2.8214658E-2,-6.63186E-3,-5.922708E-5,-1.2309621E-2,-9.513335E-5,-3.8015954E-3,3.603147E-3,-2.3138864E-4,1.6220735E-2,-6.818961E-3,1.0911751E-2,7.7784318E-3,1.6401986E-2,8.282675E-3,1.7256126E-2],"split_indices":[1,0,0,8,2,0,0,13,2,9,2,0,0,0,10,3,4,10,5,3,0,0,0,0,0,0,0,0,0,0,0,0,0,0,0],"split_type":[0,0,0,0,0,0,0,0,0,0,0,0,0,0,0,0,0,0,0,0,0,0,0,0,0,0,0,0,0,0,0,0,0,0,0],"sum_hessian":[8.74E2,8.69E2,5E0,5.74E2,2.95E2,2E0,3E0,4.34E2,1.4E2,1.72E2,1.23E2,1E0,1E0,2.64E2,1.7E2,1.07E2,3.3E1,5.8E1,1.14E2,1.09E2,1.4E1,9.4E1,1.7E2,1.49E2,2.1E1,3.3E1,7.4E1,6E0,2.7E1,3.6E1,2.2E1,8.4E1,3E1,2E1,8.9E1],"tree_param":{"num_deleted":"0","num_feature":"14","num_nodes":"35","size_leaf_vector":"1"}},{"base_weights":[-3.081834E-3,3.1175373E-2,-4.969863E0,-1.0416593E-1,1.5830867E-1,4.572773E-2,-3.7445453E-1,-4.217405E-2,-2.0440012E-1,7.5648196E-2,3.085973E-1,-3.7865401E-3,7.2161197E-3,-1.437823E-1,-9.2840865E-3,-2.3797718E-1,-5.5916447E-2,-5.387121E-3,1.4877409E-1,2.181073E-1,3.7731853E-1,-9.869651E-3,-2.612694E-3,-1.4297309E-3,9.956711E-3,-1.2958559E-2,-2.1171842E-3,-6.0953926E-3,5.9470604E-3,-3.2464403E-3,8.025482E-3,6.606481E-4,9.672666E-3,9.169043E-3,2.1847917E-2,1.584029E-2,2.428834E-2],"categories":[],"categories_nodes":[],"categories_segments":[],"categories_sizes":[],"default_left":[0,0,0,0,0,0,0,0,0,0,0,0,0,0,0,0,0,0,0,0,0,0,0,0,0,0,0,0,0,0,0,0,0,0,0,0,0],"id":9,"left_children":[1,3,5,7,9,11,-1,13,15,17,19,-1,-1,21,23,25,27,29,31,33,35,-1,-1,-1,-1,-1,-1,-1,-1,-1,-1,-1,-1,-1,-1,-1,-1],"loss_changes":[1.4903447E2,1.4986047E1,7.615494E1,2.6135635E0,5.554549E0,4.6855137E-2,0E0,8.7424076E-1,7.89382E-1,1.7252034E0,9.064579E-1,0E0,0E0,3.037274E-1,8.066031E-1,5.321851E-1,3.7221205E-1,1.3834321E0,9.2412925E-1,4.594643E-1,4.3017006E-1,0E0,0E0,0E0,0E0,0E0,0E0,0E0,0E0,0E0,0E0,0E0,0E0,0E0,0E0,0E0,0E0],"parents":[2147483647,0,0,1,1,2,2,3,3,4,4,5,5,7,7,8,8,9,9,10,10,13,13,14,14,15,15,16,16,17,17,18,18,19,19,20,20],"right_children":[2,4,6,8,10,12,-1,14,16,18,20,-1,-1,22,24,26,28,30,32,34,36,-1,-1,-1,-1,-1,-1,-1,-1,-1,-1,-1,-1,-1,-1,-1,-1],"split_conditions":[6E0,4.51E3,4.32E3,1E0,2E0,3.63E3,-3.7445453E-1,3.15E3,4.04E3,1E0,1E0,-3.7865401E-3,7.2161197E-3,1E0,1E0,1E0,1E0,1E0,5.96E3,3E0,2E0,-9.869651E-3,-2.612694E-3,-1.4297309E-3,9.956711E-3,-1.2958559E-2,-2.1171842E-3,-6.0953926E-3,5.9470604E-3,-3.2464403E-3,8.025482E-3,6.606481E-4,9.672666E-3,9.169043E-3,2.1847917E-2,1.584029E-2,2.428834E-2],"split_indices":[1,0,0,13,2,0,0,0,0,9,8,0,0,6,7,10,6,10,0,2,9,0,0,0,0,0,0,0,0,0,0,0,0,0,0,0,0],"split_type":[0,0,0,0,0,0,0,0,0,0,0,0,0,0,0,0,0,0,0,0,0,0,0,0,0,0,0,0,0,0,0,0,0,0,0,0,0],"sum_hessian":[8.74E2,8.69E2,5E0,4.21E2,4.48E2,2E0,3E0,2.61E2,1.6E2,2.9E2,1.58E2,1E0,1E0,6.3E1,1.98E2,1.3E2,3E1,1.38E2,1.52E2,7E1,8.8E1,3.9E1,2.4E1,1.82E2,1.6E1,1.17E2,1.3E1,2.2E1,8E0,1.02E2,3.6E1,3.8E1,1.14E2,6.2E1,8E0,5.9E1,2.9E1],"tree_param":{"num_deleted":"0","num_feature":"14","num_nodes":"37","size_leaf_vector":"1"}},{"base_weights":[-3.2752021E-3,2.9693613E-2,-4.7832074E0,-9.158494E-2,1.5806973E-1,4.4584274E-2,-3.6041248E-1,-3.272971E-2,-1.9330542E-1,7.886817E-2,2.973217E-1,-3.691888E-3,7.0357085E-3,-1.2371453E-1,5.267587E-3,-2.3330332E-1,-7.891783E-2,1.0922995E-2,1.7377451E-1,2.1169049E-1,3.6333624E-1,-7.3491633E-3,2.2033693E-3,-2.424184E-3,3.916653E-3,-1.2504618E-2,6.508422E-3,-5.82216E-3,8.907501E-3,-2.8693394E-3,6.708417E-3,-1.3834286E-2,9.642178E-3,8.89246E-3,2.0876905E-2,1.2441785E-2,2.0760829E-2],"categories":[],"categories_nodes":[],"categories_segments":[],"categories_sizes":[],"default_left":[0,0,0,0,0,0,0,0,0,0,0,0,0,0,0,0,0,0,0,0,0,0,0,0,0,0,0,0,0,0,0,0,0,0,0,0,0],"id":10,"left_children":[1,3,5,7,9,11,-1,13,15,17,19,-1,-1,21,23,25,27,29,31,33,35,-1,-1,-1,-1,-1,-1,-1,-1,-1,-1,-1,-1,-1,-1,-1,-1],"loss_changes":[1.3803215E2,1.3559743E1,7.056697E1,2.675751E0,4.6418076E0,4.454171E-2,0E0,9.8594725E-1,7.3193216E-1,1.7456257E0,7.879791E-1,0E0,0E0,3.3441913E-1,7.9712486E-1,7.7093697E-1,4.451932E-1,1.3462986E0,1.02401E0,4.064057E-1,4.016075E-1,0E0,0E0,0E0,0E0,0E0,0E0,0E0,0E0,0E0,0E0,0E0,0E0,0E0,0E0,0E0,0E0],"parents":[2147483647,0,0,1,1,2,2,3,3,4,4,5,5,7,7,8,8,9,9,10,10,13,13,14,14,15,15,16,16,17,17,18,18,19,19,20,20],"right_children":[2,4,6,8,10,12,-1,14,16,18,20,-1,-1,22,24,26,28,30,32,34,36,-1,-1,-1,-1,-1,-1,-1,-1,-1,-1,-1,-1,-1,-1,-1,-1],"split_conditions":[6E0,4.8E3,4.32E3,1E0,2E0,3.63E3,-3.6041248E-1,3E0,1E0,1E0,1E0,-3.691888E-3,7.0357085E-3,1E0,1E0,3E0,4.12E3,1E0,1E0,3E0,1E0,-7.3491633E-3,2.2033693E-3,-2.424184E-3,3.916653E-3,-1.2504618E-2,6.508422E-3,-5.82216E-3,8.907501E-3,-2.8693394E-3,6.708417E-3,-1.3834286E-2,9.642178E-3,8.89246E-3,2.0876905E-2,1.2441785E-2,2.0760829E-2],"split_indices":[1,0,0,13,2,0,0,1,6,8,8,0,0,5,9,3,0,6,4,2,9,0,0,0,0,0,0,0,0,0,0,0,0,0,0,0,0],"split_type":[0,0,0,0,0,0,0,0,0,0,0,0,0,0,0,0,0,0,0,0,0,0,0,0,0,0,0,0,0,0,0,0,0,0,0,0,0],"sum_hessian":[8.74E2,8.69E2,5E0,4.47E2,4.22E2,2E0,3E0,2.84E2,1.63E2,2.7E2,1.52E2,1E0,1E0,8.3E1,2.01E2,1.2E2,4.3E1,1.58E2,1.12E2,6.8E1,8.4E1,7.3E1,1E1,1.16E2,8.5E1,1.15E2,5E0,3.8E1,5E0,1.02E2,5.6E1,4E0,1.08E2,6E1,8E0,2.8E1,5.6E1],"tree_param":{"num_deleted":"0","num_feature":"14","num_nodes":"37","size_leaf_vector":"1"}},{"base_weights":[-3.4554258E-3,2.8273394E-2,-4.6035585E0,-5.726633E-2,1.9434457E-1,4.3469746E-2,-3.46897E-1,-1.0069659E-1,7.7126816E-2,1.1734611E-1,3.0020255E-1,-3.599596E-3,6.8598273E-3,-4.2971537E-2,-1.8956469E-1,2.7207896E-2,2.3342435E-1,-4.278894E-3,1.7872462E-1,2.7061644E-1,2.4857687E-2,-5.9590465E-3,-1.9084362E-5,-1.083399E-2,1.9638105E-4,-3.3097954E-3,3.4594093E-3,-2.2055763E-4,1.4227333E-2,-6.3569173E-3,9.67753E-3,6.719624E-3,1.472576E-2,6.678384E-3,1.4979384E-2],"categories":[],"categories_nodes":[],"categories_segments":[],"categories_sizes":[],"default_left":[0,0,0,0,0,0,0,0,0,0,0,0,0,0,0,0,0,0,0,0,0,0,0,0,0,0,0,0,0,0,0,0,0,0,0],"id":11,"left_children":[1,3,5,7,9,11,-1,13,15,17,19,-1,-1,21,23,25,27,29,31,33,-1,-1,-1,-1,-1,-1,-1,-1,-1,-1,-1,-1,-1,-1,-1],"loss_changes":[1.2784152E2,1.2370072E1,6.538923E1,3.3638859E0,2.3774395E0,4.23426E-2,0E0,2.2233677E0,1.0937598E0,1.2922378E0,5.8801174E-1,0E0,0E0,8.600774E-1,8.9801407E-1,4.280608E-1,4.1465092E-1,1.4586158E0,5.507424E-1,3.9673615E-1,0E0,0E0,0E0,0E0,0E0,0E0,0E0,0E0,0E0,0E0,0E0,0E0,0E0,0E0,0E0],"parents":[2147483647,0,0,1,1,2,2,3,3,4,4,5,5,7,7,8,8,9,9,10,10,13,13,14,14,15,15,16,16,17,17,18,18,19,19],"right_children":[2,4,6,8,10,12,-1,14,16,18,20,-1,-1,22,24,26,28,30,32,34,-1,-1,-1,-1,-1,-1,-1,-1,-1,-1,-1,-1,-1,-1,-1],"split_conditions":[6E0,5.96E3,4.32E3,1E0,2E0,3.63E3,-3.46897E-1,1E0,2E0,1E0,3E0,-3.599596E-3,6.8598273E-3,3.5E3,1E0,2E0,1E0,1E0,1E0,2E0,2.4857687E-2,-5.9590465E-3,-1.9084362E-5,-1.083399E-2,1.9638105E-4,-3.3097954E-3,3.4594093E-3,-2.2055763E-4,1.4227333E-2,-6.3569173E-3,9.67753E-3,6.719624E-3,1.472576E-2,6.678384E-3,1.4979384E-2],"split_indices":[1,0,0,8,2,0,0,13,2,9,2,0,0,0,10,3,4,10,5,3,0,0,0,0,0,0,0,0,0,0,0,0,0,0,0],"split_type":[0,0,0,0,0,0,0,0,0,0,0,0,0,0,0,0,0,0,0,0,0,0,0,0,0,0,0,0,0,0,0,0,0,0,0],"sum_hessian":[8.74E2,8.69E2,5E0,5.74E2,2.95E2,2E0,3E0,4.34E2,1.4E2,1.72E2,1.23E2,1E0,1E0,2.64E2,1.7E2,1.07E2,3.3E1,5.8E1,1.14E2,1.09E2,1.4E1,9.4E1,1.7E2,1.49E2,2.1E1,3.3E1,7.4E1,6E0,2.7E1,3.6E1,2.2E1,8.4E1,3E1,2E1,8.9E1],"tree_param":{"num_deleted":"0","num_feature":"14","num_nodes":"35","size_leaf_vector":"1"}},{"base_weights":[-3.5966535E-3,2.6938906E-2,-4.4306536E0,-9.0186685E-2,1.3696131E-1,4.2382877E-2,-3.3388838E-1,-3.6719777E-2,-1.7663477E-1,6.55604E-2,2.6677707E-1,-3.509617E-3,6.6883327E-3,-1.292327E-1,-6.7823543E-3,-2.0767207E-1,-3.9779264E-2,-6.0244374E-2,1.0568067E-1,1.8740946E-1,3.270953E-1,-7.4329795E-3,4.166858E-3,-1.2551358E-3,9.541495E-3,-1.132229E-2,-1.7301355E-3,-4.977334E-3,5.8689807E-3,8.3245477E-4,-8.946269E-3,-1.0628625E-2,6.329674E-3,7.8683365E-3,1.8844265E-2,1.3570626E-2,2.1377882E-2],"categories":[],"categories_nodes":[],"categories_segments":[],"categories_sizes":[],"default_left":[0,0,0,0,0,0,0,0,0,0,0,0,0,0,0,0,0,0,0,0,0,0,0,0,0,0,0,0,0,0,0,0,0,0,0,0,0],"id":12,"left_children":[1,3,5,7,9,11,-1,13,15,17,19,-1,-1,21,23,25,27,29,31,33,35,-1,-1,-1,-1,-1,-1,-1,-1,-1,-1,-1,-1,-1,-1,-1,-1],"loss_changes":[1.1840418E2,1.1223554E1,6.0591545E1,1.9440453E0,4.1442747E0,4.0252037E-2,0E0,7.2475827E-1,6.756072E-1,1.4751374E0,6.998825E-1,0E0,0E0,2.7668142E-1,7.2523546E-1,4.178033E-1,3.028671E-1,6.5091026E-1,1.4977906E0,3.4484935E-1,3.8182354E-1,0E0,0E0,0E0,0E0,0E0,0E0,0E0,0E0,0E0,0E0,0E0,0E0,0E0,0E0,0E0,0E0],"parents":[2147483647,0,0,1,1,2,2,3,3,4,4,5,5,7,7,8,8,9,9,10,10,13,13,14,14,15,15,16,16,17,17,18,18,19,19,20,20],"right_children":[2,4,6,8,10,12,-1,14,16,18,20,-1,-1,22,24,26,28,30,32,34,36,-1,-1,-1,-1,-1,-1,-1,-1,-1,-1,-1,-1,-1,-1,-1,-1],"split_conditions":[6E0,4.51E3,4.32E3,1E0,2E0,3.63E3,-3.3388838E-1,3.15E3,4.04E3,3E0,1E0,-3.509617E-3,6.6883327E-3,1E0,1E0,1E0,1E0,1E0,1E0,3E0,2E0,-7.4329795E-3,4.166858E-3,-1.2551358E-3,9.541495E-3,-1.132229E-2,-1.7301355E-3,-4.977334E-3,5.8689807E-3,8.3245477E-4,-8.946269E-3,-1.0628625E-2,6.329674E-3,7.8683365E-3,1.8844265E-2,1.3570626E-2,2.1377882E-2],"split_indices":[1,0,0,13,2,0,0,0,0,1,8,0,0,5,7,10,6,13,4,2,9,0,0,0,0,0,0,0,0,0,0,0,0,0,0,0,0],"split_type":[0,0,0,0,0,0,0,0,0,0,0,0,0,0,0,0,0,0,0,0,0,0,0,0,0,0,0,0,0,0,0,0,0,0,0,0,0],"sum_hessian":[8.74E2,8.69E2,5E0,4.21E2,4.48E2,2E0,3E0,2.61E2,1.6E2,2.9E2,1.58E2,1E0,1E0,6.3E1,1.98E2,1.3E2,3E1,7E1,2.2E2,7E1,8.8E1,5.8E1,5E0,1.82E2,1.6E1,1.17E2,1.3E1,2.2E1,8E0,4.3E1,2.7E1,1.3E1,2.07E2,6.2E1,8E0,5.9E1,2.9E1],"tree_param":{"num_deleted":"0","num_feature":"14","num_nodes":"37","size_leaf_vector":"1"}},{"base_weights":[-3.7467172E-3,2.5640298E-2,-4.2642393E0,-5.235076E-2,1.7705658E-1,4.1323345E-2,-3.213676E-1,-9.266719E-2,7.2401E-2,1.0768286E-1,2.724162E-1,-3.421879E-3,6.5211295E-3,-4.0238567E-2,-1.7337431E-1,2.719163E-2,2.138778E-1,-7.212041E-3,1.6569257E-1,2.4499393E-1,2.2767594E-2,-2.7844743E-3,7.0969127E-3,-9.910719E-3,1.9351786E-4,3.1938656E-5,7.996022E-3,7.1921223E-3,1.9621897E-2,-6.1223083E-3,8.923908E-3,1.826266E-2,7.053657E-3,5.816269E-3,1.3614722E-2],"categories":[],"categories_nodes":[],"categories_segments":[],"categories_sizes":[],"default_left":[0,0,0,0,0,0,0,0,0,0,0,0,0,0,0,0,0,0,0,0,0,0,0,0,0,0,0,0,0,0,0,0,0,0,0],"id":13,"left_children":[1,3,5,7,9,11,-1,13,15,17,19,-1,-1,21,23,25,27,29,31,33,-1,-1,-1,-1,-1,-1,-1,-1,-1,-1,-1,-1,-1,-1,-1],"loss_changes":[1.09662094E2,1.0283198E1,5.6146103E1,2.8986983E0,1.9288406E0,3.826465E-2,0E0,1.8336666E0,8.96031E-1,1.1542432E0,5.104885E-1,0E0,0E0,7.5382614E-1,7.5364065E-1,3.8052535E-1,3.6873865E-1,1.2843269E0,5.134754E-1,3.5472393E-1,0E0,0E0,0E0,0E0,0E0,0E0,0E0,0E0,0E0,0E0,0E0,0E0,0E0,0E0,0E0],"parents":[2147483647,0,0,1,1,2,2,3,3,4,4,5,5,7,7,8,8,9,9,10,10,13,13,14,14,15,15,16,16,17,17,18,18,19,19],"right_children":[2,4,6,8,10,12,-1,14,16,18,20,-1,-1,22,24,26,28,30,32,34,-1,-1,-1,-1,-1,-1,-1,-1,-1,-1,-1,-1,-1,-1,-1],"split_conditions":[6E0,5.96E3,4.32E3,1E0,2E0,3.63E3,-3.213676E-1,1E0,2E0,1E0,3E0,-3.421879E-3,6.5211295E-3,1E0,1E0,3E0,1E0,1E0,6.02E3,2E0,2.2767594E-2,-2.7844743E-3,7.0969127E-3,-9.910719E-3,1.9351786E-4,3.1938656E-5,7.996022E-3,7.1921223E-3,1.9621897E-2,-6.1223083E-3,8.923908E-3,1.826266E-2,7.053657E-3,5.816269E-3,1.3614722E-2],"split_indices":[1,0,0,8,2,0,0,13,2,9,2,0,0,7,10,3,10,10,0,3,0,0,0,0,0,0,0,0,0,0,0,0,0,0,0],"split_type":[0,0,0,0,0,0,0,0,0,0,0,0,0,0,0,0,0,0,0,0,0,0,0,0,0,0,0,0,0,0,0,0,0,0,0],"sum_hessian":[8.74E2,8.69E2,5E0,5.74E2,2.95E2,2E0,3E0,4.34E2,1.4E2,1.72E2,1.23E2,1E0,1E0,2.64E2,1.7E2,1.07E2,3.3E1,5.8E1,1.14E2,1.09E2,1.4E1,2.44E2,2E1,1.49E2,2.1E1,9E1,1.7E1,2.5E1,8E0,3.6E1,2.2E1,1.1E1,1.03E2,2E1,8.9E1],"tree_param":{"num_deleted":"0","num_feature":"14","num_nodes":"35","size_leaf_vector":"1"}},{"base_weights":[-3.8089578E-3,2.4473099E-2,-4.104072E0,-7.617881E-2,1.3101584E-1,4.0290195E-2,-3.093163E-1,-2.791893E-2,-1.5958056E-1,6.600544E-2,2.4530868E-1,-3.3363344E-3,6.358099E-3,-1.1216562E-1,7.252561E-3,-1.9007401E-1,-3.7397526E-2,2.3933895E-2,1.9374666E-1,1.7237301E-1,3.016293E-1,-6.7072758E-3,2.2948005E-3,-4.7645773E-4,1.0146779E-2,-1.0651634E-2,-2.9834954E-3,-4.481303E-3,5.882009E-3,-9.889283E-4,6.495099E-3,7.840593E-3,1.6755281E-2,9.205777E-3,-7.3667206E-3,1.1838022E-2,1.9167317E-2],"categories":[],"categories_nodes":[],"categories_segments":[],"categories_sizes":[],"default_left":[0,0,0,0,0,0,0,0,0,0,0,0,0,0,0,0,0,0,0,0,0,0,0,0,0,0,0,0,0,0,0,0,0,0,0,0,0],"id":14,"left_children":[1,3,5,7,9,11,-1,13,15,17,19,-1,-1,21,23,25,27,29,31,33,35,-1,-1,-1,-1,-1,-1,-1,-1,-1,-1,-1,-1,-1,-1,-1,-1],"loss_changes":[1.0156883E2,9.339626E0,5.202693E1,1.7987258E0,3.1267924E0,3.6375336E-2,0E0,8.452918E-1,6.0392E-1,1.4517902E0,5.7649803E-1,0E0,0E0,2.9798758E-1,6.6528094E-1,3.794899E-1,2.8585494E-1,9.521551E-1,2.972622E-1,2.8616452E-1,3.5981464E-1,0E0,0E0,0E0,0E0,0E0,0E0,0E0,0E0,0E0,0E0,0E0,0E0,0E0,0E0,0E0,0E0],"parents":[2147483647,0,0,1,1,2,2,3,3,4,4,5,5,7,7,8,8,9,9,10,10,13,13,14,14,15,15,16,16,17,17,18,18,19,19,20,20],"right_children":[2,4,6,8,10,12,-1,14,16,18,20,-1,-1,22,24,26,28,30,32,34,36,-1,-1,-1,-1,-1,-1,-1,-1,-1,-1,-1,-1,-1,-1,-1,-1],"split_conditions":[6E0,4.8E3,4.32E3,1E0,2E0,3.63E3,-3.093163E-1,3E0,4.04E3,1E0,1E0,-3.3363344E-3,6.358099E-3,1E0,1E0,1E0,1E0,1E0,4E0,3E0,1E0,-6.7072758E-3,2.2948005E-3,-4.7645773E-4,1.0146779E-2,-1.0651634E-2,-2.9834954E-3,-4.481303E-3,5.882009E-3,-9.889283E-4,6.495099E-3,7.840593E-3,1.6755281E-2,9.205777E-3,-7.3667206E-3,1.1838022E-2,1.9167317E-2],"split_indices":[1,0,0,13,2,0,0,1,0,5,8,0,0,5,7,8,6,10,1,9,10,0,0,0,0,0,0,0,0,0,0,0,0,0,0,0,0],"split_type":[0,0,0,0,0,0,0,0,0,0,0,0,0,0,0,0,0,0,0,0,0,0,0,0,0,0,0,0,0,0,0,0,0,0,0,0,0],"sum_hessian":[8.74E2,8.69E2,5E0,4.47E2,4.22E2,2E0,3E0,2.84E2,1.63E2,2.7E2,1.52E2,1E0,1E0,8.3E1,2.01E2,1.3E2,3.3E1,2.04E2,6.6E1,6.8E1,8.4E1,7.3E1,1E1,1.86E2,1.5E1,1.1E2,2E1,2.5E1,8E0,1.45E2,5.9E1,5.4E1,1.2E1,6.6E1,2E0,4.9E1,3.5E1],"tree_param":{"num_deleted":"0","num_feature":"14","num_nodes":"37","size_leaf_vector":"1"}},{"base_weights":[-3.904515E-3,2.3313856E-2,-3.9499176E0,-4.777734E-2,1.6133454E-1,3.92828E-2,-2.9771695E-1,-8.49104E-2,6.7120954E-2,9.887612E-2,2.4717304E-1,-3.2529354E-3,6.199145E-3,-3.7372563E-2,-1.580836E-1,2.557018E-2,1.971316E-1,-1.030395E-2,1.5403044E-1,2.2101748E-1,2.1125121E-2,-5.2690785E-3,3.1438627E-5,-9.066833E-3,3.822782E-4,-2.9224844E-3,3.1659126E-3,-3.5685132E-4,1.2057918E-2,-5.883838E-3,8.143711E-3,1.7334994E-2,6.515915E-3,5.0836224E-3,1.2320445E-2],"categories":[],"categories_nodes":[],"categories_segments":[],"categories_sizes":[],"default_left":[0,0,0,0,0,0,0,0,0,0,0,0,0,0,0,0,0,0,0,0,0,0,0,0,0,0,0,0,0,0,0,0,0,0,0],"id":15,"left_children":[1,3,5,7,9,11,-1,13,15,17,19,-1,-1,21,23,25,27,29,31,33,-1,-1,-1,-1,-1,-1,-1,-1,-1,-1,-1,-1,-1,-1,-1],"loss_changes":[9.407063E1,8.544196E0,4.821012E1,2.4589512E0,1.5625162E0,3.4579378E-2,0E0,1.5072377E0,7.566473E-1,1.0433507E0,4.752636E-1,0E0,0E0,6.8494105E-1,6.6037035E-1,3.4623247E-1,3.0749285E-1,1.1162494E0,4.8020816E-1,3.0828428E-1,0E0,0E0,0E0,0E0,0E0,0E0,0E0,0E0,0E0,0E0,0E0,0E0,0E0,0E0,0E0],"parents":[2147483647,0,0,1,1,2,2,3,3,4,4,5,5,7,7,8,8,9,9,10,10,13,13,14,14,15,15,16,16,17,17,18,18,19,19],"right_children":[2,4,6,8,10,12,-1,14,16,18,20,-1,-1,22,24,26,28,30,32,34,-1,-1,-1,-1,-1,-1,-1,-1,-1,-1,-1,-1,-1,-1,-1],"split_conditions":[6E0,5.96E3,4.32E3,1E0,2E0,3.63E3,-2.9771695E-1,1E0,2E0,1E0,3E0,-3.2529354E-3,6.199145E-3,3.5E3,1E0,2E0,1E0,1E0,6.02E3,2E0,2.1125121E-2,-5.2690785E-3,3.1438627E-5,-9.066833E-3,3.822782E-4,-2.9224844E-3,3.1659126E-3,-3.5685132E-4,1.2057918E-2,-5.883838E-3,8.143711E-3,1.7334994E-2,6.515915E-3,5.0836224E-3,1.2320445E-2],"split_indices":[1,0,0,8,2,0,0,13,2,9,2,0,0,0,10,3,4,10,0,3,0,0,0,0,0,0,0,0,0,0,0,0,0,0,0],"split_type":[0,0,0,0,0,0,0,0,0,0,0,0,0,0,0,0,0,0,0,0,0,0,0,0,0,0,0,0,0,0,0,0,0,0,0],"sum_hessian":[8.74E2,8.69E2,5E0,5.74E2,2.95E2,2E0,3E0,4.34E2,1.4E2,1.72E2,1.23E2,1E0,1E0,2.64E2,1.7E2,1.07E2,3.3E1,5.8E1,1.14E2,1.09E2,1.4E1,9.4E1,1.7E2,1.49E2,2.1E1,3.3E1,7.4E1,6E0,2.7E1,3.6E1,2.2E1,1.1E1,1.03E2,2E1,8.9E1],"tree_param":{"num_deleted":"0","num_feature":"14","num_nodes":"35","size_leaf_vector":"1"}},{"base_weights":[-3.9746044E-3,2.2220138E-2,-3.80155E0,-9.282711E-2,1.0020552E-1,3.830083E-2,-2.8655252E-1,-4.4263963E-2,-1.6963136E-1,4.5350637E-2,2.077754E-1,-3.1716109E-3,6.044173E-3,-6.8929136E-2,5.714696E-2,-1.9934244E-1,-8.4746465E-2,-6.5119388E-3,1.3224079E-1,1.7046805E-1,3.149753E-1,-5.804895E-3,-8.2237663E-4,-7.7338084E-3,4.783855E-3,-1.0642766E-2,-8.66884E-4,-1.1769391E-2,-2.087528E-3,-2.5201E-3,9.448081E-3,3.1558883E-3,1.0182675E-2,5.358718E-3,1.1086213E-2,1.940536E-2,3.0148549E-3],"categories":[],"categories_nodes":[],"categories_segments":[],"categories_sizes":[],"default_left":[0,0,0,0,0,0,0,0,0,0,0,0,0,0,0,0,0,0,0,0,0,0,0,0,0,0,0,0,0,0,0,0,0,0,0,0,0],"id":16,"left_children":[1,3,5,7,9,11,-1,13,15,17,19,-1,-1,21,23,25,27,29,31,33,35,-1,-1,-1,-1,-1,-1,-1,-1,-1,-1,-1,-1,-1,-1,-1,-1],"loss_changes":[8.712642E1,7.8149443E0,4.4673462E1,1.3054008E0,3.0530581E0,3.2872055E-2,0E0,5.4672515E-1,3.2610154E-1,1.555551E0,6.461921E-1,0E0,0E0,4.3130165E-1,3.6574662E-1,2.4225044E-1,2.2981995E-1,1.8712422E0,6.239238E-1,4.0447068E-1,7.96103E-1,0E0,0E0,0E0,0E0,0E0,0E0,0E0,0E0,0E0,0E0,0E0,0E0,0E0,0E0,0E0,0E0],"parents":[2147483647,0,0,1,1,2,2,3,3,4,4,5,5,7,7,8,8,9,9,10,10,13,13,14,14,15,15,16,16,17,17,18,18,19,19,20,20],"right_children":[2,4,6,8,10,12,-1,14,16,18,20,-1,-1,22,24,26,28,30,32,34,36,-1,-1,-1,-1,-1,-1,-1,-1,-1,-1,-1,-1,-1,-1,-1,-1],"split_conditions":[6E0,4.1E3,4.32E3,1E0,2E0,3.63E3,-2.8655252E-1,2E0,1E0,1E0,7.35E3,-3.1716109E-3,6.044173E-3,3.51E3,3E0,2E0,3E0,3E0,6.4E3,1E0,1E0,-5.804895E-3,-8.2237663E-4,-7.7338084E-3,4.783855E-3,-1.0642766E-2,-8.66884E-4,-1.1769391E-2,-2.087528E-3,-2.5201E-3,9.448081E-3,3.1558883E-3,1.0182675E-2,5.358718E-3,1.1086213E-2,1.940536E-2,3.0148549E-3],"split_indices":[1,0,0,13,2,0,0,2,6,6,0,0,0,0,1,9,1,3,0,8,5,0,0,0,0,0,0,0,0,0,0,0,0,0,0,0,0],"split_type":[0,0,0,0,0,0,0,0,0,0,0,0,0,0,0,0,0,0,0,0,0,0,0,0,0,0,0,0,0,0,0,0,0,0,0,0,0],"sum_hessian":[8.74E2,8.69E2,5E0,3.51E2,5.18E2,2E0,3E0,2.16E2,1.35E2,3.44E2,1.74E2,1E0,1E0,1.74E2,4.2E1,9.9E1,3.6E1,2.16E2,1.28E2,1.31E2,4.3E1,9.1E1,8.3E1,6E0,3.6E1,9.2E1,7E0,7E0,2.9E1,1.77E2,3.9E1,6.6E1,6.2E1,6E1,7.1E1,3.3E1,1E1],"tree_param":{"num_deleted":"0","num_feature":"14","num_nodes":"37","size_leaf_vector":"1"}},{"base_weights":[-4.0723076E-3,2.1137064E-2,-3.6587524E0,-4.255033E-2,1.4865857E-1,3.734334E-2,-2.758068E-1,-7.133638E-2,8.418244E-2,8.18617E-2,2.1866477E-1,-3.092313E-3,5.8930637E-3,-1.3429259E-1,-2.1602608E-2,4.0374566E-2,1.7834151E-1,-5.8861468E-2,1.14641294E-1,1.8364982E-1,3.087408E-1,-9.528592E-3,-4.286076E-3,-2.2666138E-3,5.301748E-3,7.8861427E-4,9.935608E-3,5.7715215E-3,1.7013444E-2,-8.125796E-3,9.476953E-3,1.7172037E-2,4.3279584E-3,7.6942667E-3,1.504832E-2,8.255812E-3,1.9282097E-2],"categories":[],"categories_nodes":[],"categories_segments":[],"categories_sizes":[],"default_left":[0,0,0,0,0,0,0,0,0,0,0,0,0,0,0,0,0,0,0,0,0,0,0,0,0,0,0,0,0,0,0,0,0,0,0,0,0],"id":17,"left_children":[1,3,5,7,9,11,-1,13,15,17,19,-1,-1,21,23,25,27,29,31,33,35,-1,-1,-1,-1,-1,-1,-1,-1,-1,-1,-1,-1,-1,-1,-1,-1],"loss_changes":[8.069301E1,7.0720415E0,4.1396393E1,2.1255722E0,1.3381968E0,3.1248901E-2,0E0,1.4812164E0,4.3828964E-1,6.9867516E-1,3.8801432E-1,0E0,0E0,5.549743E-1,8.104668E-1,2.8902578E-1,3.0708146E-1,7.774899E-1,7.541431E-1,3.1683993E-1,3.5603023E-1,0E0,0E0,0E0,0E0,0E0,0E0,0E0,0E0,0E0,0E0,0E0,0E0,0E0,0E0,0E0,0E0],"parents":[2147483647,0,0,1,1,2,2,3,3,4,4,5,5,7,7,8,8,9,9,10,10,13,13,14,14,15,15,16,16,17,17,18,18,19,19,20,20],"right_children":[2,4,6,8,10,12,-1,14,16,18,20,-1,-1,22,24,26,28,30,32,34,36,-1,-1,-1,-1,-1,-1,-1,-1,-1,-1,-1,-1,-1,-1,-1,-1],"split_conditions":[6E0,6E3,4.32E3,2E0,1E0,3.63E3,-2.758068E-1,3.68E3,1E0,3E0,4E0,-3.092313E-3,5.8930637E-3,2E0,1E0,1E0,1E0,1E0,6.02E3,4E0,6.55E3,-9.528592E-3,-4.286076E-3,-2.2666138E-3,5.301748E-3,7.8861427E-4,9.935608E-3,5.7715215E-3,1.7013444E-2,-8.125796E-3,9.476953E-3,1.7172037E-2,4.3279584E-3,7.6942667E-3,1.504832E-2,8.255812E-3,1.9282097E-2],"split_indices":[1,0,0,2,8,0,0,0,8,1,1,0,0,3,5,7,10,6,0,3,0,0,0,0,0,0,0,0,0,0,0,0,0,0,0,0,0],"split_type":[0,0,0,0,0,0,0,0,0,0,0,0,0,0,0,0,0,0,0,0,0,0,0,0,0,0,0,0,0,0,0,0,0,0,0,0,0],"sum_hessian":[8.74E2,8.69E2,5E0,5.8E2,2.89E2,2E0,3E0,4.73E2,1.07E2,1.49E2,1.4E2,1E0,1E0,2.08E2,2.65E2,7.4E1,3.3E1,2.8E1,1.21E2,1.03E2,3.7E1,9.5E1,1.13E2,2.24E2,4.1E1,6.5E1,9E0,2.5E1,8E0,2E1,8E0,1.2E1,1.09E2,8.4E1,1.9E1,1.4E1,2.3E1],"tree_param":{"num_deleted":"0","num_feature":"14","num_nodes":"37","size_leaf_vector":"1"}},{"base_weights":[-4.071112E-3,2.0190429E-2,-3.521316E0,-8.43711E-2,9.1068015E-2,3.6410015E-2,-2.6546407E-1,-3.9087866E-2,-1.560041E-1,4.086627E-2,1.8951677E-1,-3.0149936E-3,5.745745E-3,-1.07961886E-1,-8.269013E-3,-1.7156217E-1,-1.9064967E-2,-6.679592E-3,1.20529726E-1,1.4451301E-1,2.712531E-1,-6.4420006E-3,2.0450805E-3,-1.9566861E-3,4.394266E-3,-9.808647E-3,-2.1927222E-3,-3.3532304E-3,6.485009E-3,-2.393564E-3,8.839521E-3,2.8549621E-3,9.303719E-3,6.046796E-3,1.6009985E-2,1.0223913E-2,2.0404933E-2],"categories":[],"categories_nodes":[],"categories_segments":[],"categories_sizes":[],"default_left":[0,0,0,0,0,0,0,0,0,0,0,0,0,0,0,0,0,0,0,0,0,0,0,0,0,0,0,0,0,0,0,0,0,0,0,0,0],"id":18,"left_children":[1,3,5,7,9,11,-1,13,15,17,19,-1,-1,21,23,25,27,29,31,33,35,-1,-1,-1,-1,-1,-1,-1,-1,-1,-1,-1,-1,-1,-1,-1,-1],"loss_changes":[7.473815E1,6.4553123E0,3.8359856E1,1.1357105E0,2.5573087E0,2.970595E-2,0E0,4.597154E-1,2.8647828E-1,1.3075504E0,6.045275E-1,0E0,0E0,2.1350515E-1,4.5157328E-1,3.748412E-1,1.1580838E-1,1.6484274E0,5.256965E-1,4.3762708E-1,4.7396135E-1,0E0,0E0,0E0,0E0,0E0,0E0,0E0,0E0,0E0,0E0,0E0,0E0,0E0,0E0,0E0,0E0],"parents":[2147483647,0,0,1,1,2,2,3,3,4,4,5,5,7,7,8,8,9,9,10,10,13,13,14,14,15,15,16,16,17,17,18,18,19,19,20,20],"right_children":[2,4,6,8,10,12,-1,14,16,18,20,-1,-1,22,24,26,28,30,32,34,36,-1,-1,-1,-1,-1,-1,-1,-1,-1,-1,-1,-1,-1,-1,-1,-1],"split_conditions":[6E0,4.1E3,4.32E3,1E0,2E0,3.63E3,-2.6546407E-1,3E0,1E0,1E0,1E0,-3.0149936E-3,5.745745E-3,1E0,2E0,1E0,3.54E3,3E0,6.4E3,3E0,7E3,-6.4420006E-3,2.0450805E-3,-1.9566861E-3,4.394266E-3,-9.808647E-3,-2.1927222E-3,-3.3532304E-3,6.485009E-3,-2.393564E-3,8.839521E-3,2.8549621E-3,9.303719E-3,6.046796E-3,1.6009985E-2,1.0223913E-2,2.0404933E-2],"split_indices":[1,0,0,13,2,0,0,1,10,6,10,0,0,5,2,8,0,3,0,2,0,0,0,0,0,0,0,0,0,0,0,0,0,0,0,0,0],"split_type":[0,0,0,0,0,0,0,0,0,0,0,0,0,0,0,0,0,0,0,0,0,0,0,0,0,0,0,0,0,0,0,0,0,0,0,0,0],"sum_hessian":[8.74E2,8.69E2,5E0,3.51E2,5.18E2,2E0,3E0,2.16E2,1.35E2,3.44E2,1.74E2,1E0,1E0,6.6E1,1.5E2,1.21E2,1.4E1,2.16E2,1.28E2,1.14E2,6E1,5.8E1,8E0,1.14E2,3.6E1,1.01E2,2E1,1.1E1,3E0,1.77E2,3.9E1,6.6E1,6.2E1,1.02E2,1.2E1,4.2E1,1.8E1],"tree_param":{"num_deleted":"0","num_feature":"14","num_nodes":"37","size_leaf_vector":"1"}},{"base_weights":[-4.09881E-3,1.9250318E-2,-3.3890393E0,-3.8727995E-2,1.353405E-1,3.5499573E-2,-2.555092E-1,-7.0300415E-2,6.029445E-2,7.26754E-2,2.0104562E-1,-2.9396296E-3,5.6020976E-3,-3.069583E-2,-1.3032398E-1,-3.3728763E-2,9.786531E-2,-5.6628294E-2,1.0281582E-1,-3.7654496E-3,2.0966406E-1,-2.2181075E-3,6.5753893E-3,-7.5853453E-3,1.6854173E-3,-3.5842936E-3,6.590253E-3,3.1987266E-3,1.1596213E-2,-8.529001E-3,7.2672716E-3,1.6125506E-2,3.795863E-3,8.707504E-3,1.5223152E-2],"categories":[],"categories_nodes":[],"categories_segments":[],"categories_sizes":[],"default_left":[0,0,0,0,0,0,0,0,0,0,0,0,0,0,0,0,0,0,0,0,0,0,0,0,0,0,0,0,0,0,0,0,0,0,0],"id":19,"left_children":[1,3,5,7,9,11,-1,13,15,17,19,-1,-1,21,23,25,27,29,31,-1,33,-1,-1,-1,-1,-1,-1,-1,-1,-1,-1,-1,-1,-1,-1],"loss_changes":[6.922122E1,5.860961E0,3.5546165E1,1.8206644E0,1.1794405E0,2.8239276E-2,0E0,1.0443482E0,5.01388E-1,5.904124E-1,3.5161543E-1,0E0,0E0,5.9769976E-1,6.189251E-1,2.6705918E-1,4.4404244E-1,6.922354E-1,6.9647026E-1,0E0,4.0821457E-1,0E0,0E0,0E0,0E0,0E0,0E0,0E0,0E0,0E0,0E0,0E0,0E0,0E0,0E0],"parents":[2147483647,0,0,1,1,2,2,3,3,4,4,5,5,7,7,8,8,9,9,10,10,13,13,14,14,15,15,16,16,17,17,18,18,20,20],"right_children":[2,4,6,8,10,12,-1,14,16,18,20,-1,-1,22,24,26,28,30,32,-1,34,-1,-1,-1,-1,-1,-1,-1,-1,-1,-1,-1,-1,-1,-1],"split_conditions":[6E0,6E3,4.32E3,1E0,1E0,3.63E3,-2.555092E-1,1E0,2E0,3E0,1E0,-2.9396296E-3,5.6020976E-3,1E0,2E0,1E0,1E0,1E0,6.02E3,-3.7654496E-3,4E0,-2.2181075E-3,6.5753893E-3,-7.5853453E-3,1.6854173E-3,-3.5842936E-3,6.590253E-3,3.1987266E-3,1.1596213E-2,-8.529001E-3,7.2672716E-3,1.6125506E-2,3.795863E-3,8.707504E-3,1.5223152E-2],"split_indices":[1,0,0,8,8,0,0,13,3,1,4,0,0,7,2,5,10,11,0,0,1,0,0,0,0,0,0,0,0,0,0,0,0,0,0],"split_type":[0,0,0,0,0,0,0,0,0,0,0,0,0,0,0,0,0,0,0,0,0,0,0,0,0,0,0,0,0,0,0,0,0,0,0],"sum_hessian":[8.74E2,8.69E2,5E0,5.8E2,2.89E2,2E0,3E0,4.4E2,1.4E2,1.49E2,1.4E2,1E0,1E0,2.66E2,1.74E2,4E1,1E2,2.8E1,1.21E2,4E0,1.36E2,2.46E2,2E1,1.54E2,2E1,3.3E1,7E0,8.1E1,1.9E1,1.8E1,1E1,1.2E1,1.09E2,1.01E2,3.5E1],"tree_param":{"num_deleted":"0","num_feature":"14","num_nodes":"35","size_leaf_vector":"1"}},{"base_weights":[-4.119762E-3,1.835124E-2,-3.2617283E0,-7.734706E-2,8.3221085E-2,3.461202E-2,-2.4592757E-1,-3.6098026E-2,-1.4259481E-1,3.699111E-2,1.7388463E-1,-2.866149E-3,5.4620504E-3,-1.0479696E-1,-7.3134187E-3,-1.5724748E-1,-1.3913409E-2,-6.773175E-3,1.1032335E-1,1.3175534E-1,2.5045815E-1,-7.6003815E-3,-1.2534008E-3,-1.140037E-3,8.892664E-3,-8.979282E-3,-2.0629952E-3,-3.0450146E-3,6.5262797E-3,-2.2671155E-3,8.251439E-3,4.2579616E-3,1.25764115E-2,5.465149E-3,1.4975606E-2,9.371304E-3,1.8996386E-2],"categories":[],"categories_nodes":[],"categories_segments":[],"categories_sizes":[],"default_left":[0,0,0,0,0,0,0,0,0,0,0,0,0,0,0,0,0,0,0,0,0,0,0,0,0,0,0,0,0,0,0,0,0,0,0,0,0],"id":20,"left_children":[1,3,5,7,9,11,-1,13,15,17,19,-1,-1,21,23,25,27,29,31,33,35,-1,-1,-1,-1,-1,-1,-1,-1,-1,-1,-1,-1,-1,-1,-1,-1],"loss_changes":[6.411137E1,5.4073396E0,3.293896E1,9.422276E-1,2.168891E0,2.6845068E-2,0E0,4.28345E-1,2.5424385E-1,1.1079671E0,5.315485E-1,0E0,0E0,2.3708916E-1,4.456865E-1,3.0868602E-1,1.0975012E-1,1.4453796E0,4.369552E-1,4.004141E-1,4.2659616E-1,0E0,0E0,0E0,0E0,0E0,0E0,0E0,0E0,0E0,0E0,0E0,0E0,0E0,0E0,0E0,0E0],"parents":[2147483647,0,0,1,1,2,2,3,3,4,4,5,5,7,7,8,8,9,9,10,10,13,13,14,14,15,15,16,16,17,17,18,18,19,19,20,20],"right_children":[2,4,6,8,10,12,-1,14,16,18,20,-1,-1,22,24,26,28,30,32,34,36,-1,-1,-1,-1,-1,-1,-1,-1,-1,-1,-1,-1,-1,-1,-1,-1],"split_conditions":[6E0,4.1E3,4.32E3,1E0,2E0,3.63E3,-2.4592757E-1,3.15E3,1E0,1E0,1E0,-2.866149E-3,5.4620504E-3,1E0,1E0,1E0,3.54E3,3E0,4E0,3E0,7E3,-7.6003815E-3,-1.2534008E-3,-1.140037E-3,8.892664E-3,-8.979282E-3,-2.0629952E-3,-3.0450146E-3,6.5262797E-3,-2.2671155E-3,8.251439E-3,4.2579616E-3,1.25764115E-2,5.465149E-3,1.4975606E-2,9.371304E-3,1.8996386E-2],"split_indices":[1,0,0,13,2,0,0,0,10,6,10,0,0,6,7,8,0,3,1,2,0,0,0,0,0,0,0,0,0,0,0,0,0,0,0,0,0],"split_type":[0,0,0,0,0,0,0,0,0,0,0,0,0,0,0,0,0,0,0,0,0,0,0,0,0,0,0,0,0,0,0,0,0,0,0,0,0],"sum_hessian":[8.74E2,8.69E2,5E0,3.51E2,5.18E2,2E0,3E0,2.16E2,1.35E2,3.44E2,1.74E2,1E0,1E0,6.3E1,1.53E2,1.21E2,1.4E1,2.16E2,1.28E2,1.14E2,6E1,3.9E1,2.4E1,1.42E2,1.1E1,1.01E2,2E1,1.1E1,3E0,1.77E2,3.9E1,1.1E2,1.8E1,1.02E2,1.2E1,4.2E1,1.8E1],"tree_param":{"num_deleted":"0","num_feature":"14","num_nodes":"37","size_leaf_vector":"1"}},{"base_weights":[-4.120132E-3,1.7505825E-2,-3.139197E0,-3.5495047E-2,1.23629965E-1,3.374672E-2,-2.3670529E-1,-5.5572353E-2,1.02812625E-1,6.504328E-2,1.8507941E-1,-2.7945042E-3,5.3255083E-3,-1.141476E-1,-1.3911446E-2,1.0865802E-2,1.3666579E-1,-5.380443E-2,9.276082E-2,-3.6788178E-3,1.9316846E-1,-9.646404E-3,-4.2220145E-3,-2.0943151E-3,3.4177855E-3,-4.8180786E-3,3.0090427E-3,8.066776E-3,3.0884393E-3,-8.034802E-3,6.7858915E-3,1.503327E-2,3.36735E-3,8.03818E-3,1.3980824E-2],"categories":[],"categories_nodes":[],"categories_segments":[],"categories_sizes":[],"default_left":[0,0,0,0,0,0,0,0,0,0,0,0,0,0,0,0,0,0,0,0,0,0,0,0,0,0,0,0,0,0,0,0,0,0,0],"id":21,"left_children":[1,3,5,7,9,11,-1,13,15,17,19,-1,-1,21,23,25,27,29,31,-1,33,-1,-1,-1,-1,-1,-1,-1,-1,-1,-1,-1,-1,-1,-1],"loss_changes":[5.937911E1,4.8978524E0,3.0523094E1,1.619061E0,1.0319967E0,2.551971E-2,0E0,1.2380838E0,2.2885418E-1,4.9911582E-1,3.0922365E-1,0E0,0E0,4.7752428E-1,6.8868387E-1,1.1684551E-1,8.9809656E-2,6.0930103E-1,6.243564E-1,0E0,3.3883095E-1,0E0,0E0,0E0,0E0,0E0,0E0,0E0,0E0,0E0,0E0,0E0,0E0,0E0,0E0],"parents":[2147483647,0,0,1,1,2,2,3,3,4,4,5,5,7,7,8,8,9,9,10,10,13,13,14,14,15,15,16,16,17,17,18,18,20,20],"right_children":[2,4,6,8,10,12,-1,14,16,18,20,-1,-1,22,24,26,28,30,32,-1,34,-1,-1,-1,-1,-1,-1,-1,-1,-1,-1,-1,-1,-1,-1],"split_conditions":[6E0,6E3,4.32E3,1E0,1E0,3.63E3,-2.3670529E-1,2E0,3E0,3E0,1E0,-2.7945042E-3,5.3255083E-3,3.41E3,1E0,1E0,1E0,1E0,6.02E3,-3.6788178E-3,4E0,-9.646404E-3,-4.2220145E-3,-2.0943151E-3,3.4177855E-3,-4.8180786E-3,3.0090427E-3,8.066776E-3,3.0884393E-3,-8.034802E-3,6.7858915E-3,1.503327E-2,3.36735E-3,8.03818E-3,1.3980824E-2],"split_indices":[1,0,0,5,8,0,0,3,1,1,4,0,0,0,8,12,12,11,0,0,1,0,0,0,0,0,0,0,0,0,0,0,0,0,0],"split_type":[0,0,0,0,0,0,0,0,0,0,0,0,0,0,0,0,0,0,0,0,0,0,0,0,0,0,0,0,0,0,0,0,0,0,0],"sum_hessian":[8.74E2,8.69E2,5E0,5.8E2,2.89E2,2E0,3E0,5.07E2,7.3E1,1.49E2,1.4E2,1E0,1E0,2.1E2,2.97E2,2E1,5.3E1,2.8E1,1.21E2,4E0,1.36E2,5.6E1,1.54E2,2.22E2,7.5E1,6E0,1.4E1,3.9E1,1.4E1,1.8E1,1E1,1.2E1,1.09E2,1.01E2,3.5E1],"tree_param":{"num_deleted":"0","num_feature":"14","num_nodes":"35","size_leaf_vector":"1"}},{"base_weights":[-4.1449587E-3,1.666754E-2,-3.0212662E0,-7.0514165E-2,7.576444E-2,3.2903034E-2,-2.2782885E-1,-3.1937107E-2,-1.3154876E-1,3.3018168E-2,1.5960272E-1,-2.7246475E-3,5.1923753E-3,-9.529664E-2,-3.6124298E-3,-1.4532015E-1,-1.0771688E-2,-1.4417323E-1,4.973565E-2,1.201319E-1,2.313985E-1,-5.722424E-3,2.0421399E-3,-1.6213674E-3,4.3022544E-3,-8.305286E-3,-1.872081E-3,-2.7199308E-3,6.1401012E-3,-5.793851E-3,-1.8010681E-2,-2.2410478E-3,4.153121E-3,4.9440106E-3,1.3963486E-2,8.595589E-3,1.7692372E-2],"categories":[],"categories_nodes":[],"categories_segments":[],"categories_sizes":[],"default_left":[0,0,0,0,0,0,0,0,0,0,0,0,0,0,0,0,0,0,0,0,0,0,0,0,0,0,0,0,0,0,0,0,0,0,0,0,0],"id":22,"left_children":[1,3,5,7,9,11,-1,13,15,17,19,-1,-1,21,23,25,27,29,31,33,35,-1,-1,-1,-1,-1,-1,-1,-1,-1,-1,-1,-1,-1,-1,-1,-1],"loss_changes":[5.4994957E1,4.4877286E0,2.828452E1,8.2459533E-1,1.8547087E0,2.4259742E-2,0E0,3.8909227E-1,2.246387E-1,1.0291275E0,4.6812344E-1,0E0,0E0,1.7936486E-1,3.928948E-1,2.6734376E-1,9.4091415E-2,1.416533E-1,9.9952275E-1,3.613099E-1,3.834989E-1,0E0,0E0,0E0,0E0,0E0,0E0,0E0,0E0,0E0,0E0,0E0,0E0,0E0,0E0,0E0,0E0],"parents":[2147483647,0,0,1,1,2,2,3,3,4,4,5,5,7,7,8,8,9,9,10,10,13,13,14,14,15,15,16,16,17,17,18,18,19,19,20,20],"right_children":[2,4,6,8,10,12,-1,14,16,18,20,-1,-1,22,24,26,28,30,32,34,36,-1,-1,-1,-1,-1,-1,-1,-1,-1,-1,-1,-1,-1,-1,-1,-1],"split_conditions":[6E0,4.1E3,4.32E3,1E0,2E0,3.63E3,-2.2782885E-1,3E0,1E0,1E0,1E0,-2.7246475E-3,5.1923753E-3,1E0,2E0,1E0,3.54E3,1E0,3E0,3E0,7E3,-5.722424E-3,2.0421399E-3,-1.6213674E-3,4.3022544E-3,-8.305286E-3,-1.872081E-3,-2.7199308E-3,6.1401012E-3,-5.793851E-3,-1.8010681E-2,-2.2410478E-3,4.153121E-3,4.9440106E-3,1.3963486E-2,8.595589E-3,1.7692372E-2],"split_indices":[1,0,0,13,2,0,0,1,10,4,10,0,0,5,2,8,0,10,1,2,0,0,0,0,0,0,0,0,0,0,0,0,0,0,0,0,0],"split_type":[0,0,0,0,0,0,0,0,0,0,0,0,0,0,0,0,0,0,0,0,0,0,0,0,0,0,0,0,0,0,0,0,0,0,0,0,0],"sum_hessian":[8.74E2,8.69E2,5E0,3.51E2,5.18E2,2E0,3E0,2.16E2,1.35E2,3.44E2,1.74E2,1E0,1E0,6.6E1,1.5E2,1.21E2,1.4E1,2.9E1,3.15E2,1.14E2,6E1,5.8E1,8E0,1.14E2,3.6E1,1.01E2,2E1,1.1E1,3E0,2.7E1,2E0,8.2E1,2.33E2,1.02E2,1.2E1,4.2E1,1.8E1],"tree_param":{"num_deleted":"0","num_feature":"14","num_nodes":"37","size_leaf_vector":"1"}},{"base_weights":[-4.177513E-3,1.5852017E-2,-2.9077632E0,-3.249514E-2,1.1265839E-1,3.2080334E-2,-2.1928525E-1,-5.1042516E-2,9.526922E-2,5.755313E-2,1.70482E-1,-2.6565313E-3,5.0625564E-3,-7.153574E-2,5.0349057E-2,1.1099815E-2,1.2623751E-1,3.89817E-2,2.2209726E-1,-3.5146524E-3,1.7802502E-1,-8.126981E-3,-2.3914946E-3,-3.5782158E-3,3.8556678E-3,-4.358823E-3,2.8111045E-3,7.469912E-3,2.8029887E-3,-5.697498E-4,5.1491046E-3,2.5576593E-3,1.3980423E-2,7.403545E-3,1.2897493E-2],"categories":[],"categories_nodes":[],"categories_segments":[],"categories_sizes":[],"default_left":[0,0,0,0,0,0,0,0,0,0,0,0,0,0,0,0,0,0,0,0,0,0,0,0,0,0,0,0,0,0,0,0,0,0,0],"id":23,"left_children":[1,3,5,7,9,11,-1,13,15,17,19,-1,-1,21,23,25,27,29,31,-1,33,-1,-1,-1,-1,-1,-1,-1,-1,-1,-1,-1,-1,-1,-1],"loss_changes":[5.093387E1,4.075533E0,2.6210201E1,1.381655E0,9.1423965E-1,2.3061864E-2,0E0,1.0591445E0,1.9148594E-1,4.497154E-1,2.6859426E-1,0E0,0E0,9.047737E-1,2.8613013E-1,9.8024674E-2,7.939458E-2,4.396549E-1,1.3316512E-1,0E0,2.897935E-1,0E0,0E0,0E0,0E0,0E0,0E0,0E0,0E0,0E0,0E0,0E0,0E0,0E0,0E0],"parents":[2147483647,0,0,1,1,2,2,3,3,4,4,5,5,7,7,8,8,9,9,10,10,13,13,14,14,15,15,16,16,17,17,18,18,20,20],"right_children":[2,4,6,8,10,12,-1,14,16,18,20,-1,-1,22,24,26,28,30,32,-1,34,-1,-1,-1,-1,-1,-1,-1,-1,-1,-1,-1,-1,-1,-1],"split_conditions":[6E0,6E3,4.32E3,1E0,1E0,3.63E3,-2.1928525E-1,2E0,3E0,1E0,1E0,-2.6565313E-3,5.0625564E-3,1E0,3.162E3,1E0,1E0,1E0,1E0,-3.5146524E-3,4E0,-8.126981E-3,-2.3914946E-3,-3.5782158E-3,3.8556678E-3,-4.358823E-3,2.8111045E-3,7.469912E-3,2.8029887E-3,-5.697498E-4,5.1491046E-3,2.5576593E-3,1.3980423E-2,7.403545E-3,1.2897493E-2],"split_indices":[1,0,0,5,8,0,0,2,1,7,4,0,0,4,0,12,12,10,9,0,1,0,0,0,0,0,0,0,0,0,0,0,0,0,0],"split_type":[0,0,0,0,0,0,0,0,0,0,0,0,0,0,0,0,0,0,0,0,0,0,0,0,0,0,0,0,0,0,0,0,0,0,0],"sum_hessian":[8.74E2,8.69E2,5E0,5.8E2,2.89E2,2E0,3E0,5.07E2,7.3E1,1.49E2,1.4E2,1E0,1E0,4.22E2,8.5E1,2E1,5.3E1,1.35E2,1.4E1,4E0,1.36E2,8.6E1,3.36E2,1.5E1,7E1,6E0,1.4E1,3.9E1,1.4E1,7.6E1,5.9E1,4E0,1E1,1.01E2,3.5E1],"tree_param":{"num_deleted":"0","num_feature":"14","num_nodes":"35","size_leaf_vector":"1"}},{"base_weights":[-4.1747866E-3,1.5101367E-2,-2.7985213E0,-6.9580294E-2,6.622565E-2,3.127861E-2,-2.1106206E-1,-3.1950533E-2,-1.2592468E-1,2.8287914E-2,1.4584164E-1,-2.590108E-3,4.9360036E-3,-5.557783E-2,6.89954E-2,-1.5065828E-1,-5.6470472E-2,-9.292079E-3,9.34954E-2,1.16068296E-1,2.3184706E-1,-3.5249267E-3,5.306258E-3,1.2547985E-3,1.2991102E-2,-8.175277E-3,5.5498484E-4,-1.0681833E-2,-8.9580065E-4,-2.0939899E-3,7.0726695E-3,3.58598E-3,1.1133383E-2,3.1798996E-3,7.945512E-3,1.4906104E-2,2.9600316E-4],"categories":[],"categories_nodes":[],"categories_segments":[],"categories_sizes":[],"default_left":[0,0,0,0,0,0,0,0,0,0,0,0,0,0,0,0,0,0,0,0,0,0,0,0,0,0,0,0,0,0,0,0,0,0,0,0,0],"id":24,"left_children":[1,3,5,7,9,11,-1,13,15,17,19,-1,-1,21,23,25,27,29,31,33,35,-1,-1,-1,-1,-1,-1,-1,-1,-1,-1,-1,-1,-1,-1,-1,-1],"loss_changes":[4.717348E1,3.7710893E0,2.4288109E1,6.9141066E-1,1.6359789E0,2.1923179E-2,0E0,4.7608042E-1,2.1653104E-1,9.051019E-1,4.2120743E-1,0E0,0E0,3.9592987E-1,3.1181234E-1,2.0131683E-1,2.1431302E-1,1.16035E0,3.6376226E-1,2.8662038E-1,6.5706086E-1,0E0,0E0,0E0,0E0,0E0,0E0,0E0,0E0,0E0,0E0,0E0,0E0,0E0,0E0,0E0,0E0],"parents":[2147483647,0,0,1,1,2,2,3,3,4,4,5,5,7,7,8,8,9,9,10,10,13,13,14,14,15,15,16,16,17,17,18,18,19,19,20,20],"right_children":[2,4,6,8,10,12,-1,14,16,18,20,-1,-1,22,24,26,28,30,32,34,36,-1,-1,-1,-1,-1,-1,-1,-1,-1,-1,-1,-1,-1,-1,-1,-1],"split_conditions":[6E0,4.04E3,4.32E3,1E0,2E0,3.63E3,-2.1106206E-1,2E0,1E0,1E0,7.35E3,-2.590108E-3,4.9360036E-3,1E0,1E0,2E0,3E0,3E0,4E0,1E0,1E0,-3.5249267E-3,5.306258E-3,1.2547985E-3,1.2991102E-2,-8.175277E-3,5.5498484E-4,-1.0681833E-2,-8.9580065E-4,-2.0939899E-3,7.0726695E-3,3.58598E-3,1.1133383E-2,3.1798996E-3,7.945512E-3,1.4906104E-2,2.9600316E-4],"split_indices":[1,0,0,13,2,0,0,9,6,6,0,0,0,5,7,9,1,3,1,8,5,0,0,0,0,0,0,0,0,0,0,0,0,0,0,0,0],"split_type":[0,0,0,0,0,0,0,0,0,0,0,0,0,0,0,0,0,0,0,0,0,0,0,0,0,0,0,0,0,0,0,0,0,0,0,0,0],"sum_hessian":[8.74E2,8.69E2,5E0,3.27E2,5.42E2,2E0,3E0,1.97E2,1.3E2,3.68E2,1.74E2,1E0,1E0,1.6E2,3.7E1,9.5E1,3.5E1,2.34E2,1.34E2,1.31E2,4.3E1,1.47E2,1.3E1,3.1E1,6E0,8.8E1,7E0,6E0,2.9E1,1.93E2,4.1E1,1.16E2,1.8E1,6E1,7.1E1,3.3E1,1E1],"tree_param":{"num_deleted":"0","num_feature":"14","num_nodes":"37","size_leaf_vector":"1"}},{"base_weights":[-4.1555134E-3,1.4395648E-2,-2.6933813E0,-6.6111155E-2,6.29994E-2,3.0496597E-2,-2.0314722E-1,-1.2725289E-1,-3.4249477E-2,2.6927132E-2,1.3870035E-1,-2.5253536E-3,4.812598E-3,-1.413215E-1,1.4769987E-2,-6.869278E-2,3.9062787E-2,-2.1605967E-2,7.531468E-2,1.0227026E-1,2.0510627E-1,-8.198661E-3,-2.5749165E-3,-7.919629E-4,5.08372E-3,-4.5195417E-3,2.6580726E-3,-6.490526E-3,3.4685922E-3,-2.377208E-3,5.1948386E-3,1.1436866E-3,5.3518177E-3,4.1168844E-3,1.2616532E-2,7.553596E-3,1.5829973E-2],"categories":[],"categories_nodes":[],"categories_segments":[],"categories_sizes":[],"default_left":[0,0,0,0,0,0,0,0,0,0,0,0,0,0,0,0,0,0,0,0,0,0,0,0,0,0,0,0,0,0,0,0,0,0,0,0,0],"id":25,"left_children":[1,3,5,7,9,11,-1,13,15,17,19,-1,-1,21,23,25,27,29,31,33,35,-1,-1,-1,-1,-1,-1,-1,-1,-1,-1,-1,-1,-1,-1,-1,-1],"loss_changes":[4.3691E1,3.4084163E0,2.2507042E1,6.3461137E-1,1.4790382E0,2.0840682E-2,0E0,2.2587061E-1,5.5063355E-1,8.68186E-1,4.023788E-1,0E0,0E0,1.9908977E-1,3.0871311E-2,3.9611727E-1,3.6729252E-1,6.071727E-1,3.053018E-1,3.231989E-1,3.196628E-1,0E0,0E0,0E0,0E0,0E0,0E0,0E0,0E0,0E0,0E0,0E0,0E0,0E0,0E0,0E0,0E0],"parents":[2147483647,0,0,1,1,2,2,3,3,4,4,5,5,7,7,8,8,9,9,10,10,13,13,14,14,15,15,16,16,17,17,18,18,19,19,20,20],"right_children":[2,4,6,8,10,12,-1,14,16,18,20,-1,-1,22,24,26,28,30,32,34,36,-1,-1,-1,-1,-1,-1,-1,-1,-1,-1,-1,-1,-1,-1,-1,-1],"split_conditions":[6E0,4.04E3,4.32E3,3E0,2E0,3.63E3,-2.0314722E-1,1E0,1E0,1E0,1E0,-2.5253536E-3,4.812598E-3,3.68E3,1E0,1E0,1E0,3E0,5.96E3,3E0,7E3,-8.198661E-3,-2.5749165E-3,-7.919629E-4,5.08372E-3,-4.5195417E-3,2.6580726E-3,-6.490526E-3,3.4685922E-3,-2.377208E-3,5.1948386E-3,1.1436866E-3,5.3518177E-3,4.1168844E-3,1.2616532E-2,7.553596E-3,1.5829973E-2],"split_indices":[1,0,0,1,2,0,0,10,9,9,10,0,0,0,11,8,4,3,0,2,0,0,0,0,0,0,0,0,0,0,0,0,0,0,0,0,0],"split_type":[0,0,0,0,0,0,0,0,0,0,0,0,0,0,0,0,0,0,0,0,0,0,0,0,0,0,0,0,0,0,0,0,0,0,0,0,0],"sum_hessian":[8.74E2,8.69E2,5E0,3.27E2,5.42E2,2E0,3E0,1.11E2,2.16E2,3.68E2,1.74E2,1E0,1E0,1.01E2,1E1,1.47E2,6.9E1,1.84E2,1.84E2,1.14E2,6E1,8E1,2.1E1,8E0,2E0,1.25E2,2.2E1,1E1,5.9E1,1.53E2,3.1E1,7E1,1.14E2,1.02E2,1.2E1,4.2E1,1.8E1],"tree_param":{"num_deleted":"0","num_feature":"14","num_nodes":"37","size_leaf_vector":"1"}},{"base_weights":[-4.1337665E-3,1.371964E-2,-2.5921888E0,-2.765703E-2,1.005471E-1,2.9734293E-2,-1.9552921E-1,-5.2383278E-2,6.1998516E-2,4.0522438E-2,1.5122248E-1,-2.4622201E-3,4.6922923E-3,-7.690561E-2,5.0102647E-2,3.9919507E-2,1.8656129E-1,-4.4685204E-2,7.2385095E-2,8.09867E-2,1.7908719E-1,-1.5476916E-3,-7.0815654E-3,-3.5712558E-3,3.6714573E-3,1.2553855E-3,1.1281574E-2,-9.970487E-4,1.5434134E-2,-1.6996779E-5,-9.992558E-3,2.4388402E-3,9.295124E-3,1.2936752E-3,6.202116E-3,1.8009901E-3,9.7469995E-3],"categories":[],"categories_nodes":[],"categories_segments":[],"categories_sizes":[],"default_left":[0,0,0,0,0,0,0,0,0,0,0,0,0,0,0,0,0,0,0,0,0,0,0,0,0,0,0,0,0,0,0,0,0,0,0,0,0],"id":26,"left_children":[1,3,5,7,9,11,-1,13,15,17,19,-1,-1,21,23,25,27,29,31,33,35,-1,-1,-1,-1,-1,-1,-1,-1,-1,-1,-1,-1,-1,-1,-1,-1],"loss_changes":[4.0465458E1,3.12837E0,2.0856663E1,1.3111864E0,8.486104E-1,1.9811723E-2,0E0,1.1674616E0,3.4458107E-1,3.56177E-1,2.8297544E-1,0E0,0E0,1.1079895E0,2.6037824E-1,2.9691505E-1,4.8530394E-1,2.4764358E-1,2.4552765E-1,1.0357258E-1,2.3792434E-1,0E0,0E0,0E0,0E0,0E0,0E0,0E0,0E0,0E0,0E0,0E0,0E0,0E0,0E0,0E0,0E0],"parents":[2147483647,0,0,1,1,2,2,3,3,4,4,5,5,7,7,8,8,9,9,10,10,13,13,14,14,15,15,16,16,17,17,18,18,19,19,20,20],"right_children":[2,4,6,8,10,12,-1,14,16,18,20,-1,-1,22,24,26,28,30,32,34,36,-1,-1,-1,-1,-1,-1,-1,-1,-1,-1,-1,-1,-1,-1,-1,-1],"split_conditions":[6E0,1E0,4.32E3,2E0,5.7E3,3.63E3,-1.9552921E-1,1E0,1E0,2E0,1E0,-2.4622201E-3,4.6922923E-3,1E0,2.64E3,9.96E3,4E0,4.84E3,1E0,1E0,3E0,-1.5476916E-3,-7.0815654E-3,-3.5712558E-3,3.6714573E-3,1.2553855E-3,1.1281574E-2,-9.970487E-4,1.5434134E-2,-1.6996779E-5,-9.992558E-3,2.4388402E-3,9.295124E-3,1.2936752E-3,6.202116E-3,1.8009901E-3,9.7469995E-3],"split_indices":[1,8,0,2,0,0,0,10,7,3,9,0,0,13,0,0,1,0,10,10,1,0,0,0,0,0,0,0,0,0,0,0,0,0,0,0,0],"split_type":[0,0,0,0,0,0,0,0,0,0,0,0,0,0,0,0,0,0,0,0,0,0,0,0,0,0,0,0,0,0,0,0,0,0,0,0,0],"sum_hessian":[8.74E2,8.69E2,5E0,5.89E2,2.8E2,2E0,3E0,4.62E2,1.27E2,1.29E2,1.51E2,1E0,1E0,3.73E2,8.9E1,1.09E2,1.8E1,3.5E1,9.4E1,4.4E1,1.07E2,2.19E2,1.54E2,1.4E1,7.5E1,1.02E2,7E0,7E0,1.1E1,2.8E1,7E0,7.9E1,1.5E1,2E1,2.4E1,1.1E1,9.6E1],"tree_param":{"num_deleted":"0","num_feature":"14","num_nodes":"37","size_leaf_vector":"1"}},{"base_weights":[-4.1029714E-3,1.3078937E-2,-2.4947958E0,-6.1015736E-2,5.7811856E-2,2.8991064E-2,-1.8819685E-1,-1.181466E-1,-3.1247662E-2,2.48765E-2,1.2692805E-1,-2.4006607E-3,4.5749904E-3,-1.3106689E-1,1.2400367E-2,-6.360624E-2,3.7614018E-2,-9.80378E-3,8.50616E-2,9.254727E-2,1.896635E-1,-1.0493069E-2,-5.2065956E-3,-8.3948777E-4,4.7918637E-3,-4.173025E-3,2.3963037E-3,-6.101483E-3,3.312756E-3,-1.9725075E-3,6.3683814E-3,3.2349953E-3,1.0298493E-2,3.6866441E-3,1.1724803E-2,6.9526816E-3,1.4710966E-2],"categories":[],"categories_nodes":[],"categories_segments":[],"categories_sizes":[],"default_left":[0,0,0,0,0,0,0,0,0,0,0,0,0,0,0,0,0,0,0,0,0,0,0,0,0,0,0,0,0,0,0,0,0,0,0,0,0],"id":27,"left_children":[1,3,5,7,9,11,-1,13,15,17,19,-1,-1,21,23,25,27,29,31,33,35,-1,-1,-1,-1,-1,-1,-1,-1,-1,-1,-1,-1,-1,-1,-1,-1],"loss_changes":[3.7478134E1,2.8871174E0,1.9327374E1,5.541297E-1,1.2329097E0,1.883352E-2,0E0,1.9053638E-1,4.8592627E-1,7.710241E-1,3.5990334E-1,0E0,0E0,1.9462419E-1,2.8399952E-2,3.3172995E-1,3.281511E-1,9.606837E-1,3.190298E-1,2.8983796E-1,2.8187275E-1,0E0,0E0,0E0,0E0,0E0,0E0,0E0,0E0,0E0,0E0,0E0,0E0,0E0,0E0,0E0,0E0],"parents":[2147483647,0,0,1,1,2,2,3,3,4,4,5,5,7,7,8,8,9,9,10,10,13,13,14,14,15,15,16,16,17,17,18,18,19,19,20,20],"right_children":[2,4,6,8,10,12,-1,14,16,18,20,-1,-1,22,24,26,28,30,32,34,36,-1,-1,-1,-1,-1,-1,-1,-1,-1,-1,-1,-1,-1,-1,-1,-1],"split_conditions":[6E0,4.04E3,4.32E3,3E0,2E0,3.63E3,-1.8819685E-1,1E0,1E0,1E0,1E0,-2.4006607E-3,4.5749904E-3,3.04E3,1E0,1E0,1E0,3E0,4E0,3E0,7E3,-1.0493069E-2,-5.2065956E-3,-8.3948777E-4,4.7918637E-3,-4.173025E-3,2.3963037E-3,-6.101483E-3,3.312756E-3,-1.9725075E-3,6.3683814E-3,3.2349953E-3,1.0298493E-2,3.6866441E-3,1.1724803E-2,6.9526816E-3,1.4710966E-2],"split_indices":[1,0,0,1,2,0,0,10,9,6,10,0,0,0,11,8,4,3,1,2,0,0,0,0,0,0,0,0,0,0,0,0,0,0,0,0,0],"split_type":[0,0,0,0,0,0,0,0,0,0,0,0,0,0,0,0,0,0,0,0,0,0,0,0,0,0,0,0,0,0,0,0,0,0,0,0,0],"sum_hessian":[8.74E2,8.69E2,5E0,3.27E2,5.42E2,2E0,3E0,1.11E2,2.16E2,3.68E2,1.74E2,1E0,1E0,1.01E2,1E1,1.47E2,6.9E1,2.34E2,1.34E2,1.14E2,6E1,2.4E1,7.7E1,8E0,2E0,1.25E2,2.2E1,1E1,5.9E1,1.93E2,4.1E1,1.16E2,1.8E1,1.02E2,1.2E1,4.2E1,1.8E1],"tree_param":{"num_deleted":"0","num_feature":"14","num_nodes":"37","size_leaf_vector":"1"}},{"base_weights":[-4.0662307E-3,1.2469434E-2,-2.4010599E0,-2.5681388E-2,9.252821E-2,2.8266272E-2,-1.8113948E-1,-9.097891E-2,3.2077185E-3,3.6921084E-2,1.3947819E-1,-2.3406507E-3,4.460621E-3,-1.206903E-1,-1.158735E-3,-1.105767E-1,2.6959147E-2,-4.104752E-2,6.607844E-2,7.308884E-2,1.6584896E-1,-6.411215E-3,7.999385E-3,-5.4510045E-3,6.0731824E-3,-7.2287396E-3,2.960822E-4,6.000707E-4,9.995678E-3,9.773025E-5,-9.5899645E-3,2.1958144E-3,8.637965E-3,1.0926723E-3,5.6601507E-3,9.79898E-3,4.7253203E-3],"categories":[],"categories_nodes":[],"categories_segments":[],"categories_sizes":[],"default_left":[0,0,0,0,0,0,0,0,0,0,0,0,0,0,0,0,0,0,0,0,0,0,0,0,0,0,0,0,0,0,0,0,0,0,0,0,0],"id":28,"left_children":[1,3,5,7,9,11,-1,13,15,17,19,-1,-1,21,23,25,27,29,31,33,35,-1,-1,-1,-1,-1,-1,-1,-1,-1,-1,-1,-1,-1,-1,-1,-1],"loss_changes":[3.4711338E1,2.659624E0,1.7910278E1,1.1132603E0,7.28472E-1,1.790368E-2,0E0,4.8289156E-1,1.1110234E0,2.9824895E-1,2.5399065E-1,0E0,0E0,3.0810368E-1,6.216479E-1,2.8206742E-1,8.7718284E-1,2.3375016E-1,2.1701941E-1,9.001306E-2,2.1363544E-1,0E0,0E0,0E0,0E0,0E0,0E0,0E0,0E0,0E0,0E0,0E0,0E0,0E0,0E0,0E0,0E0],"parents":[2147483647,0,0,1,1,2,2,3,3,4,4,5,5,7,7,8,8,9,9,10,10,13,13,14,14,15,15,16,16,17,17,18,18,19,19,20,20],"right_children":[2,4,6,8,10,12,-1,14,16,18,20,-1,-1,22,24,26,28,30,32,34,36,-1,-1,-1,-1,-1,-1,-1,-1,-1,-1,-1,-1,-1,-1,-1,-1],"split_conditions":[6E0,1E0,4.32E3,3E0,5.7E3,3.63E3,-1.8113948E-1,1E0,1E0,2E0,1E0,-2.3406507E-3,4.460621E-3,1.05E4,3.99E3,2E0,1E0,4.84E3,1E0,1E0,1E0,-6.411215E-3,7.999385E-3,-5.4510045E-3,6.0731824E-3,-7.2287396E-3,2.960822E-4,6.000707E-4,9.995678E-3,9.773025E-5,-9.5899645E-3,2.1958144E-3,8.637965E-3,1.0926723E-3,5.6601507E-3,9.79898E-3,4.7253203E-3],"split_indices":[1,8,0,1,0,0,0,6,4,3,9,0,0,0,0,2,7,0,10,10,12,0,0,0,0,0,0,0,0,0,0,0,0,0,0,0,0],"split_type":[0,0,0,0,0,0,0,0,0,0,0,0,0,0,0,0,0,0,0,0,0,0,0,0,0,0,0,0,0,0,0,0,0,0,0,0,0],"sum_hessian":[8.74E2,8.69E2,5E0,5.89E2,2.8E2,2E0,3E0,1.8E2,4.09E2,1.29E2,1.51E2,1E0,1E0,1.35E2,4.5E1,7E1,3.39E2,3.5E1,9.4E1,4.4E1,1.07E2,1.32E2,3E0,2.4E1,2.1E1,5.4E1,1.6E1,3.13E2,2.6E1,2.8E1,7E0,7.9E1,1.5E1,2E1,2.4E1,7.4E1,3.3E1],"tree_param":{"num_deleted":"0","num_feature":"14","num_nodes":"37","size_leaf_vector":"1"}},{"base_weights":[-4.0347534E-3,1.18789105E-2,-2.3108435E0,-5.608387E-2,5.2910056E-2,2.7559599E-2,-1.7434676E-1,-2.326869E-2,-1.0525426E-1,4.2937207E-3,9.286545E-2,-2.2821426E-3,4.3491125E-3,-4.2743634E-2,5.9855912E-2,-2.580746E-1,-9.585429E-2,-2.5575912E-2,9.939876E-2,4.874584E-2,1.4298253E-1,-2.8390726E-3,5.4354635E-3,4.0927543E-3,-1.1204306E-2,-1.634161E-2,-2.8726896E-3,-7.1344147E-3,-2.9698738E-3,-3.4428088E-3,1.4414446E-3,3.1805558E-3,7.4469307E-3,3.1819243E-3,-6.227545E-3,4.8477845E-3,9.770265E-3],"categories":[],"categories_nodes":[],"categories_segments":[],"categories_sizes":[],"default_left":[0,0,0,0,0,0,0,0,0,0,0,0,0,0,0,0,0,0,0,0,0,0,0,0,0,0,0,0,0,0,0,0,0,0,0,0,0],"id":29,"left_children":[1,3,5,7,9,11,-1,13,15,17,19,-1,-1,21,23,25,27,29,31,33,35,-1,-1,-1,-1,-1,-1,-1,-1,-1,-1,-1,-1,-1,-1,-1,-1],"loss_changes":[3.214851E1,2.4290414E0,1.6597153E1,5.267904E-1,1.0543706E0,1.701977E-2,0E0,3.230902E-1,1.6344476E-1,7.013674E-1,6.5195155E-1,0E0,0E0,3.4846964E-1,2.5570923E-1,7.778168E-2,2.0495212E-1,4.4466E-1,9.512776E-2,4.2086172E-1,3.1644106E-1,0E0,0E0,0E0,0E0,0E0,0E0,0E0,0E0,0E0,0E0,0E0,0E0,0E0,0E0,0E0,0E0],"parents":[2147483647,0,0,1,1,2,2,3,3,4,4,5,5,7,7,8,8,9,9,10,10,13,13,14,14,15,15,16,16,17,17,18,18,19,19,20,20],"right_children":[2,4,6,8,10,12,-1,14,16,18,20,-1,-1,22,24,26,28,30,32,34,36,-1,-1,-1,-1,-1,-1,-1,-1,-1,-1,-1,-1,-1,-1,-1,-1],"split_conditions":[6E0,4.04E3,4.32E3,1E0,1E0,3.63E3,-1.7434676E-1,2E0,2.135E3,3E0,1E0,-2.2821426E-3,4.3491125E-3,1E0,3E0,1E0,3E0,1E0,4E0,3E0,2E0,-2.8390726E-3,5.4354635E-3,4.0927543E-3,-1.1204306E-2,-1.634161E-2,-2.8726896E-3,-7.1344147E-3,-2.9698738E-3,-3.4428088E-3,1.4414446E-3,3.1805558E-3,7.4469307E-3,3.1819243E-3,-6.227545E-3,4.8477845E-3,9.770265E-3],"split_indices":[1,0,0,13,9,0,0,9,0,3,8,0,0,5,9,6,1,6,3,9,2,0,0,0,0,0,0,0,0,0,0,0,0,0,0,0,0],"split_type":[0,0,0,0,0,0,0,0,0,0,0,0,0,0,0,0,0,0,0,0,0,0,0,0,0,0,0,0,0,0,0,0,0,0,0,0,0],"sum_hessian":[8.74E2,8.69E2,5E0,3.27E2,5.42E2,2E0,3E0,1.97E2,1.3E2,2.45E2,2.97E2,1E0,1E0,1.6E2,3.7E1,6E0,1.24E2,1.87E2,5.8E1,1.59E2,1.38E2,1.47E2,1.3E1,3.5E1,2E0,4E0,2E0,5.3E1,7.1E1,1.04E2,8.3E1,3.5E1,2.3E1,1.47E2,1.2E1,7.5E1,6.3E1],"tree_param":{"num_deleted":"0","num_feature":"14","num_nodes":"37","size_leaf_vector":"1"}},{"base_weights":[-4.0453854E-3,1.1269396E-2,-2.2240145E0,-2.3543622E-2,8.432424E-2,2.6870728E-2,-1.6780876E-1,-4.4834066E-2,5.365184E-2,3.378433E-2,1.269944E-1,-2.2250891E-3,4.2403936E-3,-7.393394E-2,2.4950536E-2,3.4444228E-2,1.6203003E-1,-3.786699E-2,6.0580786E-2,-4.0800474E-3,1.3318348E-1,-5.479686E-3,-8.0891483E-4,-2.831105E-3,3.340364E-3,3.2208753E-3,-2.574776E-3,-1.7451107E-3,1.3990784E-2,1.6310955E-4,-9.111345E-3,1.9884498E-3,8.042673E-3,3.7294421E-3,7.784827E-3],"categories":[],"categories_nodes":[],"categories_segments":[],"categories_sizes":[],"default_left":[0,0,0,0,0,0,0,0,0,0,0,0,0,0,0,0,0,0,0,0,0,0,0,0,0,0,0,0,0,0,0,0,0,0,0],"id":30,"left_children":[1,3,5,7,9,11,-1,13,15,17,19,-1,-1,21,23,25,27,29,31,-1,33,-1,-1,-1,-1,-1,-1,-1,-1,-1,-1,-1,-1,-1,-1],"loss_changes":[2.9773613E1,2.2146215E0,1.538036E1,9.720856E-1,6.01699E-1,1.6179461E-2,0E0,9.4206935E-1,2.6087478E-1,2.518942E-1,2.0710158E-1,0E0,0E0,6.717011E-1,4.715507E-1,2.8666574E-1,4.5048627E-1,2.1434101E-1,1.9185412E-1,0E0,1.8362021E-1,0E0,0E0,0E0,0E0,0E0,0E0,0E0,0E0,0E0,0E0,0E0,0E0,0E0,0E0],"parents":[2147483647,0,0,1,1,2,2,3,3,4,4,5,5,7,7,8,8,9,9,10,10,13,13,14,14,15,15,16,16,17,17,18,18,20,20],"right_children":[2,4,6,8,10,12,-1,14,16,18,20,-1,-1,22,24,26,28,30,32,-1,34,-1,-1,-1,-1,-1,-1,-1,-1,-1,-1,-1,-1,-1,-1],"split_conditions":[6E0,1E0,4.32E3,2E0,5.7E3,3.63E3,-1.6780876E-1,1E0,1E0,2E0,1E0,-2.2250891E-3,4.2403936E-3,1E0,3.51E3,1E0,4E0,4.84E3,1E0,-4.0800474E-3,1E0,-5.479686E-3,-8.0891483E-4,-2.831105E-3,3.340364E-3,3.2208753E-3,-2.574776E-3,-1.7451107E-3,1.3990784E-2,1.6310955E-4,-9.111345E-3,1.9884498E-3,8.042673E-3,3.7294421E-3,7.784827E-3],"split_indices":[1,8,0,2,0,0,0,6,7,3,4,0,0,9,0,11,1,0,10,0,9,0,0,0,0,0,0,0,0,0,0,0,0,0,0],"split_type":[0,0,0,0,0,0,0,0,0,0,0,0,0,0,0,0,0,0,0,0,0,0,0,0,0,0,0,0,0,0,0,0,0,0,0],"sum_hessian":[8.74E2,8.69E2,5E0,5.89E2,2.8E2,2E0,3E0,4.62E2,1.27E2,1.29E2,1.51E2,1E0,1E0,3.26E2,1.36E2,1.09E2,1.8E1,3.5E1,9.4E1,4E0,1.47E2,2.01E2,1.25E2,4.6E1,9E1,8.1E1,2.8E1,7E0,1.1E1,2.8E1,7E0,7.9E1,1.5E1,4.2E1,1.05E2],"tree_param":{"num_deleted":"0","num_feature":"14","num_nodes":"35","size_leaf_vector":"1"}},{"base_weights":[-4.014721E-3,1.0723903E-2,-2.1404462E0,-5.1635522E-2,4.8372462E-2,2.6199022E-2,-1.6151594E-1,-2.0803072E-2,-9.784308E-2,2.1032546E-2,1.1311045E-1,-2.169466E-3,4.134393E-3,-3.8717102E-2,5.564331E-2,-2.4484035E-1,-8.882849E-2,-2.3785789E-2,6.1732657E-2,-1.5853373E-2,1.2051563E-1,-2.5955492E-3,5.1763295E-3,8.554861E-4,1.119239E-2,-1.5468769E-2,-2.7834259E-3,-6.6186017E-3,-2.746855E-3,-2.3414022E-3,3.420166E-3,6.392653E-4,4.838254E-3,3.9719343E-3,7.905956E-3],"categories":[],"categories_nodes":[],"categories_segments":[],"categories_sizes":[],"default_left":[0,0,0,0,0,0,0,0,0,0,0,0,0,0,0,0,0,0,0,0,0,0,0,0,0,0,0,0,0,0,0,0,0,0,0],"id":31,"left_children":[1,3,5,7,9,11,-1,13,15,17,19,-1,-1,21,23,25,27,29,31,-1,33,-1,-1,-1,-1,-1,-1,-1,-1,-1,-1,-1,-1,-1,-1],"loss_changes":[2.7575006E1,2.045034E0,1.4252832E1,4.6526355E-1,9.5869374E-1,1.5380663E-2,0E0,2.7330804E-1,1.51842E-1,7.00103E-1,5.510843E-1,0E0,0E0,3.0753034E-1,2.4246785E-1,6.823501E-2,1.7719686E-1,3.9194E-1,3.4342635E-1,0E0,2.3303628E-1,0E0,0E0,0E0,0E0,0E0,0E0,0E0,0E0,0E0,0E0,0E0,0E0,0E0,0E0],"parents":[2147483647,0,0,1,1,2,2,3,3,4,4,5,5,7,7,8,8,9,9,10,10,13,13,14,14,15,15,16,16,17,17,18,18,20,20],"right_children":[2,4,6,8,10,12,-1,14,16,18,20,-1,-1,22,24,26,28,30,32,-1,34,-1,-1,-1,-1,-1,-1,-1,-1,-1,-1,-1,-1,-1,-1],"split_conditions":[6E0,4.04E3,4.32E3,1E0,1E0,3.63E3,-1.6151594E-1,2E0,2.135E3,1E0,1E0,-2.169466E-3,4.134393E-3,1E0,1E0,1E0,3E0,3E0,5.96E3,-1.5853373E-2,1E0,-2.5955492E-3,5.1763295E-3,8.554861E-4,1.119239E-2,-1.5468769E-2,-2.7834259E-3,-6.6186017E-3,-2.746855E-3,-2.3414022E-3,3.420166E-3,6.392653E-4,4.838254E-3,3.9719343E-3,7.905956E-3],"split_indices":[1,0,0,13,10,0,0,9,0,9,4,0,0,5,7,6,1,3,0,0,8,0,0,0,0,0,0,0,0,0,0,0,0,0,0],"split_type":[0,0,0,0,0,0,0,0,0,0,0,0,0,0,0,0,0,0,0,0,0,0,0,0,0,0,0,0,0,0,0,0,0,0,0],"sum_hessian":[8.74E2,8.69E2,5E0,3.27E2,5.42E2,2E0,3E0,1.97E2,1.3E2,3.82E2,1.6E2,1E0,1E0,1.6E2,3.7E1,6E0,1.24E2,1.82E2,2E2,2E0,1.58E2,1.47E2,1.3E1,3.1E1,6E0,4E0,2E0,5.3E1,7.1E1,1.46E2,3.6E1,8.4E1,1.16E2,7.7E1,8.1E1],"tree_param":{"num_deleted":"0","num_feature":"14","num_nodes":"35","size_leaf_vector":"1"}},{"base_weights":[-4.0081525E-3,1.0175817E-2,-2.0600157E0,-2.1778025E-2,7.7231295E-2,2.5544167E-2,-1.5545909E-1,-7.9647765E-2,3.8224661E-3,4.527778E-2,1.3286269E-1,-2.115226E-3,4.0310384E-3,-8.686839E-2,1.9189206E-1,-9.9631764E-2,2.54149E-2,2.0281762E-2,1.11689955E-1,-4.7382567E-2,1.4870678E-1,-5.2488283E-3,1.9470899E-3,1.12001775E-2,1.5861512E-3,-6.4838715E-3,1.7177359E-4,-6.3826307E-3,1.9513322E-3,1.2365861E-4,5.2285735E-3,3.3475135E-3,1.2202906E-2,-4.540035E-3,3.4860296E-3,5.6664567E-3,1.053338E-2],"categories":[],"categories_nodes":[],"categories_segments":[],"categories_sizes":[],"default_left":[0,0,0,0,0,0,0,0,0,0,0,0,0,0,0,0,0,0,0,0,0,0,0,0,0,0,0,0,0,0,0,0,0,0,0,0,0],"id":32,"left_children":[1,3,5,7,9,11,-1,13,15,17,19,-1,-1,21,23,25,27,29,31,33,35,-1,-1,-1,-1,-1,-1,-1,-1,-1,-1,-1,-1,-1,-1,-1,-1],"loss_changes":[2.5538017E1,1.8658139E0,1.320801E1,8.743858E-1,4.9349523E-1,1.4621247E-2,0E0,3.715539E-1,9.1840196E-1,2.965419E-1,2.9833984E-1,0E0,0E0,4.073279E-1,1.8610269E-2,2.2031283E-1,7.133771E-1,1.9788405E-1,2.7384365E-1,5.209028E-2,1.8217587E-1,0E0,0E0,0E0,0E0,0E0,0E0,0E0,0E0,0E0,0E0,0E0,0E0,0E0,0E0,0E0,0E0],"parents":[2147483647,0,0,1,1,2,2,3,3,4,4,5,5,7,7,8,8,9,9,10,10,13,13,14,14,15,15,16,16,17,17,18,18,19,19,20,20],"right_children":[2,4,6,8,10,12,-1,14,16,18,20,-1,-1,22,24,26,28,30,32,34,36,-1,-1,-1,-1,-1,-1,-1,-1,-1,-1,-1,-1,-1,-1,-1,-1],"split_conditions":[6E0,1E0,4.32E3,3E0,2E0,3.63E3,-1.5545909E-1,1.05E4,1E0,1E0,1E0,-2.115226E-3,4.0310384E-3,1E0,2E0,2E0,2.835E3,3E0,4E0,2E0,2E0,-5.2488283E-3,1.9470899E-3,1.12001775E-2,1.5861512E-3,-6.4838715E-3,1.7177359E-4,-6.3826307E-3,1.9513322E-3,1.2365861E-4,5.2285735E-3,3.3475135E-3,1.2202906E-2,-4.540035E-3,3.4860296E-3,5.6664567E-3,1.053338E-2],"split_indices":[1,8,0,1,2,0,0,0,4,5,4,0,0,5,3,2,0,3,1,9,9,0,0,0,0,0,0,0,0,0,0,0,0,0,0,0,0],"split_type":[0,0,0,0,0,0,0,0,0,0,0,0,0,0,0,0,0,0,0,0,0,0,0,0,0,0,0,0,0,0,0,0,0,0,0,0,0],"sum_hessian":[8.74E2,8.69E2,5E0,5.89E2,2.8E2,2E0,3E0,1.8E2,4.09E2,1.79E2,1.01E2,1E0,1E0,1.76E2,4E0,7E1,3.39E2,1.31E2,4.8E1,8E0,9.3E1,1.54E2,2.2E1,3E0,1E0,5.4E1,1.6E1,2.7E1,3.12E2,1.09E2,2.2E1,3.7E1,1.1E1,6E0,2E0,6.1E1,3.2E1],"tree_param":{"num_deleted":"0","num_feature":"14","num_nodes":"37","size_leaf_vector":"1"}},{"base_weights":[-3.9434372E-3,9.707041E-3,-1.9826056E0,-4.744043E-2,4.4209182E-2,2.4905523E-2,-1.4962938E-1,-1.8471135E-2,-9.0863936E-2,1.8777357E-2,1.044339E-1,-2.0623447E-3,3.930259E-3,-3.487328E-2,5.150825E-2,-2.2969137E-1,-8.236269E-2,-2.2629404E-2,5.638263E-2,-1.5329075E-2,1.1153209E-1,-2.3476013E-3,4.7653643E-3,3.626609E-3,-1.0897414E-2,-1.4592687E-2,-2.4761835E-3,-6.1143064E-3,-2.563809E-3,-4.51714E-3,2.1085018E-4,5.584178E-4,4.437435E-3,3.3711337E-3,7.14612E-3],"categories":[],"categories_nodes":[],"categories_segments":[],"categories_sizes":[],"default_left":[0,0,0,0,0,0,0,0,0,0,0,0,0,0,0,0,0,0,0,0,0,0,0,0,0,0,0,0,0,0,0,0,0,0,0],"id":33,"left_children":[1,3,5,7,9,11,-1,13,15,17,19,-1,-1,21,23,25,27,29,31,-1,33,-1,-1,-1,-1,-1,-1,-1,-1,-1,-1,-1,-1,-1,-1],"loss_changes":[2.365272E1,1.717485E0,1.2239832E1,4.1092867E-1,8.297111E-1,1.3899304E-2,0E0,2.2906306E-1,1.3568914E-1,5.9765E-1,5.0390565E-1,0E0,0E0,2.576342E-1,2.3107955E-1,6.394389E-2,1.4886463E-1,3.330496E-1,2.9315394E-1,0E0,2.1051669E-1,0E0,0E0,0E0,0E0,0E0,0E0,0E0,0E0,0E0,0E0,0E0,0E0,0E0,0E0],"parents":[2147483647,0,0,1,1,2,2,3,3,4,4,5,5,7,7,8,8,9,9,10,10,13,13,14,14,15,15,16,16,17,17,18,18,20,20],"right_children":[2,4,6,8,10,12,-1,14,16,18,20,-1,-1,22,24,26,28,30,32,-1,34,-1,-1,-1,-1,-1,-1,-1,-1,-1,-1,-1,-1,-1,-1],"split_conditions":[6E0,4.04E3,4.32E3,1E0,1E0,3.63E3,-1.4962938E-1,2E0,2.135E3,1E0,1E0,-2.0623447E-3,3.930259E-3,1E0,3E0,1E0,3E0,3E0,5.96E3,-1.5329075E-2,2E0,-2.3476013E-3,4.7653643E-3,3.626609E-3,-1.0897414E-2,-1.4592687E-2,-2.4761835E-3,-6.1143064E-3,-2.563809E-3,-4.51714E-3,2.1085018E-4,5.584178E-4,4.437435E-3,3.3711337E-3,7.14612E-3],"split_indices":[1,0,0,13,10,0,0,9,0,9,4,0,0,5,9,6,1,1,0,0,3,0,0,0,0,0,0,0,0,0,0,0,0,0,0],"split_type":[0,0,0,0,0,0,0,0,0,0,0,0,0,0,0,0,0,0,0,0,0,0,0,0,0,0,0,0,0,0,0,0,0,0,0],"sum_hessian":[8.74E2,8.69E2,5E0,3.27E2,5.42E2,2E0,3E0,1.97E2,1.3E2,3.82E2,1.6E2,1E0,1E0,1.6E2,3.7E1,6E0,1.24E2,1.82E2,2E2,2E0,1.58E2,1.47E2,1.3E1,3.5E1,2E0,4E0,2E0,5.3E1,7.1E1,5.1E1,1.31E2,8.4E1,1.16E2,6.7E1,9.1E1],"tree_param":{"num_deleted":"0","num_feature":"14","num_nodes":"35","size_leaf_vector":"1"}},{"base_weights":[-3.9548017E-3,9.181793E-3,-1.9081019E0,-1.6458698E-2,8.102465E-2,2.428309E-2,-1.4401828E-1,-8.6317204E-2,5.0150687E-3,6.09637E-2,1.6398625E-1,-2.0107746E-3,3.8320066E-3,-1.03643E-1,9.661821E-4,-3.0037608E-2,4.884803E-2,3.0677466E-2,1.007095E-1,2.2313751E-1,-3.3752788E-2,-6.3521625E-3,5.5076678E-5,3.8478957E-3,-1.8541681E-3,-2.261643E-3,3.9276686E-3,2.9519962E-3,-3.7864295E-3,7.623471E-4,5.874282E-3,-2.2413149E-3,5.8751362E-3,1.6606243E-2,7.828646E-3,-4.3091504E-3,2.3200035E-3],"categories":[],"categories_nodes":[],"categories_segments":[],"categories_sizes":[],"default_left":[0,0,0,0,0,0,0,0,0,0,0,0,0,0,0,0,0,0,0,0,0,0,0,0,0,0,0,0,0,0,0,0,0,0,0,0,0],"id":34,"left_children":[1,3,5,7,9,11,-1,13,15,17,19,-1,-1,21,23,25,27,29,31,33,35,-1,-1,-1,-1,-1,-1,-1,-1,-1,-1,-1,-1,-1,-1,-1,-1],"loss_changes":[2.1904778E1,1.6039484E0,1.1342669E1,9.635132E-1,3.7112474E-1,1.3212985E-2,0E0,2.2845066E-1,7.5740695E-1,2.2080797E-1,5.221783E-1,0E0,0E0,3.08972E-1,7.803157E-2,4.556716E-1,2.8252906E-1,1.4153475E-1,2.0078862E-1,1.9465792E-1,5.0225645E-2,0E0,0E0,0E0,0E0,0E0,0E0,0E0,0E0,0E0,0E0,0E0,0E0,0E0,0E0,0E0,0E0],"parents":[2147483647,0,0,1,1,2,2,3,3,4,4,5,5,7,7,8,8,9,9,10,10,13,13,14,14,15,15,16,16,17,17,18,18,19,19,20,20],"right_children":[2,4,6,8,10,12,-1,14,16,18,20,-1,-1,22,24,26,28,30,32,34,36,-1,-1,-1,-1,-1,-1,-1,-1,-1,-1,-1,-1,-1,-1,-1,-1],"split_conditions":[6E0,2E0,4.32E3,3.5E3,7.35E3,3.63E3,-1.4401828E-1,1E0,1E0,1E0,1E0,-2.0107746E-3,3.8320066E-3,1E0,1E0,3E0,3E0,1E0,1E0,7.98E3,1E0,-6.3521625E-3,5.5076678E-5,3.8478957E-3,-1.8541681E-3,-2.261643E-3,3.9276686E-3,2.9519962E-3,-3.7864295E-3,7.623471E-4,5.874282E-3,-2.2413149E-3,5.8751362E-3,1.6606243E-2,7.828646E-3,-4.3091504E-3,2.3200035E-3],"split_indices":[1,2,0,0,0,0,0,8,9,8,5,0,0,10,4,3,9,7,4,0,8,0,0,0,0,0,0,0,0,0,0,0,0,0,0,0,0],"split_type":[0,0,0,0,0,0,0,0,0,0,0,0,0,0,0,0,0,0,0,0,0,0,0,0,0,0,0,0,0,0,0,0,0,0,0,0,0],"sum_hessian":[8.74E2,8.69E2,5E0,6.41E2,2.28E2,2E0,3E0,1.5E2,4.91E2,1.85E2,4.3E1,1E0,1E0,1.25E2,2.5E1,2.73E2,2.18E2,1.06E2,7.9E1,3.3E1,1E1,1.02E2,2.3E1,8E0,1.7E1,2.4E2,3.3E1,2.02E2,1.6E1,9.1E1,1.5E1,8E0,7.1E1,1.1E1,2.2E1,6E0,4E0],"tree_param":{"num_deleted":"0","num_feature":"14","num_nodes":"37","size_leaf_vector":"1"}},{"base_weights":[-3.8859204E-3,8.75655E-3,-1.8363965E0,-1.9808158E-2,6.870111E-2,2.3675919E-2,-1.3861759E-1,-4.608872E-2,2.9772842E-2,4.5129683E-2,1.273602E-1,-1.960516E-3,3.7362098E-3,-6.388327E-2,5.1659726E-2,1.663965E-2,1.838687E-1,2.7321044E-2,1.2932172E-1,6.47021E-2,1.915725E-1,-4.0198094E-3,1.3528563E-3,1.1629077E-4,5.5935294E-3,-1.3814883E-3,1.9672492E-3,2.4013415E-3,1.5685363E-2,4.5713424E-4,3.917159E-3,4.6276622E-3,1.1262904E-2,5.7578585E-3,6.79972E-4,6.3841487E-3,1.3771677E-2],"categories":[],"categories_nodes":[],"categories_segments":[],"categories_sizes":[],"default_left":[0,0,0,0,0,0,0,0,0,0,0,0,0,0,0,0,0,0,0,0,0,0,0,0,0,0,0,0,0,0,0,0,0,0,0,0,0],"id":35,"left_children":[1,3,5,7,9,11,-1,13,15,17,19,-1,-1,21,23,25,27,29,31,33,35,-1,-1,-1,-1,-1,-1,-1,-1,-1,-1,-1,-1,-1,-1,-1,-1],"loss_changes":[2.028761E1,1.4910609E0,1.0511305E1,7.701519E-1,3.8278496E-1,1.2560663E-2,0E0,6.7470473E-1,4.1181353E-1,2.9933468E-1,3.0947852E-1,0E0,0E0,4.9322808E-1,1.7796603E-1,1.9206594E-1,2.6713377E-1,1.5510347E-1,1.0261184E-1,1.0672626E-1,1.7378771E-1,0E0,0E0,0E0,0E0,0E0,0E0,0E0,0E0,0E0,0E0,0E0,0E0,0E0,0E0,0E0,0E0],"parents":[2147483647,0,0,1,1,2,2,3,3,4,4,5,5,7,7,8,8,9,9,10,10,13,13,14,14,15,15,16,16,17,17,18,18,19,19,20,20],"right_children":[2,4,6,8,10,12,-1,14,16,18,20,-1,-1,22,24,26,28,30,32,34,36,-1,-1,-1,-1,-1,-1,-1,-1,-1,-1,-1,-1,-1,-1,-1,-1],"split_conditions":[6E0,1E0,4.32E3,1E0,6.55E3,3.63E3,-1.3861759E-1,2E0,1E0,4E0,1E0,-1.960516E-3,3.7362098E-3,1E0,5.32E3,3.635E3,1E0,2E0,1E0,7.686E3,1E0,-4.0198094E-3,1.3528563E-3,1.1629077E-4,5.5935294E-3,-1.3814883E-3,1.9672492E-3,2.4013415E-3,1.5685363E-2,4.5713424E-4,3.917159E-3,4.6276622E-3,1.1262904E-2,5.7578585E-3,6.79972E-4,6.3841487E-3,1.3771677E-2],"split_indices":[1,8,0,6,0,0,0,2,7,3,11,0,0,10,0,0,9,2,10,0,6,0,0,0,0,0,0,0,0,0,0,0,0,0,0,0,0],"split_type":[0,0,0,0,0,0,0,0,0,0,0,0,0,0,0,0,0,0,0,0,0,0,0,0,0,0,0,0,0,0,0,0,0,0,0,0,0],"sum_hessian":[8.74E2,8.69E2,5E0,5.89E2,2.8E2,2E0,3E0,3.85E2,2.04E2,2.01E2,7.9E1,1E0,1E0,3.26E2,5.9E1,1.89E2,1.5E1,1.67E2,3.4E1,4.1E1,3.8E1,2.76E2,5E1,3.3E1,2.6E1,6.4E1,1.25E2,8E0,7E0,1.24E2,4.3E1,2.6E1,8E0,2E1,2.1E1,2.3E1,1.5E1],"tree_param":{"num_deleted":"0","num_feature":"14","num_nodes":"37","size_leaf_vector":"1"}},{"base_weights":[-3.7696115E-3,8.397577E-3,-1.7673837E0,-1.8780999E-2,6.543303E-2,2.3084005E-2,-1.3341942E-1,-4.3776494E-2,2.8375305E-2,4.2973865E-2,1.2132452E-1,-1.9114971E-3,3.6427975E-3,-1.2450301E-2,-9.518633E-2,1.5810762E-2,1.758058E-1,2.5981376E-2,1.2330998E-1,6.1620075E-2,1.8251072E-1,-4.2581414E-3,5.530284E-4,-5.097523E-3,1.3061016E-2,5.949343E-4,1.2784863E-2,2.2946147E-3,1.4999139E-2,4.3447647E-4,3.7257727E-3,4.40487E-3,1.0762331E-2,2.1220183E-3,9.753094E-3,6.0782535E-3,1.3126114E-2],"categories":[],"categories_nodes":[],"categories_segments":[],"categories_sizes":[],"default_left":[0,0,0,0,0,0,0,0,0,0,0,0,0,0,0,0,0,0,0,0,0,0,0,0,0,0,0,0,0,0,0,0,0,0,0,0,0],"id":36,"left_children":[1,3,5,7,9,11,-1,13,15,17,19,-1,-1,21,23,25,27,29,31,33,35,-1,-1,-1,-1,-1,-1,-1,-1,-1,-1,-1,-1,-1,-1,-1,-1],"loss_changes":[1.8790787E1,1.3498528E0,9.740917E0,6.966723E-1,3.475188E-1,1.1940422E-2,0E0,6.2045807E-1,3.7696177E-1,2.7254856E-1,2.8100073E-1,0E0,0E0,4.1293982E-1,3.78605E-1,1.7526382E-1,2.4434939E-1,1.4034545E-1,9.434378E-2,9.921527E-2,1.5826428E-1,0E0,0E0,0E0,0E0,0E0,0E0,0E0,0E0,0E0,0E0,0E0,0E0,0E0,0E0,0E0,0E0],"parents":[2147483647,0,0,1,1,2,2,3,3,4,4,5,5,7,7,8,8,9,9,10,10,13,13,14,14,15,15,16,16,17,17,18,18,19,19,20,20],"right_children":[2,4,6,8,10,12,-1,14,16,18,20,-1,-1,22,24,26,28,30,32,34,36,-1,-1,-1,-1,-1,-1,-1,-1,-1,-1,-1,-1,-1,-1,-1,-1],"split_conditions":[6E0,1E0,4.32E3,1E0,6.55E3,3.63E3,-1.3341942E-1,1E0,1E0,4E0,1E0,-1.9114971E-3,3.6427975E-3,3.5E3,1.56E4,9.8E3,1E0,2E0,1E0,3E0,1E0,-4.2581414E-3,5.530284E-4,-5.097523E-3,1.3061016E-2,5.949343E-4,1.2784863E-2,2.2946147E-3,1.4999139E-2,4.3447647E-4,3.7257727E-3,4.40487E-3,1.0762331E-2,2.1220183E-3,9.753094E-3,6.0782535E-3,1.3126114E-2],"split_indices":[1,8,0,6,0,0,0,13,7,3,11,0,0,0,0,0,9,2,10,2,6,0,0,0,0,0,0,0,0,0,0,0,0,0,0,0,0],"split_type":[0,0,0,0,0,0,0,0,0,0,0,0,0,0,0,0,0,0,0,0,0,0,0,0,0,0,0,0,0,0,0,0,0,0,0,0,0],"sum_hessian":[8.74E2,8.69E2,5E0,5.89E2,2.8E2,2E0,3E0,3.85E2,2.04E2,2.01E2,7.9E1,1E0,1E0,2.4E2,1.45E2,1.89E2,1.5E1,1.67E2,3.4E1,4.1E1,3.8E1,5.8E1,1.82E2,1.43E2,2E0,1.87E2,2E0,8E0,7E0,1.24E2,4.3E1,2.6E1,8E0,3.7E1,4E0,2.3E1,1.5E1],"tree_param":{"num_deleted":"0","num_feature":"14","num_nodes":"37","size_leaf_vector":"1"}},{"base_weights":[-3.634263E-3,8.075627E-3,-1.7009625E0,-1.433431E-2,7.086647E-2,2.2506714E-2,-1.284162E-1,-2.9324027E-2,7.122517E-2,5.305343E-2,1.4455646E-1,-1.863718E-3,3.5517216E-3,-7.674552E-4,-7.444518E-2,4.8119426E-2,1.837464E-1,5.8056794E-2,-1.3967972E-1,1.9936536E-1,-3.7994385E-2,-5.054137E-3,7.7465933E-4,-4.714796E-3,5.529615E-3,4.0100673E-3,4.8528222E-4,4.6904134E-3,1.590043E-2,-7.6116837E-4,3.545997E-3,-2.6385626E-3,-9.001414E-3,1.5165324E-2,6.823357E-3,3.5664558E-3,-3.5106975E-3],"categories":[],"categories_nodes":[],"categories_segments":[],"categories_sizes":[],"default_left":[0,0,0,0,0,0,0,0,0,0,0,0,0,0,0,0,0,0,0,0,0,0,0,0,0,0,0,0,0,0,0,0,0,0,0,0,0],"id":37,"left_children":[1,3,5,7,9,11,-1,13,15,17,19,-1,-1,21,23,25,27,29,31,33,35,-1,-1,-1,-1,-1,-1,-1,-1,-1,-1,-1,-1,-1,-1,-1,-1],"loss_changes":[1.7404823E1,1.2252268E0,9.027027E0,8.2546157E-1,2.9292583E-1,1.135088E-2,0E0,7.047553E-1,2.407473E-1,1.874718E-1,4.4781286E-1,0E0,0E0,5.496462E-1,7.8913224E-1,9.904501E-2,1.6337287E-1,1.7263532E-1,8.0328435E-3,1.8089092E-1,4.3754213E-2,0E0,0E0,0E0,0E0,0E0,0E0,0E0,0E0,0E0,0E0,0E0,0E0,0E0,0E0,0E0,0E0],"parents":[2147483647,0,0,1,1,2,2,3,3,4,4,5,5,7,7,8,8,9,9,10,10,13,13,14,14,15,15,16,16,17,17,18,18,19,19,20,20],"right_children":[2,4,6,8,10,12,-1,14,16,18,20,-1,-1,22,24,26,28,30,32,34,36,-1,-1,-1,-1,-1,-1,-1,-1,-1,-1,-1,-1,-1,-1,-1,-1],"split_conditions":[6E0,2E0,4.32E3,1E0,7.35E3,3.63E3,-1.284162E-1,1E0,4E0,3E0,1E0,-1.863718E-3,3.5517216E-3,1E0,3E0,2E0,6.24E3,1E0,7.26E3,7.98E3,7.686E3,-5.054137E-3,7.7465933E-4,-4.714796E-3,5.529615E-3,4.0100673E-3,4.8528222E-4,4.6904134E-3,1.590043E-2,-7.6116837E-4,3.545997E-3,-2.6385626E-3,-9.001414E-3,1.5165324E-2,6.823357E-3,3.5664558E-3,-3.5106975E-3],"split_indices":[1,2,0,5,0,0,0,13,1,9,5,0,0,4,3,3,0,4,0,0,0,0,0,0,0,0,0,0,0,0,0,0,0,0,0,0,0],"split_type":[0,0,0,0,0,0,0,0,0,0,0,0,0,0,0,0,0,0,0,0,0,0,0,0,0,0,0,0,0,0,0,0,0,0,0,0,0],"sum_hessian":[8.74E2,8.69E2,5E0,6.41E2,2.28E2,2E0,3E0,5.46E2,9.5E1,1.85E2,4.3E1,1E0,1E0,3.35E2,2.11E2,8E1,1.5E1,1.81E2,4E0,3.3E1,1E1,4.6E1,2.89E2,1.91E2,2E1,4.3E1,3.7E1,1E1,5E0,2.7E1,1.54E2,2E0,2E0,1.1E1,2.2E1,2E0,8E0],"tree_param":{"num_deleted":"0","num_feature":"14","num_nodes":"37","size_leaf_vector":"1"}},{"base_weights":[-3.5574276E-3,7.71203E-3,-1.6370358E0,-1.7478589E-2,6.057592E-2,2.1944046E-2,-1.23600595E-1,-3.394278E-2,4.728902E-2,4.00355E-2,1.1168327E-1,-1.8171311E-3,3.4629346E-3,-4.4422578E-2,9.0183E-2,5.330926E-2,-1.0263506E-2,2.4344774E-2,1.1420713E-1,5.6468237E-2,1.6828194E-1,-3.6121614E-3,-4.4178986E-4,1.01413E-3,1.1705931E-2,-2.3087105E-3,3.5255589E-3,4.357895E-4,3.4096004E-3,4.034187E-3,1.0104381E-2,5.1758974E-3,4.495209E-4,5.5954E-3,1.2116263E-2],"categories":[],"categories_nodes":[],"categories_segments":[],"categories_sizes":[],"default_left":[0,0,0,0,0,0,0,0,0,0,0,0,0,0,0,0,0,0,0,0,0,0,0,0,0,0,0,0,0,0,0,0,0,0,0],"id":38,"left_children":[1,3,5,7,9,11,-1,13,15,17,19,-1,-1,21,23,25,-1,27,29,31,33,-1,-1,-1,-1,-1,-1,-1,-1,-1,-1,-1,-1,-1,-1],"loss_changes":[1.6119987E1,1.1596152E0,8.365496E0,6.3074946E-1,2.9051316E-1,1.0790481E-2,0E0,6.16689E-1,1.9339883E-1,2.3230863E-1,2.405051E-1,0E0,0E0,4.3003225E-1,3.675143E-1,2.0518991E-1,0E0,1.1453399E-1,8.6806595E-2,9.288964E-2,1.3567233E-1,0E0,0E0,0E0,0E0,0E0,0E0,0E0,0E0,0E0,0E0,0E0,0E0,0E0,0E0],"parents":[2147483647,0,0,1,1,2,2,3,3,4,4,5,5,7,7,8,8,9,9,10,10,13,13,14,14,15,15,17,17,18,18,19,19,20,20],"right_children":[2,4,6,8,10,12,-1,14,16,18,20,-1,-1,22,24,26,-1,28,30,32,34,-1,-1,-1,-1,-1,-1,-1,-1,-1,-1,-1,-1,-1,-1],"split_conditions":[6E0,1E0,4.32E3,1E0,6.55E3,3.63E3,-1.23600595E-1,1E0,3E0,4E0,1E0,-1.8171311E-3,3.4629346E-3,1E0,4E0,2.64E3,-1.0263506E-2,2E0,1E0,7.686E3,1E0,-3.6121614E-3,-4.4178986E-4,1.01413E-3,1.1705931E-2,-2.3087105E-3,3.5255589E-3,4.357895E-4,3.4096004E-3,4.034187E-3,1.0104381E-2,5.1758974E-3,4.495209E-4,5.5954E-3,1.2116263E-2],"split_indices":[1,8,0,10,0,0,0,7,9,3,11,0,0,12,1,0,0,2,10,0,6,0,0,0,0,0,0,0,0,0,0,0,0,0,0],"split_type":[0,0,0,0,0,0,0,0,0,0,0,0,0,0,0,0,0,0,0,0,0,0,0,0,0,0,0,0,0,0,0,0,0,0,0],"sum_hessian":[8.74E2,8.69E2,5E0,5.89E2,2.8E2,2E0,3E0,4.7E2,1.19E2,2.01E2,7.9E1,1E0,1E0,4.34E2,3.6E1,1.17E2,2E0,1.67E2,3.4E1,4.1E1,3.8E1,2.43E2,1.91E2,2.5E1,1.1E1,1.7E1,1E2,1.24E2,4.3E1,2.6E1,8E0,2E1,2.1E1,2.3E1,1.5E1],"tree_param":{"num_deleted":"0","num_feature":"14","num_nodes":"35","size_leaf_vector":"1"}},{"base_weights":[-3.4720814E-3,7.37355E-3,-1.5755099E0,-5.389001E-2,2.7814718E-2,2.1395365E-2,-1.1896558E-1,-6.2404156E-2,8.517185E-2,-7.1659625E-2,4.4255536E-2,-1.7717123E-3,3.3763647E-3,-7.4891865E-2,4.0210765E-2,1.5673521E-1,-3.0338287E-3,-1.07216865E-1,-3.7610892E-3,-1.1087211E-1,5.2920148E-2,-4.344599E-3,1.6946417E-3,3.0748986E-4,5.8592935E-3,1.2571375E-2,-1.224351E-3,-6.4347372E-3,-4.395485E-4,-1.3487441E-3,5.25984E-3,-1.2217422E-2,-1.5958261E-3,1.027712E-3,3.9426456E-3],"categories":[],"categories_nodes":[],"categories_segments":[],"categories_sizes":[],"default_left":[0,0,0,0,0,0,0,0,0,0,0,0,0,0,0,0,0,0,0,0,0,0,0,0,0,0,0,0,0,0,0,0,0,0,0],"id":39,"left_children":[1,3,5,7,9,11,-1,13,15,17,19,-1,-1,21,23,25,-1,27,29,31,33,-1,-1,-1,-1,-1,-1,-1,-1,-1,-1,-1,-1,-1,-1],"loss_changes":[1.4930142E1,1.0909988E0,7.752475E0,2.6342553E-1,1.0711133E0,1.0257758E-2,0E0,2.6698518E-1,1.4519641E-1,2.2412524E-1,7.5991905E-1,0E0,0E0,2.431438E-1,5.9581798E-2,1.6059986E-1,0E0,1.2782139E-1,8.6305425E-2,3.0836233E-1,4.4490683E-1,0E0,0E0,0E0,0E0,0E0,0E0,0E0,0E0,0E0,0E0,0E0,0E0,0E0,0E0],"parents":[2147483647,0,0,1,1,2,2,3,3,4,4,5,5,7,7,8,8,9,9,10,10,13,13,14,14,15,15,17,17,18,18,19,19,20,20],"right_children":[2,4,6,8,10,12,-1,14,16,18,20,-1,-1,22,24,26,-1,28,30,32,34,-1,-1,-1,-1,-1,-1,-1,-1,-1,-1,-1,-1,-1,-1],"split_conditions":[6E0,3E0,4.32E3,8.5E3,1E0,3.63E3,-1.1896558E-1,1E0,2E0,1E0,2.835E3,-1.7717123E-3,3.3763647E-3,1E0,1E0,1E0,-3.0338287E-3,2E0,1E0,1E0,1E0,-4.344599E-3,1.6946417E-3,3.0748986E-4,5.8592935E-3,1.2571375E-2,-1.224351E-3,-6.4347372E-3,-4.395485E-4,-1.3487441E-3,5.25984E-3,-1.2217422E-2,-1.5958261E-3,1.027712E-3,3.9426456E-3],"split_indices":[1,1,0,0,4,0,0,10,9,6,0,0,0,5,11,10,0,2,5,10,9,0,0,0,0,0,0,0,0,0,0,0,0,0,0],"split_type":[0,0,0,0,0,0,0,0,0,0,0,0,0,0,0,0,0,0,0,0,0,0,0,0,0,0,0,0,0,0,0,0,0,0,0],"sum_hessian":[8.74E2,8.69E2,5E0,2.17E2,6.52E2,2E0,3E0,2.05E2,1.2E1,9.2E1,5.6E2,1E0,1E0,1.83E2,2.2E1,8E0,4E0,6E1,3.2E1,2.9E1,5.31E2,1.65E2,1.8E1,1.6E1,6E0,5E0,3E0,4.9E1,1.1E1,2.7E1,5E0,1E1,1.9E1,2.37E2,2.94E2],"tree_param":{"num_deleted":"0","num_feature":"14","num_nodes":"35","size_leaf_vector":"1"}},{"base_weights":[-3.4325747E-3,7.0049013E-3,-1.5162945E0,-1.6356096E-2,5.6029752E-2,2.0860672E-2,-1.1450436E-1,-3.8450826E-2,2.532645E-2,9.880919E-3,7.565727E-2,-1.7274142E-3,3.2919645E-3,-5.339737E-2,4.3648686E-2,1.3999548E-2,1.5825051E-1,1.881558E-2,-1.2030252E-2,-1.8040875E-1,8.464578E-2,-5.745455E-3,-1.6338198E-3,3.6227004E-5,4.804235E-3,5.1429676E-4,1.21026365E-2,2.016555E-3,1.3556427E-2,-3.087178E-4,7.6925866E-3,-1.4415296E-2,-3.9794347E-3,-8.9454654E-5,4.7666775E-3],"categories":[],"categories_nodes":[],"categories_segments":[],"categories_sizes":[],"default_left":[0,0,0,0,0,0,0,0,0,0,0,0,0,0,0,0,0,0,0,0,0,0,0,0,0,0,0,0,0,0,0,0,0,0,0],"id":40,"left_children":[1,3,5,7,9,11,-1,13,15,17,19,-1,-1,21,23,25,27,29,-1,31,33,-1,-1,-1,-1,-1,-1,-1,-1,-1,-1,-1,-1,-1,-1],"loss_changes":[1.3827273E1,9.973007E-1,7.184409E0,5.4434294E-1,2.5377858E-1,9.751289E-3,0E0,4.7599286E-1,3.0643624E-1,1.9475776E-1,4.6869624E-1,0E0,0E0,4.1303378E-1,1.3497666E-1,1.5842146E-1,2.0203325E-1,2.8103715E-1,0E0,5.320148E-2,1.766156E-1,0E0,0E0,0E0,0E0,0E0,0E0,0E0,0E0,0E0,0E0,0E0,0E0,0E0,0E0],"parents":[2147483647,0,0,1,1,2,2,3,3,4,4,5,5,7,7,8,8,9,9,10,10,13,13,14,14,15,15,16,16,17,17,19,19,20,20],"right_children":[2,4,6,8,10,12,-1,14,16,18,20,-1,-1,22,24,26,28,30,-1,32,34,-1,-1,-1,-1,-1,-1,-1,-1,-1,-1,-1,-1,-1,-1],"split_conditions":[6E0,1E0,4.32E3,1E0,4.8E3,3.63E3,-1.1450436E-1,2E0,1E0,4.75E3,1E0,-1.7274142E-3,3.2919645E-3,3.5E3,5.32E3,9.8E3,1E0,1E0,-1.2030252E-2,5.32E3,3E0,-5.745455E-3,-1.6338198E-3,3.6227004E-5,4.804235E-3,5.1429676E-4,1.21026365E-2,2.016555E-3,1.3556427E-2,-3.087178E-4,7.6925866E-3,-1.4415296E-2,-3.9794347E-3,-8.9454654E-5,4.7666775E-3],"split_indices":[1,8,0,6,0,0,0,2,7,0,4,0,0,0,0,0,9,5,0,0,1,0,0,0,0,0,0,0,0,0,0,0,0,0,0],"split_type":[0,0,0,0,0,0,0,0,0,0,0,0,0,0,0,0,0,0,0,0,0,0,0,0,0,0,0,0,0,0,0,0,0,0,0],"sum_hessian":[8.74E2,8.69E2,5E0,5.89E2,2.8E2,2E0,3E0,3.85E2,2.04E2,8.4E1,1.96E2,1E0,1E0,3.26E2,5.9E1,1.89E2,1.5E1,8.2E1,2E0,6E0,1.9E2,8.1E1,2.45E2,3.3E1,2.6E1,1.87E2,2E0,8E0,7E0,7E1,1.2E1,2E0,4E0,2.1E1,1.69E2],"tree_param":{"num_deleted":"0","num_feature":"14","num_nodes":"35","size_leaf_vector":"1"}},{"base_weights":[-3.381588E-3,6.663137E-3,-1.4593031E0,-1.1898617E-2,6.5796696E-2,2.0339012E-2,-1.1021044E-1,-2.3842819E-2,7.302119E-2,-1.9375725E-1,7.183578E-2,-1.6842366E-3,3.2096624E-3,-3.5911847E-2,5.345633E-2,6.528995E-2,1.274236E-2,-2.2116662E-3,-1.39347715E-2,-4.683256E-2,8.427649E-2,-2.165351E-3,5.375597E-3,8.7076763E-4,6.1111785E-3,3.6520546E-3,-1.2988908E-3,-1.1774881E-3,-4.33539E-3,2.2638137E-3,5.6457776E-3],"categories":[],"categories_nodes":[],"categories_segments":[],"categories_sizes":[],"default_left":[0,0,0,0,0,0,0,0,0,0,0,0,0,0,0,0,0,0,0,0,0,0,0,0,0,0,0,0,0,0,0],"id":41,"left_children":[1,3,5,7,9,11,-1,13,15,17,19,-1,-1,21,23,25,-1,-1,-1,27,29,-1,-1,-1,-1,-1,-1,-1,-1,-1,-1],"loss_changes":[1.2806013E1,9.557146E-1,6.657997E0,6.7422146E-1,3.399521E-1,9.269842E-3,0E0,5.448825E-1,9.86318E-2,5.1173806E-2,3.051157E-1,0E0,0E0,5.392204E-1,1.9366808E-1,5.8491826E-2,0E0,0E0,0E0,1.6526192E-2,2.0151961E-1,0E0,0E0,0E0,0E0,0E0,0E0,0E0,0E0,0E0,0E0],"parents":[2147483647,0,0,1,1,2,2,3,3,4,4,5,5,7,7,8,8,9,9,10,10,13,13,14,14,15,15,19,19,20,20],"right_children":[2,4,6,8,10,12,-1,14,16,18,20,-1,-1,22,24,26,-1,-1,-1,28,30,-1,-1,-1,-1,-1,-1,-1,-1,-1,-1],"split_conditions":[6E0,1E0,4.32E3,3E0,1E0,3.63E3,-1.1021044E-1,1E0,3E0,2.88E3,2.64E3,-1.6842366E-3,3.2096624E-3,8.875E3,1E0,1E0,1.274236E-2,-2.2116662E-3,-1.39347715E-2,2.275E3,2E0,-2.165351E-3,5.375597E-3,8.7076763E-4,6.1111785E-3,3.6520546E-3,-1.2988908E-3,-1.1774881E-3,-4.33539E-3,2.2638137E-3,5.6457776E-3],"split_indices":[1,10,0,3,4,0,0,5,2,0,0,0,0,0,8,6,0,0,0,0,3,0,0,0,0,0,0,0,0,0,0],"split_type":[0,0,0,0,0,0,0,0,0,0,0,0,0,0,0,0,0,0,0,0,0,0,0,0,0,0,0,0,0,0,0],"sum_hessian":[8.74E2,8.69E2,5E0,6.62E2,2.07E2,2E0,3E0,5.81E2,8.1E1,4E0,2.03E2,1E0,1E0,5.03E2,7.8E1,7.9E1,2E0,2E0,2E0,1.9E1,1.84E2,4.79E2,2.4E1,5.2E1,2.6E1,7.3E1,6E0,1.3E1,6E0,7.9E1,1.05E2],"tree_param":{"num_deleted":"0","num_feature":"14","num_nodes":"31","size_leaf_vector":"1"}},{"base_weights":[-3.323268E-3,6.3435105E-3,-1.4044522E0,-4.8642132E-2,2.4690412E-2,1.9830385E-2,-1.0607755E-1,-1.3399747E-1,-3.5874635E-2,-6.4561084E-2,3.9442103E-2,-1.6421318E-3,3.1294108E-3,-1.6616552E-1,1.1646271E-2,-4.0908817E-2,1.5957871E-1,-9.6346E-2,-3.8507634E-3,-1.01825394E-1,4.7334176E-2,-9.64092E-3,4.3201447E-4,1.0264079E-3,1.036644E-4,-8.322522E-4,-3.5887647E-3,9.373891E-3,1.1995555E-3,-5.801834E-3,-3.136317E-4,-1.2059995E-3,4.569038E-3,-1.1440385E-2,-1.3446928E-3,2.095128E-3,9.589125E-3],"categories":[],"categories_nodes":[],"categories_segments":[],"categories_sizes":[],"default_left":[0,0,0,0,0,0,0,0,0,0,0,0,0,0,0,0,0,0,0,0,0,0,0,0,0,0,0,0,0,0,0,0,0,0,0,0,0],"id":42,"left_children":[1,3,5,7,9,11,-1,13,15,17,19,-1,-1,21,23,25,27,29,31,33,35,-1,-1,-1,-1,-1,-1,-1,-1,-1,-1,-1,-1,-1,-1,-1,-1],"loss_changes":[1.1860261E1,8.78871E-1,6.170182E0,2.3276359E-1,8.622931E-1,8.812115E-3,0E0,1.3311732E-1,1.944622E-1,1.790885E-1,6.30275E-1,0E0,0E0,1.0882485E-1,4.6759617E-4,1.3885656E-1,1.4416069E-2,1.0746211E-1,6.5902986E-2,2.792959E-1,4.093647E-1,0E0,0E0,0E0,0E0,0E0,0E0,0E0,0E0,0E0,0E0,0E0,0E0,0E0,0E0,0E0,0E0],"parents":[2147483647,0,0,1,1,2,2,3,3,4,4,5,5,7,7,8,8,9,9,10,10,13,13,14,14,15,15,16,16,17,17,18,18,19,19,20,20],"right_children":[2,4,6,8,10,12,-1,14,16,18,20,-1,-1,22,24,26,28,30,32,34,36,-1,-1,-1,-1,-1,-1,-1,-1,-1,-1,-1,-1,-1,-1,-1,-1],"split_conditions":[6E0,3E0,4.32E3,3.04E3,1E0,3.63E3,-1.0607755E-1,1E0,1.05E4,1E0,2.835E3,-1.6421318E-3,3.1294108E-3,1E0,2.52E3,1E0,2E0,2E0,1E0,1E0,3E0,-9.64092E-3,4.3201447E-4,1.0264079E-3,1.036644E-4,-8.322522E-4,-3.5887647E-3,9.373891E-3,1.1995555E-3,-5.801834E-3,-3.136317E-4,-1.2059995E-3,4.569038E-3,-1.1440385E-2,-1.3446928E-3,2.095128E-3,9.589125E-3],"split_indices":[1,1,0,0,4,0,0,8,0,6,0,0,0,5,0,13,3,2,5,10,2,0,0,0,0,0,0,0,0,0,0,0,0,0,0,0,0],"split_type":[0,0,0,0,0,0,0,0,0,0,0,0,0,0,0,0,0,0,0,0,0,0,0,0,0,0,0,0,0,0,0,0,0,0,0,0,0],"sum_hessian":[8.74E2,8.69E2,5E0,2.17E2,6.52E2,2E0,3E0,2.7E1,1.9E2,9.2E1,5.6E2,1E0,1E0,2.2E1,5E0,1.86E2,4E0,6E1,3.2E1,2.9E1,5.31E2,1.9E1,3E0,2E0,3E0,1.05E2,8.1E1,3E0,1E0,4.9E1,1.1E1,2.7E1,5E0,1E1,1.9E1,5.13E2,1.8E1],"tree_param":{"num_deleted":"0","num_feature":"14","num_nodes":"37","size_leaf_vector":"1"}},{"base_weights":[-3.2832434E-3,6.0196887E-3,-1.3516612E0,-1.12667885E-2,6.1091397E-2,1.9334793E-2,-1.0209965E-1,-2.2355767E-2,6.757531E-2,-1.8449517E-1,6.6811204E-2,-1.6010761E-3,3.0511857E-3,-3.352275E-2,4.9169745E-2,6.0266208E-2,1.1997986E-2,-2.097734E-3,-1.3276863E-2,-4.36666E-2,7.839361E-2,-2.0241735E-3,5.0731986E-3,7.563951E-4,5.708576E-3,3.3792674E-3,-1.2858527E-3,-1.0730642E-3,-4.0919576E-3,2.0795693E-3,5.271466E-3],"categories":[],"categories_nodes":[],"categories_segments":[],"categories_sizes":[],"default_left":[0,0,0,0,0,0,0,0,0,0,0,0,0,0,0,0,0,0,0,0,0,0,0,0,0,0,0,0,0,0,0],"id":43,"left_children":[1,3,5,7,9,11,-1,13,15,17,19,-1,-1,21,23,25,-1,-1,-1,27,29,-1,-1,-1,-1,-1,-1,-1,-1,-1,-1],"loss_changes":[1.0984022E1,8.2892466E-1,5.718133E0,5.8115727E-1,3.045057E-1,8.377041E-3,0E0,4.6650583E-1,8.885655E-2,4.6618357E-2,2.6446122E-1,0E0,0E0,4.776684E-1,1.7308249E-1,5.208403E-2,0E0,0E0,0E0,1.5196297E-2,1.7968535E-1,0E0,0E0,0E0,0E0,0E0,0E0,0E0,0E0,0E0,0E0],"parents":[2147483647,0,0,1,1,2,2,3,3,4,4,5,5,7,7,8,8,9,9,10,10,13,13,14,14,15,15,19,19,20,20],"right_children":[2,4,6,8,10,12,-1,14,16,18,20,-1,-1,22,24,26,-1,-1,-1,28,30,-1,-1,-1,-1,-1,-1,-1,-1,-1,-1],"split_conditions":[6E0,1E0,4.32E3,3E0,1E0,3.63E3,-1.0209965E-1,1E0,3E0,2.88E3,2.64E3,-1.6010761E-3,3.0511857E-3,1E0,1E0,1E0,1.1997986E-2,-2.097734E-3,-1.3276863E-2,2.275E3,2E0,-2.0241735E-3,5.0731986E-3,7.563951E-4,5.708576E-3,3.3792674E-3,-1.2858527E-3,-1.0730642E-3,-4.0919576E-3,2.0795693E-3,5.271466E-3],"split_indices":[1,10,0,3,4,0,0,5,2,0,0,0,0,7,8,6,0,0,0,0,3,0,0,0,0,0,0,0,0,0,0],"split_type":[0,0,0,0,0,0,0,0,0,0,0,0,0,0,0,0,0,0,0,0,0,0,0,0,0,0,0,0,0,0,0],"sum_hessian":[8.74E2,8.69E2,5E0,6.62E2,2.07E2,2E0,3E0,5.81E2,8.1E1,4E0,2.03E2,1E0,1E0,5.03E2,7.8E1,7.9E1,2E0,2E0,2E0,1.9E1,1.84E2,4.79E2,2.4E1,5.2E1,2.6E1,7.3E1,6E0,1.3E1,6E0,7.9E1,